w,[0.41423136 0.05298596 0.00906556 0.17496838 0.7742059  0.5801428 0.84381175]
hidden1.weight,[[ 0.03387887  0.0264171  -0.01811688 ... -0.00672907  0.06846979   0.00621844] [-0.08017933  0.06397773  0.00930861 ... -0.00730326  0.02006612   0.02322644] [ 0.02273586  0.1188273   0.03183004 ... -0.03117252  0.02676486   0.06019103] ... [-0.00730821 -0.02065457  0.06446873 ...  0.00073704  0.03234448   0.0309272 ] [ 0.01007164  0.03766089  0.00309147 ...  0.06573158 -0.08064828  -0.04630603] [-0.03635688  0.06307738  0.01875422 ...  0.02199554  0.01489349  -0.01133183]]
hidden1.bias,[ 0.02362074  0.01308039  0.05221722 -0.01696763 -0.01181483 -0.03124086  0.04343165  0.01004026  0.02554516  0.03903298  0.0037758   0.0342684 -0.03812477 -0.04002176  0.02966443 -0.03612296 -0.02386334  0.01669396 -0.01272839  0.03452093 -0.02166052 -0.01765133 -0.01157175 -0.04209165 -0.03552063 -0.01611198 -0.03045245 -0.0144557  -0.01007302  0.04635563  0.00647753  0.02029601  0.04620532  0.02658775 -0.03232366 -0.02913671 -0.00773914  0.03086152  0.00049948  0.03365912 -0.01014204 -0.00762204  0.0200111   0.04296612  0.0225597  -0.00063735  0.01242212  0.03804126 -0.00137387 -0.0077942  -0.00478568 -0.05166674  0.02956375  0.041185 -0.03590279 -0.01858998  0.00045253 -0.04960828 -0.00022175 -0.02102833 -0.0358086   0.01054671 -0.04865198  0.01152277  0.01561847 -0.00629775  0.03356351  0.01698243  0.00209626  0.00536026  0.03283136  0.04155298 -0.00756699 -0.01137493  0.01099368 -0.04041413  0.02828905  0.01614056 -0.03540229 -0.0370634   0.05025561 -0.04226378  0.02528399 -0.04658911  0.01654299  0.04142661  0.00712547  0.01263048 -0.01685993 -0.00932885  0.01609249 -0.00278316  0.02100277  0.02084318 -0.04873323  0.04585685  0.04186619  0.02790546  0.02330734 -0.0344667  -0.02207934  0.01270202 -0.04461263  0.00222027 -0.02239799 -0.03989443  0.03925512  0.03788603  0.04625857  0.01944646 -0.04826815  0.04382931 -0.000195   -0.02768841  0.01541928  0.05073344  0.04917224 -0.00781652  0.05122015  0.0234984 -0.00652642  0.0357859   0.01444806 -0.0144172   0.01191201 -0.02893676 -0.01084579 -0.0501362   0.05288424  0.00850913 -0.04285948 -0.02632884  0.04920851  0.02973218  0.04930893  0.04763576  0.00677248  0.01087144  0.00690617  0.01871071  0.03884367  0.02706231 -0.00882938  0.01942696  0.05073504 -0.03616634  0.04766477  0.02014883  0.01890433  0.01131992 -0.028486    0.00570519  0.04008812 -0.0287483  -0.02870834  0.01031574 -0.01826511  0.02991662 -0.04271207 -0.0159579   0.01239257 -0.01494732 -0.04053648 -0.03242593  0.01780006  0.01851745  0.01729163 -0.00476111 -0.03133474 -0.02537203  0.03428571  0.02492146  0.01643146 -0.02765844 -0.01821627  0.01930506 -0.05149183  0.03739752  0.03794762 -0.02530904  0.01630167 -0.0348485   0.04845976  0.00027114  0.01474072 -0.033645 -0.02156502 -0.01809339  0.03642158 -0.04288552  0.02683674  0.01843228  0.05023605  0.03921267 -0.00694076  0.04533006  0.00987784  0.00253895 -0.03751867 -0.03618961  0.03532797 -0.02036607 -0.02232149 -0.02815354  0.04237574  0.04865281  0.02452538  0.01852395  0.00144868  0.00794871  0.02454584 -0.00094099  0.04096394 -0.02621601 -0.02076269  0.04079958  0.0068189   0.04700831  0.01084979  0.03640427 -0.00893448  0.03572421 -0.02110931 -0.00990112 -0.02073213  0.03602532 -0.01603632 -0.04291506  0.01825566  0.02077484  0.00153633 -0.01373685 -0.03021052  0.04125125  0.05275831  0.01663942  0.03597687  0.00828281 -0.004258   -0.03627935 -0.03701232  0.04621493 -0.04054191  0.01886089  0.00584299  0.00433399  0.02327009 -0.02793195  0.02830255  0.02377272 -0.04468921 -0.00516982 -0.03959579  0.02421079 -0.0382207  -0.04230235  0.00185096  0.0490136 -0.01844476  0.00085895 -0.01525295  0.03686189 -0.02173522 -0.02344808  0.02404812  0.01888801  0.03526451  0.02263719 -0.05240188  0.01845805  0.00069072  0.03659317 -0.04944044  0.03140955  0.01748736 -0.04215538 -0.0329062   0.02611719 -0.04825428  0.01182664 -0.03928212 -0.02762691  0.05083054  0.01203365 -0.01722583  0.01702572  0.04655674 -0.01890429  0.03802729 -0.02379533  0.00167912 -0.00777669 -0.05068444  0.01727546 -0.01725862 -0.00818991 -0.01647065  0.04075893  0.03847217 -0.04993626  0.05171152  0.01259574  0.01974948 -0.0303943  -0.01398721  0.00216951  0.04502352  0.00760965  0.00220032  0.02984711 -0.01170548  0.05379096  0.01253167 -0.02831924  0.02957325 -0.04181109 -0.04547742  0.035212  0.04685168 -0.02255093  0.02029021  0.0360014  -0.0406984   0.02092175  0.03984016  0.03489177  0.00630363  0.01584987  0.03067676 -0.0324287  0.03736587  0.01333798  0.02063194  0.0393375  -0.04358488  0.03035016 -0.03701334  0.04237662 -0.05238816  0.03090384 -0.02673546  0.01041371 -0.01553119 -0.00606778 -0.04834943 -0.04959543  0.02852436 -0.0409933  0.03547975  0.00121292 -0.03108898  0.01056309 -0.03042367  0.04449541  0.01882638  0.01217255  0.01794536 -0.01766345  0.02548387 -0.0448265 -0.01741307  0.04366605 -0.04576888 -0.04500422 -0.00327961 -0.04261649  0.01934866 -0.04257851 -0.00090614 -0.00444872  0.0262737  -0.01152724 -0.00329944  0.02084616  0.03870291  0.00015078 -0.01359218 -0.05119802  0.03573894  0.00985119  0.02534467 -0.01345393  0.0178385  -0.01415437  0.03444147 -0.02484281 -0.01049874 -0.03433522  0.04882946  0.00474617  0.01552081  0.01735063  0.024578    0.03509102  0.02807186  0.04480064 -0.00036102  0.03405696  0.01371785  0.01635673]
hidden2.weight,[[-0.01443059  0.03306334 -0.02329408 ...  0.04983903 -0.06784333  -0.13211475] [-0.02576245 -0.03624312 -0.06599575 ... -0.07357499  0.00024548   0.07304319] [ 0.06669579  0.03205366  0.02973771 ... -0.05260154 -0.1172903   0.01938826] ... [-0.09540512  0.04349856 -0.06547417 ...  0.0023436  -0.11437531  -0.02675634] [ 0.09912008 -0.04385743 -0.02588752 ... -0.17012694  0.07164917   0.02049427] [ 0.07254986 -0.01989505  0.1527938  ...  0.00955859 -0.11593989  -0.01320153]]
hidden2.bias,[ 0.04250906  0.03612939  0.04705221 -0.01519428 -0.03262978 -0.00999504  0.03203103 -0.00749757 -0.01061967 -0.00063336 -0.00575585  0.00935221 -0.01030209 -0.03141142  0.04523143  0.01642585  0.04843633 -0.01922965  0.01430362  0.00991962  0.01028732 -0.0191755   0.02031873  0.04773468  0.02206935  0.04443856  0.01168919 -0.04191028  0.0460472   0.00404544 -0.04500293 -0.04868541  0.01295646  0.03310193  0.03420613  0.03193526  0.04664735  0.01525848 -0.01589188 -0.04664322]
out.weight,[[ 0.024766   -0.04653804  0.29595545  0.20656145  0.01101547  0.05125322   0.37111488  0.01743952 -0.00700172  0.3540081   0.15460648  0.54175955   0.30504003  0.04178387  0.01562156  0.12163731 -0.10077533  0.03082174  -0.0556438  -0.09566597 -0.02721435 -0.02166262  0.10202345 -0.00232163  -0.266695    0.30920082 -0.2271308  -0.15886477 -0.00311458 -0.38973063   0.15529221 -0.26184493  0.0442922   0.12901822  0.10427415  0.06749593   0.16552684 -0.15761131  0.13543734  0.22258003] [ 0.28829065  0.13565177 -0.43464768  0.19356866  0.08594771 -0.38065398   0.00721751 -0.18458408 -0.42789474  0.2942274   0.1072498  -0.10141959  -0.09611908  0.14229883  0.12242774 -0.40407747 -0.04503579 -0.29437822   0.02120962 -0.3499987   0.01473779 -0.38767198 -0.01352663  0.10146595   0.17894405 -0.23449092 -0.24833423  0.08221275  0.09348214 -0.07451013   0.04624714 -0.12729093 -0.06745847  0.12124898 -0.24668352 -0.40951723  -0.33124465  0.316786    0.25418726 -0.08492926] [-0.17241943  0.3579206   0.08904071  0.03900076 -0.0860332  -0.09828431   0.21356581  0.07079647 -0.2062964  -0.1780522  -0.4252253  -0.03372416  -0.07283995  0.02621644  0.176943   -0.12546787 -0.3004823   0.03906006   0.06978036 -0.19304392 -0.35665083 -0.1871785   0.10068238  0.12298529  -0.1630415   0.25715142 -0.22000636 -0.11941844  0.02608181 -0.06748945   0.01357125 -0.04306495 -0.21608153 -0.10511307 -0.12727197 -0.06097879  -0.08996077  0.10757113 -0.03268681  0.05767477] [-0.1976758   0.02558597  0.33473116 -0.323448   -0.181646    0.4238901   0.42142224 -0.17761615  0.09131116 -0.32729048  0.02058024 -0.22171544   0.0608275   0.12679054 -0.03425309  0.31219977 -0.01849504  0.12714317  -0.23915172 -0.2744962   0.05269807 -0.1221847  -0.06254756 -0.34843084  -0.13103208  0.18767008 -0.0360188  -0.23732921 -0.24887173 -0.3003555  -0.01052961 -0.20913109  0.50281984  0.3579396   0.57770723  0.19785109  -0.3904647  -0.2702957  -0.11599758  0.40405688] [ 0.28003728 -0.06453745 -0.0961386   0.11734338 -0.12223902 -0.60042423   0.1403497   0.49601823  0.05207805 -0.2910792   0.16213779  0.03490446   0.22085142  0.1076923  -0.28335443  0.2046671  -0.03780694 -0.05362041  -0.04182162 -0.18609217  0.1586029  -0.25528002  0.2216558  -0.06469985  -0.18575402 -0.17215854  0.3632356  -0.42238215  0.02674292 -0.14769131   0.17490514  0.07186832  0.08481441  0.17479077 -0.21973325  0.13658123   0.11387744  0.46212116  0.46887818 -0.06527317] [ 0.3801878  -0.00387348 -0.1909403  -0.03628755 -0.0324528  -0.11713248  -0.20570038 -0.0318376   0.10349641 -0.00623627 -0.24390946  0.00654723  -0.01386827  0.19558811 -0.35865632 -0.24648981 -0.18248942  0.18091576   0.23404686 -0.01603197  0.1774723  -0.04957291  0.35256255 -0.08393488   0.0912358   0.47047833  0.61810076 -0.10693767  0.2946897  -0.31901568  -0.23186353 -0.23445556 -0.05784097  0.16394012 -0.202894    0.19025224   0.08290678 -0.09687217  0.11160561 -0.2575261 ] [ 0.21274512 -0.4602331  -0.06417394 -0.06957157 -0.38264173  0.0371397  -0.0727307  -0.03124074 -0.13360547  0.43013042  0.01902341  0.24751592   0.18948132 -0.00092446 -0.08613569 -0.00355509  0.17194194 -0.07215956   0.16707064  0.01110646  0.25603005 -0.22107936  0.32631904  0.2013878  -0.12080672 -0.40083224  0.43290764  0.04011172 -0.10713111  0.05580387   0.12631623 -0.22652733  0.20135361 -0.3439001  -0.229832    0.15402274  -0.27231666 -0.5151508   0.18550324  0.18231343]]
out.bias,[0.00553952 0.1127417  0.05783306 0.09305765 0.06549346 0.07071339 0.04436147]
bn0.weight,[1.000191   1.0001171  1.0007843  0.9986151  1.0006377  1.0000083 0.9993959  0.99971783 1.0007141  1.0002722  0.99991965 0.9999731 0.9998089  0.99987084 0.9998806  1.001028   0.9994406  0.99949175 1.0004488  0.99914455 1.0002058  1.0002375  1.0002171  1.0002252 1.0004401  0.999647   0.99819505 1.000341   0.99986154 0.9993128 1.0001333  0.99976534 0.9995197  0.99977803 0.99971855 1.0000023 0.99941564 1.0000035  0.9996243  0.9994219  1.         1.0002676 1.0006512  1.0008848  0.9996281  0.9999903  1.0003597  0.99965787 1.0002198  0.9992349  1.000193   1.0003972  0.999282   0.99989176 1.0005327  1.0003296  0.99992365 0.9992615  1.0005511  1.0003467 1.0006144  0.9996697  1.0006677  1.0005336  1.0005327  0.99958956 1.0005401  0.9975354  0.99969673 0.9998749  1.         0.99927527 0.9996182  0.99955267 0.9995776  0.9996181  0.99976563 0.99978596 1.001049   0.9996299  1.0000539  1.0000056  0.9995808  0.99926984 0.9988613  1.0005254  0.9998984  1.0002183  1.0000417  1.0003961 1.000041   1.0003407  1.0006932  0.9996621  1.000903   0.9995305 1.0004224  1.0004162  0.99954575 0.999624   0.9997175  1.0007057 0.99988794 0.99971396 0.99920696 1.0004131  1.0002611  0.9996146 1.         0.9994015  1.0004762  0.99934316 0.99851125 0.9994735 1.0000877  0.99992454 1.0006565  0.9993305  1.0000224  1.0011463 1.0008478  1.0010918  0.99964607 0.99918616 0.99941826 1.0002431 1.0001031  1.         0.99992484 0.99988276 0.99921244 0.99985296 1.0003663  1.0001394  0.99993825 0.999471   0.9982153  0.99990726 1.0002468  0.9995761  1.0000284  0.99987656 0.99986804 0.9998929 0.9994288  1.000375   0.9993904  1.0003412  0.9998527  1.0002674 0.99909455 0.99926406 0.9995616  1.0007474  0.99944246 1.0002387 1.0000143  1.0002562  1.0000544  0.999318   1.0007015  0.99978423 0.9998764  0.9999966  1.000311   1.0002745  0.9996235  0.99944836 0.9999438  0.9991997  1.0002537  0.9991715  0.99985194 1.0000978 1.0001285  0.99970764 0.9993273  1.0000733  1.000557   0.9993587 1.0003648  0.99972826 0.99966085 0.99999654 0.99934244 0.9998168 0.999396   1.0002695  1.0002804  0.9997802  1.0001262  1.0012454 0.9992657  1.0004946  0.99972165 0.9999001  0.99930596 0.999864 0.9998947  0.9995977  0.9999596  0.99973255 0.99954057 0.9997078 0.99922514 1.0001167  1.0000848  0.99988437 1.0004262  0.9993227 1.0000297  1.0000056  0.99815434 0.99980825 1.0000478  0.9998287 1.0000105  0.9998992  1.         1.000256   1.0002071  0.9998049 1.0003564  1.0001395  0.9994258  0.9998652  1.0005618  0.9997527 1.000246   1.0003076  1.0000122  1.0000793  1.000074   0.9999333 0.9994076  1.0009071  0.9996989  0.9994177  0.99976134 1.000117 0.99969554 0.99950784 0.9997669  0.9999835  0.9996742  0.9995379 0.9997572  1.0001057  0.9999339  1.0001312  1.0003783  0.9997808 0.99953973 1.0003006  0.9997725  0.99972975 0.9997708  0.99946254 1.000043   1.0004855  0.99959713 0.99993217 1.0000962  1.0001708 0.9998294  1.000081   0.9997195  0.99954665 0.9999556  1.0004513 0.99987084 0.99951476 0.9989312  0.99948287 1.0005758  0.9998994 1.0002043  0.99982893 0.9995685  1.0000643  1.0000776  0.99974966 0.9993785  0.99992657 1.0001944  1.0002143  1.000297   0.9996475 0.99971294 0.99995697 0.9993722  0.99965024 0.9994314  0.999973 0.99991584 1.0001043  1.0002921  0.99980956 1.0000437  0.9989661 1.0000415  0.9995832  1.0003796  1.0007687  0.9978337  1.0002595 0.9991789  1.0003333  0.99939746 0.9998783  0.99958724 0.9999182 0.99951744 1.0002441  1.0004442  1.0000032  0.99938446 0.99954915 0.99976707 0.9997114  1.0000799  1.0002398  0.99990815 0.9999231 1.0000521  1.0000218  0.9993248  0.9995954  1.000567   1.0002762 1.0005491  0.99987984 1.0001496  0.99970585 0.9998838  0.9996394 0.99952376 0.99953365 0.9999523  1.0005777  1.0003693  0.99920666 1.0002623  1.0005301  0.9996628  1.0002259  0.9998734  0.9997515 1.000598   1.0000772  1.0001925  0.99982363 1.0000432 ]
bn0.bias,[ 1.21365672e-04 -1.67127626e-04  4.35638613e-05 -5.22355491e-04 -3.46122833e-04 -5.07365738e-04  1.05835660e-03 -3.46926012e-04  7.83040596e-04 -1.73652748e-04  5.87510885e-06  4.20442171e-04  6.90000772e-04  6.58604040e-06 -1.04931300e-04 -3.23276006e-04 -2.47484368e-05  1.00638112e-03 -4.21660399e-04 -6.09030016e-04 -3.29699600e-04 -4.35169291e-04  1.33966882e-04 -3.32772441e-04 -5.99586521e-04 -4.22650162e-04 -1.12683003e-04 -7.74395303e-04 -6.71398229e-05 -3.81507532e-04 -5.84136615e-05 -6.25606393e-04  9.68476379e-05 -6.28691414e-05 -2.09265694e-04  1.97694666e-04 -7.87145749e-04 -3.29414470e-04 -3.53971882e-05  8.45192626e-05 -1.64309735e-04  2.22271352e-04 -1.62202690e-04 -1.36388562e-05 -6.12963922e-04  1.87694663e-04 -5.23180759e-04  9.14942182e-04  2.77447311e-04  8.95520425e-05  9.39578094e-05 -3.14151293e-06  1.13032421e-03 -7.06441002e-04 -3.60326958e-04  2.51142686e-04 -8.19521738e-05 -3.64731823e-04 -7.92609586e-04  2.10110637e-04 -2.83597677e-04 -5.23922034e-04 -5.51938196e-04  8.68495321e-04  4.63806849e-04 -2.13771666e-04  2.08450685e-04  4.72828688e-04 -4.89023980e-04 -3.38880171e-04 -6.34902332e-04  7.09869608e-04  6.11679803e-04  2.53245264e-04  5.95133228e-04 -4.80781979e-04 -5.42418391e-04  1.15943758e-03 -1.14203081e-03  8.08980316e-04 -2.57046369e-04  9.02259606e-04 -1.25179649e-03  4.15372342e-04 -4.20091848e-04 -2.80844193e-04  2.88318057e-04 -3.15742480e-04  4.28922613e-05  9.43615218e-04 -6.00184896e-04  6.39687234e-04  2.16314540e-04 -1.63071265e-04 -6.01773150e-04 -4.92126972e-04 -1.45909435e-04  1.13480826e-04  6.02181535e-04 -3.99293815e-04 -2.78296968e-04 -1.41240016e-03  2.04598109e-04 -6.76406344e-05 -7.91490951e-04  4.93047293e-04 -5.08013109e-05  1.11792899e-04  3.62313178e-04  6.60307880e-04  3.36123980e-04  7.44922785e-04 -7.87060475e-04  9.16288467e-04  6.64753388e-05  4.18041804e-04 -3.50657618e-04  2.49170524e-04 -4.45940503e-04 -6.01689680e-05 -2.47517368e-04 -4.69696999e-04  1.41928886e-05 -1.11603411e-03 -3.39037593e-04 -6.03546105e-05  1.26074476e-04 -1.22359721e-04 -7.37512382e-05 -2.92776560e-04 -1.45304657e-03  1.85731711e-04 -2.59836757e-04  9.17227662e-05  3.27135291e-04  3.79416539e-04  1.40161626e-03 -7.80565915e-06 -3.40074213e-04  1.55528309e-04 -3.63066240e-04 -2.27399913e-04 -5.19882131e-04 -9.18377074e-04 -4.94317559e-04 -1.80167390e-05  2.83455156e-04 -5.07720280e-04  1.24458631e-03 -3.43425811e-04 -2.16719272e-04  5.76208113e-04 -5.49622986e-04 -6.95727300e-04  2.57135252e-04  4.23529855e-04  7.13157817e-04 -1.11580756e-03  3.55900702e-05 -5.95337078e-05  2.18609319e-04 -7.51371146e-04  2.98916158e-04  3.99390759e-04  6.13454613e-04 -7.34895411e-06 -9.20808467e-04  3.89329187e-04  5.53124155e-05 -7.93505460e-04 -6.73367758e-04 -4.32811241e-04  1.32745376e-03 -1.06980086e-04  9.25090353e-05 -9.39005346e-04 -4.75930952e-04 -1.60349111e-04 -3.47151159e-04  3.08166665e-04 -5.65695169e-04  4.91684841e-05 -8.13183316e-04  3.01442051e-04 -1.38612418e-03  3.10985284e-04 -8.93921009e-04  9.70504421e-04  3.10980919e-04 -8.01240909e-04  2.63761496e-04  1.61843112e-04 -2.44968687e-04  7.23729376e-04 -4.16149735e-04  1.11072222e-04  6.63020008e-04  4.14809358e-04 -1.15800140e-04 -2.73240289e-06  7.15179369e-04 -2.82856985e-04 -5.36168052e-04  4.32235160e-04 -4.95975662e-04 -2.00382972e-04  6.49087073e-04 -2.20336660e-04 -3.99648910e-04  1.94722292e-04  4.80781309e-04  1.08679675e-03  2.28418168e-04 -1.58661598e-04 -2.58743850e-04  1.04817154e-03 -2.36394349e-04  2.69960379e-04  1.03645027e-03  1.06926884e-04 -1.01627526e-03 -3.64596432e-04 -2.25542448e-04  3.76284763e-04  5.66140625e-05 -1.06934679e-03 -3.57676501e-04  4.21088655e-04 -3.48630914e-04  1.54485038e-04  1.31609122e-04 -4.85315657e-04  1.13274518e-03  4.02757927e-04  4.94080246e-04 -8.57667124e-04  4.35821683e-04 -6.55120471e-04 -6.77023723e-04 -3.16020043e-04  9.88196000e-04 -2.18268338e-04  1.95416840e-04  1.97342641e-04  6.79279736e-04 -2.63018184e-04 -2.58938700e-04  5.39805158e-04  1.53934059e-04 -2.15914879e-05  8.00842070e-04  2.63611204e-04  5.99357008e-04 -6.34429161e-04 -2.59408611e-04  5.93946374e-04  9.25922577e-05  9.43100429e-04  1.09959405e-03  4.14851325e-04 -8.97010032e-05 -5.74832702e-05 -2.39148707e-04 -2.37164320e-04 -4.11310262e-04  3.34360157e-05 -7.88585225e-04  5.19228342e-04  4.31108696e-04 -8.21723079e-05  7.42605480e-04 -1.67815539e-04 -3.72440154e-05  2.58131822e-05 -1.67146754e-05 -3.67046829e-04 -4.12558256e-05 -6.03346212e-04 -7.34255300e-05  3.57472221e-04  2.79022224e-05  4.40128701e-04  7.35812238e-04  3.34493525e-04  1.95198372e-05  2.61039095e-04  2.57733860e-04 -6.15207537e-04 -4.90026141e-04  3.58540041e-04 -3.92512389e-04 -3.77509714e-04 -2.22500836e-04  8.50746001e-04  1.02806347e-03  7.35330250e-05  9.35813761e-04  4.55300993e-04  3.35774792e-04 -2.97568273e-04 -5.91656135e-04  5.31430764e-04  1.20468170e-03 -2.17412176e-04  8.85238696e-05 -4.24018654e-04 -9.40029349e-05 -6.10494521e-04  4.30610817e-04  1.06174091e-03 -3.74087802e-04 -1.91819679e-04  2.40366007e-05  8.54119484e-04  7.98162655e-04 -2.60034221e-06  3.42304673e-04 -3.51456169e-04  2.38339780e-05 -7.47765065e-04 -2.09659658e-04  2.40062072e-04 -2.82858877e-04  1.49588857e-04  7.47297017e-04 -2.11018647e-04 -3.59598598e-05 -1.86850870e-04  3.16805730e-04  9.65076499e-04 -1.72092638e-03  2.68163363e-04 -3.50954979e-05  3.98116361e-04 -4.81786585e-04  5.39240486e-04 -1.28304790e-04  3.68345500e-05 -2.20461749e-04 -6.39169419e-04 -1.12547865e-03 -1.25801322e-04  5.59383014e-04 -4.23743797e-04  6.72570377e-06  8.02897557e-05  2.06742025e-05 -6.95945288e-04 -1.71908730e-04  3.39707854e-04  2.25219439e-04 -9.31448652e-04 -2.86674273e-04]
bn0.running_mean,[ 7.23810043e+01 -1.23527382e+02 -1.08789845e+01  1.00076705e-01  1.99907150e+01 -1.78289471e+01  3.07653465e+01 -3.20381069e+00 -4.36740990e+01  2.25715904e+01 -1.72689171e+01  7.43515921e+00 -1.88090172e+01  8.88566399e+00  3.89640503e+01  1.56935415e+01 -8.58425808e+00  4.87530212e+01  6.61816978e+00 -1.75289249e+01  3.21638489e+01 -3.69095306e+01 -2.45360449e-01 -2.22365880e+00  4.52135963e+01 -1.16478212e-01  1.10536523e-01  6.76803055e+01  7.72808135e-01 -1.81487579e+01  8.31628963e-02  4.78459320e+01 -2.67397537e+01  7.32057047e+00  2.19598278e-01  1.79005042e-01 -1.62984657e+01  5.61732173e-01  8.34259415e+01 -1.78627548e+01  4.49645877e-01  4.16808052e+01 -1.16859274e+01  3.07956333e+01  1.56928101e+01  9.46147728e+00  2.77512207e+01 -1.39578924e+01  3.34575713e-01  1.30401211e+01  2.05993214e+01 -2.36847353e+00  1.28078747e+01 -1.67420547e+02 -1.89256210e+01 -2.04631138e+01  1.35274750e+02 -2.51535869e+00  9.23563957e+00 -6.49472475e-01  2.14258347e+01  1.02631004e+02  1.97317886e+01 -5.50817585e+00 -1.09378643e+01  1.20827055e+01 -1.57642395e+02 -1.08488888e-01 -2.01673055e+00  7.06586313e+00  1.05575043e+02  5.58303490e+01  2.41527390e+00 -9.83123258e-02  4.17063284e+00 -5.41011658e+01 -7.23487473e+00 -6.91822529e+00  1.36550694e+01  1.23550711e+01 -5.52493525e+00 -1.01930477e-01  2.93753862e+00 -8.99778976e+01  4.36109036e-01  7.84133301e+01  2.36517200e+01  2.50193062e+01 -6.37941399e+01 -8.47979113e-02  5.33441963e+01  4.44670677e+00 -8.36886749e+01 -5.70853090e+00  8.01059494e+01 -3.10133953e+01 -8.36722717e+01  4.42543869e+01  9.07310677e+00 -5.25266886e-01 -2.21552105e+01  3.96977310e+01 -5.97198143e+01 -3.86858101e+01  7.73842716e+00  5.86261787e+01  5.23251712e-01  2.28142033e+01  2.42863865e+01  8.04061356e+01  2.94441433e+01 -2.63587685e+01 -7.69278955e+00  4.24820280e+00 -8.78094360e-02 -2.63925225e-01  7.11656036e+01 -6.64177780e+01  4.30275583e+00 -5.92833405e+01  6.54033279e+01 -9.67120677e-02 -1.37693272e+01 -6.51273131e-02 -5.56347990e+00 -5.19206276e+01  4.97160988e+01 -3.56264267e+01 -1.74789658e+01 -8.20130062e+00 -7.14654007e+01 -3.56020212e+00  1.29082308e+01 -2.02518139e+01 -1.95844517e+01  5.50719276e-02  3.51255089e-01  1.07969332e+01  7.09357529e+01 -5.65559626e+00 -1.44767807e+02  5.64854126e+01 -6.28539696e+01 -1.10981588e+01 -6.21050682e+01 -1.83424034e+01  2.11489701e+00 -2.78556275e+00  4.09025759e-01  8.85983429e+01 -1.38823013e+01  3.49055901e+01  4.73437637e-01  7.88464508e+01 -8.57043362e+00 -2.54690975e-01 -3.03919449e+01  2.21519485e+02  8.50121498e+00  1.37973648e+02 -1.19497995e+01  6.33404875e+00  6.77259903e+01  2.29392776e+01  3.21985092e+01 -4.65546112e+01  9.86820374e+01 -6.13384590e+01  3.42596527e+02 -1.93352312e-01  3.02027011e+00 -1.51743221e+01  3.37602654e+01 -9.97022400e+01 -1.88354931e+01  3.46776825e+02  3.14668119e-01  2.05803864e+02  7.74828434e+00 -1.26179733e+01  1.73163795e+01 -1.97826061e+01  8.77832260e+01  9.04357300e+01  5.59937954e+00 -1.80186691e+01  4.19021416e+00  4.79425888e+01 -3.01697946e+00 -8.64977646e+00  1.92762413e+01 -3.10523262e+01  3.78699851e+00 -5.60089188e+01 -1.62146425e+00 -5.41945724e+01 -4.24738426e+01  6.74216537e+01  1.33245483e+02  1.66570301e+01 -3.57254868e+01 -2.36471233e+01  2.40834519e-01 -5.21760941e-01  4.45552826e-01  9.27535400e+01  2.16414318e+01  4.48446350e+01  6.18930511e+01  7.76481533e+00  1.87431534e+02  1.40178925e+02 -3.52281094e-01 -7.79739609e+01  5.71858292e+01 -1.22365942e+01 -3.14159513e-01  6.56738377e+00 -1.00333725e+02 -1.91498444e+02  4.82221298e+01  7.36479340e+01  5.69587803e+00  2.64009876e+01 -1.73354385e+02 -7.70350113e+01 -4.10034256e+01 -1.35138702e+02 -4.67239685e+01 -3.54337883e+01  1.36504593e+02  1.16474007e+02 -2.32988328e-01 -1.56198721e+01  9.14917088e+00 -3.10695686e+01  2.84386654e+01  3.19414496e-01  2.78166046e+01 -1.76508514e+02  5.55157363e-01  1.42769669e+02  1.31313360e+00  3.88933029e+01 -1.74226425e+02 -7.27394257e+01 -2.39924297e+01 -7.96709671e+01 -4.06281776e+01  5.20788145e+00  4.75217819e+01  4.81045189e+01 -3.30692816e+00  3.95095372e+00 -3.55981712e+01  1.24909286e+01  1.23438652e+02  5.79472427e+01  1.77377060e-01  2.80179996e+01  8.89209938e+00 -2.01183167e+01 -2.77831059e+01  6.59750366e+01  1.12351082e+02 -1.18140396e+02  5.37955821e-01  1.44134140e+00  2.73816299e+01 -1.38294907e+01  2.74331322e+01  2.70003472e-02 -1.63459048e-01  5.01357913e-01  3.02164135e+01  1.61389664e+02  4.62120132e+01 -1.98290268e+02  1.31097656e+02 -8.73402557e+01  1.98268375e+01  1.07376877e+02  1.22765303e+01  6.34920311e+00 -6.75613480e+01  4.86840391e+00  1.16385284e+02 -4.59021568e+01  4.27140541e+01  1.91131439e+01  8.24953094e-02  1.75451202e+01 -3.82053032e+01 -5.27322650e-01  3.40667915e+01 -1.75031986e+01  2.73859253e+01  1.55374140e-01 -1.51319904e+01  1.93325481e+01 -3.67204584e-02  4.84615746e+01 -1.59024994e+02  4.13894272e+01  3.96312237e-01 -6.80282688e+00  3.95973320e+01  1.03325584e+02  1.19173981e+02  1.89467659e+01 -7.44608459e+01 -1.14293737e+01  3.26778641e+01  1.67882729e+01 -7.88291836e+00  3.03171768e+01 -3.83345544e-01 -2.29623108e+01 -1.70851479e+01 -5.21451988e+01  5.26698723e+01  3.28461266e+01 -7.41949320e+00  3.52686954e+00  2.07023544e+01  2.80473366e+01 -2.38766537e+01 -5.63731372e-01 -3.11510487e+01 -3.06717892e+01  1.35395088e+01  5.39723244e+01 -2.41009178e+01  9.56206843e-02  4.68227893e-01  1.39162231e+02 -4.20623131e+01  2.41855412e+01 -6.32439079e+01 -1.03590485e+02  7.55424728e+01 -2.57209606e+01 -3.17763557e+01  2.41848633e+02 -1.12493607e+02 -6.53886986e+00  1.76182821e-01 -2.08803272e+01  5.85212231e+00 -7.74456253e+01 -2.38731823e+01  3.97104526e+00 -4.44621391e+01]
bn0.running_var,[1.43761340e+03 4.42969775e+03 4.85350571e+01 7.78520554e-02 1.12949051e+02 9.82345276e+01 2.88369995e+02 5.33557844e+00 6.69442932e+02 1.28312607e+02 1.00524803e+02 3.27378502e+01 1.07710968e+02 2.46589413e+01 4.97722015e+02 7.97623520e+01 1.79857349e+01 7.66641602e+02 1.48568859e+01 8.60634537e+01 3.66647858e+02 3.70460297e+02 2.72246922e-04 1.26442492e+00 5.30099304e+02 3.75658274e-02 8.04611892e-02 1.71916504e+03 2.80933113e+01 6.05331192e+01 2.15225667e-01 5.46540894e+02 1.51153122e+02 9.17574692e+00 2.75627077e-02 7.00240443e-03 6.52108994e+01 2.07298860e-01 1.25469714e+03 6.73229523e+01 4.50479682e-04 2.86602203e+02 2.36045475e+01 1.61512024e+02 6.54569931e+01 1.48579197e+01 3.27381348e+02 6.11002579e+01 7.74568558e-01 5.54083595e+01 1.25625450e+02 9.22052443e-01 6.76176987e+01 9.21072656e+03 1.00721184e+02 9.70496063e+01 5.35964990e+03 1.73158288e+00 2.42136421e+01 2.99322367e-01 9.54523773e+01 2.48608545e+03 9.74610672e+01 1.07023630e+01 2.84193420e+01 2.78519802e+01 6.03780713e+03 1.73721812e-04 2.29750514e+00 1.41603708e+01 3.19799097e+03 9.64572083e+02 1.37324440e+00 2.32175365e-03 6.27212095e+00 1.29287854e+03 1.62169552e+01 7.29975204e+01 7.19112778e+01 4.59994240e+01 7.00943756e+00 2.19913036e-01 2.58248186e+00 2.36572900e+03 2.89438684e-02 1.95984802e+03 1.54077652e+02 1.59168304e+02 1.30269446e+03 7.89675023e-03 9.45626343e+02 3.31731057e+00 2.18959473e+03 8.40132332e+00 1.31636011e+03 1.70762054e+02 1.13478638e+03 3.18648254e+02 1.16422215e+01 2.34865267e-02 8.61150818e+01 2.61359100e+02 6.21618286e+02 2.54330063e+02 6.35411186e+01 1.10169312e+03 2.63977684e-02 1.70796555e+02 2.02481598e+02 2.36246729e+03 2.92259369e+02 1.72043091e+02 2.16063938e+01 4.67447901e+00 5.36824809e-03 6.96352450e-04 1.42439966e+03 1.34668909e+03 5.23364162e+00 1.05604712e+03 1.23933838e+03 3.17150146e-01 5.96518707e+01 1.49111688e-01 9.65233231e+00 6.51925232e+02 4.12492950e+02 2.61160461e+02 9.14655075e+01 1.77727394e+01 1.24554065e+03 2.87077308e+00 4.18111115e+01 9.74713135e+01 8.09437637e+01 4.82690223e-02 1.38379280e-02 3.02722988e+01 1.09251599e+03 6.60431957e+00 4.60271289e+03 7.03601318e+02 1.14878174e+03 5.27321053e+01 9.94081543e+02 1.28068817e+02 1.91445231e+00 6.61375189e+00 2.25859225e-01 2.10763232e+03 5.69897995e+01 3.57670624e+02 1.92183082e-03 1.99482092e+03 2.75275307e+01 2.03755096e-01 2.97450531e+02 1.45774053e+04 2.20158463e+01 6.56697949e+03 4.01225624e+01 2.11849442e+01 1.43615784e+03 1.68835327e+02 3.34692535e+02 7.20195496e+02 3.04780811e+03 1.06540759e+03 3.60216289e+04 6.06389523e-01 5.14691591e+00 9.77012329e+01 3.54228058e+02 3.02692920e+03 6.27758331e+01 2.96681699e+04 7.73376029e-04 1.08240791e+04 1.71430759e+01 3.38393402e+01 1.14518227e+02 1.22992989e+02 2.47094995e+03 2.75471704e+03 1.11216278e+01 7.07046432e+01 4.79230642e+00 7.06500854e+02 3.68363738e+00 4.46357231e+01 1.11313881e+02 3.10289673e+02 2.42000222e+00 9.19864380e+02 6.29953051e+00 8.29780212e+02 6.37330505e+02 1.38497791e+03 5.98786865e+03 9.18553391e+01 4.37863983e+02 1.22283775e+02 1.77331714e-07 7.53884786e-04 3.63435335e-02 2.05904272e+03 1.18599457e+02 5.52856384e+02 1.03452783e+03 2.39268742e+01 9.32212012e+03 5.72439990e+03 8.99697002e-03 1.63151770e+03 9.43623779e+02 5.50197144e+01 4.87147495e-02 1.30183754e+01 2.88220166e+03 9.76621973e+03 5.77245667e+02 1.51018250e+03 1.08423910e+01 1.85087265e+02 8.39985059e+03 1.64980750e+03 5.29924133e+02 5.23487354e+03 5.95603821e+02 2.90074860e+02 5.61615771e+03 3.84754370e+03 2.88408082e-02 6.42346497e+01 2.55453186e+01 3.03364136e+02 1.96164841e+02 1.67230759e-02 2.56051025e+02 9.76356836e+03 4.67222603e-03 6.60791846e+03 9.13665771e-01 2.81301880e+02 6.02631006e+03 9.95642212e+02 1.16679443e+02 1.28063782e+03 3.19724030e+02 7.61842060e+00 3.88736359e+02 3.96122742e+02 1.94234490e+00 2.92897797e+00 2.12123337e+02 2.58884544e+01 2.52743359e+03 5.50406189e+02 1.43983867e-03 1.25003471e+02 1.23798027e+01 9.22010422e+01 1.44821564e+02 1.11280139e+03 3.14498511e+03 2.87023218e+03 1.15128148e+00 8.53982329e-01 1.96147385e+02 5.05627403e+01 2.28532196e+02 2.60064423e-01 4.34403941e-02 2.26789966e-01 1.48179794e+02 4.38368408e+03 3.82213257e+02 6.36329346e+03 3.02446777e+03 1.30990369e+03 7.60379105e+01 3.62707544e+03 2.93699875e+01 7.54523993e+00 1.29876318e+03 5.86469364e+00 3.82006445e+03 4.69852753e+02 5.40711853e+02 1.31410172e+02 1.18459705e-02 9.48432465e+01 4.76242859e+02 4.21869976e-04 3.33028412e+02 2.06177994e+02 2.43600357e+02 1.78488940e-02 9.46716080e+01 1.48799850e+02 1.44162530e-03 8.39310242e+02 8.94767480e+03 7.54675964e+02 4.60388692e-04 1.85857315e+01 5.96315857e+02 4.19017676e+03 4.84899854e+03 1.01621162e+02 1.90984741e+03 4.80284042e+01 4.07020325e+02 9.94587173e+01 2.17603531e+01 3.18587189e+02 1.19470516e-02 2.25571945e+02 1.07578651e+02 9.61761414e+02 9.00150574e+02 3.46919769e+02 1.94896450e+01 6.58818054e+00 1.35584412e+02 2.25631378e+02 1.79988373e+02 4.61257622e-02 2.99504852e+02 3.18541962e+02 4.48635139e+01 9.67948730e+02 1.79051468e+02 6.74120635e-02 1.62077129e-01 6.72583740e+03 6.35979065e+02 1.86858078e+02 1.29713037e+03 3.56684863e+03 1.66396570e+03 1.82481964e+02 2.67853394e+02 1.61705234e+04 3.53503418e+03 1.32988148e+01 1.75204105e-03 1.47151550e+02 6.40967894e+00 1.15948267e+03 1.13251701e+02 5.77232265e+00 4.04795013e+02]
bn0.num_batches_tracked,3000
sub_nn_0.hidden.weight,[[-0.67196196  0.2556218 ] [ 0.19821729 -1.696666  ] [ 0.903036    0.40844798]]
sub_nn_0.hidden.bias,[0.64048445 0.0836774  0.5008945 ]
sub_nn_0.out.weight,[[-0.59058625 -0.28368998  0.91656137]]
sub_nn_0.out.bias,[-0.38989818]
sub_nn_1.hidden.weight,[[ 1.4758471   0.0986927 ] [-0.01923464 -0.5276267 ] [-0.7292758  -0.0959814 ]]
sub_nn_1.hidden.bias,[ 0.58432585  0.27804148 -0.45473996]
sub_nn_1.out.weight,[[-0.9280483   0.41620886 -0.08375765]]
sub_nn_1.out.bias,[-0.26138547]
sub_nn_2.hidden.weight,[[-0.491798   -0.0035802 ] [ 0.521516   -0.97536486] [ 0.15040705  1.1726174 ]]
sub_nn_2.hidden.bias,[-0.44899982  0.69689256 -0.6359288 ]
sub_nn_2.out.weight,[[ 0.18217008 -0.3787709   0.380241  ]]
sub_nn_2.out.bias,[-0.16504481]
sub_nn_3.hidden.weight,[[-0.01672229  0.25885755] [-0.3374303   0.26512057] [-0.22941059 -0.51039034]]
sub_nn_3.hidden.bias,[ 0.285985  -0.5906419 -0.3312566]
sub_nn_3.out.weight,[[ 0.9324662  -0.8246746  -0.99842525]]
sub_nn_3.out.bias,[-0.04587221]
sub_nn_4.hidden.weight,[[ 0.33887148  0.4327443 ] [ 0.8116114   0.5173051 ] [-0.99979866 -1.0713991 ]]
sub_nn_4.hidden.bias,[ 0.02447271  0.6323212  -0.41176137]
sub_nn_4.out.weight,[[-0.21268958  0.3583945  -0.6590144 ]]
sub_nn_4.out.bias,[-0.11438656]
sub_nn_5.hidden.weight,[[-0.5002699   0.37006697] [ 0.42669985 -0.57430303] [ 0.02756242  0.13467123]]
sub_nn_5.hidden.bias,[0.5787181  0.04691292 0.30757028]
sub_nn_5.out.weight,[[-0.41800296 -0.46281284 -0.24977921]]
sub_nn_5.out.bias,[-0.39868233]
sub_nn_6.hidden.weight,[[ 0.30087388  0.04937945] [-0.47040194 -0.07959097] [ 0.00078563  0.33663666]]
sub_nn_6.hidden.bias,[-0.02594226 -0.3352148   0.10322744]
sub_nn_6.out.weight,[[1.0686756 0.7780071 0.6509717]]
sub_nn_6.out.bias,[-0.21874008]
sub_nn_7.hidden.weight,[[-0.9390507  -0.3222644 ] [ 0.0285044  -0.01021326] [-0.01265156  2.2645626 ]]
sub_nn_7.hidden.bias,[-0.63615906  0.43985313 -0.61445415]
sub_nn_7.out.weight,[[-0.30350456 -1.3500884   0.1476997 ]]
sub_nn_7.out.bias,[-0.31087148]
sub_nn_8.hidden.weight,[[ 0.18713968 -0.07538305] [-0.55710983 -0.05994305] [ 0.5698363  -0.3762941 ]]
sub_nn_8.hidden.bias,[ 0.36149794  0.6856609  -0.5526607 ]
sub_nn_8.out.weight,[[ 0.2685324   0.12365235 -0.95319414]]
sub_nn_8.out.bias,[-0.2203674]
sub_nn_9.hidden.weight,[[ 0.09406997  0.53579724] [ 0.34167796 -0.2324785 ] [-0.84209496 -0.7331589 ]]
sub_nn_9.hidden.bias,[ 0.11610216 -0.5891481   0.00445373]
sub_nn_9.out.weight,[[ 1.7458446   0.1438417  -0.08967828]]
sub_nn_9.out.bias,[0.2597679]
sub_nn_10.hidden.weight,[[-0.54806286 -0.77762693] [ 1.359064    0.10794414] [-0.42736623 -0.50649774]]
sub_nn_10.hidden.bias,[-0.37364337  0.21077007 -0.06526524]
sub_nn_10.out.weight,[[ 0.4830292  -0.14025752  0.9562158 ]]
sub_nn_10.out.bias,[0.31051052]
sub_nn_11.hidden.weight,[[ 0.07894071 -1.3992807 ] [ 0.22133732  1.3008652 ] [-0.30074927  0.15743321]]
sub_nn_11.hidden.bias,[0.15038802 0.5150772  0.06921574]
sub_nn_11.out.weight,[[ 1.2081636   0.09092748 -0.34990153]]
sub_nn_11.out.bias,[0.4619732]
sub_nn_12.hidden.weight,[[-0.19266081 -0.22284892] [ 0.834277    0.57072765] [ 0.8859503   0.12560847]]
sub_nn_12.hidden.bias,[-0.70164293 -0.4291869   0.21968597]
sub_nn_12.out.weight,[[ 0.44238147 -0.29531714  0.05544332]]
sub_nn_12.out.bias,[-0.16026607]
sub_nn_13.hidden.weight,[[ 0.93852025  0.5447953 ] [-0.0388691   0.6806055 ] [ 0.30301663  0.04929704]]
sub_nn_13.hidden.bias,[-0.4208142  -0.5215101  -0.21459432]
sub_nn_13.out.weight,[[-0.09083735  0.18711306  0.60558033]]
sub_nn_13.out.bias,[-0.2786231]
sub_nn_14.hidden.weight,[[ 0.4841407  -1.1833042 ] [ 0.2718988  -0.5425885 ] [ 0.39526922 -0.47485247]]
sub_nn_14.hidden.bias,[ 0.23028353 -0.28899646 -0.5645569 ]
sub_nn_14.out.weight,[[-0.17743118 -0.6160213   1.7327152 ]]
sub_nn_14.out.bias,[0.56423616]
sub_nn_15.hidden.weight,[[ 0.22278345  0.02869154] [-0.80844855 -0.2345617 ] [-0.47975102 -0.7302072 ]]
sub_nn_15.hidden.bias,[-0.15077314 -0.06495059 -0.27274448]
sub_nn_15.out.weight,[[0.7726616  0.49258375 0.32757404]]
sub_nn_15.out.bias,[-0.377643]
sub_nn_16.hidden.weight,[[ 0.2113399   1.0464447 ] [ 0.02615397 -1.0638595 ] [-1.6227508  -0.56087977]]
sub_nn_16.hidden.bias,[-0.3643169   0.15423128 -0.17385137]
sub_nn_16.out.weight,[[-0.39367265  0.2448264  -0.8200774 ]]
sub_nn_16.out.bias,[0.01536214]
sub_nn_17.hidden.weight,[[ 0.1413164  -0.09725653] [ 0.79391456 -0.53453505] [-0.01000304 -0.84742093]]
sub_nn_17.hidden.bias,[ 0.25792438 -0.3158827   0.35184664]
sub_nn_17.out.weight,[[0.48193645 0.58722836 0.31278092]]
sub_nn_17.out.bias,[-0.17721057]
sub_nn_18.hidden.weight,[[ 0.52217937  0.2800548 ] [ 0.41039294 -0.18307795] [-0.40289816 -0.22618414]]
sub_nn_18.hidden.bias,[-0.53461355 -0.01488056  0.47057816]
sub_nn_18.out.weight,[[-0.38212654  0.6660193  -0.13381122]]
sub_nn_18.out.bias,[0.22330356]
sub_nn_19.hidden.weight,[[-1.2647165   0.33022493] [ 0.55538726  0.4031704 ] [-0.26803094  0.06881306]]
sub_nn_19.hidden.bias,[ 0.22808631 -0.56764174  0.6447678 ]
sub_nn_19.out.weight,[[-0.36136344 -0.3224036   0.11905052]]
sub_nn_19.out.bias,[-0.4864708]
sub_nn_20.hidden.weight,[[ 0.21697813 -0.2122602 ] [ 0.54781526 -0.61009794] [-0.42798552  0.29743475]]
sub_nn_20.hidden.bias,[-0.21185094 -0.37644002  0.5123647 ]
sub_nn_20.out.weight,[[-0.75242573  0.97227806 -0.09163631]]
sub_nn_20.out.bias,[-0.4334666]
sub_nn_21.hidden.weight,[[ 0.10114443 -0.9077492 ] [ 0.6014431   0.04588766] [-1.2333952   0.45017692]]
sub_nn_21.hidden.bias,[-0.16354047  0.15370649 -0.6227057 ]
sub_nn_21.out.weight,[[ 0.7636033  -0.7608987  -0.43683887]]
sub_nn_21.out.bias,[0.48997176]
sub_nn_22.hidden.weight,[[-0.81375015 -0.3607056 ] [-0.7335636  -1.2696569 ] [-0.5947217  -0.49407077]]
sub_nn_22.hidden.bias,[ 0.6698631   0.47019655 -0.03427404]
sub_nn_22.out.weight,[[ 0.16776438 -0.8790195   0.1794593 ]]
sub_nn_22.out.bias,[-0.2448011]
sub_nn_23.hidden.weight,[[-0.24814692  0.18143344] [ 0.03192744  0.42086157] [-0.10384262 -0.5419143 ]]
sub_nn_23.hidden.bias,[-0.66136736 -0.12267037 -0.06857872]
sub_nn_23.out.weight,[[ 0.6790682  -0.591016   -0.26249686]]
sub_nn_23.out.bias,[0.28461772]
sub_nn_24.hidden.weight,[[ 0.45243844  1.0888749 ] [ 0.16274476 -0.05622989] [ 0.10733327  0.2783682 ]]
sub_nn_24.hidden.bias,[0.6816774  0.32046098 0.24840778]
sub_nn_24.out.weight,[[0.6235014  0.91858983 0.38695922]]
sub_nn_24.out.bias,[0.00542206]
sub_nn_25.hidden.weight,[[-0.80920476  0.07006224] [-0.5675619   0.67533535] [-0.6509425  -0.48444244]]
sub_nn_25.hidden.bias,[0.01090121 0.5325192  0.5906806 ]
sub_nn_25.out.weight,[[-0.28636023 -0.42650837  0.34222826]]
sub_nn_25.out.bias,[-0.09011573]
sub_nn_26.hidden.weight,[[-0.742139   -0.11836019] [-0.5325202   1.0254737 ] [-1.2049819  -1.1867467 ]]
sub_nn_26.hidden.bias,[ 0.34325564 -0.4356181  -0.5549768 ]
sub_nn_26.out.weight,[[ 0.01530779  0.42132896 -0.81710833]]
sub_nn_26.out.bias,[0.07620376]
sub_nn_27.hidden.weight,[[-0.06300209 -0.438979  ] [ 0.46373057 -1.2449958 ] [ 0.38186434 -0.08194904]]
sub_nn_27.hidden.bias,[-0.6776664 -0.3429283  0.5967079]
sub_nn_27.out.weight,[[-0.8201353   1.600294    0.28124148]]
sub_nn_27.out.bias,[0.284939]
sub_nn_28.hidden.weight,[[ 0.32937336  1.6441032 ] [ 0.3747878  -0.08742942] [-0.45719615  0.78195256]]
sub_nn_28.hidden.bias,[-0.6239749  -0.35443833  0.5056581 ]
sub_nn_28.out.weight,[[ 0.7729447 -0.8524013 -0.9589384]]
sub_nn_28.out.bias,[0.1750924]
sub_nn_29.hidden.weight,[[-0.73445445  0.1281743 ] [-1.6310983   0.4948581 ] [ 0.47359407  0.7760296 ]]
sub_nn_29.hidden.bias,[-0.0130933  -0.01908764 -0.11830902]
sub_nn_29.out.weight,[[ 0.05685085 -0.5496291  -0.3300158 ]]
sub_nn_29.out.bias,[-0.12850434]
sub_nn_30.hidden.weight,[[-0.2894526   0.20378907] [ 0.3037586   1.0038683 ] [ 0.37969187  0.5387237 ]]
sub_nn_30.hidden.bias,[-0.09148204  0.15029812 -0.3031336 ]
sub_nn_30.out.weight,[[-0.95417124 -0.25563693  0.21666034]]
sub_nn_30.out.bias,[0.21318638]
sub_nn_31.hidden.weight,[[ 0.7479484  -1.4871058 ] [ 0.18774365  0.49367014] [-0.1391765  -0.7469737 ]]
sub_nn_31.hidden.bias,[ 0.23626287 -0.5673313  -0.5879739 ]
sub_nn_31.out.weight,[[ 0.63104975 -0.00544593 -0.8349921 ]]
sub_nn_31.out.bias,[0.16411382]
sub_nn_32.hidden.weight,[[ 0.37637904  0.07653873] [-0.8628761  -1.1314399 ] [-1.1229199  -0.01229133]]
sub_nn_32.hidden.bias,[-0.6005942   0.18243344 -0.17162299]
sub_nn_32.out.weight,[[-0.65646017  0.9702705   1.1708964 ]]
sub_nn_32.out.bias,[-0.52575636]
sub_nn_33.hidden.weight,[[-0.02238573  0.7643555 ] [-1.2795066   0.38533056] [ 0.4227369  -0.6192262 ]]
sub_nn_33.hidden.bias,[ 0.18724163 -0.29026136 -0.35472825]
sub_nn_33.out.weight,[[0.6868007  0.24155457 0.15967901]]
sub_nn_33.out.bias,[-0.05914062]
sub_nn_34.hidden.weight,[[-1.0005106   0.11080728] [-0.13863362  0.9245828 ] [ 0.12668543 -0.8160301 ]]
sub_nn_34.hidden.bias,[-0.14531164 -0.6097046   0.53775805]
sub_nn_34.out.weight,[[ 0.01474536 -0.19244598  0.01887086]]
sub_nn_34.out.bias,[0.01234323]
sub_nn_35.hidden.weight,[[-0.34665254  1.2796415 ] [-1.1614524   0.02942574] [-1.070152   -0.1618077 ]]
sub_nn_35.hidden.bias,[0.02045711 0.48809728 0.6186599 ]
sub_nn_35.out.weight,[[ 0.01824963  0.7079725  -1.7988516 ]]
sub_nn_35.out.bias,[0.17466557]
sub_nn_36.hidden.weight,[[ 0.45921996  0.5179777 ] [ 0.30601355 -0.8998742 ] [ 0.07959639 -0.21318886]]
sub_nn_36.hidden.bias,[ 0.2666276  -0.45593792 -0.01643226]
sub_nn_36.out.weight,[[-0.09847882 -0.2243372  -0.61035174]]
sub_nn_36.out.bias,[-0.34168184]
sub_nn_37.hidden.weight,[[-0.67982095  0.45589358] [-0.6516819   0.2970871 ] [-0.65943146 -0.5078376 ]]
sub_nn_37.hidden.bias,[0.45246857 0.18375911 0.38966367]
sub_nn_37.out.weight,[[0.26955524 1.1997981  1.1451906 ]]
sub_nn_37.out.bias,[0.49742353]
sub_nn_38.hidden.weight,[[ 0.5746868  -1.0036402 ] [ 0.20290934 -0.40281418] [-0.1350861  -0.09089112]]
sub_nn_38.hidden.bias,[ 0.03552863 -0.67614055  0.46566886]
sub_nn_38.out.weight,[[ 1.8432833 -1.3766109 -0.9548696]]
sub_nn_38.out.bias,[0.4563818]
sub_nn_39.hidden.weight,[[ 0.1209074  -0.69828486] [-0.5346496  -0.5053    ] [ 0.06934924  1.4658554 ]]
sub_nn_39.hidden.bias,[ 0.596917   -0.25099957 -0.23856431]
sub_nn_39.out.weight,[[-1.4777889  -0.10485668  0.01137778]]
sub_nn_39.out.bias,[-0.4862051]
sub_nn_40.hidden.weight,[[-0.06312947 -0.24840277] [-0.0480841  -0.5746736 ] [-2.1195853  -0.83822995]]
sub_nn_40.hidden.bias,[ 0.4958864  0.5631044 -0.2396827]
sub_nn_40.out.weight,[[ 0.6920892 -1.1707683 -1.0923647]]
sub_nn_40.out.bias,[0.4495722]
sub_nn_41.hidden.weight,[[ 0.64485747  0.13165611] [-0.87970704 -0.3484146 ] [-0.8695425   0.05837257]]
sub_nn_41.hidden.bias,[-0.1383295   0.22543536 -0.657276  ]
sub_nn_41.out.weight,[[ 0.5758516 -0.9468693  0.7907038]]
sub_nn_41.out.bias,[0.33988488]
sub_nn_42.hidden.weight,[[ 0.333766   -0.15868013] [-0.17638947 -0.14975396] [ 0.85889614  0.15097657]]
sub_nn_42.hidden.bias,[ 0.17949384 -0.57316864  0.2667005 ]
sub_nn_42.out.weight,[[-0.06049621  0.16277869 -0.10061896]]
sub_nn_42.out.bias,[0.2012927]
sub_nn_43.hidden.weight,[[ 0.28306058 -0.16418244] [-0.19359328 -0.09657652] [ 0.01888902 -0.21476586]]
sub_nn_43.hidden.bias,[-0.02584642 -0.36597642 -0.4081949 ]
sub_nn_43.out.weight,[[ 0.98146427 -0.81470245  0.0919766 ]]
sub_nn_43.out.bias,[0.45284545]
sub_nn_44.hidden.weight,[[ 0.87350523 -0.90021396] [ 0.29024044  0.6911632 ] [ 0.311973    0.47872484]]
sub_nn_44.hidden.bias,[-0.1960751  -0.25455913 -0.16831058]
sub_nn_44.out.weight,[[ 0.4111541  -0.3849442  -0.24225283]]
sub_nn_44.out.bias,[-0.34980547]
sub_nn_45.hidden.weight,[[ 0.7261677  -0.05873424] [-0.01970868 -0.01572167] [ 0.76772034  0.48314962]]
sub_nn_45.hidden.bias,[-0.38078815 -0.3031052  -0.54865825]
sub_nn_45.out.weight,[[-0.11244869  0.47685507  0.21614626]]
sub_nn_45.out.bias,[-0.36695224]
sub_nn_46.hidden.weight,[[-0.40443727  0.1493258 ] [-0.9163732  -0.73602664] [ 0.36710608 -0.60274756]]
sub_nn_46.hidden.bias,[-0.41985893 -0.23799026 -0.44346973]
sub_nn_46.out.weight,[[-0.53109294 -0.89742893  0.8192611 ]]
sub_nn_46.out.bias,[0.05334556]
sub_nn_47.hidden.weight,[[ 0.48229286 -0.06385165] [ 0.33146757  0.13784328] [-0.46034792  0.4738598 ]]
sub_nn_47.hidden.bias,[ 0.50022715  0.23004156 -0.5703289 ]
sub_nn_47.out.weight,[[ 0.04818502 -0.46214077 -0.45511305]]
sub_nn_47.out.bias,[-0.40704536]
sub_nn_48.hidden.weight,[[-0.24741927 -0.5168039 ] [-0.10816668  0.8677775 ] [ 0.35668817  0.75314826]]
sub_nn_48.hidden.bias,[-0.40915072  0.6443543   0.10891032]
sub_nn_48.out.weight,[[-1.0695456  -0.6324416   0.02680389]]
sub_nn_48.out.bias,[-0.56475824]
sub_nn_49.hidden.weight,[[ 0.13149926  0.06823733] [-0.04618273  0.15843351] [-1.1297526   0.68788224]]
sub_nn_49.hidden.bias,[-0.36938518  0.04289818 -0.3343229 ]
sub_nn_49.out.weight,[[0.94677436 0.6370206  0.9403677 ]]
sub_nn_49.out.bias,[0.54163635]
sub_nn_50.hidden.weight,[[-1.3173838   0.17917788] [ 0.31097662  0.7836209 ] [ 0.17286617  0.51138717]]
sub_nn_50.hidden.bias,[0.59709543 0.3955447  0.40692908]
sub_nn_50.out.weight,[[-0.35291314 -0.00850581  1.0820909 ]]
sub_nn_50.out.bias,[-0.212942]
sub_nn_51.hidden.weight,[[-0.05450429 -0.81354326] [-0.3567169  -1.3110145 ] [ 0.14613669  1.703971  ]]
sub_nn_51.hidden.bias,[ 0.15004201  0.67411685 -0.19079906]
sub_nn_51.out.weight,[[-1.0517575   0.37899122 -0.09737334]]
sub_nn_51.out.bias,[-0.35642946]
sub_nn_52.hidden.weight,[[ 0.33967772 -0.5961185 ] [-0.3755181  -0.4963255 ] [-0.04629339  0.2160335 ]]
sub_nn_52.hidden.bias,[-0.04336273 -0.23563468 -0.40995196]
sub_nn_52.out.weight,[[ 0.40121934 -0.42570892 -0.05449577]]
sub_nn_52.out.bias,[-0.01100731]
sub_nn_53.hidden.weight,[[-0.8648764  1.0357798] [ 0.7303091 -0.6637283] [ 0.735298   1.4463315]]
sub_nn_53.hidden.bias,[0.512719   0.19932258 0.17009532]
sub_nn_53.out.weight,[[ 0.46983021 -0.9645113  -1.2043269 ]]
sub_nn_53.out.bias,[-0.42999098]
sub_nn_54.hidden.weight,[[ 0.8699835   0.231272  ] [-0.885858    0.3395822 ] [-0.19590619  0.6593918 ]]
sub_nn_54.hidden.bias,[-0.28269392  0.52282697 -0.11168307]
sub_nn_54.out.weight,[[-0.24414235  0.03087327 -0.91129404]]
sub_nn_54.out.bias,[0.06206727]
sub_nn_55.hidden.weight,[[ 1.1093035   0.27463597] [ 0.3867647   1.0673134 ] [-0.57148874  0.20365569]]
sub_nn_55.hidden.bias,[ 0.01392204 -0.13315125 -0.5228238 ]
sub_nn_55.out.weight,[[ 0.05938827 -0.68685967 -0.45687127]]
sub_nn_55.out.bias,[0.04326332]
sub_nn_56.hidden.weight,[[ 1.3145325   0.610673  ] [-0.36378747 -1.132286  ] [-1.0906466  -0.3557357 ]]
sub_nn_56.hidden.bias,[-0.45113102 -0.20912296 -0.09231216]
sub_nn_56.out.weight,[[1.1627709  0.05100458 0.8374198 ]]
sub_nn_56.out.bias,[-0.56059545]
sub_nn_57.hidden.weight,[[ 0.07330337  0.37181038] [-0.06338742  0.21601191] [-0.11868552  0.10125124]]
sub_nn_57.hidden.bias,[ 0.12517983  0.26317945 -0.6926392 ]
sub_nn_57.out.weight,[[-0.3628562  0.6453563  1.0378194]]
sub_nn_57.out.bias,[0.23969692]
sub_nn_58.hidden.weight,[[-6.28522873e-01  8.91663671e-01] [ 7.15549767e-01 -1.20684415e-01] [ 4.41759854e-04 -3.23137045e-01]]
sub_nn_58.hidden.bias,[ 0.43741292  0.12312865 -0.0970077 ]
sub_nn_58.out.weight,[[-0.11490702  0.1430991   1.5073456 ]]
sub_nn_58.out.bias,[0.2939976]
sub_nn_59.hidden.weight,[[-0.48511845 -0.10875031] [-1.731568    0.35051608] [ 0.08707514 -0.40405342]]
sub_nn_59.hidden.bias,[0.7006654  0.18622681 0.00850604]
sub_nn_59.out.weight,[[ 0.6684429   0.3172985  -0.12302876]]
sub_nn_59.out.bias,[0.04762995]
sub_nn_60.hidden.weight,[[ 0.33960965  0.32606623] [-0.7957543   0.38974932] [ 0.04866831 -0.33085275]]
sub_nn_60.hidden.bias,[ 0.16764438 -0.6261546   0.3944998 ]
sub_nn_60.out.weight,[[0.5879209  0.9357811  0.49344093]]
sub_nn_60.out.bias,[0.5364789]
sub_nn_61.hidden.weight,[[-0.00526484 -0.39934456] [ 0.8630087  -0.16895099] [-0.0691408  -0.27027318]]
sub_nn_61.hidden.bias,[ 0.0488864  -0.15376848  0.38751537]
sub_nn_61.out.weight,[[0.7927107 1.3143531 0.4454628]]
sub_nn_61.out.bias,[0.26621723]
sub_nn_62.hidden.weight,[[ 0.499194   -0.89588815] [-0.93977547 -0.9390982 ] [-1.3102176  -0.26597282]]
sub_nn_62.hidden.bias,[0.18640104 0.28829318 0.66562957]
sub_nn_62.out.weight,[[ 0.45015454 -0.12741154  0.6914941 ]]
sub_nn_62.out.bias,[0.40207523]
sub_nn_63.hidden.weight,[[-0.3385315  -0.60991615] [ 0.09524324 -0.33586562] [ 0.5480985  -0.73958063]]
sub_nn_63.hidden.bias,[-0.43542987  0.073224   -0.56695384]
sub_nn_63.out.weight,[[ 0.34592122 -0.84739214  0.01209077]]
sub_nn_63.out.bias,[0.5388479]
sub_nn_64.hidden.weight,[[-1.2949885  -0.6110785 ] [ 0.7474045   0.8090388 ] [-0.10312602 -0.27111545]]
sub_nn_64.hidden.bias,[0.44165936 0.1393252  0.52424985]
sub_nn_64.out.weight,[[ 1.2963449  -0.16187792 -0.11975426]]
sub_nn_64.out.bias,[0.48432052]
sub_nn_65.hidden.weight,[[ 0.28209087 -1.0079271 ] [ 0.14994504  1.0359298 ] [ 0.12995084  0.09478132]]
sub_nn_65.hidden.bias,[-0.39862    -0.3541989   0.28654402]
sub_nn_65.out.weight,[[0.08424326 0.47878975 0.18072999]]
sub_nn_65.out.bias,[0.03707236]
sub_nn_66.hidden.weight,[[ 0.3931153   1.246159  ] [ 1.0847578  -0.60836965] [ 0.87988085  0.13124803]]
sub_nn_66.hidden.bias,[-0.05616719 -0.08404949  0.19498748]
sub_nn_66.out.weight,[[ 0.06802592 -1.3405784  -0.38592842]]
sub_nn_66.out.bias,[0.08805811]
sub_nn_67.hidden.weight,[[-0.01477056 -0.06773197] [-0.65716946 -0.2190073 ] [-0.6457089  -0.3307191 ]]
sub_nn_67.hidden.bias,[-0.06929445  0.53360593 -0.24627945]
sub_nn_67.out.weight,[[-0.4009015  -0.39581087  0.190574  ]]
sub_nn_67.out.bias,[-0.10743047]
sub_nn_68.hidden.weight,[[-0.64688176 -0.3889118 ] [-0.26904303  0.7087848 ] [ 0.6140619  -0.47084907]]
sub_nn_68.hidden.bias,[-0.04663801 -0.52620363  0.30549887]
sub_nn_68.out.weight,[[ 0.49003708  0.31189117 -0.04937797]]
sub_nn_68.out.bias,[0.5484661]
sub_nn_69.hidden.weight,[[ 0.24041842  0.77402526] [ 0.39898163  0.68768275] [-0.12276258  0.34511665]]
sub_nn_69.hidden.bias,[ 0.48359936  0.6508772  -0.3810982 ]
sub_nn_69.out.weight,[[-0.28312567  0.36406296  0.10450689]]
sub_nn_69.out.bias,[0.06622696]
sub_nn_70.hidden.weight,[[0.16453934 0.00629015] [0.8021026  0.9265478 ] [0.44511893 0.2165329 ]]
sub_nn_70.hidden.bias,[ 0.48501366  0.36341065 -0.45356902]
sub_nn_70.out.weight,[[-0.04782096  1.1949322   0.46680167]]
sub_nn_70.out.bias,[-0.27118856]
sub_nn_71.hidden.weight,[[ 0.51494247 -0.82058156] [ 0.7610109   0.07046166] [-0.07359769  0.13862453]]
sub_nn_71.hidden.bias,[-0.09774905 -0.40145302  0.1795037 ]
sub_nn_71.out.weight,[[-0.28157657  1.0263654  -0.385445  ]]
sub_nn_71.out.bias,[-0.5184814]
sub_nn_72.hidden.weight,[[-0.19985847  0.00926283] [-1.2196481   0.49802148] [ 0.32559225 -0.2771431 ]]
sub_nn_72.hidden.bias,[-0.4406714   0.11762215 -0.5030232 ]
sub_nn_72.out.weight,[[1.42041    0.68652976 0.07605275]]
sub_nn_72.out.bias,[0.30627823]
sub_nn_73.hidden.weight,[[-0.25267568  0.783898  ] [-0.29340002  0.608586  ] [-0.11621421  0.07123832]]
sub_nn_73.hidden.bias,[-0.4466924  -0.61228627  0.2539215 ]
sub_nn_73.out.weight,[[ 0.16948493 -0.02886108 -0.23052742]]
sub_nn_73.out.bias,[-0.10390732]
sub_nn_74.hidden.weight,[[-0.3579771  -0.01719214] [ 0.3197883   0.07956761] [-0.00845708 -0.9975921 ]]
sub_nn_74.hidden.bias,[0.6417486  0.03365201 0.62229806]
sub_nn_74.out.weight,[[ 0.5898224   0.16072334 -0.836552  ]]
sub_nn_74.out.bias,[-0.40362316]
sub_nn_75.hidden.weight,[[-0.07683247  0.2623972 ] [ 0.39483368 -1.1921059 ] [ 0.15063097 -0.28958914]]
sub_nn_75.hidden.bias,[ 0.42929968  0.4351299  -0.6768144 ]
sub_nn_75.out.weight,[[-0.82208836 -1.8347827  -0.05035814]]
sub_nn_75.out.bias,[0.43870974]
sub_nn_76.hidden.weight,[[-0.7222864   0.33099213] [ 0.8764646   1.2720338 ] [ 0.00640855  0.11662726]]
sub_nn_76.hidden.bias,[-0.11841568  0.07248712  0.05397099]
sub_nn_76.out.weight,[[-0.23163372 -0.08461212  0.54199654]]
sub_nn_76.out.bias,[-0.08288795]
sub_nn_77.hidden.weight,[[ 0.0928999   0.739748  ] [ 0.33267403 -0.88020414] [-0.0266745  -0.5756372 ]]
sub_nn_77.hidden.bias,[-0.26398137 -0.06918272 -0.35129803]
sub_nn_77.out.weight,[[ 1.1004356  -0.71167725  0.7789478 ]]
sub_nn_77.out.bias,[0.5533186]
sub_nn_78.hidden.weight,[[ 0.78124255  0.7895372 ] [ 1.1551043  -0.43211007] [ 0.27355522 -0.5149729 ]]
sub_nn_78.hidden.bias,[-0.6793995   0.38515344 -0.23671016]
sub_nn_78.out.weight,[[-0.33163556  0.38283947 -0.12919861]]
sub_nn_78.out.bias,[0.03546447]
sub_nn_79.hidden.weight,[[-0.16694538  0.204739  ] [-0.20529595  0.16194873] [ 0.26198477  0.22742324]]
sub_nn_79.hidden.bias,[0.09102551 0.02369535 0.17171073]
sub_nn_79.out.weight,[[0.4787481  0.48393822 0.45476526]]
sub_nn_79.out.bias,[0.26318848]
sub_nn_80.hidden.weight,[[ 0.13793433  0.45180523] [ 0.15961413 -1.2495944 ] [-0.64534867  0.7568265 ]]
sub_nn_80.hidden.bias,[-0.0478306   0.10325085 -0.26161367]
sub_nn_80.out.weight,[[-0.39118266  0.04979555 -0.33469474]]
sub_nn_80.out.bias,[-0.36215153]
sub_nn_81.hidden.weight,[[-0.12009519 -0.13324761] [-0.08303671  0.66810936] [-0.59835696 -1.7928957 ]]
sub_nn_81.hidden.bias,[ 0.04577126  0.04537339 -0.54856956]
sub_nn_81.out.weight,[[-1.0255178 -0.9072647 -0.1002156]]
sub_nn_81.out.bias,[0.01506549]
sub_nn_82.hidden.weight,[[-0.12470844 -0.47700763] [-0.5189682   0.8861991 ] [ 0.03905841  0.7481642 ]]
sub_nn_82.hidden.bias,[-0.04515421 -0.5184638  -0.3021285 ]
sub_nn_82.out.weight,[[1.6571362  0.49595428 0.5896352 ]]
sub_nn_82.out.bias,[-0.5453061]
sub_nn_83.hidden.weight,[[ 0.30816367  0.41924998] [-0.59264946 -0.34476015] [ 0.50605625  1.0900074 ]]
sub_nn_83.hidden.bias,[-0.41874605 -0.4166699   0.5641895 ]
sub_nn_83.out.weight,[[-0.16293314  0.6272569  -1.5762503 ]]
sub_nn_83.out.bias,[0.46633434]
sub_nn_84.hidden.weight,[[-0.05276547  0.6987383 ] [-0.28138143 -0.31450018] [-0.01793617  0.41314295]]
sub_nn_84.hidden.bias,[0.49607208 0.10082208 0.44871256]
sub_nn_84.out.weight,[[ 0.12333247 -0.45583284 -0.03307844]]
sub_nn_84.out.bias,[0.3516438]
sub_nn_85.hidden.weight,[[-1.1737769   0.4690193 ] [ 0.5982888  -0.34102023] [ 0.62259537 -0.26896217]]
sub_nn_85.hidden.bias,[ 0.6134389  -0.46520558  0.18117999]
sub_nn_85.out.weight,[[-0.83849585  0.5154129   0.8609306 ]]
sub_nn_85.out.bias,[0.11758167]
sub_nn_86.hidden.weight,[[ 0.12386438  0.680809  ] [-0.26762834 -1.1000907 ] [ 0.64828044 -0.3000572 ]]
sub_nn_86.hidden.bias,[0.45341963 0.56813556 0.68546444]
sub_nn_86.out.weight,[[ 0.3461346  -0.81178254  0.29875642]]
sub_nn_86.out.bias,[0.13546121]
sub_nn_87.hidden.weight,[[ 0.68758    -0.5685028 ] [-0.13482474  0.25999656] [ 0.27649     0.8261343 ]]
sub_nn_87.hidden.bias,[0.5585229 0.2133075 0.0905503]
sub_nn_87.out.weight,[[0.00676441 0.17978427 0.8435514 ]]
sub_nn_87.out.bias,[-0.23018873]
sub_nn_88.hidden.weight,[[ 1.0590194  -1.2399786 ] [-0.16448393  0.30131802] [ 0.36499864 -0.36789328]]
sub_nn_88.hidden.bias,[ 0.46144587 -0.68791056  0.39732632]
sub_nn_88.out.weight,[[-0.5157853   2.0665379  -0.39120862]]
sub_nn_88.out.bias,[-0.21600068]
sub_nn_89.hidden.weight,[[-0.24592844 -0.23630545] [-0.20150855  0.31335515] [-0.6095557  -0.62081146]]
sub_nn_89.hidden.bias,[ 0.4439392 -0.2130866 -0.1348527]
sub_nn_89.out.weight,[[ 0.02271828  0.654391   -0.56343687]]
sub_nn_89.out.bias,[-0.09563491]
sub_nn_90.hidden.weight,[[-0.4849644   0.02912511] [ 0.32344714  0.48608416] [ 0.70575416 -0.8541961 ]]
sub_nn_90.hidden.bias,[ 0.28694957  0.01648235 -0.12965105]
sub_nn_90.out.weight,[[-0.22470121 -0.44272044  1.0361524 ]]
sub_nn_90.out.bias,[0.44954157]
sub_nn_91.hidden.weight,[[-0.5024287  -0.7190616 ] [-0.19312483  0.01888908] [ 0.01918579  1.242423  ]]
sub_nn_91.hidden.bias,[ 0.5218445   0.7030466  -0.03992548]
sub_nn_91.out.weight,[[-0.7981971 -0.6778583  0.7470899]]
sub_nn_91.out.bias,[0.4780798]
sub_nn_92.hidden.weight,[[-0.1400596   0.3734196 ] [ 0.44368643 -0.13496172] [ 0.27205628  0.1392446 ]]
sub_nn_92.hidden.bias,[-0.16289538 -0.329848   -0.46349764]
sub_nn_92.out.weight,[[-0.74080825 -1.9444861  -0.11889859]]
sub_nn_92.out.bias,[-0.05723518]
sub_nn_93.hidden.weight,[[ 0.05651325 -0.02895775] [-0.55112344 -0.20210052] [-0.6632415   1.0557454 ]]
sub_nn_93.hidden.bias,[ 0.57971305 -0.01733702  0.28711316]
sub_nn_93.out.weight,[[-1.0116216   0.15889747 -0.765475  ]]
sub_nn_93.out.bias,[0.29806137]
sub_nn_94.hidden.weight,[[ 0.88005435 -0.2647299 ] [ 0.07954985  0.43443266] [ 0.914093   -0.55333596]]
sub_nn_94.hidden.bias,[ 0.33974427  0.23508501 -0.37713802]
sub_nn_94.out.weight,[[-0.17163365 -0.84819967  0.96057266]]
sub_nn_94.out.bias,[-0.34239393]
sub_nn_95.hidden.weight,[[ 0.27958158  0.03702713] [-0.5310788  -0.82810545] [-0.59715337 -0.11082841]]
sub_nn_95.hidden.bias,[ 0.35229653  0.6323342  -0.41051248]
sub_nn_95.out.weight,[[-0.84663224  0.57953656 -0.53968763]]
sub_nn_95.out.bias,[0.0241788]
sub_nn_96.hidden.weight,[[ 0.41133985  1.926222  ] [-0.42151165  0.0036257 ] [ 0.3931044  -0.43816206]]
sub_nn_96.hidden.bias,[ 0.33257896 -0.61300164 -0.63356787]
sub_nn_96.out.weight,[[-0.91790396 -0.4125066  -0.58428895]]
sub_nn_96.out.bias,[0.28554845]
sub_nn_97.hidden.weight,[[-0.4059621  -0.44655544] [ 0.28130674  0.47945422] [ 0.23174545 -0.18246931]]
sub_nn_97.hidden.bias,[-0.6034438   0.20080042 -0.62176234]
sub_nn_97.out.weight,[[ 0.8994655   1.3151605  -0.20711967]]
sub_nn_97.out.bias,[0.118949]
sub_nn_98.hidden.weight,[[-0.61581045  0.04475176] [-0.04969129 -0.5866671 ] [ 0.13346481  1.2032046 ]]
sub_nn_98.hidden.bias,[ 0.25936392 -0.29867634  0.5433685 ]
sub_nn_98.out.weight,[[-0.16275632  0.03406242  0.44560838]]
sub_nn_98.out.bias,[-0.343026]
sub_nn_99.hidden.weight,[[-0.21955249 -0.42377758] [-0.49930254 -0.3760725 ] [-0.29300335  0.35773134]]
sub_nn_99.hidden.bias,[ 0.48074487 -0.63102734 -0.2922097 ]
sub_nn_99.out.weight,[[-1.0900971 -1.4742957 -0.9170968]]
sub_nn_99.out.bias,[-0.5033107]
sub_nn_100.hidden.weight,[[-0.01757234  0.5248419 ] [-0.09857696  0.8727241 ] [ 0.25402987  0.3002491 ]]
sub_nn_100.hidden.bias,[ 0.41551703 -0.24108592  0.1798749 ]
sub_nn_100.out.weight,[[ 0.17582566  0.67972755 -0.64712024]]
sub_nn_100.out.bias,[-0.32111362]
sub_nn_101.hidden.weight,[[ 0.11810761 -0.04597024] [-0.81748533  0.21205543] [ 0.5023325   0.6902804 ]]
sub_nn_101.hidden.bias,[-0.05250101 -0.3163288   0.50818676]
sub_nn_101.out.weight,[[0.3787024  1.217782   0.49489823]]
sub_nn_101.out.bias,[0.36615402]
sub_nn_102.hidden.weight,[[ 0.5332424  -0.438636  ] [-0.19534789  0.6459163 ] [ 0.19167538 -0.60143054]]
sub_nn_102.hidden.bias,[ 0.16929302  0.3787311  -0.5553696 ]
sub_nn_102.out.weight,[[-1.1570961  -0.91792655  0.84926254]]
sub_nn_102.out.bias,[-0.2427524]
sub_nn_103.hidden.weight,[[-0.16400887  0.14721343] [ 0.34522828 -0.19693461] [ 0.00529264  0.38833508]]
sub_nn_103.hidden.bias,[-0.7041433   0.37667337  0.17202508]
sub_nn_103.out.weight,[[ 1.2885393 -0.8259554 -0.7714314]]
sub_nn_103.out.bias,[-0.15478891]
sub_nn_104.hidden.weight,[[-0.66269463 -0.6418655 ] [ 0.02934257  0.28292143] [ 0.2562472  -0.66960573]]
sub_nn_104.hidden.bias,[ 0.5990848   0.5783822  -0.23453566]
sub_nn_104.out.weight,[[ 0.49683648 -1.7567443   0.72472006]]
sub_nn_104.out.bias,[0.32641166]
sub_nn_105.hidden.weight,[[ 0.48581958 -0.3846627 ] [-0.14079536  0.19806197] [-1.2222936   0.01124437]]
sub_nn_105.hidden.bias,[ 0.5106233  -0.6706515  -0.00739198]
sub_nn_105.out.weight,[[ 1.2273687   0.23432957 -0.35967255]]
sub_nn_105.out.bias,[0.04132068]
sub_nn_106.hidden.weight,[[-0.7731007   0.2331212 ] [ 0.02984382 -0.22068971] [-0.16197391 -0.54996574]]
sub_nn_106.hidden.bias,[-0.7055359   0.5581073  -0.16315156]
sub_nn_106.out.weight,[[-0.11865682  0.09317761 -0.299334  ]]
sub_nn_106.out.bias,[0.2657326]
sub_nn_107.hidden.weight,[[-1.0780382  -0.63799644] [ 0.35759795 -0.34790573] [ 0.16163981 -0.03165899]]
sub_nn_107.hidden.bias,[-0.22263953  0.1815871   0.53123957]
sub_nn_107.out.weight,[[-1.3317349   0.832921   -0.39079157]]
sub_nn_107.out.bias,[0.1470201]
sub_nn_108.hidden.weight,[[ 0.57548    -1.0609142 ] [-1.249637   -0.89969623] [-0.4610656  -0.3309202 ]]
sub_nn_108.hidden.bias,[-0.07547364 -0.5481762   0.5478949 ]
sub_nn_108.out.weight,[[ 0.4432096  -0.35837173 -0.56361485]]
sub_nn_108.out.bias,[0.31818247]
sub_nn_109.hidden.weight,[[ 0.15562326  0.29834136] [ 0.35755762  0.05517621] [ 0.31869838 -0.9554373 ]]
sub_nn_109.hidden.bias,[-0.66313714  0.45147675 -0.45011732]
sub_nn_109.out.weight,[[0.7601337  0.34516236 1.9810712 ]]
sub_nn_109.out.bias,[0.51102924]
sub_nn_110.hidden.weight,[[-0.6387929  -0.09222163] [ 0.6346842  -0.71165913] [-0.8073873   0.9192655 ]]
sub_nn_110.hidden.bias,[ 0.188623  -0.5454641 -0.6099026]
sub_nn_110.out.weight,[[ 0.82935864  0.4830924  -0.15081881]]
sub_nn_110.out.bias,[0.57441103]
sub_nn_111.hidden.weight,[[ 0.73899055  1.1701026 ] [-0.5513361  -0.20692974] [ 0.4025433   1.533164  ]]
sub_nn_111.hidden.bias,[-0.05597508  0.43066168 -0.01480194]
sub_nn_111.out.weight,[[-0.03545438  0.5926966  -0.48560482]]
sub_nn_111.out.bias,[0.5510572]
sub_nn_112.hidden.weight,[[ 0.08970015 -0.45894068] [ 0.7037522   0.21274164] [ 0.7711534   0.34611794]]
sub_nn_112.hidden.bias,[0.32965848 0.41231495 0.6688457 ]
sub_nn_112.out.weight,[[-0.23012441  0.03818152 -0.11279874]]
sub_nn_112.out.bias,[0.51548386]
sub_nn_113.hidden.weight,[[ 0.02800262 -0.03488903] [-0.740692   -0.78272784] [ 0.08572842 -0.06411455]]
sub_nn_113.hidden.bias,[ 0.24799821 -0.6164759   0.3639545 ]
sub_nn_113.out.weight,[[0.94578105 0.24964777 0.12578662]]
sub_nn_113.out.bias,[0.2547003]
sub_nn_114.hidden.weight,[[-1.5881526   0.4058079 ] [-1.0126109   0.34122843] [-0.63745564 -1.0772293 ]]
sub_nn_114.hidden.bias,[-0.31264916 -0.42941484 -0.3002431 ]
sub_nn_114.out.weight,[[ 0.5776795  -0.26780403  1.3958619 ]]
sub_nn_114.out.bias,[-0.09822661]
sub_nn_115.hidden.weight,[[-0.44671565  0.32435384] [-1.2384104  -0.17106912] [-0.8591372   0.25943065]]
sub_nn_115.hidden.bias,[-0.27092278 -0.12747204 -0.48541662]
sub_nn_115.out.weight,[[ 0.11053595  0.7517958  -0.539592  ]]
sub_nn_115.out.bias,[-0.26088917]
sub_nn_116.hidden.weight,[[ 0.41339424  1.4759847 ] [ 1.0563045  -0.63014853] [-0.5185335   0.05194214]]
sub_nn_116.hidden.bias,[ 0.5304262   0.04253205 -0.21964645]
sub_nn_116.out.weight,[[ 0.9534783   0.24213922 -0.0308873 ]]
sub_nn_116.out.bias,[-0.2810534]
sub_nn_117.hidden.weight,[[ 1.1096176   0.9153602 ] [ 0.2723139   0.11707597] [-0.08023981 -0.2883449 ]]
sub_nn_117.hidden.bias,[-0.12472498 -0.55639833 -0.07168359]
sub_nn_117.out.weight,[[-0.47265816 -0.39846566  1.0231404 ]]
sub_nn_117.out.bias,[0.37513614]
sub_nn_118.hidden.weight,[[ 1.0296315   0.19062966] [-0.68011165 -0.39068124] [ 0.06804615  0.17665465]]
sub_nn_118.hidden.bias,[ 0.37025446  0.40094918 -0.697262  ]
sub_nn_118.out.weight,[[ 0.05917749 -0.49942288 -0.3173621 ]]
sub_nn_118.out.bias,[0.14584792]
sub_nn_119.hidden.weight,[[ 0.10519545 -0.01238847] [ 0.83654046  0.31775114] [-0.09166784  0.34287056]]
sub_nn_119.hidden.bias,[-0.22979614  0.42203957  0.67026347]
sub_nn_119.out.weight,[[-0.619685   -0.59207314  0.08714424]]
sub_nn_119.out.bias,[-0.359756]
sub_nn_120.hidden.weight,[[ 0.15718982 -0.15478821] [-0.28591144 -0.10327412] [ 0.26860848  0.46886343]]
sub_nn_120.hidden.bias,[ 0.10676873  0.51882726 -0.06399561]
sub_nn_120.out.weight,[[1.1024123  0.48771593 1.6163126 ]]
sub_nn_120.out.bias,[-0.48985445]
sub_nn_121.hidden.weight,[[-0.5463185   1.1607145 ] [-0.91107243 -0.844397  ] [-0.08025831  0.47696427]]
sub_nn_121.hidden.bias,[ 0.66494435 -0.5694018   0.14652498]
sub_nn_121.out.weight,[[-0.6856369   1.2764163   0.26202866]]
sub_nn_121.out.bias,[-0.04962355]
sub_nn_122.hidden.weight,[[-0.4626323  -0.15791407] [-0.3193903   2.0343454 ] [ 0.3734298  -1.4047463 ]]
sub_nn_122.hidden.bias,[0.41270798 0.45370707 0.58024585]
sub_nn_122.out.weight,[[ 0.05640491 -0.08935323 -0.41121677]]
sub_nn_122.out.bias,[0.01107389]
sub_nn_123.hidden.weight,[[-1.1770147   0.20564187] [-1.0136907   1.8116342 ] [-0.42240393 -0.13190071]]
sub_nn_123.hidden.bias,[-0.1760645  -0.54670966 -0.66909057]
sub_nn_123.out.weight,[[-0.54177713  0.5842241  -0.14617598]]
sub_nn_123.out.bias,[-0.1075601]
sub_nn_124.hidden.weight,[[-1.5361903  -0.16948414] [ 0.4931865  -0.6735415 ] [-0.49632686 -0.23803847]]
sub_nn_124.hidden.bias,[-0.6599095  -0.63371384 -0.58113897]
sub_nn_124.out.weight,[[ 0.62822217 -0.12542745  2.5913234 ]]
sub_nn_124.out.bias,[0.36829287]
sub_nn_125.hidden.weight,[[ 0.9344085   0.01100352] [ 0.0412341  -0.3750383 ] [-0.2700621   0.06754833]]
sub_nn_125.hidden.bias,[ 0.61603075 -0.21881178  0.29693824]
sub_nn_125.out.weight,[[-0.5394041  -0.10760076  0.01377505]]
sub_nn_125.out.bias,[-0.21399552]
sub_nn_126.hidden.weight,[[-0.6692316  -0.20011984] [ 0.29034415  1.3486049 ] [-0.4182309  -0.13859184]]
sub_nn_126.hidden.bias,[-0.26355907  0.6989507   0.09401184]
sub_nn_126.out.weight,[[0.04171892 1.3384527  0.04468282]]
sub_nn_126.out.bias,[0.4288262]
sub_nn_127.hidden.weight,[[ 0.35959175  1.7639469 ] [ 0.52863526 -0.7639929 ] [-0.16332528 -0.7439511 ]]
sub_nn_127.hidden.bias,[-0.0013112   0.44329232  0.5240155 ]
sub_nn_127.out.weight,[[-0.54831314 -0.16321382  0.36022192]]
sub_nn_127.out.bias,[0.22348589]
sub_nn_128.hidden.weight,[[ 0.11004347 -1.3369637 ] [ 0.39160654 -0.15311569] [ 0.11492387 -0.2535057 ]]
sub_nn_128.hidden.bias,[-0.06988929 -0.47217447 -0.64568007]
sub_nn_128.out.weight,[[-0.6985721 -0.3915738  0.4925988]]
sub_nn_128.out.bias,[-0.51100445]
sub_nn_129.hidden.weight,[[ 0.49576706 -0.20779687] [-0.8953184   0.36231557] [-0.5418614   0.7432684 ]]
sub_nn_129.hidden.bias,[-0.07130836  0.44008073  0.38494912]
sub_nn_129.out.weight,[[-0.15018415 -0.35746464  0.42259258]]
sub_nn_129.out.bias,[0.13789612]
sub_nn_130.hidden.weight,[[-0.02742667 -0.31969634] [ 0.9945889   0.28188914] [-0.5664415  -0.70447755]]
sub_nn_130.hidden.bias,[0.36057833 0.36320835 0.6530892 ]
sub_nn_130.out.weight,[[-1.1169461  -0.63052166  0.3475125 ]]
sub_nn_130.out.bias,[0.5289998]
sub_nn_131.hidden.weight,[[ 0.7156525   0.7952373 ] [-0.24020669  0.5842939 ] [-0.11498797 -0.17829095]]
sub_nn_131.hidden.bias,[ 0.00464368 -0.05442304  0.5537601 ]
sub_nn_131.out.weight,[[-0.04311594 -1.2060438   1.6443263 ]]
sub_nn_131.out.bias,[0.07526118]
sub_nn_132.hidden.weight,[[ 0.37848344 -0.26867527] [ 0.56020063 -0.3299413 ] [-0.01718799  0.17337672]]
sub_nn_132.hidden.bias,[ 0.098582    0.18118335 -0.6772039 ]
sub_nn_132.out.weight,[[-0.8969112   0.8110283   0.21628149]]
sub_nn_132.out.bias,[-0.12698755]
sub_nn_133.hidden.weight,[[ 0.1881318   0.5322886 ] [-0.14919929 -0.57713664] [ 0.50519896  1.032405  ]]
sub_nn_133.hidden.bias,[-0.05070928  0.21624799 -0.29355466]
sub_nn_133.out.weight,[[ 0.28399295 -0.8554553  -0.45287207]]
sub_nn_133.out.bias,[0.537851]
sub_nn_134.hidden.weight,[[ 0.04060675 -0.2002695 ] [ 0.42422956  1.2630383 ] [-0.02388287 -0.0340064 ]]
sub_nn_134.hidden.bias,[ 0.17992091 -0.43761292 -0.54555184]
sub_nn_134.out.weight,[[-0.05371328 -0.36820677 -0.8475388 ]]
sub_nn_134.out.bias,[0.14834547]
sub_nn_135.hidden.weight,[[ 0.05622217 -0.44262025] [-0.2835527  -0.9905749 ] [-0.70905924 -0.23572475]]
sub_nn_135.hidden.bias,[-0.5217433   0.5822358  -0.62007725]
sub_nn_135.out.weight,[[ 0.06936495  0.7932424  -0.35834053]]
sub_nn_135.out.bias,[-0.21505192]
sub_nn_136.hidden.weight,[[-1.0845269   0.3758314 ] [-0.28874987  0.6037218 ] [-0.2723654   1.1220237 ]]
sub_nn_136.hidden.bias,[-0.44191265  0.25766668  0.62629545]
sub_nn_136.out.weight,[[ 0.00385133  0.02270395 -0.14442523]]
sub_nn_136.out.bias,[0.3668108]
sub_nn_137.hidden.weight,[[ 0.40503493  0.1718738 ] [ 0.6916062  -0.1988775 ] [-0.6741482  -0.7585171 ]]
sub_nn_137.hidden.bias,[-0.20053878  0.5163735   0.66098493]
sub_nn_137.out.weight,[[-1.126369    0.81828547  0.101328  ]]
sub_nn_137.out.bias,[-0.23926288]
sub_nn_138.hidden.weight,[[ 0.35936064 -0.8429567 ] [ 0.80100656  0.254225  ] [-0.59200364  0.01681309]]
sub_nn_138.hidden.bias,[-0.13112754 -0.11378064 -0.52491236]
sub_nn_138.out.weight,[[-0.05109183  0.85473794  0.7858668 ]]
sub_nn_138.out.bias,[-0.5681956]
sub_nn_139.hidden.weight,[[ 0.00586077  0.6475136 ] [ 0.25513095 -0.87783086] [ 0.02306624  0.14803644]]
sub_nn_139.hidden.bias,[ 0.3212784   0.17027885 -0.4604297 ]
sub_nn_139.out.weight,[[-0.3598166  -0.26593015  0.78271145]]
sub_nn_139.out.bias,[0.06240869]
sub_nn_140.hidden.weight,[[-0.2621839  -0.05695007] [ 1.196202   -0.3110962 ] [ 0.21871257  0.0438767 ]]
sub_nn_140.hidden.bias,[-0.383165   -0.4588208   0.60358554]
sub_nn_140.out.weight,[[ 0.01072906 -1.0416007  -0.5593842 ]]
sub_nn_140.out.bias,[-0.3942174]
sub_nn_141.hidden.weight,[[-0.18225828 -0.1888428 ] [ 0.27444032 -0.12985706] [ 0.34530655  0.08934189]]
sub_nn_141.hidden.bias,[-0.12547886 -0.1498594  -0.21236971]
sub_nn_141.out.weight,[[0.39447722 1.2947885  0.5209195 ]]
sub_nn_141.out.bias,[0.44505787]
sub_nn_142.hidden.weight,[[ 0.3423269   0.32674295] [-0.4181496  -0.5178018 ] [ 0.5745824   0.23174803]]
sub_nn_142.hidden.bias,[ 0.2983908  -0.6619713   0.25607085]
sub_nn_142.out.weight,[[-0.9820324  -0.14079224 -0.53689134]]
sub_nn_142.out.bias,[-0.12280688]
sub_nn_143.hidden.weight,[[ 0.15557964 -0.25953263] [-0.22249472  0.35562554] [ 0.24676317 -0.57978785]]
sub_nn_143.hidden.bias,[ 0.4097493   0.15157837 -0.0309873 ]
sub_nn_143.out.weight,[[-0.27216148  1.081802   -0.38533804]]
sub_nn_143.out.bias,[0.553545]
sub_nn_144.hidden.weight,[[-0.7390632  -0.98858225] [ 0.62485117 -0.80131924] [ 0.34113753  1.5889857 ]]
sub_nn_144.hidden.bias,[0.2444492  0.63437444 0.34707147]
sub_nn_144.out.weight,[[-0.3166672  -0.20960532 -1.363022  ]]
sub_nn_144.out.bias,[0.35896188]
sub_nn_145.hidden.weight,[[-1.505136   -0.23958963] [-0.23168826  0.38520634] [ 0.28868347 -0.4053884 ]]
sub_nn_145.hidden.bias,[ 0.09338909 -0.17517973 -0.65749013]
sub_nn_145.out.weight,[[-0.87618273 -0.4016832  -0.74932146]]
sub_nn_145.out.bias,[0.47859216]
sub_nn_146.hidden.weight,[[-0.30402738  0.76279855] [ 0.08100688  0.12340521] [ 0.2718985  -0.19343884]]
sub_nn_146.hidden.bias,[ 0.0644796  -0.00340945 -0.31971005]
sub_nn_146.out.weight,[[ 0.33690003 -0.18027303  0.15213743]]
sub_nn_146.out.bias,[-0.20178938]
sub_nn_147.hidden.weight,[[ 0.04605446 -0.48126504] [-0.1546196  -0.37649438] [-0.36247516 -0.7161649 ]]
sub_nn_147.hidden.bias,[-0.490824    0.69734246 -0.59483594]
sub_nn_147.out.weight,[[-1.099013    0.15025584  0.18557559]]
sub_nn_147.out.bias,[-0.15122473]
sub_nn_148.hidden.weight,[[-0.96917653  0.58802223] [-0.6209628   0.6435022 ] [-1.0113612   0.39294916]]
sub_nn_148.hidden.bias,[ 0.19163351 -0.12355015 -0.40462992]
sub_nn_148.out.weight,[[ 1.0605552  0.7908067 -1.6205083]]
sub_nn_148.out.bias,[0.35062474]
sub_nn_149.hidden.weight,[[ 0.01700827  0.56302434] [-1.1400554   0.47703406] [ 0.87204146  0.6913842 ]]
sub_nn_149.hidden.bias,[0.19016516 0.65269536 0.24832153]
sub_nn_149.out.weight,[[0.61094594 0.11923502 1.018309  ]]
sub_nn_149.out.bias,[0.3125357]
sub_nn_150.hidden.weight,[[ 0.01017553 -0.14063247] [ 0.5884107   0.6121005 ] [-0.15323217 -0.4365573 ]]
sub_nn_150.hidden.bias,[-0.47049418  0.5863864  -0.23877573]
sub_nn_150.out.weight,[[-0.54419094 -0.24692906 -1.4143059 ]]
sub_nn_150.out.bias,[0.37755936]
sub_nn_151.hidden.weight,[[ 0.11158426  0.32379052] [-0.6085472   0.5238616 ] [ 0.4184066   0.11712871]]
sub_nn_151.hidden.bias,[0.26298648 0.53102076 0.28207326]
sub_nn_151.out.weight,[[ 0.6894151  -0.74418414  0.69971466]]
sub_nn_151.out.bias,[-0.54261005]
sub_nn_152.hidden.weight,[[-0.66571784 -0.5644384 ] [-0.13699333 -0.3024035 ] [-0.9056434   0.43105403]]
sub_nn_152.hidden.bias,[0.49042147 0.5666345  0.5340248 ]
sub_nn_152.out.weight,[[-0.09309395 -0.05760811 -0.14950943]]
sub_nn_152.out.bias,[0.47998035]
sub_nn_153.hidden.weight,[[-0.8014663  -0.7593791 ] [-1.2277464  -0.62526417] [ 0.44540215 -0.07600687]]
sub_nn_153.hidden.bias,[ 0.16946608  0.581531   -0.66848963]
sub_nn_153.out.weight,[[0.11930026 0.6795871  1.9738703 ]]
sub_nn_153.out.bias,[-0.3165975]
sub_nn_154.hidden.weight,[[ 0.02704434  0.5743169 ] [ 0.18134741  0.26942152] [-0.18385951 -1.0385498 ]]
sub_nn_154.hidden.bias,[ 0.6573053  -0.5852381  -0.01495034]
sub_nn_154.out.weight,[[ 0.36498016 -0.62317526  0.20849918]]
sub_nn_154.out.bias,[0.1989423]
sub_nn_155.hidden.weight,[[-1.4387301  -0.06189301] [-0.55927074  1.0445513 ] [-0.69975114 -0.00864556]]
sub_nn_155.hidden.bias,[-0.03802162  0.13233064  0.3346824 ]
sub_nn_155.out.weight,[[ 0.3799879 -0.7503536 -0.3896677]]
sub_nn_155.out.bias,[-0.19135433]
sub_nn_156.hidden.weight,[[ 0.3014624  -0.06529862] [-1.0755227  -0.62612695] [-0.4848115   0.87264717]]
sub_nn_156.hidden.bias,[-0.57509106  0.11257356 -0.58238786]
sub_nn_156.out.weight,[[-1.1283346   0.02206688 -0.18885227]]
sub_nn_156.out.bias,[0.02459109]
sub_nn_157.hidden.weight,[[ 0.898933   -0.54188883] [ 1.9695519   0.9035506 ] [ 1.2825922  -0.71511364]]
sub_nn_157.hidden.bias,[-0.5552241   0.09479618  0.02066708]
sub_nn_157.out.weight,[[0.05752809 0.96060354 0.335845  ]]
sub_nn_157.out.bias,[0.531517]
sub_nn_158.hidden.weight,[[ 0.08509538  0.5598661 ] [ 0.27500245 -0.32378632] [-0.39225715  0.01972951]]
sub_nn_158.hidden.bias,[ 0.61246413 -0.34036484  0.11207517]
sub_nn_158.out.weight,[[ 0.31228426  0.14611822 -0.4758336 ]]
sub_nn_158.out.bias,[-0.4264429]
sub_nn_159.hidden.weight,[[ 0.211511    0.8075844 ] [ 0.7819065  -0.6222414 ] [ 0.29263058  0.7135775 ]]
sub_nn_159.hidden.bias,[ 0.0645721  -0.40761462 -0.2556789 ]
sub_nn_159.out.weight,[[-0.759836   1.2806075  1.0875645]]
sub_nn_159.out.bias,[0.09588772]
sub_nn_160.hidden.weight,[[ 0.71335465  1.3705287 ] [-0.2761404   0.08852036] [-0.0110817  -0.7710236 ]]
sub_nn_160.hidden.bias,[0.20584124 0.2701719  0.1434322 ]
sub_nn_160.out.weight,[[-0.1264174 -0.1030286  1.6725348]]
sub_nn_160.out.bias,[-0.30099532]
sub_nn_161.hidden.weight,[[ 0.04743366 -0.44031942] [ 0.02626934 -0.7387563 ] [ 0.20419988  0.24778913]]
sub_nn_161.hidden.bias,[-0.24017023  0.2187189  -0.11863849]
sub_nn_161.out.weight,[[0.36099833 1.1193937  0.11221129]]
sub_nn_161.out.bias,[0.00433606]
sub_nn_162.hidden.weight,[[ 0.609093    0.6613594 ] [-0.31578803 -1.2406864 ] [ 0.42756778  1.5941325 ]]
sub_nn_162.hidden.bias,[ 0.19558668 -0.2882035  -0.20710623]
sub_nn_162.out.weight,[[0.8787117  0.4290636  0.01341539]]
sub_nn_162.out.bias,[-0.12249187]
sub_nn_163.hidden.weight,[[-1.2185208   0.87828803] [-0.14222248 -0.25414896] [ 0.8624476  -0.40398914]]
sub_nn_163.hidden.bias,[-0.19370165  0.15710294  0.22182345]
sub_nn_163.out.weight,[[ 0.32644573 -0.24319667  0.21564482]]
sub_nn_163.out.bias,[0.45729446]
sub_nn_164.hidden.weight,[[ 1.153387   -0.2819334 ] [-0.42138284 -0.1867033 ] [-1.2442886   0.4920605 ]]
sub_nn_164.hidden.bias,[0.23011988 0.15096354 0.20448297]
sub_nn_164.out.weight,[[ 0.22694986 -0.24607818  0.550042  ]]
sub_nn_164.out.bias,[0.42486882]
sub_nn_165.hidden.weight,[[ 0.62358195  0.10819113] [-0.37332335  0.2007317 ] [ 0.60830504  0.16958328]]
sub_nn_165.hidden.bias,[0.54029423 0.22191453 0.67527086]
sub_nn_165.out.weight,[[-1.5523698   0.04967682  0.9618599 ]]
sub_nn_165.out.bias,[0.34508014]
sub_nn_166.hidden.weight,[[ 1.2798108   0.6777516 ] [ 0.19042866  0.27405494] [-0.05042469  0.7451413 ]]
sub_nn_166.hidden.bias,[-0.03451335 -0.58326405 -0.6378816 ]
sub_nn_166.out.weight,[[ 0.6375792  -0.13347828  0.34549984]]
sub_nn_166.out.bias,[0.07767344]
sub_nn_167.hidden.weight,[[ 0.34599993  1.0588155 ] [ 0.01668551  0.07040894] [ 1.2540156  -0.5790957 ]]
sub_nn_167.hidden.bias,[ 0.58410734 -0.70118314 -0.38875788]
sub_nn_167.out.weight,[[-0.477386    0.35889512 -0.20020084]]
sub_nn_167.out.bias,[-0.13924116]
sub_nn_168.hidden.weight,[[ 0.781237    0.30429298] [-0.4337945  -0.6686817 ] [ 1.4790909  -0.09451722]]
sub_nn_168.hidden.bias,[-0.20099813  0.07040614 -0.0871161 ]
sub_nn_168.out.weight,[[-0.618836   1.4001994  1.9406492]]
sub_nn_168.out.bias,[-0.4944036]
sub_nn_169.hidden.weight,[[-0.963329    1.2300447 ] [-0.0071334   0.17828307] [-0.25207436  0.04092593]]
sub_nn_169.hidden.bias,[-0.5270144  -0.01481704  0.40380228]
sub_nn_169.out.weight,[[ 1.5484064  1.1488413 -0.7404028]]
sub_nn_169.out.bias,[-0.35944694]
sub_nn_170.hidden.weight,[[-0.06410109 -0.25372785] [ 0.06503538 -0.59770155] [-0.01567429 -0.45764428]]
sub_nn_170.hidden.bias,[ 0.21426784 -0.16712739  0.04400096]
sub_nn_170.out.weight,[[ 0.71318847  0.44253972 -0.4790439 ]]
sub_nn_170.out.bias,[-0.35138494]
sub_nn_171.hidden.weight,[[-0.27047825  0.52681196] [ 1.0632863   0.15168336] [ 0.0474884  -0.8337274 ]]
sub_nn_171.hidden.bias,[ 0.17315412  0.46075064 -0.66397643]
sub_nn_171.out.weight,[[ 0.9063161  -0.06030156 -1.3719912 ]]
sub_nn_171.out.bias,[-0.39638704]
sub_nn_172.hidden.weight,[[ 0.3931736   0.01255341] [-0.43479696  0.773191  ] [-0.56300163  0.39131337]]
sub_nn_172.hidden.bias,[ 0.01566601 -0.45105928  0.3726786 ]
sub_nn_172.out.weight,[[ 0.6032094  -0.00920006  0.7372638 ]]
sub_nn_172.out.bias,[-0.52391136]
sub_nn_173.hidden.weight,[[ 1.2620821   0.8897688 ] [ 1.3203185   0.2316601 ] [-0.04396377  0.97397834]]
sub_nn_173.hidden.bias,[-0.43460128  0.21626127  0.43688568]
sub_nn_173.out.weight,[[ 0.61432445 -1.1143588  -0.33040175]]
sub_nn_173.out.bias,[0.39472586]
sub_nn_174.hidden.weight,[[-0.3932922   0.36671478] [ 0.1243348   0.86022145] [-0.11595005  0.2875557 ]]
sub_nn_174.hidden.bias,[-0.09232949  0.15624529  0.22096558]
sub_nn_174.out.weight,[[ 0.0852346  -0.74628127  0.19320886]]
sub_nn_174.out.bias,[-0.38509142]
sub_nn_175.hidden.weight,[[1.1962092  0.4376313 ] [0.23171899 0.94622606] [0.20596571 1.330817  ]]
sub_nn_175.hidden.bias,[-0.2972199   0.63418096 -0.40862828]
sub_nn_175.out.weight,[[ 1.6861806   0.41811162 -0.04630796]]
sub_nn_175.out.bias,[0.31889123]
sub_nn_176.hidden.weight,[[-0.0139429   0.17206374] [-0.74354374 -0.08954822] [-0.08091     0.1950247 ]]
sub_nn_176.hidden.bias,[-0.6389331  -0.02783251 -0.4251184 ]
sub_nn_176.out.weight,[[ 1.5452219 -0.2494375 -0.6798371]]
sub_nn_176.out.bias,[0.31319046]
sub_nn_177.hidden.weight,[[ 1.104674   -0.07725484] [ 0.00583133  0.5513135 ] [-0.14619142  0.16291177]]
sub_nn_177.hidden.bias,[-0.20076774 -0.09806991  0.16935581]
sub_nn_177.out.weight,[[ 1.1542352  -0.5719567   0.38709125]]
sub_nn_177.out.bias,[-0.03511602]
sub_nn_178.hidden.weight,[[-0.02567896 -0.02981787] [ 0.31878778 -1.4973139 ] [-1.1206145   0.33890995]]
sub_nn_178.hidden.bias,[-0.37226775 -0.02514784 -0.3969206 ]
sub_nn_178.out.weight,[[-1.1810782   0.15847656  0.2055414 ]]
sub_nn_178.out.bias,[0.23777586]
sub_nn_179.hidden.weight,[[ 0.14061624  0.7227392 ] [-1.3026835   0.15775058] [-0.33471188  1.0884866 ]]
sub_nn_179.hidden.bias,[ 0.14839351  0.2214458  -0.08307012]
sub_nn_179.out.weight,[[-0.49016544 -0.03959658  0.52829486]]
sub_nn_179.out.bias,[0.10233128]
sub_nn_180.hidden.weight,[[ 1.435247    1.0208021 ] [ 0.02071923  0.6779141 ] [-0.25150898 -0.61734235]]
sub_nn_180.hidden.bias,[ 0.49915594 -0.2971092   0.41046435]
sub_nn_180.out.weight,[[ 0.10625643 -1.2272096  -0.1983141 ]]
sub_nn_180.out.bias,[-0.20552799]
sub_nn_181.hidden.weight,[[-0.7277031   0.66120917] [ 0.3076143  -0.09407888] [-0.98091084 -0.7532372 ]]
sub_nn_181.hidden.bias,[-0.47872368 -0.30349126 -0.69142276]
sub_nn_181.out.weight,[[-0.72133064 -0.46558428  0.5412456 ]]
sub_nn_181.out.bias,[-0.45908457]
sub_nn_182.hidden.weight,[[-0.70479363  0.37018657] [ 1.7894299   0.08285981] [-0.2383541   0.20530158]]
sub_nn_182.hidden.bias,[0.43237907 0.3695373  0.5242749 ]
sub_nn_182.out.weight,[[-0.88874644  0.35507953  0.38980636]]
sub_nn_182.out.bias,[0.50302184]
sub_nn_183.hidden.weight,[[ 0.01459321 -0.50399697] [ 0.3586976  -0.86799616] [ 0.5279637  -0.22944938]]
sub_nn_183.hidden.bias,[0.26533085 0.6110621  0.13340017]
sub_nn_183.out.weight,[[-0.684388    0.7754804   0.76067036]]
sub_nn_183.out.bias,[0.0548681]
sub_nn_184.hidden.weight,[[-0.6590921   0.33271974] [-0.7119088   0.683986  ] [ 0.16110909 -0.55534244]]
sub_nn_184.hidden.bias,[-0.14983544  0.3042308   0.4847248 ]
sub_nn_184.out.weight,[[-0.56434405  0.6025145   0.2676092 ]]
sub_nn_184.out.bias,[-0.04024065]
sub_nn_185.hidden.weight,[[-0.963574   -0.6203722 ] [ 0.21191901  1.3102515 ] [ 1.3699969  -0.6566552 ]]
sub_nn_185.hidden.bias,[-0.28782478 -0.4373361   0.03383803]
sub_nn_185.out.weight,[[ 0.9264809  -1.2820647   0.12388042]]
sub_nn_185.out.bias,[0.26374358]
sub_nn_186.hidden.weight,[[ 0.2092221   0.91732913] [-0.44239593  0.8732901 ] [ 0.4368698  -0.78769636]]
sub_nn_186.hidden.bias,[ 0.44901294  0.6817996  -0.27765518]
sub_nn_186.out.weight,[[ 0.10626722 -0.39581427  0.01134451]]
sub_nn_186.out.bias,[0.19840199]
sub_nn_187.hidden.weight,[[ 0.1775888  -0.5080943 ] [ 0.49353483  0.39602545] [-0.00243069 -0.17296213]]
sub_nn_187.hidden.bias,[ 0.17149085  0.54525167 -0.01703364]
sub_nn_187.out.weight,[[-0.34636298  0.8134445   0.10558978]]
sub_nn_187.out.bias,[-0.55321854]
sub_nn_188.hidden.weight,[[-0.60510075 -0.04257317] [ 0.13599688  0.48877668] [-0.52117366  0.09111047]]
sub_nn_188.hidden.bias,[-0.61578053 -0.6476198   0.02061172]
sub_nn_188.out.weight,[[ 0.2618017  -0.17918734  0.16294856]]
sub_nn_188.out.bias,[0.5682703]
sub_nn_189.hidden.weight,[[-0.08935074 -0.29438263] [ 0.11333224 -0.593274  ] [-0.02412579  0.01416173]]
sub_nn_189.hidden.bias,[ 0.4889     -0.5871477   0.52714485]
sub_nn_189.out.weight,[[ 0.07813583 -0.7561515   0.03401348]]
sub_nn_189.out.bias,[0.5392828]
sub_nn_190.hidden.weight,[[0.77918535 0.1452518 ] [0.5240349  0.47370744] [0.19768664 1.5312513 ]]
sub_nn_190.hidden.bias,[-0.10442613 -0.3831023   0.10730857]
sub_nn_190.out.weight,[[ 0.23290291  0.04907385 -0.05603911]]
sub_nn_190.out.bias,[0.27631253]
sub_nn_191.hidden.weight,[[ 0.15836062 -0.20409189] [-0.68166834  0.5214623 ] [ 0.93360287  0.01896797]]
sub_nn_191.hidden.bias,[-0.5456167  -0.39126864 -0.03088099]
sub_nn_191.out.weight,[[-0.6897486   0.4722435  -0.23372489]]
sub_nn_191.out.bias,[0.16853172]
sub_nn_192.hidden.weight,[[-0.48727596 -0.44884488] [-0.2044105   0.2743712 ] [ 0.02970983  0.44563785]]
sub_nn_192.hidden.bias,[-0.09407765  0.08162991 -0.04165445]
sub_nn_192.out.weight,[[0.09064876 0.1985164  0.8834051 ]]
sub_nn_192.out.bias,[0.13544548]
sub_nn_193.hidden.weight,[[ 0.81645924  0.0813459 ] [-0.66681445 -0.10877892] [ 0.027141   -0.8301478 ]]
sub_nn_193.hidden.bias,[ 0.65511113 -0.5149497  -0.5152882 ]
sub_nn_193.out.weight,[[-0.68639785  0.93694896 -0.23131208]]
sub_nn_193.out.bias,[-0.47188866]
sub_nn_194.hidden.weight,[[ 1.2048776   0.38009205] [-0.75881296 -0.9099726 ] [ 0.28965497  1.1886474 ]]
sub_nn_194.hidden.bias,[ 0.35238367 -0.4268577  -0.5270479 ]
sub_nn_194.out.weight,[[-0.14935918  0.3233163   0.4987525 ]]
sub_nn_194.out.bias,[-0.06807655]
sub_nn_195.hidden.weight,[[ 7.7831191e-01  6.8758744e-01] [-1.3944378e+00  2.1714740e-01] [-1.2715975e-03 -1.8983297e-01]]
sub_nn_195.hidden.bias,[0.2585876  0.22301066 0.32052484]
sub_nn_195.out.weight,[[-0.68735635  0.12348443  0.5731047 ]]
sub_nn_195.out.bias,[0.5653837]
sub_nn_196.hidden.weight,[[ 0.9746565  -0.65049136] [ 0.13549007  0.876527  ] [-0.20111774  0.83523184]]
sub_nn_196.hidden.bias,[ 0.67258686  0.6793366  -0.15163745]
sub_nn_196.out.weight,[[-0.43674016  0.16273512 -0.13708486]]
sub_nn_196.out.bias,[-0.5515976]
sub_nn_197.hidden.weight,[[ 0.5525386   0.7312045 ] [-0.27385458 -0.59889525] [-0.12915152  0.72008806]]
sub_nn_197.hidden.bias,[-0.65365     0.30000383  0.59565663]
sub_nn_197.out.weight,[[ 1.0794317  -0.03302779  1.2058076 ]]
sub_nn_197.out.bias,[0.332314]
sub_nn_198.hidden.weight,[[ 0.91101193 -0.5435835 ] [ 0.56318575  0.04033352] [ 0.549564    0.2567529 ]]
sub_nn_198.hidden.bias,[-0.3370969  -0.33682343  0.6369315 ]
sub_nn_198.out.weight,[[0.30957022 1.3575814  0.34159204]]
sub_nn_198.out.bias,[-0.39087537]
sub_nn_199.hidden.weight,[[-0.01263691 -0.65749824] [-0.0982859  -0.29421145] [ 0.6482331  -0.8512673 ]]
sub_nn_199.hidden.bias,[0.5022754  0.67855424 0.41529197]
sub_nn_199.out.weight,[[ 0.18144932 -0.51978976  0.2358703 ]]
sub_nn_199.out.bias,[0.5210035]
sub_nn_200.hidden.weight,[[-0.5828087   0.09449806] [ 0.29317054 -0.19603398] [ 0.4888297   0.00117826]]
sub_nn_200.hidden.bias,[ 0.41458637 -0.07404286 -0.6592254 ]
sub_nn_200.out.weight,[[-0.09276527  0.68504715 -1.0939798 ]]
sub_nn_200.out.bias,[0.26277792]
sub_nn_201.hidden.weight,[[-0.2575768   0.6300561 ] [ 0.2091671   1.9755425 ] [ 0.02000656  0.38349897]]
sub_nn_201.hidden.bias,[0.30414426 0.31123573 0.54656   ]
sub_nn_201.out.weight,[[-0.51373994 -0.76266116 -0.4764784 ]]
sub_nn_201.out.bias,[0.48168206]
sub_nn_202.hidden.weight,[[-0.24498418 -0.3974518 ] [-0.03344827 -0.27019066] [-0.37956652 -0.09781017]]
sub_nn_202.hidden.bias,[-0.57156074  0.03045627 -0.54729813]
sub_nn_202.out.weight,[[-0.22874635  0.25962514 -0.38868797]]
sub_nn_202.out.bias,[0.24081229]
sub_nn_203.hidden.weight,[[-0.18372028 -0.523404  ] [-0.33072984 -0.28956288] [-0.1727549  -0.61605567]]
sub_nn_203.hidden.bias,[0.02562624 0.61138964 0.44144294]
sub_nn_203.out.weight,[[0.10168973 0.18557696 0.8906893 ]]
sub_nn_203.out.bias,[-0.5235583]
sub_nn_204.hidden.weight,[[-0.5991977  -0.60925525] [-0.15679659  1.1730522 ] [-0.32644907 -1.0421301 ]]
sub_nn_204.hidden.bias,[-0.5547019   0.55659866 -0.29837927]
sub_nn_204.out.weight,[[ 1.1744405 -0.1137629  0.5221707]]
sub_nn_204.out.bias,[0.5075377]
sub_nn_205.hidden.weight,[[ 0.4188639   2.2158566 ] [-0.64066404 -1.4385333 ] [ 0.67984104  0.37087134]]
sub_nn_205.hidden.bias,[0.32859093 0.11880946 0.54753846]
sub_nn_205.out.weight,[[ 0.532205   -0.94701433  0.4835613 ]]
sub_nn_205.out.bias,[-0.47343832]
sub_nn_206.hidden.weight,[[ 0.07559061 -0.5552673 ] [-0.06461289  0.38515034] [ 0.26184964  0.2209629 ]]
sub_nn_206.hidden.bias,[0.6025824  0.17099765 0.31108743]
sub_nn_206.out.weight,[[-0.6521365  -0.8826518   0.68742394]]
sub_nn_206.out.bias,[-0.09165004]
sub_nn_207.hidden.weight,[[-0.60881793 -0.91183734] [ 0.60578954  0.37056124] [-0.70518106  0.21053503]]
sub_nn_207.hidden.bias,[-0.04394895  0.23018855  0.12123261]
sub_nn_207.out.weight,[[ 0.18702711  0.47424716 -0.68424314]]
sub_nn_207.out.bias,[-0.5061501]
sub_nn_208.hidden.weight,[[-0.3389874  -0.94463485] [-0.66690385  0.11237156] [ 0.36778545  0.24220526]]
sub_nn_208.hidden.bias,[-0.08508092 -0.29750517  0.34511894]
sub_nn_208.out.weight,[[0.5238938  0.31642255 1.0693641 ]]
sub_nn_208.out.bias,[-0.49548554]
sub_nn_209.hidden.weight,[[-0.35178608  0.21406256] [ 0.17799844  0.50952137] [ 0.2852692  -0.9901459 ]]
sub_nn_209.hidden.bias,[-0.1141956 -0.304094   0.3695221]
sub_nn_209.out.weight,[[-0.36890844 -0.13027672  0.28884748]]
sub_nn_209.out.bias,[-0.5268161]
sub_nn_210.hidden.weight,[[ 1.3264085   0.8993707 ] [-0.68173736 -0.5995208 ] [-0.04189789  0.32833987]]
sub_nn_210.hidden.bias,[ 0.56680745  0.10920554 -0.3826734 ]
sub_nn_210.out.weight,[[0.89051497 0.32928148 0.89653146]]
sub_nn_210.out.bias,[0.00978458]
sub_nn_211.hidden.weight,[[-0.09765806 -0.57735413] [ 0.66488713 -0.42910343] [ 0.5323545   0.08638289]]
sub_nn_211.hidden.bias,[-0.32936892 -0.08128276 -0.36298198]
sub_nn_211.out.weight,[[ 1.1017113   1.6848818  -0.36543667]]
sub_nn_211.out.bias,[-0.36782736]
sub_nn_212.hidden.weight,[[-0.55500734 -0.49683285] [-0.23658691  0.37716624] [-1.2933758   0.06652924]]
sub_nn_212.hidden.bias,[-0.47648132 -0.5132702   0.33048505]
sub_nn_212.out.weight,[[-0.4426528   0.76538116 -1.0283133 ]]
sub_nn_212.out.bias,[-0.35820836]
sub_nn_213.hidden.weight,[[-0.6377781   1.1111042 ] [ 0.943619    0.8510534 ] [ 0.03135981  0.37805113]]
sub_nn_213.hidden.bias,[-0.46789342 -0.59516346 -0.63389623]
sub_nn_213.out.weight,[[ 0.26866105 -0.5545983  -0.02314321]]
sub_nn_213.out.bias,[-0.2001245]
sub_nn_214.hidden.weight,[[-0.09139402  0.44772622] [ 0.6486194  -0.66281325] [ 0.4219303  -0.00385158]]
sub_nn_214.hidden.bias,[-0.09136654 -0.6762321  -0.2889604 ]
sub_nn_214.out.weight,[[-0.60693556  0.31328216  0.46451947]]
sub_nn_214.out.bias,[-0.00095797]
sub_nn_215.hidden.weight,[[ 0.18125431 -1.164741  ] [-0.6951743  -0.9284318 ] [-0.5130578  -1.0888692 ]]
sub_nn_215.hidden.bias,[-0.7066943  -0.26576596  0.02162889]
sub_nn_215.out.weight,[[-0.53249186  0.15999703 -0.1453848 ]]
sub_nn_215.out.bias,[-0.27144796]
sub_nn_216.hidden.weight,[[-0.05761504  0.24701358] [-1.4011601  -0.56483775] [-0.29475048  0.19249877]]
sub_nn_216.hidden.bias,[0.67537695 0.09297314 0.3071215 ]
sub_nn_216.out.weight,[[ 0.9583966  -1.148015    0.25413945]]
sub_nn_216.out.bias,[-0.34867942]
sub_nn_217.hidden.weight,[[ 0.12769943 -0.192985  ] [-1.098586    0.19085951] [ 0.27083343 -0.5419012 ]]
sub_nn_217.hidden.bias,[-0.11657467  0.21235743  0.09838413]
sub_nn_217.out.weight,[[0.13040027 0.8775791  0.11288291]]
sub_nn_217.out.bias,[-0.06592011]
sub_nn_218.hidden.weight,[[ 0.46705437 -0.30154416] [ 0.82556003 -0.3232229 ] [ 0.166908   -0.48484936]]
sub_nn_218.hidden.bias,[-0.4006391   0.30105263 -0.6247745 ]
sub_nn_218.out.weight,[[ 0.08999634 -0.90383834  0.03784636]]
sub_nn_218.out.bias,[0.52150095]
sub_nn_219.hidden.weight,[[ 0.11073865  0.43875557] [ 1.5672075  -0.00584387] [ 0.25772417 -0.14637133]]
sub_nn_219.hidden.bias,[0.22736895 0.05433589 0.3259359 ]
sub_nn_219.out.weight,[[-1.1896853  -0.91589     0.37330624]]
sub_nn_219.out.bias,[-0.20113549]
sub_nn_220.hidden.weight,[[-0.09499514  0.5570043 ] [-0.86382884 -0.8128582 ] [ 0.6833465   0.8298055 ]]
sub_nn_220.hidden.bias,[-0.31590462 -0.6118464   0.46791798]
sub_nn_220.out.weight,[[ 0.3731094  -0.43821606  0.523498  ]]
sub_nn_220.out.bias,[0.33760148]
sub_nn_221.hidden.weight,[[-0.03495472  0.11809617] [ 1.4735126   0.08069478] [ 1.9979172  -0.75409335]]
sub_nn_221.hidden.bias,[-0.40387622  0.68876415 -0.05976336]
sub_nn_221.out.weight,[[-0.05894984  0.14952533  0.17953062]]
sub_nn_221.out.bias,[-0.19417122]
sub_nn_222.hidden.weight,[[-0.37073582 -0.05044442] [ 0.14285061  0.1796604 ] [-0.19974448  0.8479148 ]]
sub_nn_222.hidden.bias,[-0.6269966  -0.31809938 -0.36686146]
sub_nn_222.out.weight,[[-1.1533861   0.33341807 -0.9188028 ]]
sub_nn_222.out.bias,[-0.4176745]
sub_nn_223.hidden.weight,[[-0.6792453  -0.51752996] [-0.9699693  -0.07641297] [ 0.6802251   0.05387029]]
sub_nn_223.hidden.bias,[0.15805286 0.03658352 0.12373781]
sub_nn_223.out.weight,[[-0.5031457  -0.56674725  0.29787585]]
sub_nn_223.out.bias,[0.3895263]
sub_nn_224.hidden.weight,[[ 0.88167864 -0.13178952] [-0.00614814 -0.08468574] [-0.49364987 -0.03392609]]
sub_nn_224.hidden.bias,[-0.39771736 -0.5053873   0.2326589 ]
sub_nn_224.out.weight,[[-1.5487522  -0.92626107  0.7119913 ]]
sub_nn_224.out.bias,[0.16143626]
sub_nn_225.hidden.weight,[[-0.1467118  -0.52867913] [-1.0161936   0.38147056] [ 0.58016664 -0.077287  ]]
sub_nn_225.hidden.bias,[-0.45314816 -0.3335021   0.4631949 ]
sub_nn_225.out.weight,[[ 0.63322496  0.84386027 -1.0414127 ]]
sub_nn_225.out.bias,[0.40768325]
sub_nn_226.hidden.weight,[[ 0.39509743 -0.8768987 ] [-0.72469395 -0.7400247 ] [ 0.6795119  -0.51669204]]
sub_nn_226.hidden.bias,[0.44090253 0.22129792 0.00756014]
sub_nn_226.out.weight,[[-0.74351954  1.6130364  -0.07170083]]
sub_nn_226.out.bias,[-0.2072387]
sub_nn_227.hidden.weight,[[ 0.5397141   0.3517044 ] [ 0.6400627   0.6945267 ] [ 0.37326503 -0.6950592 ]]
sub_nn_227.hidden.bias,[-0.11883634 -0.25753883 -0.2771832 ]
sub_nn_227.out.weight,[[ 0.05725456 -1.1216912  -0.6275749 ]]
sub_nn_227.out.bias,[0.11762178]
sub_nn_228.hidden.weight,[[ 0.08265218 -0.9204187 ] [ 0.14500692  0.23347153] [-0.6706956  -0.25091144]]
sub_nn_228.hidden.bias,[-0.6820982   0.31975144  0.6540939 ]
sub_nn_228.out.weight,[[-0.5098255  -1.8807513  -0.25267425]]
sub_nn_228.out.bias,[-0.5513461]
sub_nn_229.hidden.weight,[[-0.01544515 -0.39348814] [ 0.2631914   1.3602765 ] [ 0.08620586  0.7234307 ]]
sub_nn_229.hidden.bias,[-0.41659707 -0.10149714  0.08264053]
sub_nn_229.out.weight,[[ 0.03968503 -0.5329889  -0.85195035]]
sub_nn_229.out.bias,[-0.08057216]
sub_nn_230.hidden.weight,[[ 0.16552693  0.2568667 ] [-0.8264549   0.5116749 ] [ 0.6725585  -0.19734374]]
sub_nn_230.hidden.bias,[ 0.1482259  -0.12321658 -0.19858247]
sub_nn_230.out.weight,[[-1.0687212  1.5512341  1.6818249]]
sub_nn_230.out.bias,[-0.14080572]
sub_nn_231.hidden.weight,[[-0.34366363  0.23514755] [ 0.6142113  -0.39139026] [ 1.4959848   0.2395471 ]]
sub_nn_231.hidden.bias,[ 0.6696808  -0.22609915  0.08767742]
sub_nn_231.out.weight,[[ 1.3374984  -0.9003196   0.89712083]]
sub_nn_231.out.bias,[-0.17698935]
sub_nn_232.hidden.weight,[[ 0.5400052   1.2225143 ] [-0.03500026  0.12000522] [-0.36856648  0.11957889]]
sub_nn_232.hidden.bias,[ 0.3092168   0.20408005 -0.5044571 ]
sub_nn_232.out.weight,[[-0.00420151 -0.3749606  -0.3534179 ]]
sub_nn_232.out.bias,[0.12229133]
sub_nn_233.hidden.weight,[[ 0.5695093   0.4406727 ] [-0.18353046 -0.85630226] [ 0.7350332   1.4924915 ]]
sub_nn_233.hidden.bias,[0.13631648 0.36714953 0.684784  ]
sub_nn_233.out.weight,[[ 0.11356043 -0.00671865 -0.22602108]]
sub_nn_233.out.bias,[0.4711162]
sub_nn_234.hidden.weight,[[ 0.8604478   1.0445211 ] [-0.28126544 -0.06319182] [-0.45620403  0.40329695]]
sub_nn_234.hidden.bias,[ 0.6626558  -0.05857366 -0.14406124]
sub_nn_234.out.weight,[[ 0.07420862  0.33846653 -0.33132753]]
sub_nn_234.out.bias,[-0.5589224]
sub_nn_235.hidden.weight,[[-0.8100058  -0.12690833] [ 0.7809736  -1.1594955 ] [ 0.3324826   0.1910661 ]]
sub_nn_235.hidden.bias,[-0.2885798  -0.0270741  -0.23631123]
sub_nn_235.out.weight,[[ 1.4559311   0.01843675 -0.8248823 ]]
sub_nn_235.out.bias,[0.28193766]
sub_nn_236.hidden.weight,[[ 1.6996849e-01  7.6700747e-01] [ 5.5084069e-04 -5.4513043e-01] [-5.7696939e-01 -5.6896061e-01]]
sub_nn_236.hidden.bias,[ 0.1735825  -0.09287526  0.46852946]
sub_nn_236.out.weight,[[ 1.204893   -1.2561904   0.73504597]]
sub_nn_236.out.bias,[0.16983163]
sub_nn_237.hidden.weight,[[-0.1388861   0.12339136] [-0.0119193  -0.80894345] [-0.09329346  0.46400556]]
sub_nn_237.hidden.bias,[0.2805552  0.4228468  0.04757716]
sub_nn_237.out.weight,[[-0.13843879  1.1213127  -0.40553576]]
sub_nn_237.out.bias,[0.3354938]
sub_nn_238.hidden.weight,[[-0.01074727 -0.5165487 ] [ 0.48682776 -0.2998667 ] [-0.06816367  0.17211293]]
sub_nn_238.hidden.bias,[-0.42321664 -0.17745222  0.14331031]
sub_nn_238.out.weight,[[ 0.27780306  0.4914857  -0.02841731]]
sub_nn_238.out.bias,[0.0972923]
sub_nn_239.hidden.weight,[[-0.17607078 -1.1197674 ] [ 0.9575669   0.5449835 ] [-0.48981708 -0.7762133 ]]
sub_nn_239.hidden.bias,[-0.02437615  0.27730298  0.2479949 ]
sub_nn_239.out.weight,[[-0.03406521 -1.541814    1.7256153 ]]
sub_nn_239.out.bias,[0.36988407]
sub_nn_240.hidden.weight,[[-0.2024898  -0.21958114] [-0.07592526 -0.01240594] [-0.17395978 -1.1575629 ]]
sub_nn_240.hidden.bias,[-0.24890831  0.50834244  0.66383445]
sub_nn_240.out.weight,[[-0.34907144 -0.92468715 -0.256118  ]]
sub_nn_240.out.bias,[0.5654131]
sub_nn_241.hidden.weight,[[-0.20386998  0.5928636 ] [-1.0963472  -0.95265543] [ 1.1212931  -0.07350772]]
sub_nn_241.hidden.bias,[-0.00165975  0.1907177   0.21661389]
sub_nn_241.out.weight,[[-0.3693033   0.18165481  1.0825031 ]]
sub_nn_241.out.bias,[-0.27122182]
sub_nn_242.hidden.weight,[[ 0.35791066 -0.25078204] [-0.33534163  0.5844142 ] [-0.6271206  -0.80397695]]
sub_nn_242.hidden.bias,[-0.57348     0.5409275   0.06349493]
sub_nn_242.out.weight,[[0.04051794 0.11068545 0.45878223]]
sub_nn_242.out.bias,[-0.3339595]
sub_nn_243.hidden.weight,[[-0.1229649  -0.26771304] [ 0.6781187  -0.36819145] [ 0.8263516   0.06545117]]
sub_nn_243.hidden.bias,[0.22371614 0.29685777 0.38573164]
sub_nn_243.out.weight,[[ 0.5211905  -0.11271637  0.33087283]]
sub_nn_243.out.bias,[-0.17631707]
sub_nn_244.hidden.weight,[[ 0.38855127 -0.20021874] [-0.43860546  0.8345165 ] [ 0.43268508 -0.6868559 ]]
sub_nn_244.hidden.bias,[-0.61138606 -0.46489102 -0.39439544]
sub_nn_244.out.weight,[[-0.13779783 -1.782909   -1.9989157 ]]
sub_nn_244.out.bias,[-0.5099633]
sub_nn_245.hidden.weight,[[-0.2711848  -0.6999847 ] [ 0.7620548   0.9621522 ] [ 0.65910685 -0.1701778 ]]
sub_nn_245.hidden.bias,[0.6999497  0.48588544 0.4791023 ]
sub_nn_245.out.weight,[[ 0.43945557 -0.07918763 -0.47120547]]
sub_nn_245.out.bias,[0.31134266]
sub_nn_246.hidden.weight,[[-0.11886729  0.63295305] [ 0.22072159 -0.52548873] [ 0.26533362 -0.67658865]]
sub_nn_246.hidden.bias,[ 0.0340235  -0.46972585 -0.20050067]
sub_nn_246.out.weight,[[ 0.6308701  -0.3781047  -0.16317335]]
sub_nn_246.out.bias,[-0.30647057]
sub_nn_247.hidden.weight,[[-0.15747833 -0.04878037] [-0.22042315 -1.1144327 ] [ 0.58354366 -1.7684156 ]]
sub_nn_247.hidden.bias,[ 0.45133966 -0.5992465   0.25405806]
sub_nn_247.out.weight,[[-0.17533462  0.16754851 -0.7224802 ]]
sub_nn_247.out.bias,[-0.19686562]
sub_nn_248.hidden.weight,[[ 0.1690523   0.1388829 ] [ 0.587841    0.38963443] [-0.8989561   0.6412695 ]]
sub_nn_248.hidden.bias,[ 0.5660842  -0.55383885 -0.64973664]
sub_nn_248.out.weight,[[ 0.97436017 -0.6372778   0.36435106]]
sub_nn_248.out.bias,[0.00196493]
sub_nn_249.hidden.weight,[[-0.0290013   0.580876  ] [-0.78935456  1.0852342 ] [ 1.2058094  -1.8684812 ]]
sub_nn_249.hidden.bias,[-0.30828243  0.12199292 -0.5640966 ]
sub_nn_249.out.weight,[[ 0.07679641 -1.210443    0.02293386]]
sub_nn_249.out.bias,[0.05480117]
sub_nn_250.hidden.weight,[[ 0.36560184  0.35017094] [-0.39316952 -0.65284145] [ 1.0687076  -0.38643807]]
sub_nn_250.hidden.bias,[ 0.6210336  -0.48496878 -0.38193625]
sub_nn_250.out.weight,[[ 0.66099524 -0.21976054 -0.00927938]]
sub_nn_250.out.bias,[0.4559164]
sub_nn_251.hidden.weight,[[-0.65901375  0.3153597 ] [-0.7924653  -1.0958586 ] [ 0.64670926 -0.40995204]]
sub_nn_251.hidden.bias,[-0.24779904  0.520758    0.3830598 ]
sub_nn_251.out.weight,[[ 0.11540914 -0.12572138  0.5939075 ]]
sub_nn_251.out.bias,[-0.36711937]
sub_nn_252.hidden.weight,[[ 0.28251365  0.6551404 ] [-0.25445035  0.14612757] [-0.46640506 -0.6748068 ]]
sub_nn_252.hidden.bias,[0.20763814 0.6710514  0.45711556]
sub_nn_252.out.weight,[[-0.09007975  0.7563322  -0.9255696 ]]
sub_nn_252.out.bias,[0.179209]
sub_nn_253.hidden.weight,[[-0.17791726 -1.0764123 ] [ 0.3259958  -0.1141268 ] [-0.31520507  0.9469021 ]]
sub_nn_253.hidden.bias,[ 0.6515005 -0.5255174  0.6130592]
sub_nn_253.out.weight,[[1.0565385  0.09242944 2.2916968 ]]
sub_nn_253.out.bias,[-0.04519057]
sub_nn_254.hidden.weight,[[ 0.14330311 -1.2314048 ] [ 0.01811886  0.19913685] [ 0.18066457  0.9523264 ]]
sub_nn_254.hidden.bias,[-0.4741266  -0.7035697  -0.12640439]
sub_nn_254.out.weight,[[-0.8548608   0.06084012 -0.8978635 ]]
sub_nn_254.out.bias,[-0.0892967]
sub_nn_255.hidden.weight,[[ 0.9356155  -0.39246482] [ 0.22758578 -0.17491168] [-0.9911033  -0.49947733]]
sub_nn_255.hidden.bias,[ 0.15347637 -0.1079725   0.25566733]
sub_nn_255.out.weight,[[-0.10238833  0.8523401   0.134897  ]]
sub_nn_255.out.bias,[0.2526343]
sub_nn_256.hidden.weight,[[-0.09800266 -0.44182158] [ 0.98238695  0.9589545 ] [ 1.6153753  -0.22441536]]
sub_nn_256.hidden.bias,[-0.64201325 -0.17708284  0.40537554]
sub_nn_256.out.weight,[[-0.6194992  -0.15769482  0.69414955]]
sub_nn_256.out.bias,[-0.39170665]
sub_nn_257.hidden.weight,[[ 0.08637248 -0.09798382] [ 0.6190483   0.04377801] [ 0.23479737  0.66679794]]
sub_nn_257.hidden.bias,[-0.24594557  0.3703919   0.16580307]
sub_nn_257.out.weight,[[ 0.10066481  0.8094805  -0.25107396]]
sub_nn_257.out.bias,[0.12028491]
sub_nn_258.hidden.weight,[[-0.7994898  -0.37544918] [-1.0976105  -0.8790342 ] [-0.21541177 -0.5787739 ]]
sub_nn_258.hidden.bias,[0.35763174 0.50834054 0.4762147 ]
sub_nn_258.out.weight,[[-0.62612015 -0.28147402 -0.7263994 ]]
sub_nn_258.out.bias,[0.17939627]
sub_nn_259.hidden.weight,[[ 0.41340685 -0.30022067] [-0.91498744  0.7176924 ] [ 0.7229422   0.34809244]]
sub_nn_259.hidden.bias,[-0.46136805 -0.03684374  0.1194852 ]
sub_nn_259.out.weight,[[-0.18098791 -0.8120008   0.39498034]]
sub_nn_259.out.bias,[-0.10800046]
sub_nn_260.hidden.weight,[[-0.08333179 -0.08816572] [-0.2736859   0.00728191] [ 0.10349684  1.0700775 ]]
sub_nn_260.hidden.bias,[0.42770317 0.29397365 0.2038377 ]
sub_nn_260.out.weight,[[-0.15005939 -1.4119024   0.5503467 ]]
sub_nn_260.out.bias,[-0.20708612]
sub_nn_261.hidden.weight,[[ 0.50162286 -0.0825688 ] [-0.9409191  -0.81520844] [-0.33507648 -0.1600304 ]]
sub_nn_261.hidden.bias,[ 0.6144617   0.12591112 -0.34802946]
sub_nn_261.out.weight,[[-0.3756731   0.20255919  1.948457  ]]
sub_nn_261.out.bias,[-0.03715813]
sub_nn_262.hidden.weight,[[-0.26277876 -0.98957294] [-0.43368044  0.1340386 ] [ 0.1193473   0.37970394]]
sub_nn_262.hidden.bias,[0.649774   0.43645197 0.31722015]
sub_nn_262.out.weight,[[ 0.6963836   0.86034864 -1.9625529 ]]
sub_nn_262.out.bias,[-0.21932751]
sub_nn_263.hidden.weight,[[-0.38436103  0.46966723] [ 0.80445707 -1.3681813 ] [-0.01135904 -0.42523685]]
sub_nn_263.hidden.bias,[ 0.43307573 -0.4763584   0.1890164 ]
sub_nn_263.out.weight,[[1.090478   0.81598157 0.3933989 ]]
sub_nn_263.out.bias,[-0.08069924]
sub_nn_264.hidden.weight,[[-1.3119562   0.16417663] [ 0.36175588 -0.5613111 ] [ 1.0768355  -1.101178  ]]
sub_nn_264.hidden.bias,[-0.03279131  0.3444342  -0.6025048 ]
sub_nn_264.out.weight,[[0.44075853 0.6661077  0.79815966]]
sub_nn_264.out.bias,[0.3928454]
