w,[5.4226746e-03 4.2163026e-01 5.0647491e-01 6.6364211e-01 5.6703991e-01 5.1972675e-01 8.1239408e-01 6.4336244e-05]
hidden1.weight,[[-0.00605569 -0.03410055  0.0895041  ...  0.03554998  0.01914515  -0.02322109] [-0.04184882  0.02831893 -0.0552298  ... -0.00354544 -0.04072222  -0.08999223] [ 0.02625915  0.01749221  0.02815725 ...  0.06588178  0.03977558  -0.06673946] ... [-0.00871595 -0.00218642  0.0325868  ...  0.05660593  0.03720695  -0.00429655] [-0.07342517  0.02112301  0.05974632 ...  0.02928462  0.0267991  -0.0504977 ] [ 0.05726202  0.00105765 -0.09582555 ...  0.01052547  0.00307166   0.01823749]]
hidden1.bias,[-0.03346501  0.03975934  0.01158615 -0.03172335 -0.02029987  0.00547455 -0.04687251  0.03047075 -0.03883462 -0.03308463 -0.00838936 -0.01172028  0.03019923 -0.03632489 -0.02170131 -0.00128681 -0.03107253 -0.01947742  0.0010175  -0.00058099  0.03827692 -0.00239144 -0.04363999  0.03719774 -0.0066618   0.03375514  0.03820237 -0.0331309   0.03257766 -0.00190771 -0.04261927 -0.01917543 -0.03016985 -0.00185016  0.01664775 -0.02258785 -0.01046811  0.0244806   0.00572512 -0.03754406  0.01563554 -0.00913039 -0.0248147  -0.04377412 -0.02235577 -0.02522269  0.04497416  0.03373244 -0.02741997 -0.04133153 -0.02684023 -0.01850839  0.04232385 -0.00191408 -0.04420837  0.02987881  0.00216633  0.02900485  0.00280056  0.00461492  0.04769311  0.02319599  0.03789098 -0.01994386 -0.01341135  0.03161888  0.01609655  0.04290023  0.01667037 -0.02262539  0.00459378 -0.01466086  0.03822513  0.0377295   0.03592223  0.03746098 -0.01577894 -0.02579846  0.0351846   0.03862374  0.00938518  0.034225   -0.02995034  0.03919803  0.03676347 -0.03378872 -0.02002663 -0.04347635 -0.02061502  0.03981446  0.00809697  0.03480489 -0.04591187  0.02318736 -0.0008094  -0.01836812 -0.03668443 -0.03664981 -0.04675405  0.04593555  0.04723898 -0.02588359  0.03803731 -0.01081385 -0.0179821   0.0299632  -0.01688107  0.00904817 -0.0156319  -0.04347416  0.00508845  0.0329569   0.02921885  0.02320038 -0.04605608 -0.01435323 -0.0274323   0.01576313  0.0181412  -0.02580805  0.0071722   0.00777814 -0.03631129  0.0081658  -0.03110227  0.03792791  0.0403231  -0.04355391  0.00837477 -0.04597174 -0.04238755  0.01221456  0.00746872 -0.04255517 -0.01174889 -0.04796156  0.03544027  0.00496898  0.00382742 -0.01288942  0.01753746 -0.00950029  0.03398062  0.03585354 -0.0138381  -0.00203183 -0.0370891   0.04315886  0.04088849 -0.02652184  0.04057219 -0.0157376   0.02772321  0.04623548 -0.00018665  0.00878852 -0.0198328   0.01821986 -0.04550222  0.03890491  0.03748735 -0.04302758 -0.02068914 -0.04452026  0.02979362  0.0017425   0.03610788  0.01931824 -0.05155546 -0.02315896 -0.03055604 -0.02070126 -0.02404792  0.02301529  0.0191838   0.01932994  0.04525921  0.04623837 -0.02380367 -0.01693015  0.00411126  0.0124868  -0.00457543  0.03900186  0.02861336 -0.01940039 -0.01097142 -0.02448714 -0.00387253 -0.04314869 -0.04374824  0.03955782  0.0041462   0.02816189 -0.00570482 -0.02879526  0.01546422 -0.04273365  0.01980931  0.04569808  0.00055591 -0.0301985  -0.01717084  0.00602644  0.02163907  0.04826123  0.01692408 -0.01846711 -0.00389015 -0.01907925 -0.03279693  0.02048661 -0.02600755  0.02231338  0.00772461  0.0104184 -0.01255225  0.01837938  0.01067143 -0.00514667  0.03921079 -0.03855061 -0.04934126  0.01728963 -0.022211    0.04333243  0.04445101  0.04464771  0.04360898  0.03853403 -0.02890868  0.02272924  0.0332416   0.00728847  0.02207078 -0.02738448  0.00634785 -0.01619476  0.00059278 -0.02371266  0.0447089  -0.03140354 -0.03194735 -0.02041119 -0.03132905 -0.03825293 -0.00244126 -0.03671822 -0.04764549 -0.02013217  0.02848736 -0.01786288  0.00254059  0.00596985  0.02358909  0.00259874 -0.02804924 -0.04207063  0.01701692 -0.03397947 -0.03047358  0.04434735 -0.04203064 -0.02914372  0.01721809  0.03884845  0.00941354  0.00845875 -0.04339615 -0.01072262  0.04717251  0.01797004 -0.03467778  0.00242128 -0.05359933 -0.04635646 -0.03206612 -0.00647832  0.03265457 -0.00381195 -0.0006857  -0.03403234  0.01877815  0.04571907 -0.00614311 -0.04246506 -0.021849   -0.01694932 -0.04336676  0.03286953  0.04563756 -0.01440291  0.0123343   0.005136 -0.01999479  0.04257745 -0.02257237 -0.04602294  0.0430515  -0.04431009  0.00900942  0.01962324  0.00380218 -0.03363296  0.00543577  0.02195498  0.03209171 -0.03149285  0.04200816 -0.03700423 -0.00338267  0.00940933 -0.02797649  0.00811715  0.0183608  -0.00865082 -0.03832264  0.0400328 -0.02240274  0.02627707  0.03264157 -0.04493539 -0.03624059 -0.03094904  0.04116173  0.0244375   0.00603122 -0.0044668   0.0232342  -0.01327131  0.02837401  0.00024501 -0.00667286  0.03433239  0.0242786   0.04335089  0.03916636  0.0252828  -0.00750225  0.00443973 -0.00881685 -0.01517968  0.03111773  0.00470621 -0.04172408  0.03419043 -0.03502418 -0.02099846  0.01013684  0.03191174  0.00761581 -0.04044607  0.03059821 -0.02453555  0.03549803 -0.0007967  -0.04616632  0.00706901 -0.00355895  0.03858171  0.00135661 -0.04061812  0.04709207  0.04063479 -0.05114748  0.0085666  0.0264527  -0.02230881 -0.01589738  0.00694783  0.00273098  0.01103064  0.01952977 -0.00341609 -0.03368464 -0.04161077  0.0159472  -0.03494988  0.03476435 -0.04168596  0.00190374  0.00450461  0.03003609 -0.00997359  0.02748755 -0.02591987 -0.04285147  0.01673415  0.03858121 -0.03544564 -0.03296629  0.02608229 -0.01972276 -0.02165402  0.03458396 -0.00750271  0.00134151 -0.04339221  0.03035392 -0.00974422]
hidden2.weight,[[ 0.01015887  0.06279486  0.15706004 ...  0.02460401 -0.06189567   0.13996297] [-0.01632828  0.07612274 -0.04290454 ... -0.03760899  0.05187979   0.00651712] [-0.06779294  0.00909276 -0.12193298 ...  0.1080772  -0.01075284  -0.03260145] ... [ 0.02176086 -0.04577362  0.08773581 ...  0.10848528 -0.03182216  -0.05381647] [-0.05268778  0.00679645  0.05785505 ...  0.00369877  0.14800034  -0.1428368 ] [-0.07329505 -0.03896602 -0.02463537 ...  0.00590514  0.00824133  -0.0150602 ]]
hidden2.bias,[ 0.04301972 -0.04119107  0.01298246 -0.0360739  -0.04517084 -0.02538969 -0.01583182  0.01472256 -0.00836244 -0.04006797 -0.01306786 -0.04227008  0.03337438 -0.04906693  0.01324688  0.00897279 -0.05813237  0.02342286  0.00407598 -0.00782502 -0.02035291  0.00140075  0.01611252  0.00263996  0.01123482  0.03755333  0.02244975  0.02002906  0.02486147  0.01328295 -0.01271244 -0.02579492 -0.03169101  0.02359873 -0.03239206  0.00479876 -0.01000611 -0.01097165  0.0375568  -0.0028662 ]
out.weight,[[ 6.44436181e-02 -5.66298701e-03 -2.01789513e-01  3.11798099e-02  -6.38691932e-02  1.32605880e-01 -1.33244395e-01  1.42783940e-01   1.42286405e-01 -1.79111749e-01 -4.61837761e-02 -2.47006342e-01   1.11645319e-01 -5.12478091e-02  1.03461534e-01  2.43857294e-01  -7.94909522e-02  1.28600657e-01 -3.48781198e-01  3.17876711e-02  -2.95113921e-01  9.13431570e-02 -2.43256047e-01  9.00848284e-02   6.23709679e-01 -1.96213454e-01  1.14702351e-01  2.95845419e-01   1.76851064e-01  1.07942194e-01  3.60340551e-02 -2.19472870e-01   2.75332518e-02  1.77409455e-01 -2.06084117e-01  2.03839689e-01  -3.92081849e-02 -3.75801735e-02 -1.19121641e-01 -3.54849309e-01] [-1.95499107e-01  4.25231159e-02 -1.87345669e-01  3.98727208e-02   1.54787719e-01  1.68491229e-01  3.10872078e-01 -2.72071827e-02   4.98723835e-02  3.73871565e-01 -2.26492845e-02  2.34114211e-02  -2.97811121e-01 -4.68120389e-02 -2.57782757e-01  4.23846347e-03  -1.15908086e-01 -4.16235000e-01 -5.14046550e-02 -3.50252002e-01  -1.08992904e-01 -6.61254674e-02  3.03334385e-01  1.90062821e-01   1.06782429e-01 -5.80039667e-03  5.67951240e-02 -9.11067128e-02   2.38408625e-01  5.94575843e-03  1.96992800e-01 -2.79807043e-03  -1.87454596e-02  3.73904377e-01  7.49073774e-02 -1.28735770e-02  -7.97656327e-02  1.24292575e-01 -2.06971705e-01  1.01487257e-01] [-1.98135585e-01 -1.18540786e-01 -3.33188534e-01  3.38637084e-02   6.73630312e-02  9.41367745e-02 -1.04460277e-01  4.65641692e-02   7.67505392e-02  3.43457848e-01  2.15111807e-01  3.43324929e-01   3.46032940e-02 -3.23100179e-01  1.09792940e-01  1.86736677e-02   6.67223781e-02  1.13500275e-01  1.10124305e-01 -4.59305421e-02  -3.88631597e-02  4.93514501e-02 -1.73633024e-01  1.30129725e-01   1.70324460e-01 -5.68986051e-02  1.89820565e-02  1.54044375e-01  -3.31805587e-01  1.43195882e-01 -1.93203077e-01 -1.98762015e-01  -8.72446969e-02 -1.11944690e-01  2.14956775e-01 -1.29398759e-02  -2.08021905e-02 -3.04723322e-01  8.95708054e-02  3.80359171e-03] [ 4.15038258e-01 -1.80844843e-01 -1.80029973e-01  1.41325325e-01  -1.87059119e-01 -1.24372907e-01 -4.52599227e-02  1.05384097e-01  -5.91721237e-02  2.27556035e-01 -4.25386056e-03 -1.82769001e-01   1.45385832e-01  2.50518680e-01 -3.01191866e-01 -1.16962940e-01  -2.71816492e-01  1.54413611e-01 -4.58825752e-02 -7.58447200e-02   1.32250562e-01 -2.50564992e-01 -1.17703865e-03 -2.96954632e-01   3.04843970e-02 -2.31966347e-01 -9.15507600e-02 -8.24235976e-02  -6.72096089e-02  5.40225506e-02 -3.51189956e-04  5.16911410e-02   1.89258546e-01 -2.48038862e-02 -2.68043205e-02 -2.37349384e-02  -1.43122241e-01 -1.55090205e-02 -3.68740372e-02  3.82571459e-01] [-2.19441935e-01 -5.16961031e-02  3.45236003e-01 -1.23239242e-01  -4.00655121e-01  3.67025994e-02  2.19008364e-02 -4.74229828e-02  -6.56430721e-02 -2.22233117e-01  3.70443575e-02  2.19302177e-01   7.42011443e-02  7.90271312e-02 -3.47346902e-01  2.36931339e-01  -3.09126019e-01  3.26117910e-02  1.94210097e-01  2.63690978e-01   1.19321972e-01  4.20921564e-01  2.29448289e-01 -1.12656713e-01   1.67436957e-01 -8.84179864e-03  1.33297831e-01  1.22877330e-01  -2.21493300e-02 -2.40142882e-01  3.37472349e-01 -9.29412246e-03  -1.20441854e-01  3.66346687e-01 -6.30599111e-02 -5.32269059e-03   1.14217706e-01  5.06257176e-01 -8.48700758e-03 -2.34444454e-01] [ 2.40126893e-01  2.85873026e-01  2.87291467e-01  3.11512537e-02   1.24637514e-01 -1.97046205e-01 -2.82158703e-01  3.01793247e-01   1.58527762e-01  2.47106493e-01  5.73115014e-02 -1.23302646e-01   1.05870776e-01  1.11758523e-01 -1.46651089e-01  1.34156361e-01   3.74913454e-01  8.49397257e-02  2.90405631e-01 -4.18298125e-01  -1.54549852e-01 -1.88727692e-01 -8.09384063e-02  1.10583261e-01  -3.56634945e-01  1.35830700e-01 -2.77374923e-01  1.79198116e-01  -1.85291842e-01 -8.97812992e-02  2.25694165e-01 -1.98287927e-02   2.99627870e-01 -2.33832151e-01  1.13189900e-02  1.20477475e-01  -8.80206600e-02  5.14759943e-02  1.55743629e-01 -1.11334436e-01] [-1.42535582e-01 -2.02792212e-02  1.77933559e-01 -4.20097381e-01   2.90325452e-02  3.04599851e-02 -3.94213684e-02 -3.38492240e-03   4.42634933e-02  3.78931373e-01  3.39480430e-01  2.93896258e-01  -4.48984280e-02 -2.64439046e-01  1.21115617e-01  6.43195212e-01   3.91177714e-01  1.59023225e-01 -1.00931272e-01  1.37449875e-01  -2.72450205e-02  2.32717559e-01  1.38924584e-01  5.97231865e-01   4.47574705e-01  5.74585386e-02 -2.85620660e-01  7.40488470e-02  -6.17656745e-02 -4.20476049e-01 -2.12526292e-01  3.48356187e-01   2.11731210e-01 -7.27682784e-02 -3.99862081e-02  2.44892895e-01   1.00509845e-01 -8.97595473e-03 -1.58924162e-01 -3.98361776e-03] [-1.37545869e-01  6.81960881e-02  1.23736039e-01 -1.08612537e-01  -5.77848367e-02 -2.74658334e-02 -9.58596244e-02 -2.57719785e-01  -4.87260818e-02 -7.81338811e-02 -7.07230065e-03 -2.74516523e-01  -1.93172053e-01  1.48809254e-01 -1.34034663e-01  4.92040724e-01   2.62768656e-01  2.40027353e-01 -9.08678398e-02 -2.63277918e-01   1.49447694e-01  1.80494651e-01 -2.62933105e-01 -1.03400685e-01   1.96590826e-01 -2.24060953e-01 -2.20785290e-01  2.29199499e-01  -2.82124102e-01  1.20659679e-01 -1.26954345e-02  1.20456465e-01   9.25895870e-02 -4.92418706e-02  1.62342936e-01  2.42631674e-01   8.85489509e-02  1.74469590e-01 -1.60310596e-01 -2.16414616e-01]]
out.bias,[-0.08442041 -0.07762604 -0.0336142  -0.06228861  0.01082578  0.1604663  0.01125795 -0.0963142 ]
bn0.weight,[0.9974609  1.000926   1.0003563  0.9987367  1.0005988  1.0005336 0.99861646 1.0010473  0.9984124  0.9973743  0.99700165 0.99530095 1.0006312  0.99915546 0.99458987 1.0019642  0.99997663 1.0003321 1.0007555  0.99860716 0.995864   0.99918896 0.9991699  0.99977714 0.9971185  1.0013425  0.9999824  0.99730015 0.9982494  0.9977791 0.99922174 0.99998486 1.0007226  1.000354   0.9988775  0.9981348 0.9989514  0.9988889  1.0007819  0.9994396  0.9966489  0.99881244 0.99686414 1.001908   1.0003405  0.9979691  0.99915    0.9957348 0.9973125  0.9972887  0.9968629  0.99940246 0.9965836  0.9992971 0.9981619  0.99695    0.99703974 1.0021591  0.9994704  0.9993913 0.99895424 0.9980094  0.99803126 0.9998892  0.99691284 0.9994456 0.9969057  1.0040023  0.9952245  0.9970971  0.9980786  1.0010395 0.9997922  0.9982616  0.9981475  0.99499863 1.0012552  1.0002217 1.0001093  0.99832624 0.99652857 0.99939215 1.0000396  0.99892753 0.9990238  0.9994467  0.99843985 0.9962888  1.0011662  0.99901855 0.9996362  1.0017263  1.0036625  0.99953485 1.0001382  0.99943054 0.9955301  0.9997355  1.0020393  0.99991333 0.99841297 0.9994039 0.99499184 0.99512744 0.9992723  0.9997835  1.0027578  1.0005993 1.0006385  0.9978766  1.0047408  1.000448   0.99902976 1.0009019 1.0003345  0.9978886  0.9941876  0.99442786 0.995751   0.99948597 0.99420923 0.99849266 0.9997201  1.0030829  0.9994207  1.0004706 0.9996556  1.0001087  0.9999605  1.0003439  1.000889   0.99904025 0.9959671  0.99895126 0.9995713  1.0017619  1.0019926  1.0000547 0.99882627 0.9980665  0.99837726 0.99732995 0.99837565 0.99939764 0.9982235  0.9959263  0.9981191  1.0006565  0.9988312  0.99755484 1.0006001  0.9994726  0.99928814 1.0002091  0.9978646  1.0052685 0.99759036 0.99882483 1.0002316  0.99880856 1.0009161  1.0001225 0.9982505  0.9991237  0.997894   0.9998265  0.99902916 0.9990666 1.0004525  1.0007988  1.0003914  0.99950945 0.9998546  0.99979234 0.9987041  0.9966191  1.0007044  0.99743205 1.0013319  0.99879825 0.9987317  0.99697685 0.9995466  1.002002   0.99999326 0.9998476 1.0013784  0.99816006 0.9969021  1.0005546  0.99789304 0.9978866 0.9995635  0.99579155 0.9995328  0.99883217 0.9994274  1.0002056 1.0029492  0.9991578  0.9920377  1.0034585  0.9979033  0.99902546 0.99910754 0.9982998  0.9981963  1.0015384  0.9961383  0.9993579 0.9976062  1.0001698  0.9988886  0.9996562  0.9971115  0.9998894 0.99379855 1.0011276  1.0001612  1.0001514  0.997922   0.99978846 0.9992474  0.998896   0.9975462  0.9974064  0.9994982  0.99711174 0.9970499  0.99706477 1.0006061  0.99832904 0.9983058  0.9976695 0.999017   1.0000671  0.99713993 1.000318   0.99969655 0.9985004 1.0000713  0.99851966 1.00116    1.0009347  0.9984072  1.000718 0.999389   1.0015062  0.99870455 0.9993564  1.0022093  0.99807423 1.001037   0.99650055 1.0009369  1.0009526  0.9973299  0.9989046 0.996042   1.0023273  0.99802464 0.99881774 0.9977122  1.0026202 0.9980153  0.99988514 1.0005097  0.9976767  0.99452746 0.99820817 0.9977359  0.998482   0.9980603  0.9982916  1.0002848  0.9975322 1.000404   1.0011958  1.0000049  0.9973712  0.9987237  0.9978764 1.0005528  0.99884516 0.9974148  0.9977973  0.99887943 1.0005169 0.99975985 0.9987803  0.9989616  0.99954504 1.0044286  0.9986692 0.99671245 0.99830616 0.99767447 1.0013462  1.0044281  0.9967675 1.0006031  0.9986428  1.0020472  0.99673474 1.0014051  0.99855995 0.99929106 1.0024563  1.0012102  0.99838287 0.99915576 1.0003768 1.0002575  0.99980557 0.9975193  0.9989069  0.99656194 0.99630517 0.9973032  1.0003542  0.9999623  0.999447   0.99711484 0.9987683 0.9986763  0.9990797  1.0001965  0.9986324  0.99862605 0.99988556 1.0005528  0.9993621  0.9961668  1.0015556  0.9983798  0.9980513 0.9972636  0.99392587 0.9974953  0.9954396  1.0002947  1.0001484 0.9993166  0.9987313  0.99980754 0.9995163  0.99937177 0.9995854 0.9997967  1.0003676  1.0002519  0.99561524 0.99645907 0.99578524 0.9968572  0.99809664 0.998487   1.0007029  0.9926846  0.9963033 0.9961414  1.0042303  0.9988253  0.99983585 1.000371   0.99868983 0.99711984 0.9956695  0.9971658  1.005979   0.99895334 1.0042008 0.9957087  0.99970275 0.99730974 1.0007327  0.99979115 1.0007889 0.9983526  0.9982347  1.0003161  0.99872375 0.99815154 1.0010606 0.99856    1.0007684  0.99825895 0.9960415  1.0002254  0.99878883 0.99528855 0.99643564 1.0004174  0.99862754 1.001461   1.000538 0.9995689  1.0002596  0.9955035  0.9966848  1.0016207  0.9963462 0.9982407  0.99967736 0.99870175 0.9973364  0.99627167 0.99769956 0.9975046  0.9958094  0.9915437  0.9976149  1.002344   1.0031034 0.9978782  0.9974248  0.99724215 0.99550617 0.99461776 1.0012394 0.996932   1.0000141  0.999426   0.99479127 0.9995563  0.9988176 0.99958014 1.0004121  0.99514955 0.9966238  0.99872947 0.9977114 1.0002843  1.0015843  0.99747247 0.9999796  0.99565566 0.9983591 1.0012823  0.9979466  0.9975319  0.9999501 ]
bn0.bias,[-2.38856557e-03  1.60551781e-03 -6.98783784e-04 -1.37868803e-03 -6.34859549e-04 -3.19249067e-03  2.48878635e-03 -3.97726661e-03 -1.18546688e-03 -2.74430262e-03 -1.93475076e-04 -3.53864534e-03 -5.36907348e-04  6.16699399e-04 -8.34593200e-04  6.62441016e-04  5.44811774e-04  1.46531558e-03  4.04198980e-03 -6.44154148e-04 -1.11249031e-03 -2.44663586e-03  1.69185412e-04 -2.19495548e-03  2.17755651e-03  6.45703170e-04  9.48741450e-04  4.21449367e-05 -1.80578441e-04  8.51138495e-04  5.12581842e-04 -2.02392973e-03 -4.12945810e-04 -1.79457490e-03  7.63416901e-05  3.17686796e-03 -3.52204614e-03  2.88908836e-03 -1.04249234e-03  2.59261433e-04 -3.05889500e-03  4.18760395e-03  4.19140444e-04  3.08974530e-03 -2.42265422e-04  2.41293060e-03  3.94088076e-03  5.03273495e-03  1.94423401e-03 -1.38717704e-04 -7.66257814e-04  6.13168522e-04  3.16508138e-03 -4.70038562e-04  1.93369196e-04 -6.91272318e-04 -1.04375894e-03  1.57793146e-03  2.48808716e-03  2.52489420e-03 -3.16725951e-03 -2.12938106e-03 -9.13943746e-04  7.16260110e-04  1.86059362e-04 -2.40000989e-03  2.68246257e-03 -3.84854432e-03  2.32728594e-03  2.09758501e-03 -4.69208881e-03  3.17247468e-03  1.35996600e-03 -4.02037374e-04 -1.55316060e-03 -4.18736818e-05 -1.27640378e-04 -2.37469492e-03  5.76650957e-03 -3.16117454e-04  3.99536127e-03  3.60961352e-03 -6.42436731e-04  3.77276517e-03  2.74512870e-03  2.30985188e-05 -2.40513263e-03  5.05743874e-03  1.54524355e-03 -1.93747110e-03  3.05269379e-04 -2.38795066e-03  3.51489522e-03 -5.18911332e-03  2.06218028e-04 -2.36645760e-03  1.97650213e-03 -1.74510607e-03  2.53618625e-03 -1.06492732e-03  4.91630798e-03  4.81383817e-04  2.48864782e-03  1.47871498e-03  1.36669131e-03  5.33462095e-04 -5.29845105e-03 -1.22684694e-04  1.50007755e-03 -1.18510786e-03 -3.54568614e-03 -8.99115694e-04 -3.16443713e-03 -3.64963990e-03  1.70506851e-03 -1.95531803e-03 -4.37709037e-03 -4.55191731e-03  2.39155698e-03 -3.54855601e-03 -5.63511811e-03  5.03414404e-03 -2.01814692e-03 -6.44722627e-03 -2.79014790e-03 -1.50701788e-03  1.39983499e-03 -6.62676874e-04 -1.34027423e-03  1.90137548e-03 -3.65446368e-03  1.89375307e-04  3.09075182e-03  7.30241823e-04  1.74611656e-03 -9.25194356e-04  2.86683161e-03  4.54185385e-04  3.66223138e-03 -2.10498436e-03 -1.52578834e-03  1.35817763e-03 -1.76785793e-03  1.06000691e-03 -2.29857466e-03 -1.77214679e-03 -1.72844331e-03  6.34430675e-04 -3.23968870e-03 -4.52391477e-03  1.20905729e-03 -3.46875796e-03  1.39526080e-03 -4.22137207e-04 -6.40274258e-03  1.97843951e-03 -1.34009775e-03  1.06213684e-03  2.96626030e-03 -1.84630728e-04 -3.92049871e-04 -5.17830811e-03 -1.77169917e-04 -2.28710356e-03 -9.41537612e-04 -4.50597797e-03 -2.33971485e-04  1.37776879e-04  5.05460484e-05  3.21322610e-03  2.23346543e-03 -2.43646908e-03 -7.77685957e-04  2.15876824e-03 -2.56315921e-04 -5.96542552e-04 -2.18172092e-04 -2.76850117e-03 -1.03324465e-03 -2.48273578e-03 -1.61902676e-03  8.46155279e-04 -3.83636972e-04 -1.13661040e-03  1.18169666e-03 -2.44910643e-03  1.59824733e-03 -1.39631249e-03  3.25232395e-03  9.11785057e-04 -1.63211022e-03  1.24691520e-03  1.44589023e-04 -3.25129693e-03 -3.66552104e-03 -4.07978147e-03 -2.68301740e-03 -8.97640130e-04 -3.35171353e-03 -3.53226345e-03 -1.83280895e-03  6.13471679e-03  1.19520468e-03 -1.97063666e-03  1.27981289e-03 -2.53487099e-03 -5.08837216e-03  3.29466164e-03  1.44370401e-03 -1.25456741e-03  1.28197030e-03 -1.98099558e-04  1.62574719e-03  1.12091843e-03 -1.65171339e-03  3.36459908e-03 -3.99451610e-03 -6.88353379e-04  1.83016656e-03 -5.76475468e-05 -5.17657500e-05 -2.15974622e-04  1.28582946e-03 -3.03443568e-03  2.47773714e-03 -2.33191811e-03 -1.85337834e-04 -2.88466294e-03 -1.85291376e-03 -2.35465425e-03 -3.47055541e-03  4.39359294e-03  4.25036252e-03 -2.67521781e-03 -1.39908967e-04 -3.30229360e-03 -6.07554661e-03  2.98446859e-03 -5.96434926e-04  5.39727276e-04  1.68775313e-03  3.32132378e-03 -3.06454557e-03  2.25383486e-03  3.33924848e-03  5.57765365e-04 -1.95062754e-03 -1.22629362e-03 -1.78618822e-03 -5.22025570e-04 -3.89039866e-03  3.13136890e-03 -1.19518896e-03  6.15968648e-03 -1.97593961e-03 -9.01180960e-04 -1.33940275e-03 -9.16486897e-05 -4.33765445e-03 -2.16112076e-03 -2.57171341e-03  1.43214432e-03  6.95518916e-04  2.33450625e-03  1.38478912e-03  1.71105296e-03  3.26456851e-03 -1.78680150e-03  4.39131213e-03  1.20987580e-03 -2.48926971e-03  1.00047980e-03  5.04772877e-04 -9.29237867e-04  6.50448306e-03 -1.93795050e-03 -1.74579408e-03 -2.35221814e-03 -3.94234194e-05  2.97442125e-03  1.88262749e-03 -7.61855219e-04  2.82125804e-03 -1.53360842e-03  7.18216819e-04 -5.15181618e-03 -2.22715244e-04  9.84654762e-04 -1.10749526e-04 -3.92558193e-03 -1.30572089e-03 -1.02064048e-03 -3.22534610e-03  5.58206486e-03  3.83721455e-03 -6.24010630e-04 -2.37171611e-04 -1.74537854e-04  4.02616290e-03 -2.49656406e-03  2.27183162e-04  4.64432669e-04  2.86215334e-03 -1.37249962e-03 -1.54743448e-03  3.58914817e-03 -2.07998976e-03 -3.08282021e-03  2.07771873e-03  1.16306602e-03  1.19922461e-03  1.88792264e-03  1.60373654e-03 -2.23032199e-03 -3.96126276e-03 -1.48630206e-04  1.25877996e-04  6.69464562e-03  6.56951359e-03  3.83880129e-03 -4.48445696e-03  4.11507383e-04  2.10257922e-03  1.52591232e-03  3.18592094e-04 -6.04699075e-04 -1.47982209e-03 -4.74817911e-03  3.71367531e-03  2.15340173e-03 -7.46002188e-04  4.45822813e-03  2.93080485e-03 -2.03292351e-03  2.17170804e-03  1.89092511e-03 -2.61227787e-03  1.05890958e-03  1.15106045e-03 -2.92813964e-03  4.43444005e-04 -3.91355297e-03  6.42950821e-04 -4.97090351e-03  2.05176836e-03 -1.59085391e-03 -6.89561362e-04  5.76318242e-04 -1.24771276e-03  1.37954310e-03  1.54191360e-03 -4.62574419e-03 -3.13443434e-03  1.83032942e-03 -7.81367533e-04  2.21705833e-03 -6.20957522e-04 -1.63407368e-03  5.38155856e-03  3.80061421e-04  4.14650375e-03 -3.37085011e-03  4.08875896e-03  1.40232290e-03 -1.61282334e-03  9.91937006e-04 -1.41931907e-03  1.37904671e-03  9.82451835e-04  5.02657797e-03  1.72062914e-06  2.14606686e-03  4.88024950e-03 -6.86065294e-04 -2.76567671e-03 -5.47853997e-04  3.09997966e-04 -1.32790301e-03 -1.56469608e-03  3.14525038e-04  1.95639295e-04 -4.13154077e-04 -4.62194992e-04  3.30425310e-03  9.07662034e-05  2.51818201e-05  2.62766704e-03 -3.95023124e-03  4.76580644e-05  5.89708914e-04  1.98626588e-03  1.33209908e-03  1.81583979e-03 -4.16008104e-03 -1.16285449e-03 -1.52560370e-03 -7.35248963e-04 -2.98155122e-03 -2.43380037e-03 -4.07873979e-03 -3.97991668e-03  2.72718171e-04 -9.08592832e-04  7.78548943e-04  1.34042941e-03 -2.02140748e-03 -1.31907663e-03 -1.92355504e-03  2.00026995e-03 -4.17062221e-03  5.19235525e-03  1.07212669e-04  5.79809025e-03  4.05471027e-03 -2.01232242e-03 -2.75845616e-03  3.90122645e-03  5.26277162e-03  2.17542262e-03 -1.29537773e-03  2.41817650e-03 -2.12917267e-03 -1.50031305e-03 -2.46639317e-03 -1.68932602e-03  2.81866547e-03  9.12515796e-04 -9.04491404e-04  1.80819200e-03 -7.44106830e-04 -1.63075502e-03  1.72670209e-03  4.02290793e-03 -6.22695312e-04 -4.10896842e-04 -1.58200145e-03  4.85477597e-03 -1.49489229e-03 -9.98964999e-04 -2.39831768e-03  1.56297488e-03 -1.27207476e-03]
bn0.running_mean,[-5.32178354e+00 -6.29526234e+00  6.33124809e+01  3.81752129e+01  5.08596535e+01  7.54575348e+00  8.75978395e-02 -3.89347954e+01  1.27704102e+02  2.58913460e+01  4.45069700e-01  7.07045364e+01 -9.89115295e+01 -1.89051685e+01  4.20467491e+01  2.67907009e+01 -8.25062370e+00  7.66684675e+00 -2.10318595e-01 -6.26338615e+01 -8.17131758e-01 -1.77690315e+01  2.85560398e+01 -1.07592873e-01 -4.58965349e+00  2.97431965e+01  7.71290064e+00 -2.20589294e+01 -1.34431015e+02  5.76259651e+01  2.97784443e+01  3.82472000e+01  4.02198792e+01 -6.00660667e+01  7.65385151e+00 -1.10632713e+02  3.99679422e+00  4.32726707e+01 -5.12400093e+01 -1.92539847e+00  5.42243271e+01  2.05085307e-01 -1.03789986e+02  1.00943127e+01 -1.40361631e+00 -9.88487015e+01  4.36555296e-01 -4.19522972e+01  3.06436558e+01 -1.23981407e+02  1.04761978e+02  1.06115423e-01 -5.21828461e+01  1.81824799e+01  9.70376301e+00  2.10105968e+00 -2.15265121e+01  8.05199814e+00  2.36518726e+01  7.25807343e+01  4.29024756e-01  5.24062805e+01 -4.19518509e+01 -5.10229826e-01  3.98488045e+01  2.05958805e+01 -1.44501233e+00 -1.01624260e+01 -1.64014481e+02 -3.57883186e+01 -4.13094234e+00 -6.83339834e-02  4.82161427e+00  1.96364456e+02 -2.10449949e-01 -3.24420190e+00 -6.33581238e+01  6.03002319e+01  5.23954849e+01  1.25475861e+02 -1.46910877e+01 -2.91507035e-01  3.83141947e+00 -2.27580762e+00  4.52290039e+01  2.43916359e+01 -2.86959496e+01 -3.21166649e+01 -7.29442825e+01 -4.31930542e+00  8.75241470e+01 -8.81011963e+00  4.61685333e+01  2.82637239e-01  1.81383833e-01 -2.57503387e+02 -6.39522209e+01  3.49040717e-01  2.70819449e+00 -6.15040283e+01  3.64756376e-01  5.90494995e+01 -6.94532394e+01 -2.33300400e+00 -3.00924271e-01  1.78531303e+01 -7.18097305e+00 -1.17296005e+02  1.39657135e+01 -1.29372574e+02 -1.39917679e+02 -4.58244247e+01 -1.19633339e+02 -2.70538926e+00  2.56211109e+01  2.24863186e-01  3.32069054e+01  1.34850559e+01 -2.03934689e+01  3.90336304e+01  1.08525551e+02  3.02683659e+01 -7.39706573e+01  1.89417515e+01  6.73594360e+01  1.04407516e+02 -2.85151176e+01  1.20488823e+02  3.59372749e+01 -1.02232140e+02  3.72588611e+00  3.49064064e+01 -2.38387772e+02  5.64838982e+01 -3.80866318e+01 -1.67336311e+01  4.59547691e+01  6.52888492e-02 -3.04427236e-01  4.81814804e+01  1.48648322e+00  1.78233576e+00 -2.42120042e-01  2.08668919e+01  5.70429742e-01  2.27737904e+00  4.39474983e+01  3.38824779e-01 -2.79933502e+02 -7.94226313e+00 -1.58025951e+01 -2.37790100e+02  1.01296249e+02  1.34308739e-02 -7.91375685e+00 -2.22443789e-01  1.89734344e+01 -1.58290539e+01 -2.08376190e+02 -4.50903320e+00 -2.83349812e-01  7.56822157e+00  8.43316116e+01  1.17193505e-01  3.59117241e+01  3.50065321e-01  1.46086456e+02  1.45969436e-01  1.83156174e+02 -1.58811445e+01  3.26283574e+00  1.31388340e+01  5.21529465e+01 -9.90836411e+01  4.50402946e+01  2.40807578e-01 -8.68100262e+00 -3.96809082e+01 -2.12756748e+01 -4.00432378e-01  5.68729818e-01  1.16707458e+01 -1.84939694e+00  1.28383264e-01  1.67882347e+00 -3.83688431e+01  1.98300816e-02 -4.39512558e+01  2.66163807e+01 -3.75688493e-01 -1.55523422e+02 -1.68509388e+01  2.03583702e-01 -8.09126205e+01 -2.01212021e+02  4.48580414e-01 -6.74587326e+01  2.57443771e+01  4.52896357e+00  2.32710247e+01  2.26025820e+00 -1.25045410e+02  1.49786911e+01 -1.59504719e+01 -8.37549567e-02 -1.03196084e+00 -4.40678030e-01 -7.68784485e+01  1.52118912e+01  1.99563389e+01 -3.38940710e-01 -4.34678316e+00  1.25720188e-01  1.01546507e+01 -1.46043921e+01  1.20856789e+02 -5.02955246e+00  4.48280640e+01 -1.05600067e+02  7.39132166e-01  2.08079243e+01  3.35259438e+01  1.36272217e+02 -3.31406116e+00  1.44976416e+01 -4.89142685e+01 -4.92596006e+00  3.98486018e-01 -1.78627758e+01 -4.99893150e+01 -5.50377905e-01  1.63433266e+01  4.37873917e+01 -2.84376502e-01  7.53210708e-02 -1.34936124e-01 -1.65133934e+01  1.92583447e+01  2.26303792e+00  1.22752123e-01 -4.33553487e-01 -5.09535074e-01  1.24660528e+00 -2.14363918e+01  3.90437431e+01  8.12643909e+00 -9.92705822e+00  1.85188351e+01 -5.04646031e-03  6.55139771e+01  2.85903015e+01  5.05931511e+01  3.44613433e+00  2.14198151e+01 -9.86012344e+01  3.69131546e+01 -3.93478334e-01  6.96112454e-01 -1.09032154e+01  1.89624329e+01  4.04628426e-01  1.11165108e+02  4.94142914e+01 -3.34754601e+01 -6.78155975e+01  5.41795158e+00  5.65915883e-01 -1.88302460e+01  3.31712782e-01 -3.62151146e-01 -2.23501186e+01  3.86249962e+01  1.92923141e+02 -1.46853683e+02  3.39255452e-01 -4.11092281e+00 -1.44180679e+01 -1.37628632e+02 -3.12332245e+02  3.82364388e+01  4.32989025e+00  2.14080544e+01 -1.87644043e+01 -4.26761665e+01  3.68301958e-01 -5.88654220e-01 -1.50791977e+02  3.99025078e+01 -1.79881725e+01 -2.39432812e+00 -1.08230217e+02  3.87682176e+00  2.61582870e+01  3.64556198e+01  2.59029865e+00 -5.39566841e+01 -6.38809624e+01  2.20046749e+01 -1.92410030e+01 -1.46381256e+02  4.42434587e-02 -1.52327423e+01 -7.85127687e+00 -5.91057243e+01  1.09741150e+02 -3.26264560e-01  2.28161297e+01  1.64872169e+01  1.68730804e+02  7.46373215e+01  3.46215439e+01 -1.47713211e+02 -4.58991699e+01 -3.16607494e+01 -1.18987251e+02  4.37799454e+00  1.65664285e-01  1.80214977e+01  1.49529898e+00  6.07502441e+01 -1.01527672e+01 -5.35165482e+01  2.79173613e-01  8.20450127e-01 -1.48493452e+01 -1.79577682e+02 -5.95084578e-02 -2.46467438e+01  2.16023197e+01 -9.01423693e-02  9.87503967e+01  6.15689325e+00  1.21913500e+01  1.59680595e+01  3.98048477e+01 -4.87206507e+00  4.19318733e+01 -6.71621246e+01 -7.44953308e+01  6.01940918e+01  2.72988260e-01 -5.03512263e-01  2.52330795e+02 -3.32381070e-01 -3.46115227e+01  5.27379341e+01 -3.98148384e+01 -1.21589861e+01  8.61765518e+01  1.94622536e+01 -5.65403128e+00  3.60404320e+01  4.66819115e+01 -3.15310550e+00  1.52637157e+01 -2.50794277e+01  7.28591442e+00 -6.34676018e+01 -2.20381195e+02 -1.42006683e+02 -8.40201378e-01 -7.92939911e+01  4.23779517e-01 -3.43952980e+01  2.44966313e-01 -4.89479599e+01 -7.42113724e+01 -4.31915016e+01 -2.11609478e+01  6.82986526e+01 -6.90919018e+00  2.53566380e+01 -2.49111576e+01  6.93367386e+01  9.02382126e+01  6.68795872e+00  2.48311782e+00 -2.91223183e+01  2.32450294e+00  8.32596054e+01  1.27881470e+01 -3.77566719e+00  5.83123817e+01  1.01801739e+01 -2.32760345e+02 -3.74814415e+00 -1.21564423e+02  3.80814476e+01  1.51969442e+01 -2.14019179e+00 -1.50740061e+01 -7.11630478e+01  4.50567131e+01 -6.28588557e-01 -1.45290728e+01 -1.88094196e+01  3.00671196e+00 -1.84179401e+01  3.13904205e+02  1.27483223e+02 -1.59169273e+01 -2.33113155e+01 -2.71397038e+01 -3.24596018e-02  5.68539124e+01  1.33051786e+01  2.93531551e+01  1.78056259e+01  3.61852109e-01  8.79145889e+01 -5.00643578e+01 -1.03848045e+02  4.66437483e+00  2.54232063e+01  1.52370529e+01  1.31993958e+02 -1.79479656e+01 -1.04720793e+01 -6.87707977e+01 -1.56507130e+01 -1.20904846e+01 -1.53223724e+01 -4.16038722e-01  6.48883133e+01 -4.43393946e-01 -1.25099051e+00  6.34456291e+01  5.42265236e-01 -1.24064484e+01  3.68411827e+01 -5.79446373e+01 -4.00168848e+00 -1.16969347e-01 -1.81594944e+01  4.67863579e+01 -5.47141790e-01 -9.44877777e+01  7.51300964e+01  4.09637909e+01  9.57430744e+00 -1.55690796e+02  4.35856074e-01]
bn0.running_var,[1.13486528e+01 1.29362974e+01 1.15042334e+03 4.53824677e+02 7.81727478e+02 1.76825237e+01 2.24127780e-06 4.56272919e+02 4.95551416e+03 2.03481125e+02 3.95226210e-01 1.53082983e+03 3.10921606e+03 1.14961708e+02 5.77063232e+02 2.36151596e+02 3.55962372e+01 1.56321840e+01 1.48984826e+00 1.10442993e+03 1.13569222e-01 7.93877029e+01 2.12854797e+02 6.10847352e-03 3.14512610e+00 2.73885193e+02 1.47837458e+01 1.22278084e+02 4.29839893e+03 9.72106750e+02 2.59590820e+02 4.96101837e+02 4.44268250e+02 9.00775696e+02 1.19582920e+01 3.47766138e+03 3.93895411e+00 4.47007629e+02 6.13224365e+02 6.25178158e-01 5.73215637e+02 2.24651350e-03 2.26255811e+03 1.97192974e+01 3.08757961e-01 2.24390112e+03 2.80349693e+01 3.44736694e+02 1.52910965e+02 2.76370947e+03 1.97261536e+03 3.11198266e-04 4.95818878e+02 4.88599968e+01 1.70095692e+01 9.20058966e-01 7.37709961e+01 8.22181416e+00 9.43498688e+01 9.72362915e+02 1.40243229e-02 9.10000244e+02 7.21195496e+02 1.59604155e-04 5.79516052e+02 1.32862259e+02 6.94853723e-01 2.48877544e+01 8.67228320e+03 3.10787933e+02 1.31412315e+01 8.49901407e-04 6.16928864e+00 1.11468340e+04 1.58695169e-02 6.79232645e+00 1.16767102e+03 1.35665051e+03 7.66101257e+02 4.44997119e+03 4.79216919e+01 3.22260079e-03 2.84956884e+00 2.88226819e+00 5.00540222e+02 1.65631714e+02 2.84444214e+02 2.99229980e+02 1.53845020e+03 5.30542183e+00 1.91993152e+03 2.63118496e+01 7.09625732e+02 6.28100801e-03 1.27338295e-04 2.08334434e+04 1.35257825e+03 1.30395847e-05 2.55322433e+00 1.19743445e+03 1.48996722e-03 1.03563782e+03 1.35189465e+03 2.01117554e+01 1.02131708e-04 1.01881973e+02 1.42759933e+01 3.62904980e+03 5.44458160e+01 2.97428076e+03 3.61256055e+03 3.45246002e+02 2.51900415e+03 2.29441595e+00 1.34079575e+02 4.32889536e-03 1.99846619e+02 2.97853794e+01 5.97943535e+01 2.71359375e+02 2.23649536e+03 2.13114044e+02 1.74608801e+03 1.15160515e+02 1.25717700e+03 3.34764160e+03 2.00919037e+02 4.53213086e+03 3.71749512e+02 3.65676196e+03 8.60519886e+00 3.23361176e+02 1.74379102e+04 9.86678406e+02 3.95231995e+02 8.58133545e+01 7.37109680e+02 1.76680744e-01 1.12665111e-05 7.37557312e+02 7.15288937e-01 1.13999891e+00 8.21474846e-03 1.14415527e+02 9.41505656e-03 2.07128978e+00 4.80842865e+02 1.41867846e-01 2.03920039e+04 1.59494886e+01 8.07519836e+01 1.32278203e+04 2.44379419e+03 2.08422192e-03 1.30305109e+01 6.20049894e-01 8.52273102e+01 7.24825516e+01 8.84529297e+03 5.85774183e+00 1.17659930e-03 1.37473440e+01 1.61493042e+03 6.93472847e-03 2.91406708e+02 3.85211051e-01 4.48419141e+03 1.99530628e-02 1.08792383e+04 6.05649147e+01 3.88141203e+00 5.82261963e+01 8.27791504e+02 3.07908447e+03 6.93874756e+02 3.11867744e-02 1.30459242e+01 5.41601624e+02 1.55448288e+02 2.06815880e-02 1.39721557e-01 1.00345970e+02 2.07614088e+00 3.81503999e-02 1.53958428e+00 4.18370392e+02 6.33218646e-01 7.19876953e+02 2.40965683e+02 1.14161110e+01 7.96370801e+03 1.00510635e+02 2.13657971e-02 2.03193066e+03 1.47502578e+04 7.77003355e-03 1.73042212e+03 1.99171860e+02 3.57170486e+01 1.12113846e+02 8.99674416e-01 5.33599219e+03 7.64117050e+01 8.02834854e+01 2.29124096e-03 7.20182180e-01 1.49337560e-01 1.94159607e+03 1.07729027e+02 1.18962547e+02 2.26622835e-01 3.46690726e+00 1.74620137e-01 3.07936859e+01 6.34631424e+01 3.91139941e+03 6.67547798e+00 6.31791870e+02 3.08449438e+03 7.01166451e-01 1.36394073e+02 4.01170074e+02 6.49049609e+03 8.01933384e+00 6.45584259e+01 6.83056641e+02 1.84224949e+01 3.24881859e-02 1.03578705e+02 7.98944885e+02 7.17023611e-01 9.00094604e+01 5.73518127e+02 1.23517566e-05 3.86328646e-03 4.62514861e-03 8.31462097e+01 8.76918564e+01 5.35189724e+00 5.39942905e-02 1.65540781e-02 3.35626624e-04 8.83305669e-01 1.78198227e+02 5.41220703e+02 2.06022816e+01 1.95895958e+01 7.64889297e+01 3.88924256e-02 1.26896472e+03 2.32326111e+02 7.92882507e+02 2.96392775e+00 1.39077408e+02 2.83587476e+03 3.97681702e+02 2.34241322e-01 2.67346919e-01 2.87523174e+01 1.17240395e+02 2.26369109e-02 3.71375903e+03 6.44114990e+02 3.15990387e+02 1.34367773e+03 7.09363556e+00 1.10898062e-03 1.20157494e+02 1.08151400e+00 7.13595189e-04 1.28763412e+02 3.98003082e+02 1.11637969e+04 6.36942480e+03 2.10436936e-02 5.78165817e+00 4.28116837e+01 5.67877148e+03 2.85340566e+04 3.74400146e+02 7.71865320e+00 1.57097107e+02 1.29375946e+02 6.50247986e+02 2.89638974e-02 3.65217216e-02 6.52149512e+03 4.75933868e+02 9.91078339e+01 2.09401941e+00 3.99879443e+03 3.83974528e+00 2.52964890e+02 4.60088379e+02 1.68930471e+00 1.00008466e+03 1.61519971e+03 2.40091034e+02 7.06785431e+01 4.51547900e+03 6.16098866e-02 4.99080086e+01 1.59332676e+01 7.77923340e+02 2.44017969e+03 2.03747019e-01 9.47963028e+01 4.12969398e+01 5.92529932e+03 9.77535339e+02 1.72892685e+02 3.45322461e+03 3.51133087e+02 1.22241989e+02 2.27870874e+03 2.72276354e+00 1.17539009e-02 4.64669914e+01 1.02062500e+00 9.19347961e+02 8.14624329e+01 6.82673767e+02 2.47895401e-02 4.16499168e-01 4.45057411e+01 8.33586621e+03 3.08309136e-05 1.50834702e+02 1.12501701e+02 9.51533904e-04 2.90705835e+03 8.73167133e+00 6.61767044e+01 9.71907883e+01 4.85028320e+02 3.76831508e+00 2.77457733e+02 7.52541016e+02 9.61174805e+02 6.18706299e+02 1.26920402e-01 5.53548662e-03 1.13888545e+04 1.47921249e-01 1.42801971e+02 6.45193604e+02 4.11675018e+02 4.13498497e+01 2.22534692e+03 1.09751396e+02 9.04240417e+00 4.10067566e+02 6.22231506e+02 2.28757381e+00 8.57413712e+01 2.13152512e+02 2.11196728e+01 1.16045471e+03 1.38666289e+04 5.77493896e+03 1.58362508e-01 1.99327295e+03 4.24104182e-05 3.38276428e+02 6.81954250e-02 9.44600525e+02 1.98464233e+03 6.65541626e+02 1.64733322e+02 1.63349878e+03 2.91250305e+01 2.44211151e+02 2.28479767e+02 1.72981335e+03 2.98566748e+03 2.11868649e+01 3.06418848e+00 3.59186737e+02 4.40853882e+00 2.40043188e+03 6.59336395e+01 6.38386965e+00 1.18565820e+03 2.21022701e+01 1.91354258e+04 6.10224295e+00 5.01716260e+03 4.93180237e+02 1.06845398e+02 3.01341724e+00 7.72665710e+01 1.82708508e+03 5.64856506e+02 6.25617743e-01 7.01243973e+01 1.12223534e+02 2.22694945e+00 1.26682198e+02 3.26670312e+04 5.26021387e+03 7.08623886e+01 1.70420868e+02 2.26962463e+02 4.45864610e-02 1.04999304e+03 5.48935928e+01 2.40508698e+02 1.45583466e+02 2.79700780e-05 2.54012500e+03 7.36429016e+02 3.47622412e+03 4.67244148e+00 2.14417801e+02 5.22761650e+01 5.64152490e+03 1.20959457e+02 3.50184212e+01 1.59825427e+03 9.70156097e+01 2.84195900e+01 9.77410889e+01 1.24426549e-02 1.07946021e+03 2.34554592e-03 1.05323303e+00 1.17206189e+03 2.21612632e-01 3.89104080e+01 2.85796722e+02 7.30273010e+02 2.49083853e+00 4.01064940e-03 6.68317566e+01 4.46204437e+02 7.84277171e-03 1.79367065e+03 1.26430798e+03 3.44293304e+02 1.58714266e+01 5.18910352e+03 7.21114016e+00]
bn0.num_batches_tracked,3000
sub_nn_0.hidden.weight,[[ 0.6072481   1.0993307 ] [-0.396859    0.08084305] [ 0.25660935 -0.03744382]]
sub_nn_0.hidden.bias,[ 0.0986166  -0.15612942  0.19693138]
sub_nn_0.out.weight,[[ 0.07966951 -0.31291297 -0.4471548 ]]
sub_nn_0.out.bias,[0.29093796]
sub_nn_1.hidden.weight,[[ 0.22281794 -0.33716285] [-0.32618377  0.32355234] [-0.33528745 -0.24561188]]
sub_nn_1.hidden.bias,[ 0.03368871 -0.42472807 -0.05936748]
sub_nn_1.out.weight,[[-0.32061318 -0.32009032  0.17692584]]
sub_nn_1.out.bias,[-0.13631216]
sub_nn_2.hidden.weight,[[-1.8354634   0.5811951 ] [ 0.47118947  0.33364993] [-0.03495102  1.2256814 ]]
sub_nn_2.hidden.bias,[ 0.4968297   0.06348282 -0.03249388]
sub_nn_2.out.weight,[[0.604739   1.4274145  0.01227754]]
sub_nn_2.out.bias,[-0.16207376]
sub_nn_3.hidden.weight,[[-0.8720946   0.6841572 ] [ 0.61367375 -0.1256557 ] [-0.2827532   1.2156556 ]]
sub_nn_3.hidden.bias,[ 0.65005106 -0.00431547 -0.5748673 ]
sub_nn_3.out.weight,[[ 0.07005422  0.6841568  -0.88829446]]
sub_nn_3.out.bias,[-0.02823293]
sub_nn_4.hidden.weight,[[ 0.05540318 -0.6889025 ] [ 0.5644656  -0.11192982] [-0.38290396 -0.8967259 ]]
sub_nn_4.hidden.bias,[ 0.47013602 -0.54406196  0.12718672]
sub_nn_4.out.weight,[[-0.50780165  1.0274462  -0.4175099 ]]
sub_nn_4.out.bias,[0.35017335]
sub_nn_5.hidden.weight,[[ 0.05632696 -0.13065726] [-0.1834702   0.05063881] [-0.34765366 -0.6209146 ]]
sub_nn_5.hidden.bias,[0.03486825 0.19157845 0.5964752 ]
sub_nn_5.out.weight,[[1.4827741  1.2045119  0.06784452]]
sub_nn_5.out.bias,[0.50007546]
sub_nn_6.hidden.weight,[[-0.5758694  -0.4650124 ] [-0.48975623 -0.4350762 ] [-0.87991583 -0.16595916]]
sub_nn_6.hidden.bias,[-0.49707842 -0.07430255  0.11085091]
sub_nn_6.out.weight,[[0.17504528 0.1020009  0.28393808]]
sub_nn_6.out.bias,[0.08752633]
sub_nn_7.hidden.weight,[[ 0.705523   -0.08692305] [-0.10889775  0.15772521] [-0.88476425 -0.7923035 ]]
sub_nn_7.hidden.bias,[ 0.58309203 -0.23162594 -0.18987393]
sub_nn_7.out.weight,[[-0.59956646  0.1807725   0.2945913 ]]
sub_nn_7.out.bias,[-0.02519238]
sub_nn_8.hidden.weight,[[ 0.65457183  0.09828688] [-0.09195296 -0.04922946] [ 1.1246768   0.13110751]]
sub_nn_8.hidden.bias,[-0.61823165 -0.07620746 -0.2783008 ]
sub_nn_8.out.weight,[[1.2496557  0.02421058 0.4577031 ]]
sub_nn_8.out.bias,[0.574981]
sub_nn_9.hidden.weight,[[-0.61969835  0.48969442] [ 0.71385396  0.13735847] [ 0.02984129 -0.03912196]]
sub_nn_9.hidden.bias,[-0.10536806 -0.34156147  0.160653  ]
sub_nn_9.out.weight,[[-0.2709515   0.35133415  0.63398135]]
sub_nn_9.out.bias,[0.08684295]
sub_nn_10.hidden.weight,[[-0.775781    0.2485452 ] [-1.3900414   1.0145011 ] [-1.0661608  -0.09472467]]
sub_nn_10.hidden.bias,[-0.3958337  0.6658487  0.2910051]
sub_nn_10.out.weight,[[-0.17044736  0.895198   -1.1418139 ]]
sub_nn_10.out.bias,[0.36892527]
sub_nn_11.hidden.weight,[[ 1.1284901  -0.14969751] [ 0.42175564  0.40160033] [ 0.06478901 -0.29100952]]
sub_nn_11.hidden.bias,[-0.59003264  0.47512203  0.21415275]
sub_nn_11.out.weight,[[ 0.62374735  0.21768928 -0.84731   ]]
sub_nn_11.out.bias,[-0.26567337]
sub_nn_12.hidden.weight,[[-0.84237677  0.12771042] [ 1.3345573  -0.78126395] [-1.7276714   0.16528171]]
sub_nn_12.hidden.bias,[ 0.03191622  0.08986497 -0.5158377 ]
sub_nn_12.out.weight,[[-0.30253753 -0.7917885   0.82299846]]
sub_nn_12.out.bias,[0.18765014]
sub_nn_13.hidden.weight,[[-0.09883482 -0.33986565] [-0.07782626 -0.45065454] [ 0.4243991  -0.18203844]]
sub_nn_13.hidden.bias,[ 0.452918  -0.5417347  0.30079  ]
sub_nn_13.out.weight,[[-0.39701116  1.4736701  -0.4784826 ]]
sub_nn_13.out.bias,[0.3440972]
sub_nn_14.hidden.weight,[[ 0.16852963  0.5900922 ] [-0.4373656  -0.8053423 ] [ 1.0380343  -0.4186466 ]]
sub_nn_14.hidden.bias,[ 0.66220945 -0.0953064   0.00636915]
sub_nn_14.out.weight,[[-0.28761357  0.17408514  0.48476392]]
sub_nn_14.out.bias,[0.3396545]
sub_nn_15.hidden.weight,[[-0.13613485 -0.8448083 ] [-0.03131476  0.29912695] [ 0.46191075 -0.02786105]]
sub_nn_15.hidden.bias,[-0.18826425  0.4715361  -0.6690585 ]
sub_nn_15.out.weight,[[-0.415376   -0.9484811   0.61717075]]
sub_nn_15.out.bias,[0.37294686]
sub_nn_16.hidden.weight,[[ 0.15746781 -0.7111283 ] [-0.24988413  0.29267597] [-0.00354692 -0.62892586]]
sub_nn_16.hidden.bias,[-0.200443    0.6708567   0.16035005]
sub_nn_16.out.weight,[[-0.7069589   0.33792147 -0.4317843 ]]
sub_nn_16.out.bias,[-0.4791445]
sub_nn_17.hidden.weight,[[-0.49921244  0.06951455] [ 0.18349826  0.28207138] [-1.3286021  -0.43999076]]
sub_nn_17.hidden.bias,[-0.31376377  0.14547294 -0.40944973]
sub_nn_17.out.weight,[[0.41358984 0.4088286  1.1006008 ]]
sub_nn_17.out.bias,[-0.30697322]
sub_nn_18.hidden.weight,[[-0.2522827   1.0473535 ] [-0.40287974 -0.32049453] [-0.10600921  0.77922416]]
sub_nn_18.hidden.bias,[-0.27049366  0.3628462   0.23091827]
sub_nn_18.out.weight,[[-1.1729501  -0.42677143 -0.16338229]]
sub_nn_18.out.bias,[0.06424701]
sub_nn_19.hidden.weight,[[ 0.6902714   0.31869066] [-0.27238     0.12671188] [-0.64678824 -0.42982438]]
sub_nn_19.hidden.bias,[ 0.2475357 -0.3878506 -0.6808261]
sub_nn_19.out.weight,[[-0.9176725   0.92525136 -0.2516628 ]]
sub_nn_19.out.bias,[0.3276109]
sub_nn_20.hidden.weight,[[ 0.06194698 -0.18112676] [-0.3127768   0.7171928 ] [-0.41171467  1.2065612 ]]
sub_nn_20.hidden.bias,[ 0.38963163 -0.56289196  0.5358382 ]
sub_nn_20.out.weight,[[-0.10336687 -0.17906679  0.06711157]]
sub_nn_20.out.bias,[-0.21696451]
sub_nn_21.hidden.weight,[[ 0.3003259   0.74079615] [-0.19996317  0.7178758 ] [-0.81769973  0.2218596 ]]
sub_nn_21.hidden.bias,[-0.2435933 -0.1152618  0.2982737]
sub_nn_21.out.weight,[[-0.5625351   0.24408555 -0.04914626]]
sub_nn_21.out.bias,[-0.1902757]
sub_nn_22.hidden.weight,[[-0.37007338 -0.16532263] [ 1.2065895  -0.5685371 ] [ 0.09336639  0.6749225 ]]
sub_nn_22.hidden.bias,[-0.12175173 -0.4404012  -0.55038255]
sub_nn_22.out.weight,[[0.15361476 0.12374514 1.3708808 ]]
sub_nn_22.out.bias,[-0.14935604]
sub_nn_23.hidden.weight,[[-0.44281012  0.05584555] [-0.08424867 -0.78743917] [-1.0891542  -0.07191941]]
sub_nn_23.hidden.bias,[0.30845708 0.50678796 0.5755026 ]
sub_nn_23.out.weight,[[-1.1183811  -0.5298121   0.15301968]]
sub_nn_23.out.bias,[-0.09543942]
sub_nn_24.hidden.weight,[[-0.69660044  0.9506468 ] [ 0.07608979  0.6431662 ] [-0.54545987 -0.07627762]]
sub_nn_24.hidden.bias,[-0.6266133   0.62808925 -0.56459624]
sub_nn_24.out.weight,[[-0.89745617 -0.4288328  -0.8260566 ]]
sub_nn_24.out.bias,[-0.21363336]
sub_nn_25.hidden.weight,[[-0.38140848 -0.04924677] [ 0.66769445 -0.76074404] [-0.7671196   0.21958864]]
sub_nn_25.hidden.bias,[-0.00960004 -0.4674803   0.02371232]
sub_nn_25.out.weight,[[-1.2995282   0.47219953 -1.8496815 ]]
sub_nn_25.out.bias,[0.5758276]
sub_nn_26.hidden.weight,[[ 0.16023193 -0.20081149] [ 0.27015194  0.63276714] [ 0.51754755 -0.3917755 ]]
sub_nn_26.hidden.bias,[-0.1389519  -0.08251396 -0.47529244]
sub_nn_26.out.weight,[[-0.49783742  0.16139191  0.21089321]]
sub_nn_26.out.bias,[0.1742152]
sub_nn_27.hidden.weight,[[ 0.97338533 -0.22664672] [ 0.58676696  0.43919185] [-0.2670892  -0.65986824]]
sub_nn_27.hidden.bias,[ 0.34988606  0.6606476  -0.45424068]
sub_nn_27.out.weight,[[ 0.20878755 -0.70374674 -0.9330005 ]]
sub_nn_27.out.bias,[0.42779136]
sub_nn_28.hidden.weight,[[0.6088913  0.46892193] [1.1879786  0.4903995 ] [0.35208076 0.81470156]]
sub_nn_28.hidden.bias,[-0.33381256 -0.11616493  0.39715403]
sub_nn_28.out.weight,[[-0.4241355  -0.638848   -0.00186574]]
sub_nn_28.out.bias,[-0.09157917]
sub_nn_29.hidden.weight,[[ 0.75685656  0.17974056] [-0.31881854  0.26483998] [-0.03182419  0.54646015]]
sub_nn_29.hidden.bias,[-0.57722753 -0.21611586 -0.01414192]
sub_nn_29.out.weight,[[ 0.8196767  -0.468943   -0.48385885]]
sub_nn_29.out.bias,[0.3357606]
sub_nn_30.hidden.weight,[[-1.0176704   0.3083073 ] [ 0.5725412  -0.20996672] [ 0.7315682  -0.0560868 ]]
sub_nn_30.hidden.bias,[-0.07085695  0.641151   -0.15404077]
sub_nn_30.out.weight,[[ 0.63194793 -0.14511147  0.55718327]]
sub_nn_30.out.bias,[-0.11878842]
sub_nn_31.hidden.weight,[[-0.13978302  0.5072454 ] [ 0.23883    -0.81265455] [ 0.4709531  -0.57662654]]
sub_nn_31.hidden.bias,[-0.264115   0.3077284  0.618552 ]
sub_nn_31.out.weight,[[0.31637108 1.549097   0.16405638]]
sub_nn_31.out.bias,[0.361129]
sub_nn_32.hidden.weight,[[ 1.3813548  -0.35589743] [ 1.0192298   0.39613637] [ 0.57451767  0.73011094]]
sub_nn_32.hidden.bias,[0.16729993 0.56353635 0.23494142]
sub_nn_32.out.weight,[[-0.35777187  1.387982   -0.8651104 ]]
sub_nn_32.out.bias,[0.34857422]
sub_nn_33.hidden.weight,[[-0.31018808  0.6117734 ] [-0.409468   -0.01203573] [ 0.5136421   1.1444072 ]]
sub_nn_33.hidden.bias,[0.26358107 0.37979752 0.22289538]
sub_nn_33.out.weight,[[ 0.48728713  0.778634   -1.1641129 ]]
sub_nn_33.out.bias,[0.27751976]
sub_nn_34.hidden.weight,[[ 0.08080352  0.5876312 ] [-0.45794237 -0.14143386] [-0.36258084  0.61668104]]
sub_nn_34.hidden.bias,[ 0.3414305   0.45825216 -0.10659645]
sub_nn_34.out.weight,[[ 0.7851437   0.39936823 -0.2470661 ]]
sub_nn_34.out.bias,[-0.36354986]
sub_nn_35.hidden.weight,[[ 0.9162813  -1.4991655 ] [-0.6581294   0.48654115] [ 0.96905386 -0.16296545]]
sub_nn_35.hidden.bias,[ 0.47528476  0.32651576 -0.16947347]
sub_nn_35.out.weight,[[ 0.38070345  1.4597057  -1.5799568 ]]
sub_nn_35.out.bias,[-0.14882603]
sub_nn_36.hidden.weight,[[-0.35050008  0.6111176 ] [ 0.02307311 -0.1259466 ] [ 0.36766806  0.6957426 ]]
sub_nn_36.hidden.bias,[-0.32635626  0.15218487  0.26748395]
sub_nn_36.out.weight,[[ 0.02539507 -0.9738819   0.15841419]]
sub_nn_36.out.bias,[-0.49534637]
sub_nn_37.hidden.weight,[[ 0.5148109   0.20482543] [ 0.37398675 -0.52152616] [-0.6605683   0.04859689]]
sub_nn_37.hidden.bias,[-0.47875834  0.67162365 -0.34999612]
sub_nn_37.out.weight,[[-0.01181569  1.1437573   0.8681275 ]]
sub_nn_37.out.bias,[-0.52171195]
sub_nn_38.hidden.weight,[[-0.71053773 -0.64659506] [ 0.72119063 -0.99854136] [-0.23957156 -0.90269375]]
sub_nn_38.hidden.bias,[-0.7016366  -0.16119197 -0.56182295]
sub_nn_38.out.weight,[[-0.1864582  -0.68583924 -0.42465404]]
sub_nn_38.out.bias,[-0.2249789]
sub_nn_39.hidden.weight,[[ 0.49415037  0.5295441 ] [ 1.108834    1.0613939 ] [-1.7767814   0.5092303 ]]
sub_nn_39.hidden.bias,[-0.41785634  0.5268696   0.47849888]
sub_nn_39.out.weight,[[ 0.21846932 -0.11151255  0.00206369]]
sub_nn_39.out.bias,[-0.04659134]
sub_nn_40.hidden.weight,[[-0.20614219  0.71442693] [ 0.17513286  0.09676332] [ 0.46769294  0.8625282 ]]
sub_nn_40.hidden.bias,[-0.48617095 -0.51561373 -0.05573088]
sub_nn_40.out.weight,[[-0.30462807  0.7841997   0.71899265]]
sub_nn_40.out.bias,[0.4474033]
sub_nn_41.hidden.weight,[[-1.0988871  -0.3112805 ] [-0.5917285   0.16995935] [-0.45056778 -0.2764442 ]]
sub_nn_41.hidden.bias,[0.5565931  0.26566005 0.17070004]
sub_nn_41.out.weight,[[-0.22498068  0.38387364  0.745536  ]]
sub_nn_41.out.bias,[0.1982158]
sub_nn_42.hidden.weight,[[ 0.859523   -0.3299198 ] [ 0.32272682  0.29238433] [-0.52614224 -0.41631186]]
sub_nn_42.hidden.bias,[ 0.61241996 -0.31472966  0.31660295]
sub_nn_42.out.weight,[[-0.59950686 -1.3336878  -0.8999659 ]]
sub_nn_42.out.bias,[0.28528094]
sub_nn_43.hidden.weight,[[-0.35465354 -0.19135655] [ 0.74906605  0.5854127 ] [ 0.5610255  -0.48778048]]
sub_nn_43.hidden.bias,[-0.1526863  -0.19610223  0.02299562]
sub_nn_43.out.weight,[[ 0.07435953  0.24066678 -0.16504452]]
sub_nn_43.out.bias,[-0.11356741]
sub_nn_44.hidden.weight,[[-0.41762072 -0.19620265] [ 0.06874334  0.16727339] [-0.21724008  0.15683512]]
sub_nn_44.hidden.bias,[ 0.6520401   0.56237954 -0.13796791]
sub_nn_44.out.weight,[[-0.66738385 -0.15911752  0.47144848]]
sub_nn_44.out.bias,[-0.03250241]
sub_nn_45.hidden.weight,[[ 0.35188827 -1.0795677 ] [ 0.13927023 -0.9319734 ] [ 0.43366575  0.5937716 ]]
sub_nn_45.hidden.bias,[ 0.4317642   0.41877067 -0.64897114]
sub_nn_45.out.weight,[[-1.0821086 -0.9910057 -0.9853576]]
sub_nn_45.out.bias,[-0.14971277]
sub_nn_46.hidden.weight,[[ 0.14802818 -1.5312892 ] [ 0.4912504   0.9125289 ] [-1.2335765  -0.10160259]]
sub_nn_46.hidden.bias,[-0.2581773   0.00879759  0.36008042]
sub_nn_46.out.weight,[[-1.0524702   0.20419121 -0.20323385]]
sub_nn_46.out.bias,[-0.5248303]
sub_nn_47.hidden.weight,[[ 0.5247443   0.22093982] [ 0.8102351  -0.4511927 ] [ 0.8810347   0.4432332 ]]
sub_nn_47.hidden.bias,[-0.3695244  -0.58776426  0.50762564]
sub_nn_47.out.weight,[[-0.12286994  0.03272099 -0.37569487]]
sub_nn_47.out.bias,[-0.39317572]
sub_nn_48.hidden.weight,[[-0.4912761   0.24914357] [-0.47707802  0.5673587 ] [ 1.0925559   0.18486536]]
sub_nn_48.hidden.bias,[ 0.33285517 -0.5436167  -0.19734667]
sub_nn_48.out.weight,[[ 0.46226233 -0.12276342  0.24650435]]
sub_nn_48.out.bias,[-0.01990855]
sub_nn_49.hidden.weight,[[ 0.3003729  -0.03571541] [ 0.6885165  -0.47088876] [ 0.53818506 -0.7025732 ]]
sub_nn_49.hidden.bias,[ 0.4886424  -0.68937916 -0.29917863]
sub_nn_49.out.weight,[[ 1.0890771  -1.9120018  -0.30029574]]
sub_nn_49.out.bias,[-0.4568132]
sub_nn_50.hidden.weight,[[ 0.9826592  -0.08623581] [ 0.4635906  -0.5355076 ] [-0.13413657  1.220739  ]]
sub_nn_50.hidden.bias,[ 0.6009333  -0.44024804  0.02775613]
sub_nn_50.out.weight,[[ 0.21348764  1.6327307  -0.37907103]]
sub_nn_50.out.bias,[-0.5204425]
sub_nn_51.hidden.weight,[[-1.4058243  -0.2672021 ] [-0.16191763 -0.8721031 ] [-0.5868872  -0.3308893 ]]
sub_nn_51.hidden.bias,[ 0.32464042 -0.04665625  0.26354125]
sub_nn_51.out.weight,[[0.83888346 0.38351023 0.35083133]]
sub_nn_51.out.bias,[0.10507222]
sub_nn_52.hidden.weight,[[-0.01377753  1.6741291 ] [ 0.71908706 -0.38191876] [-0.32501966 -0.10120495]]
sub_nn_52.hidden.bias,[-0.12760638  0.51832175 -0.17689031]
sub_nn_52.out.weight,[[ 0.325716   -0.66792166  0.8199394 ]]
sub_nn_52.out.bias,[0.49100614]
sub_nn_53.hidden.weight,[[-0.26133388  0.50712174] [-0.47637784 -0.33107942] [ 0.23173183  0.7255311 ]]
sub_nn_53.hidden.bias,[ 0.39152178  0.33259293 -0.0976432 ]
sub_nn_53.out.weight,[[0.76805174 0.15021197 0.6589418 ]]
sub_nn_53.out.bias,[-0.48113218]
sub_nn_54.hidden.weight,[[ 0.5467017  -0.00880948] [ 1.5619955  -0.22096303] [-0.12730391  0.39293474]]
sub_nn_54.hidden.bias,[-0.61196786  0.09635142 -0.4126615 ]
sub_nn_54.out.weight,[[ 1.0721041  -0.31757653 -0.2156084 ]]
sub_nn_54.out.bias,[0.01572871]
sub_nn_55.hidden.weight,[[-0.5203786  -0.4887953 ] [ 0.14752817 -0.3539627 ] [-0.5630706  -0.8219358 ]]
sub_nn_55.hidden.bias,[-0.5053598  -0.23358914  0.48085594]
sub_nn_55.out.weight,[[-0.36335057  0.1424192   0.34383914]]
sub_nn_55.out.bias,[-0.08623401]
sub_nn_56.hidden.weight,[[-0.67994285 -0.03294178] [ 0.23632345 -0.05950559] [ 0.99226576  0.13446085]]
sub_nn_56.hidden.bias,[ 0.23810843  0.29671958 -0.6149515 ]
sub_nn_56.out.weight,[[-0.8312629  -0.09332926 -0.166086  ]]
sub_nn_56.out.bias,[-0.4071775]
sub_nn_57.hidden.weight,[[ 0.16252606  1.3837752 ] [ 0.21681362  1.2645855 ] [ 0.02356035 -1.1121122 ]]
sub_nn_57.hidden.bias,[-0.34462526  0.42848402 -0.27993238]
sub_nn_57.out.weight,[[-0.3522523   0.51905084  0.7913239 ]]
sub_nn_57.out.bias,[0.3529899]
sub_nn_58.hidden.weight,[[ 0.6603343  -0.24766697] [ 0.10796344 -0.05505387] [-0.6626317  -0.7881713 ]]
sub_nn_58.hidden.bias,[0.23140097 0.29847285 0.28839856]
sub_nn_58.out.weight,[[ 0.29388142  0.15987857 -0.9373552 ]]
sub_nn_58.out.bias,[0.02262932]
sub_nn_59.hidden.weight,[[ 0.75861686 -0.6954742 ] [-0.43751127 -0.6189133 ] [ 0.28017825 -0.19304696]]
sub_nn_59.hidden.bias,[-0.21822003  0.3278945   0.10541235]
sub_nn_59.out.weight,[[ 1.0962522  -0.22697355 -0.5387191 ]]
sub_nn_59.out.bias,[-0.48788074]
sub_nn_60.hidden.weight,[[-0.1301572  -0.17302498] [-0.5091284  -0.41521555] [-0.540839    0.23926052]]
sub_nn_60.hidden.bias,[ 0.10052554 -0.5903417  -0.34773558]
sub_nn_60.out.weight,[[ 0.21445732 -0.16251431 -0.6522015 ]]
sub_nn_60.out.bias,[0.44268286]
sub_nn_61.hidden.weight,[[ 1.414998   -0.14116623] [-0.30890357  0.3954633 ] [-0.31609443 -0.8067328 ]]
sub_nn_61.hidden.bias,[-0.23814599 -0.01267276 -0.21179768]
sub_nn_61.out.weight,[[ 0.35291725 -0.06082894  0.3251086 ]]
sub_nn_61.out.bias,[0.2311191]
sub_nn_62.hidden.weight,[[-1.2163852   0.01048345] [ 0.43611133 -1.478649  ] [ 0.2438789  -0.26258993]]
sub_nn_62.hidden.bias,[ 0.3883178   0.14181246 -0.34200802]
sub_nn_62.out.weight,[[ 0.24209721 -1.1006718   0.14524859]]
sub_nn_62.out.bias,[-0.29993534]
sub_nn_63.hidden.weight,[[-0.8108685  -0.25223   ] [-0.07862485 -0.29344353] [-0.57021976 -0.22731376]]
sub_nn_63.hidden.bias,[ 0.36472347  0.5546714  -0.38954544]
sub_nn_63.out.weight,[[-0.01784863 -0.4225854  -1.0431386 ]]
sub_nn_63.out.bias,[-0.50943214]
sub_nn_64.hidden.weight,[[-1.3437026   0.12453834] [ 0.20647818 -0.49203652] [ 0.23304543 -0.12249251]]
sub_nn_64.hidden.bias,[-0.37360752 -0.46342322 -0.26227403]
sub_nn_64.out.weight,[[-0.14365184  0.9792464   0.84572774]]
sub_nn_64.out.bias,[0.26833802]
sub_nn_65.hidden.weight,[[ 0.86816406  0.31392774] [-0.6459052   0.22769001] [-0.6024673   0.22634831]]
sub_nn_65.hidden.bias,[ 0.0184375  -0.06647512 -0.05649964]
sub_nn_65.out.weight,[[0.22032556 0.2674409  1.2074038 ]]
sub_nn_65.out.bias,[0.25025743]
sub_nn_66.hidden.weight,[[ 0.7317392   1.0547655 ] [-0.32829106 -0.3997455 ] [-0.57789767 -0.50751257]]
sub_nn_66.hidden.bias,[-0.0967179  -0.64603364  0.39008957]
sub_nn_66.out.weight,[[-0.01883029  1.0096818  -0.14536795]]
sub_nn_66.out.bias,[0.07209826]
sub_nn_67.hidden.weight,[[ 0.35570887 -0.31536955] [ 0.29696682 -1.2131721 ] [-0.0726352  -0.6387402 ]]
sub_nn_67.hidden.bias,[-0.18537611  0.4353641   0.47641498]
sub_nn_67.out.weight,[[-0.7861798   0.6870547   0.00596215]]
sub_nn_67.out.bias,[-0.37122136]
sub_nn_68.hidden.weight,[[-0.3331323   0.56149   ] [ 0.16227067 -0.5735797 ] [ 0.90762824  0.06268348]]
sub_nn_68.hidden.bias,[-0.33761072 -0.52585596 -0.34492344]
sub_nn_68.out.weight,[[ 1.0332179  0.7885862 -1.8334296]]
sub_nn_68.out.bias,[0.20495558]
sub_nn_69.hidden.weight,[[-0.16852443 -0.28756464] [ 0.632883    1.1671793 ] [-0.02679544 -0.3809844 ]]
sub_nn_69.hidden.bias,[-0.14442092  0.4279459   0.66443527]
sub_nn_69.out.weight,[[-0.79684013 -0.5575944  -0.8421002 ]]
sub_nn_69.out.bias,[-0.07349849]
sub_nn_70.hidden.weight,[[ 0.2022219  -0.7969128 ] [-0.42916936  0.6474087 ] [ 0.00240848  0.28296888]]
sub_nn_70.hidden.bias,[-0.36970565  0.56116045 -0.09929813]
sub_nn_70.out.weight,[[-0.3622075 -1.0356714  0.7504741]]
sub_nn_70.out.bias,[0.4859588]
sub_nn_71.hidden.weight,[[-0.9150274   0.21692683] [-0.04465755  0.12511028] [-1.8682379  -0.07935472]]
sub_nn_71.hidden.bias,[-0.65319633 -0.3357588  -0.393144  ]
sub_nn_71.out.weight,[[-0.16180567 -0.35251424  0.6121088 ]]
sub_nn_71.out.bias,[-0.06542951]
sub_nn_72.hidden.weight,[[-0.00675774 -0.6282305 ] [ 0.1313798   0.08704676] [-0.09014067  0.12298916]]
sub_nn_72.hidden.bias,[0.22978845 0.48814207 0.5449735 ]
sub_nn_72.out.weight,[[ 1.1198266   0.37518194 -0.86433166]]
sub_nn_72.out.bias,[0.08795393]
sub_nn_73.hidden.weight,[[ 0.92009264 -0.50692767] [ 1.251118    1.3431909 ] [-0.3495632   0.32575527]]
sub_nn_73.hidden.bias,[-0.4728366  -0.70213014 -0.31268448]
sub_nn_73.out.weight,[[0.51328593 1.3247283  1.0554583 ]]
sub_nn_73.out.bias,[-0.06846493]
sub_nn_74.hidden.weight,[[-0.5150913   0.00589273] [-0.19392182  0.27336127] [-0.24879625 -0.34125918]]
sub_nn_74.hidden.bias,[-0.38790643 -0.07209003  0.01765256]
sub_nn_74.out.weight,[[-0.03288451 -0.9511058   0.5252847 ]]
sub_nn_74.out.bias,[-0.1937882]
sub_nn_75.hidden.weight,[[-0.01494229 -0.27656117] [ 0.08483492 -1.1110339 ] [-0.4391577  -0.34579986]]
sub_nn_75.hidden.bias,[-0.5131712  -0.6368003  -0.53037167]
sub_nn_75.out.weight,[[ 1.6355743  -0.65258336  0.81600904]]
sub_nn_75.out.bias,[-0.5627403]
sub_nn_76.hidden.weight,[[-1.2112027  -0.31400454] [ 0.79238135  0.00775679] [ 0.84625804  0.36960116]]
sub_nn_76.hidden.bias,[0.26612878 0.51112694 0.44808704]
sub_nn_76.out.weight,[[-0.02742728 -0.89040273  0.01977766]]
sub_nn_76.out.bias,[-0.4752162]
sub_nn_77.hidden.weight,[[-0.2050439   0.14606628] [ 0.59911144 -1.5674366 ] [-1.1086463   0.60712606]]
sub_nn_77.hidden.bias,[-0.24958766  0.24375911  0.42320684]
sub_nn_77.out.weight,[[0.44971684 1.2443013  1.175656  ]]
sub_nn_77.out.bias,[0.07612514]
sub_nn_78.hidden.weight,[[-0.6541635   0.34518802] [-1.0260435  -0.5336976 ] [ 0.7235822   0.4665074 ]]
sub_nn_78.hidden.bias,[-0.1718368  -0.6451794  -0.07361311]
sub_nn_78.out.weight,[[-0.6937548  -0.21201183  0.7688942 ]]
sub_nn_78.out.bias,[0.3259545]
sub_nn_79.hidden.weight,[[ 1.5120356   0.63995224] [-0.5430425   0.00961982] [-0.7777105  -0.93662953]]
sub_nn_79.hidden.bias,[ 0.30445045 -0.08070856 -0.59077466]
sub_nn_79.out.weight,[[0.8887463  1.4306029  0.27654338]]
sub_nn_79.out.bias,[0.18121266]
sub_nn_80.hidden.weight,[[ 0.05943444  0.02808322] [-0.66602236 -1.1662211 ] [ 0.51834935  0.1142462 ]]
sub_nn_80.hidden.bias,[ 0.09282321 -0.14323878  0.36426848]
sub_nn_80.out.weight,[[ 0.03335764 -0.22837417 -0.30545446]]
sub_nn_80.out.bias,[0.31721562]
sub_nn_81.hidden.weight,[[-0.20541449  0.44947076] [-1.1412532  -0.08847816] [-0.11876176 -0.21858248]]
sub_nn_81.hidden.bias,[ 0.22606698  0.43872255 -0.46806264]
sub_nn_81.out.weight,[[0.20429312 0.9919976  0.8903644 ]]
sub_nn_81.out.bias,[-0.2968104]
sub_nn_82.hidden.weight,[[-0.01852522 -0.17026807] [ 0.1527737  -0.5636116 ] [ 0.14839555  0.28620026]]
sub_nn_82.hidden.bias,[-0.36110786 -0.55492914 -0.13518246]
sub_nn_82.out.weight,[[ 0.73263294 -0.42933655  0.638785  ]]
sub_nn_82.out.bias,[-0.57073903]
sub_nn_83.hidden.weight,[[ 0.6494242  -0.86406344] [-0.29285243  1.577244  ] [-0.38651392  1.2197645 ]]
sub_nn_83.hidden.bias,[ 0.00834447  0.5458893  -0.28980553]
sub_nn_83.out.weight,[[-0.03518697  0.14535807  1.5529935 ]]
sub_nn_83.out.bias,[-0.36938784]
sub_nn_84.hidden.weight,[[ 0.51477     0.7162906 ] [-0.42741263  1.2518113 ] [ 0.14313039 -0.4321379 ]]
sub_nn_84.hidden.bias,[-0.23580329 -0.46827877 -0.61544454]
sub_nn_84.out.weight,[[ 0.95989525  0.04077121 -0.29469907]]
sub_nn_84.out.bias,[0.19358402]
sub_nn_85.hidden.weight,[[-0.3109137   0.652072  ] [ 0.17113054  0.520438  ] [ 0.93386453  0.8040875 ]]
sub_nn_85.hidden.bias,[ 0.44200173 -0.4541426   0.56413406]
sub_nn_85.out.weight,[[-0.14415348 -0.47158074  0.36692956]]
sub_nn_85.out.bias,[-0.20989317]
sub_nn_86.hidden.weight,[[ 0.46049422 -0.01725889] [ 0.5227107  -1.1363093 ] [-0.11336754 -0.751931  ]]
sub_nn_86.hidden.bias,[ 0.554334   -0.32491726  0.48534307]
sub_nn_86.out.weight,[[-0.00728536 -0.65111935 -0.24890687]]
sub_nn_86.out.bias,[0.10138595]
sub_nn_87.hidden.weight,[[ 0.8432565   0.10387941] [ 0.62019765 -0.41037792] [-0.0070272   0.04008663]]
sub_nn_87.hidden.bias,[-0.47296724 -0.1472044   0.1209804 ]
sub_nn_87.out.weight,[[-0.51673794  0.1342976   0.04625726]]
sub_nn_87.out.bias,[0.26640218]
sub_nn_88.hidden.weight,[[-0.08467958  0.23536798] [ 1.8713425  -0.48961005] [ 0.70966345 -0.11645505]]
sub_nn_88.hidden.bias,[-0.05930065 -0.17167854 -0.42778072]
sub_nn_88.out.weight,[[-0.25094014 -0.40126613 -0.06910208]]
sub_nn_88.out.bias,[-0.4786809]
sub_nn_89.hidden.weight,[[-0.5601345   0.22153574] [-0.08372951  0.12500793] [ 0.3224542   0.9130128 ]]
sub_nn_89.hidden.bias,[ 0.26545855 -0.46972457 -0.33830205]
sub_nn_89.out.weight,[[ 0.07189929  0.07562455 -0.14332686]]
sub_nn_89.out.bias,[0.39736807]
sub_nn_90.hidden.weight,[[ 0.10852524 -0.38608885] [ 0.1639722   0.60255235] [ 0.667077    0.6064288 ]]
sub_nn_90.hidden.bias,[0.60854673 0.54071695 0.6163946 ]
sub_nn_90.out.weight,[[0.5914203 0.6882215 1.0719771]]
sub_nn_90.out.bias,[-0.3261613]
sub_nn_91.hidden.weight,[[ 0.4775819   0.10785846] [-0.27772576  0.33129105] [-0.07922979  0.06103138]]
sub_nn_91.hidden.bias,[ 0.58670646  0.38972706 -0.00211631]
sub_nn_91.out.weight,[[-0.1878294  -0.11444303  1.4252102 ]]
sub_nn_91.out.bias,[0.56816864]
sub_nn_92.hidden.weight,[[-0.9177108   0.03768706] [ 0.81113297 -0.36071095] [ 1.2790796   0.440094  ]]
sub_nn_92.hidden.bias,[-0.68431956  0.6796563  -0.15324755]
sub_nn_92.out.weight,[[-0.51118726  0.9454442  -0.23445295]]
sub_nn_92.out.bias,[-0.2184495]
sub_nn_93.hidden.weight,[[-0.6157774   0.23493564] [-0.37789258 -0.78955954] [-0.3427026   0.0250292 ]]
sub_nn_93.hidden.bias,[ 0.35527274  0.03140145 -0.41172555]
sub_nn_93.out.weight,[[-0.409801   -0.37627304  0.10297737]]
sub_nn_93.out.bias,[0.2928173]
sub_nn_94.hidden.weight,[[-0.05723384 -0.3177995 ] [-1.1719646  -0.90237015] [-0.45164707 -0.37405604]]
sub_nn_94.hidden.bias,[ 0.3071501  -0.12442827  0.04326949]
sub_nn_94.out.weight,[[ 0.7246076  -0.12938431  0.3392455 ]]
sub_nn_94.out.bias,[0.18084729]
sub_nn_95.hidden.weight,[[ 1.4310969  -0.3425499 ] [ 0.55478144  0.7592358 ] [-0.36115465  0.13481225]]
sub_nn_95.hidden.bias,[0.25333992 0.51691395 0.06571837]
sub_nn_95.out.weight,[[-1.6427277  -0.32092115  0.6076569 ]]
sub_nn_95.out.bias,[0.48583353]
sub_nn_96.hidden.weight,[[ 0.55743974 -0.733552  ] [-1.1467189  -0.23152676] [-1.3748432   0.13820773]]
sub_nn_96.hidden.bias,[0.24244708 0.06170936 0.31576562]
sub_nn_96.out.weight,[[-1.1576254   0.15807858 -0.56288743]]
sub_nn_96.out.bias,[-0.24307004]
sub_nn_97.hidden.weight,[[-0.86597145 -0.24351649] [-0.5531058  -0.55910814] [-0.07066727 -0.6009734 ]]
sub_nn_97.hidden.bias,[-0.45626634  0.70232594  0.23757586]
sub_nn_97.out.weight,[[-1.3757477  -0.3708484   0.86749095]]
sub_nn_97.out.bias,[0.3492851]
sub_nn_98.hidden.weight,[[-0.10550122  0.11432981] [ 0.9837191  -0.78493965] [-0.3458337  -0.2768681 ]]
sub_nn_98.hidden.bias,[-0.20617807 -0.18423216  0.45935974]
sub_nn_98.out.weight,[[ 1.3605813   0.02867397 -0.95944583]]
sub_nn_98.out.bias,[-0.08443829]
sub_nn_99.hidden.weight,[[-0.7209845   0.56740683] [-0.43334654 -0.8036673 ] [ 0.8356676  -0.03981561]]
sub_nn_99.hidden.bias,[0.59293365 0.20095193 0.09617186]
sub_nn_99.out.weight,[[ 0.17871696 -0.15806094 -0.72493076]]
sub_nn_99.out.bias,[0.30041188]
sub_nn_100.hidden.weight,[[-0.9301694   0.0704246 ] [-0.39650854 -1.0864692 ] [-0.94587195  0.09198768]]
sub_nn_100.hidden.bias,[ 0.14337748  0.6027798  -0.6694618 ]
sub_nn_100.out.weight,[[-0.448301   -0.7755404   0.17333858]]
sub_nn_100.out.bias,[0.36970186]
sub_nn_101.hidden.weight,[[ 0.8303488  -0.31601992] [ 1.0907949  -0.16817555] [ 0.67052263 -0.4815479 ]]
sub_nn_101.hidden.bias,[-0.13821198 -0.67928374 -0.27188626]
sub_nn_101.out.weight,[[-0.73231125  0.50858146  0.99441844]]
sub_nn_101.out.bias,[0.5689982]
sub_nn_102.hidden.weight,[[ 0.46102214  0.23516908] [ 1.5877254  -0.31664014] [-0.51348394  0.43116865]]
sub_nn_102.hidden.bias,[ 0.38881093 -0.05707468 -0.5842751 ]
sub_nn_102.out.weight,[[-0.44500893 -0.31110618  0.75455   ]]
sub_nn_102.out.bias,[-0.3640256]
sub_nn_103.hidden.weight,[[-0.18707912 -0.27509594] [ 0.2206152  -0.97643197] [ 1.0363961  -0.43204153]]
sub_nn_103.hidden.bias,[ 0.50896525  0.60276896 -0.5440572 ]
sub_nn_103.out.weight,[[ 0.12736742 -1.5560399   0.2723829 ]]
sub_nn_103.out.bias,[0.05656672]
sub_nn_104.hidden.weight,[[-0.12881961 -0.12280253] [-1.2914693  -0.6981837 ] [-0.21810213 -0.7908575 ]]
sub_nn_104.hidden.bias,[-0.35142     0.40161043  0.15973978]
sub_nn_104.out.weight,[[0.6573599 0.2779491 0.6312672]]
sub_nn_104.out.bias,[-0.3014033]
sub_nn_105.hidden.weight,[[-0.7228666  -0.5410652 ] [ 0.30697656  0.0207642 ] [-0.7533674   0.61787575]]
sub_nn_105.hidden.bias,[-0.6316639  -0.57271045  0.562969  ]
sub_nn_105.out.weight,[[ 0.49518195  0.620456   -1.0958732 ]]
sub_nn_105.out.bias,[-0.5653436]
sub_nn_106.hidden.weight,[[-0.88472843 -1.0562704 ] [ 0.21358487  0.45379758] [ 0.19718707  0.18909247]]
sub_nn_106.hidden.bias,[0.02946096 0.5619804  0.0558368 ]
sub_nn_106.out.weight,[[-0.11558497  0.09987529 -0.47255993]]
sub_nn_106.out.bias,[0.00401801]
sub_nn_107.hidden.weight,[[-0.69625276 -0.18984665] [ 0.58717036  0.6972809 ] [ 0.15932782 -0.07983375]]
sub_nn_107.hidden.bias,[-0.6373045 -0.1052013  0.4818043]
sub_nn_107.out.weight,[[-0.8977241  -1.9726237   0.08316883]]
sub_nn_107.out.bias,[-0.2607818]
sub_nn_108.hidden.weight,[[-0.5886167  -0.5196159 ] [-0.04099652 -0.00416499] [ 0.82671857  0.7331645 ]]
sub_nn_108.hidden.bias,[-0.11985326 -0.38145822  0.21363229]
sub_nn_108.out.weight,[[0.55283767 0.43780938 0.16966444]]
sub_nn_108.out.bias,[-0.40403432]
sub_nn_109.hidden.weight,[[-0.15123609  0.17395656] [ 1.3184506   0.30826747] [ 0.68628436 -0.10960224]]
sub_nn_109.hidden.bias,[-0.6143092  -0.16986793 -0.67      ]
sub_nn_109.out.weight,[[-0.58477503 -0.8672543   0.24656993]]
sub_nn_109.out.bias,[-0.0996888]
sub_nn_110.hidden.weight,[[-1.288303   -0.11696821] [-1.3739434   0.41252938] [ 1.3164957   0.00376613]]
sub_nn_110.hidden.bias,[-0.37493944 -0.4197479  -0.5242661 ]
sub_nn_110.out.weight,[[-0.83888096  0.92048925 -0.81520593]]
sub_nn_110.out.bias,[0.2958876]
sub_nn_111.hidden.weight,[[ 0.30192906  0.16984896] [ 0.07791242 -0.5931834 ] [-0.06698976 -0.35050145]]
sub_nn_111.hidden.bias,[ 0.11970824 -0.24529025 -0.13433313]
sub_nn_111.out.weight,[[-1.242018    0.60347426 -0.7121404 ]]
sub_nn_111.out.bias,[-0.3902883]
sub_nn_112.hidden.weight,[[0.20976098 0.5588597 ] [0.59223753 0.8076717 ] [0.03282918 0.94405246]]
sub_nn_112.hidden.bias,[-0.03468108 -0.237586    0.47801405]
sub_nn_112.out.weight,[[ 0.81356806 -1.8107706   0.1838461 ]]
sub_nn_112.out.bias,[0.11369002]
sub_nn_113.hidden.weight,[[ 0.04662283 -0.45783192] [-0.9623836  -0.58017755] [-0.26002392 -0.34944257]]
sub_nn_113.hidden.bias,[ 0.05403141  0.26998046 -0.5001998 ]
sub_nn_113.out.weight,[[-0.5715795  -0.13721748  0.13698411]]
sub_nn_113.out.bias,[0.03133148]
sub_nn_114.hidden.weight,[[ 0.57199824 -0.7027625 ] [ 0.1585368  -0.3441576 ] [ 0.66437393  0.31720367]]
sub_nn_114.hidden.bias,[-0.2663511   0.3361947   0.45793492]
sub_nn_114.out.weight,[[ 0.32545397  0.4990523  -0.08638883]]
sub_nn_114.out.bias,[-0.42508462]
sub_nn_115.hidden.weight,[[-0.26532933 -0.85775346] [-0.800593   -0.2588563 ] [-0.99464273  1.5255588 ]]
sub_nn_115.hidden.bias,[-0.420169    0.28504527  0.6332703 ]
sub_nn_115.out.weight,[[-0.70609456 -0.93420905  0.06789183]]
sub_nn_115.out.bias,[0.21597311]
sub_nn_116.hidden.weight,[[ 0.20930831 -0.04794255] [-0.22022764 -1.5162895 ] [-0.8722345  -0.72594064]]
sub_nn_116.hidden.bias,[ 0.02355804  0.34886485 -0.17170137]
sub_nn_116.out.weight,[[ 1.207992    0.05486707 -0.9212815 ]]
sub_nn_116.out.bias,[0.22168243]
sub_nn_117.hidden.weight,[[ 0.28355852  0.5053362 ] [-0.23013578  0.10697877] [-0.42502207 -0.53793776]]
sub_nn_117.hidden.bias,[-0.586718    0.16183692 -0.02743769]
sub_nn_117.out.weight,[[ 0.34293923 -0.25638932 -0.17540862]]
sub_nn_117.out.bias,[0.33046728]
sub_nn_118.hidden.weight,[[ 0.57281715  1.052842  ] [ 0.11202702  1.1872448 ] [ 0.97129196 -0.07986143]]
sub_nn_118.hidden.bias,[-0.40522608 -0.10184624 -0.28281897]
sub_nn_118.out.weight,[[ 0.5324251  -1.0528632  -0.33121598]]
sub_nn_118.out.bias,[-0.02180904]
sub_nn_119.hidden.weight,[[ 0.68245333 -0.20233989] [ 1.2582331   0.25052616] [-0.5446233   0.19033328]]
sub_nn_119.hidden.bias,[ 0.4149401  -0.09540235 -0.6895307 ]
sub_nn_119.out.weight,[[-0.17330833  0.32783306 -0.45950335]]
sub_nn_119.out.bias,[0.0238142]
sub_nn_120.hidden.weight,[[ 0.2931843  -0.320644  ] [-0.92313606 -0.37813905] [ 0.5853779  -0.19035445]]
sub_nn_120.hidden.bias,[ 0.11534777 -0.4234026   0.62224114]
sub_nn_120.out.weight,[[1.1624489 0.7261176 0.8640764]]
sub_nn_120.out.bias,[-0.13609928]
sub_nn_121.hidden.weight,[[-0.21746829  0.0609945 ] [ 0.12860423  0.552078  ] [ 0.02960997 -0.15621664]]
sub_nn_121.hidden.bias,[0.3227246  0.41490382 0.4308723 ]
sub_nn_121.out.weight,[[-0.85014987  1.6623029   1.2208871 ]]
sub_nn_121.out.bias,[-0.51010084]
sub_nn_122.hidden.weight,[[-1.3583223  -0.70488673] [ 0.56833774 -0.4813559 ] [ 0.4444452   0.13049226]]
sub_nn_122.hidden.bias,[ 0.05872669  0.36453587 -0.33364537]
sub_nn_122.out.weight,[[-0.6896175  -0.48523688 -1.0099531 ]]
sub_nn_122.out.bias,[-0.17318344]
sub_nn_123.hidden.weight,[[-0.07822831  0.08034018] [-0.6867519  -0.85852236] [ 0.5434796   0.15421641]]
sub_nn_123.hidden.bias,[-0.31211582 -0.49050763 -0.5187619 ]
sub_nn_123.out.weight,[[1.3586848  0.02136776 0.34239855]]
sub_nn_123.out.bias,[-0.19524044]
sub_nn_124.hidden.weight,[[ 0.31538546 -0.67947364] [ 0.4533434   0.92791647] [ 0.79419    -0.1696897 ]]
sub_nn_124.hidden.bias,[-0.5467373   0.0147112   0.60255396]
sub_nn_124.out.weight,[[-0.54165035  1.0156857   0.40529144]]
sub_nn_124.out.bias,[-0.17277098]
sub_nn_125.hidden.weight,[[ 0.39221862  0.17372248] [ 0.69341666  0.2704068 ] [-1.2532349  -0.257041  ]]
sub_nn_125.hidden.bias,[0.29838043 0.22527218 0.15521622]
sub_nn_125.out.weight,[[0.19718249 1.3342966  0.20486094]]
sub_nn_125.out.bias,[-0.05294979]
sub_nn_126.hidden.weight,[[-0.43320423 -0.1708791 ] [ 0.33607137  1.2563927 ] [-0.4493087  -0.1935036 ]]
sub_nn_126.hidden.bias,[0.50840336 0.44126278 0.66425526]
sub_nn_126.out.weight,[[ 0.32929075 -0.72437745 -1.7355101 ]]
sub_nn_126.out.bias,[-0.29108155]
sub_nn_127.hidden.weight,[[ 1.0942042  -0.9862351 ] [ 0.9390363   0.8604087 ] [ 1.8768498   0.48990837]]
sub_nn_127.hidden.bias,[0.48718888 0.19163954 0.2070384 ]
sub_nn_127.out.weight,[[-0.31740138 -0.92902505  1.2709243 ]]
sub_nn_127.out.bias,[0.4272411]
sub_nn_128.hidden.weight,[[ 0.17244826 -0.478807  ] [-0.9526683  -0.15479958] [ 0.2764652   0.8187603 ]]
sub_nn_128.hidden.bias,[-0.40455875 -0.18747568 -0.6105867 ]
sub_nn_128.out.weight,[[0.3761439 0.2817222 0.9692226]]
sub_nn_128.out.bias,[-0.0115605]
sub_nn_129.hidden.weight,[[-0.45654795 -0.5257701 ] [ 0.11653753 -0.27505076] [ 0.9673898  -1.0404277 ]]
sub_nn_129.hidden.bias,[ 0.2672472  -0.6467655   0.38148528]
sub_nn_129.out.weight,[[ 0.01609319 -0.5263178  -1.02249   ]]
sub_nn_129.out.bias,[0.01245958]
sub_nn_130.hidden.weight,[[ 0.06296539 -0.16201364] [-0.44902045 -0.81498015] [-0.16941506 -0.17011121]]
sub_nn_130.hidden.bias,[-0.59028125 -0.6596173  -0.01597029]
sub_nn_130.out.weight,[[ 0.81913644  0.72469926 -0.62246275]]
sub_nn_130.out.bias,[-0.38371366]
sub_nn_131.hidden.weight,[[ 0.10728043  0.5354377 ] [-0.56843585 -1.1252813 ] [ 0.7785251   0.86408293]]
sub_nn_131.hidden.bias,[ 0.31293553  0.01133033 -0.201317  ]
sub_nn_131.out.weight,[[ 1.3356715e-04 -1.2782173e-01  3.9801249e-01]]
sub_nn_131.out.bias,[-0.1768798]
sub_nn_132.hidden.weight,[[ 0.20508732 -0.962734  ] [ 0.239617   -0.09913529] [ 1.8580031  -0.7682832 ]]
sub_nn_132.hidden.bias,[-0.5356069  -0.04006958  0.5803806 ]
sub_nn_132.out.weight,[[-1.1667689  -0.74245614 -1.0091897 ]]
sub_nn_132.out.bias,[-0.56925726]
sub_nn_133.hidden.weight,[[ 1.121642   -0.32254994] [-0.00780948  0.9794394 ] [-0.7570525   0.3064433 ]]
sub_nn_133.hidden.bias,[ 0.62091875  0.3462537  -0.5142996 ]
sub_nn_133.out.weight,[[ 0.47991768 -0.5833803  -0.6368426 ]]
sub_nn_133.out.bias,[0.30418313]
sub_nn_134.hidden.weight,[[ 1.1456904   0.07905708] [-1.1559975  -0.2781634 ] [-0.15383847  1.2180063 ]]
sub_nn_134.hidden.bias,[0.20783699 0.59727424 0.33630136]
sub_nn_134.out.weight,[[-0.3032913  -0.18204997 -0.75488096]]
sub_nn_134.out.bias,[-0.45191568]
sub_nn_135.hidden.weight,[[ 0.80547863 -0.6054466 ] [-1.6515793  -0.64921224] [ 0.8968397  -0.03129624]]
sub_nn_135.hidden.bias,[ 0.59996766 -0.15024519  0.02406443]
sub_nn_135.out.weight,[[-0.1461537   0.05358053 -0.0473762 ]]
sub_nn_135.out.bias,[0.31636304]
sub_nn_136.hidden.weight,[[-0.00967972 -0.99757844] [ 0.4085075  -1.2335261 ] [-0.07529465  0.25684604]]
sub_nn_136.hidden.bias,[-0.56760955  0.4554708  -0.6521097 ]
sub_nn_136.out.weight,[[-1.430192   1.1483481 -0.4273767]]
sub_nn_136.out.bias,[-0.5772532]
sub_nn_137.hidden.weight,[[-0.17320062  0.0663417 ] [-0.9673544   0.66161054] [-1.2640736   0.12162741]]
sub_nn_137.hidden.bias,[-0.4034831  -0.0102728   0.05505624]
sub_nn_137.out.weight,[[ 0.6195571  -0.87323457 -1.2115898 ]]
sub_nn_137.out.bias,[0.11215502]
sub_nn_138.hidden.weight,[[-0.47201267 -0.12789634] [-0.27399278 -0.20113385] [-0.7261374  -0.7626748 ]]
sub_nn_138.hidden.bias,[-0.40593678  0.36355346  0.3554218 ]
sub_nn_138.out.weight,[[1.3175814  0.07020743 0.12163322]]
sub_nn_138.out.bias,[-0.30463412]
sub_nn_139.hidden.weight,[[ 0.4870243  -0.26237   ] [-0.8377938   0.04616463] [ 0.00990137  0.23592132]]
sub_nn_139.hidden.bias,[-0.14739983  0.1457113  -0.37437215]
sub_nn_139.out.weight,[[ 0.99214613  0.5990385  -1.4562776 ]]
sub_nn_139.out.bias,[0.23635995]
sub_nn_140.hidden.weight,[[-0.20485094  0.69446516] [ 0.28142443 -0.6191857 ] [-0.01123416 -0.5925386 ]]
sub_nn_140.hidden.bias,[-0.3711492   0.38420326  0.13405609]
sub_nn_140.out.weight,[[ 0.61383784  0.05946269 -1.2167805 ]]
sub_nn_140.out.bias,[-0.1485514]
sub_nn_141.hidden.weight,[[-0.13249423 -0.01605685] [ 0.05676842 -0.6766972 ] [-0.37391347  0.7882975 ]]
sub_nn_141.hidden.bias,[-0.47828656  0.38158882 -0.5319042 ]
sub_nn_141.out.weight,[[-0.10633764  0.32714227 -0.5071928 ]]
sub_nn_141.out.bias,[0.5149673]
sub_nn_142.hidden.weight,[[-0.77195686 -0.42963904] [-0.31269976  0.14271848] [-0.8569843  -0.0562332 ]]
sub_nn_142.hidden.bias,[-0.52448773  0.545405    0.25876373]
sub_nn_142.out.weight,[[ 0.08430301  0.6914059  -0.26384032]]
sub_nn_142.out.bias,[-0.25381246]
sub_nn_143.hidden.weight,[[-0.97194     0.85871464] [ 0.4208791  -0.06800799] [ 0.5724745   0.6629128 ]]
sub_nn_143.hidden.bias,[ 0.2655542  -0.40068227 -0.63796306]
sub_nn_143.out.weight,[[ 0.71375066  0.839409   -0.25051305]]
sub_nn_143.out.bias,[-0.29483005]
sub_nn_144.hidden.weight,[[-0.5649186   0.5379213 ] [-0.31985292 -0.5778442 ] [-1.0045137  -0.5213549 ]]
sub_nn_144.hidden.bias,[ 0.31523246 -0.07675564 -0.10064727]
sub_nn_144.out.weight,[[ 0.33623835 -0.2568681   0.23022066]]
sub_nn_144.out.bias,[0.55950797]
sub_nn_145.hidden.weight,[[ 0.41492885 -0.47415832] [-0.69007367  0.14239545] [-0.31361967 -0.47558606]]
sub_nn_145.hidden.bias,[ 0.47226274 -0.574738    0.48534113]
sub_nn_145.out.weight,[[ 0.06753222  0.0892282  -1.1575018 ]]
sub_nn_145.out.bias,[-0.5734143]
sub_nn_146.hidden.weight,[[-0.6823541   0.2845735 ] [-0.95816135 -0.15297252] [ 0.93195504 -0.264227  ]]
sub_nn_146.hidden.bias,[-0.2618292   0.08163939 -0.5246904 ]
sub_nn_146.out.weight,[[ 0.08597287 -0.45152315  0.4590967 ]]
sub_nn_146.out.bias,[-0.1079416]
sub_nn_147.hidden.weight,[[-0.4962805   0.1970559 ] [-0.29272828  1.1578579 ] [-0.10206836 -0.2469248 ]]
sub_nn_147.hidden.bias,[ 0.09935909  0.43276396 -0.16581202]
sub_nn_147.out.weight,[[ 0.25783187 -0.36113206 -0.05174043]]
sub_nn_147.out.bias,[0.4088139]
sub_nn_148.hidden.weight,[[ 1.4878855  -0.5650524 ] [ 0.9409161  -0.26798362] [ 0.5560499   0.1737936 ]]
sub_nn_148.hidden.bias,[-0.45556188 -0.19744164 -0.30155572]
sub_nn_148.out.weight,[[-1.5333235  -0.02569472 -0.28479064]]
sub_nn_148.out.bias,[0.57613575]
sub_nn_149.hidden.weight,[[ 0.07854913 -0.11259954] [ 0.07256028  0.00693109] [-0.52180165  0.43853983]]
sub_nn_149.hidden.bias,[-0.19929938  0.27733916 -0.05390516]
sub_nn_149.out.weight,[[-0.6496155 -0.2339015  0.6499504]]
sub_nn_149.out.bias,[-0.4672452]
sub_nn_150.hidden.weight,[[-0.08539475 -0.30399278] [ 0.15109655 -0.5276999 ] [-0.1715887   0.0116843 ]]
sub_nn_150.hidden.bias,[-0.26683447  0.16422822 -0.7043275 ]
sub_nn_150.out.weight,[[-0.4738938 -1.0186055  0.6884187]]
sub_nn_150.out.bias,[0.15968597]
sub_nn_151.hidden.weight,[[0.8627823  0.60291624] [0.6130313  0.48626494] [0.6916783  1.5846146 ]]
sub_nn_151.hidden.bias,[0.41398805 0.36319476 0.21208882]
sub_nn_151.out.weight,[[-1.0979633  -1.1686034  -0.45925012]]
sub_nn_151.out.bias,[-0.48332167]
sub_nn_152.hidden.weight,[[ 0.27217942  0.6033189 ] [-0.00686793 -0.39479756] [ 1.2401849   1.8176392 ]]
sub_nn_152.hidden.bias,[-0.04903206 -0.33274034 -0.4879338 ]
sub_nn_152.out.weight,[[-0.429227    0.62418944  0.7809602 ]]
sub_nn_152.out.bias,[-0.5121096]
sub_nn_153.hidden.weight,[[-1.333328   -0.7850519 ] [-0.03763685 -0.20694478] [-0.5191451   0.48130596]]
sub_nn_153.hidden.bias,[ 0.40944734 -0.09103191 -0.00514943]
sub_nn_153.out.weight,[[-0.23230936 -0.5827844   0.17836817]]
sub_nn_153.out.bias,[0.00783798]
sub_nn_154.hidden.weight,[[-0.86182445 -0.4478456 ] [ 0.5018195   0.6103028 ] [-0.87014216 -0.3326389 ]]
sub_nn_154.hidden.bias,[ 0.56150687  0.3012231  -0.1738832 ]
sub_nn_154.out.weight,[[ 0.06177061 -0.12380857  0.5927389 ]]
sub_nn_154.out.bias,[-0.43402296]
sub_nn_155.hidden.weight,[[ 0.20044345  0.32978928] [ 0.6449492  -1.1429586 ] [-0.820229   -0.04196868]]
sub_nn_155.hidden.bias,[-0.6407325   0.32946187 -0.6557038 ]
sub_nn_155.out.weight,[[ 0.43824115 -0.14270052 -0.21406867]]
sub_nn_155.out.bias,[-0.48750082]
sub_nn_156.hidden.weight,[[-0.39503044  0.7199452 ] [ 0.2838004   0.5612432 ] [-0.40280256 -0.53127384]]
sub_nn_156.hidden.bias,[-0.64072245 -0.5309522  -0.6650702 ]
sub_nn_156.out.weight,[[0.08000257 0.5575054  0.87907517]]
sub_nn_156.out.bias,[-0.3496933]
sub_nn_157.hidden.weight,[[-0.23193705  0.3876192 ] [ 0.53876436 -0.17789403] [ 0.6802845  -0.48904648]]
sub_nn_157.hidden.bias,[-0.32129428 -0.53632927 -0.58593255]
sub_nn_157.out.weight,[[ 0.34388766  0.6259759  -0.7116109 ]]
sub_nn_157.out.bias,[-0.2079845]
sub_nn_158.hidden.weight,[[1.1695478  0.9251803 ] [0.4509105  0.5658116 ] [0.26842898 0.10537471]]
sub_nn_158.hidden.bias,[ 0.22262847  0.21499056 -0.3800523 ]
sub_nn_158.out.weight,[[-1.4319128  -0.22249079 -0.20258763]]
sub_nn_158.out.bias,[-0.45166716]
sub_nn_159.hidden.weight,[[ 0.07114296 -0.7258795 ] [-0.52657706 -0.6832967 ] [ 0.13247065  0.58232766]]
sub_nn_159.hidden.bias,[ 0.6695139   0.25518444 -0.4563186 ]
sub_nn_159.out.weight,[[-0.47649178 -0.29591045 -0.09984078]]
sub_nn_159.out.bias,[-0.12774518]
sub_nn_160.hidden.weight,[[-0.79244375  0.2931817 ] [-0.45305857 -0.335105  ] [-0.40541342  0.54942644]]
sub_nn_160.hidden.bias,[-0.3674641  -0.10654587  0.67634547]
sub_nn_160.out.weight,[[ 0.8082015   0.45454174 -0.29662052]]
sub_nn_160.out.bias,[-0.27939457]
sub_nn_161.hidden.weight,[[-0.3418101  -0.1725171 ] [ 0.51244444 -0.63847816] [-0.11544565 -0.27603406]]
sub_nn_161.hidden.bias,[-0.28632176 -0.09878665 -0.02141094]
sub_nn_161.out.weight,[[-0.47590002  0.14117363 -0.06310094]]
sub_nn_161.out.bias,[-0.04389793]
sub_nn_162.hidden.weight,[[ 0.41145968  0.2886887 ] [ 0.55186415 -0.5496023 ] [ 0.2683534   0.42023963]]
sub_nn_162.hidden.bias,[-0.30267555  0.34210837  0.443191  ]
sub_nn_162.out.weight,[[0.40224427 1.058554   0.12626454]]
sub_nn_162.out.bias,[-0.31822708]
sub_nn_163.hidden.weight,[[-0.02357296  0.04150458] [-0.15033513  0.30562925] [-0.0485483  -0.05510632]]
sub_nn_163.hidden.bias,[-0.6235869  -0.03036859 -0.4586931 ]
sub_nn_163.out.weight,[[ 0.09827036 -0.51758784 -0.02689991]]
sub_nn_163.out.bias,[0.12761068]
sub_nn_164.hidden.weight,[[ 0.59181434 -0.06230986] [ 0.21209231 -0.34455568] [ 0.9297761  -0.22813722]]
sub_nn_164.hidden.bias,[-0.47246027 -0.16079804 -0.03276544]
sub_nn_164.out.weight,[[-0.20252264 -0.20812213  0.5338813 ]]
sub_nn_164.out.bias,[-0.3613242]
sub_nn_165.hidden.weight,[[-0.3350736  -0.13575651] [-0.78210634  0.5515748 ] [-0.62820023  0.47644243]]
sub_nn_165.hidden.bias,[-0.05047202 -0.23129457  0.21508606]
sub_nn_165.out.weight,[[ 0.45952716 -1.3122975  -0.45473975]]
sub_nn_165.out.bias,[0.42269814]
sub_nn_166.hidden.weight,[[-0.51886123 -0.30514967] [ 1.4150751   0.82208186] [-0.523976   -0.21029896]]
sub_nn_166.hidden.bias,[ 0.46196184  0.21003968 -0.567276  ]
sub_nn_166.out.weight,[[-0.44364414  0.9203259  -0.9908447 ]]
sub_nn_166.out.bias,[0.07182115]
sub_nn_167.hidden.weight,[[-0.48882005 -0.9870462 ] [-0.5648759  -0.53260124] [-0.62427634  0.9943035 ]]
sub_nn_167.hidden.bias,[-0.68453944 -0.00110644 -0.68491775]
sub_nn_167.out.weight,[[-0.29657894 -1.0708542   0.17194472]]
sub_nn_167.out.bias,[0.12902689]
sub_nn_168.hidden.weight,[[-0.25872776 -0.29409322] [ 1.5912412   0.08844816] [-0.47604096 -0.23964511]]
sub_nn_168.hidden.bias,[-0.14011157  0.6586154   0.34885377]
sub_nn_168.out.weight,[[-0.10792895  1.2015107  -0.0355357 ]]
sub_nn_168.out.bias,[-0.57090384]
sub_nn_169.hidden.weight,[[ 1.1430471   0.5523915 ] [-0.17986678  0.3946279 ] [ 0.14161162  0.80366343]]
sub_nn_169.hidden.bias,[-0.62904567  0.12475792 -0.18201156]
sub_nn_169.out.weight,[[-0.02815102 -0.47217774 -0.7537281 ]]
sub_nn_169.out.bias,[0.05740404]
sub_nn_170.hidden.weight,[[-0.47079304 -0.54190683] [-0.15945046  0.19354512] [ 0.5815825  -0.7711289 ]]
sub_nn_170.hidden.bias,[ 0.66305757 -0.02135926  0.48042065]
sub_nn_170.out.weight,[[-0.38821083  0.7015487   0.06263794]]
sub_nn_170.out.bias,[-0.06889558]
sub_nn_171.hidden.weight,[[-0.6617878  -0.62613225] [-0.8939942   0.5934866 ] [ 0.6083271  -0.50225455]]
sub_nn_171.hidden.bias,[-0.2937808   0.15901643  0.09478419]
sub_nn_171.out.weight,[[-1.0792122  -1.1731497   0.22683048]]
sub_nn_171.out.bias,[0.3937081]
sub_nn_172.hidden.weight,[[ 0.44569027  0.04786818] [-0.86682785 -1.4808776 ] [ 1.1720068   1.3372318 ]]
sub_nn_172.hidden.bias,[ 0.12332582  0.57197654 -0.33324403]
sub_nn_172.out.weight,[[-0.15850203  1.1311274   0.50998944]]
sub_nn_172.out.bias,[-0.03195226]
sub_nn_173.hidden.weight,[[ 0.24245036  0.24430892] [ 0.1270361  -0.24447627] [ 1.0902244   0.75401986]]
sub_nn_173.hidden.bias,[0.2798769  0.70453745 0.10924798]
sub_nn_173.out.weight,[[-0.09875941 -0.03046396 -0.9073881 ]]
sub_nn_173.out.bias,[0.16047627]
sub_nn_174.hidden.weight,[[-0.789111   -0.08529337] [ 0.72898436 -0.21835874] [-1.1375245   0.33442518]]
sub_nn_174.hidden.bias,[-0.41034415 -0.3844046   0.69913   ]
sub_nn_174.out.weight,[[-0.6566611  0.6638986  0.5049939]]
sub_nn_174.out.bias,[-0.470913]
sub_nn_175.hidden.weight,[[-0.24703781 -0.27542076] [-0.92898124  0.6982199 ] [-0.14460851  0.27973232]]
sub_nn_175.hidden.bias,[ 0.41773942 -0.6443531  -0.14291357]
sub_nn_175.out.weight,[[ 1.2627088  -0.81888807  0.6614304 ]]
sub_nn_175.out.bias,[0.25875235]
sub_nn_176.hidden.weight,[[-0.7313975  -0.28572142] [ 0.08991852  0.48184696] [ 0.04504948 -0.02659557]]
sub_nn_176.hidden.bias,[-0.02945143  0.03758436 -0.643698  ]
sub_nn_176.out.weight,[[-0.03453101 -1.2840928   1.2776573 ]]
sub_nn_176.out.bias,[0.00253052]
sub_nn_177.hidden.weight,[[ 0.30476087 -0.7111191 ] [ 0.89933735 -0.66807836] [ 0.12323821  0.44422343]]
sub_nn_177.hidden.bias,[-0.5754486   0.5184092   0.19492412]
sub_nn_177.out.weight,[[-0.14860004 -0.37591237 -0.3605423 ]]
sub_nn_177.out.bias,[0.54048026]
sub_nn_178.hidden.weight,[[-0.36147165  0.14492486] [ 1.3662465  -0.05034113] [-0.5087646  -0.757292  ]]
sub_nn_178.hidden.bias,[-0.09768613 -0.5145773   0.55729353]
sub_nn_178.out.weight,[[-0.59316987 -0.16753937  0.86917216]]
sub_nn_178.out.bias,[0.44299018]
sub_nn_179.hidden.weight,[[-0.16790923  0.14286327] [-0.02802228 -0.4307444 ] [-0.48584175  0.11247715]]
sub_nn_179.hidden.bias,[-0.04483317  0.63486236 -0.03552143]
sub_nn_179.out.weight,[[0.2870542 1.9408989 1.1947802]]
sub_nn_179.out.bias,[-0.41860068]
sub_nn_180.hidden.weight,[[-0.5901109  -1.2827668 ] [-0.30371585  0.38258308] [-0.7335477  -0.1411476 ]]
sub_nn_180.hidden.bias,[0.70390445 0.3517037  0.32896006]
sub_nn_180.out.weight,[[0.15958847 1.2737973  1.2080362 ]]
sub_nn_180.out.bias,[0.526343]
sub_nn_181.hidden.weight,[[ 0.13105732 -0.5824188 ] [ 0.5491399  -0.80502176] [-0.45494702 -0.6752399 ]]
sub_nn_181.hidden.bias,[-0.630757    0.6016528   0.42969966]
sub_nn_181.out.weight,[[ 2.2959125  -0.20179199  1.7127441 ]]
sub_nn_181.out.bias,[-0.52724665]
sub_nn_182.hidden.weight,[[ 0.22730216 -1.149866  ] [-0.610267   -0.5112431 ] [ 0.5718034  -0.28161758]]
sub_nn_182.hidden.bias,[ 0.23835152 -0.09223551 -0.13664864]
sub_nn_182.out.weight,[[-0.15973558  1.1207192   0.01639535]]
sub_nn_182.out.bias,[0.15437567]
sub_nn_183.hidden.weight,[[ 3.39978520e-04  4.88927692e-01] [-4.49589908e-01 -1.61175013e+00] [-4.80735898e-01  1.13920204e-01]]
sub_nn_183.hidden.bias,[ 0.06565697 -0.58201087  0.49609494]
sub_nn_183.out.weight,[[-0.19556074  1.0382975   0.4733935 ]]
sub_nn_183.out.bias,[0.4379475]
sub_nn_184.hidden.weight,[[-0.74221224 -0.41378307] [-0.03613101  0.01545168] [ 0.38391438 -0.20193596]]
sub_nn_184.hidden.bias,[ 0.4225393  -0.04864702  0.319904  ]
sub_nn_184.out.weight,[[-0.02829241 -0.28245962  0.0614994 ]]
sub_nn_184.out.bias,[-0.5396294]
sub_nn_185.hidden.weight,[[-0.10841107 -0.44363585] [ 0.7688328   0.63406223] [-0.10758972  0.04780347]]
sub_nn_185.hidden.bias,[-0.68839693 -0.1115822  -0.48062065]
sub_nn_185.out.weight,[[-0.66071445 -0.5053462   0.90016246]]
sub_nn_185.out.bias,[-0.33521652]
sub_nn_186.hidden.weight,[[-0.33657146  0.83136904] [-0.4794061   0.07241515] [-0.49258438  0.46978676]]
sub_nn_186.hidden.bias,[-0.02892949 -0.65927434 -0.51233596]
sub_nn_186.out.weight,[[0.79364705 0.783442   0.20337714]]
sub_nn_186.out.bias,[-0.10589522]
sub_nn_187.hidden.weight,[[ 0.33050245  0.33445498] [-0.17751366  1.342444  ] [ 0.5608354  -0.62131447]]
sub_nn_187.hidden.bias,[-0.04623099 -0.4361939  -0.64494586]
sub_nn_187.out.weight,[[-0.12648675  0.09770902 -0.5883765 ]]
sub_nn_187.out.bias,[-0.2763388]
sub_nn_188.hidden.weight,[[-0.15676802 -1.5159284 ] [ 0.3538425   0.28205946] [-1.0063375  -0.17757846]]
sub_nn_188.hidden.bias,[ 0.19370796 -0.30653518 -0.20665479]
sub_nn_188.out.weight,[[ 0.24965811  0.6081029  -1.0343513 ]]
sub_nn_188.out.bias,[-0.4717426]
sub_nn_189.hidden.weight,[[ 0.6081731  -0.9601128 ] [ 0.04264088 -0.10319646] [ 0.67244536 -0.04962939]]
sub_nn_189.hidden.bias,[-0.18573806 -0.0624846   0.69325024]
sub_nn_189.out.weight,[[-0.95149386 -0.93167925  0.8662546 ]]
sub_nn_189.out.bias,[0.01157928]
sub_nn_190.hidden.weight,[[ 0.8218784   0.33651614] [ 0.2851217  -0.06688769] [-0.30765003  0.61541647]]
sub_nn_190.hidden.bias,[ 0.65893215  0.28342798 -0.49358708]
sub_nn_190.out.weight,[[-1.6543864  0.4331144  0.8044705]]
sub_nn_190.out.bias,[-0.54131675]
sub_nn_191.hidden.weight,[[ 0.50409985 -0.81719035] [-0.282589    0.16124213] [ 0.64170545  0.15689135]]
sub_nn_191.hidden.bias,[-0.09579363 -0.1564539  -0.06589397]
sub_nn_191.out.weight,[[-0.05380202 -0.77344245 -0.17464809]]
sub_nn_191.out.bias,[0.23326802]
sub_nn_192.hidden.weight,[[-0.48501533  0.2973126 ] [-0.19297174 -0.16441809] [-0.9234871  -0.0799739 ]]
sub_nn_192.hidden.bias,[ 0.3605071   0.39530116 -0.3944946 ]
sub_nn_192.out.weight,[[0.6495176 1.2119228 0.7175555]]
sub_nn_192.out.bias,[0.1810615]
sub_nn_193.hidden.weight,[[ 0.40349138 -0.06695129] [ 0.4105126   0.74666125] [-0.219154    0.40523446]]
sub_nn_193.hidden.bias,[ 0.37118393  0.2564531  -0.45082322]
sub_nn_193.out.weight,[[-0.01674455 -1.502174    0.45469674]]
sub_nn_193.out.bias,[-0.18697923]
sub_nn_194.hidden.weight,[[ 1.0175309  -0.5257395 ] [ 0.7920622  -1.0807155 ] [ 0.09789887 -0.47968778]]
sub_nn_194.hidden.bias,[-0.04687326 -0.26382858 -0.05716575]
sub_nn_194.out.weight,[[-0.7591221 -1.0631199 -0.7431661]]
sub_nn_194.out.bias,[-0.38775277]
sub_nn_195.hidden.weight,[[-0.61572    -0.70279074] [-0.64461243 -0.23177895] [-0.41395485  0.43401304]]
sub_nn_195.hidden.bias,[0.12723562 0.6869056  0.17537284]
sub_nn_195.out.weight,[[ 1.4884517   1.5967357  -0.13660954]]
sub_nn_195.out.bias,[0.44686255]
sub_nn_196.hidden.weight,[[ 0.26610973 -0.16776974] [ 1.1915753  -0.3184873 ] [ 0.5100236  -1.6177688 ]]
sub_nn_196.hidden.bias,[-0.01216613  0.5952179   0.23445885]
sub_nn_196.out.weight,[[-0.28116518 -0.24442898 -0.41582724]]
sub_nn_196.out.bias,[0.2431544]
sub_nn_197.hidden.weight,[[ 0.38568425 -0.2507308 ] [-0.02148006 -0.23814137] [ 0.95349354  0.10938583]]
sub_nn_197.hidden.bias,[-0.06009122  0.09976859 -0.41522864]
sub_nn_197.out.weight,[[-1.306265   0.3677653  0.7311082]]
sub_nn_197.out.bias,[-0.09094694]
sub_nn_198.hidden.weight,[[-0.3235574   0.95554566] [ 0.1200104   1.6081421 ] [ 0.72527516 -0.18885326]]
sub_nn_198.hidden.bias,[-0.54594773  0.59247226  0.10916235]
sub_nn_198.out.weight,[[-0.1638653  -0.45326468  0.16316071]]
sub_nn_198.out.bias,[-0.3722004]
sub_nn_199.hidden.weight,[[ 0.3856288   0.19425383] [ 0.06475936 -0.04496607] [ 0.23810792  1.4060289 ]]
sub_nn_199.hidden.bias,[-0.15050161 -0.6513853  -0.57073575]
sub_nn_199.out.weight,[[-0.15140271 -0.7256943   0.9403927 ]]
sub_nn_199.out.bias,[0.17343396]
sub_nn_200.hidden.weight,[[-0.13606152  0.3069847 ] [-0.21052784 -1.9153128 ] [ 0.0296935   0.65750855]]
sub_nn_200.hidden.bias,[-0.38711482  0.48234785 -0.5292253 ]
sub_nn_200.out.weight,[[-0.34779665 -0.989166    0.3076365 ]]
sub_nn_200.out.bias,[0.32536286]
sub_nn_201.hidden.weight,[[ 0.7646166  -1.2570924 ] [ 0.47930235  0.24858621] [-0.28112358  0.08581019]]
sub_nn_201.hidden.bias,[ 0.05846842 -0.116051   -0.3288239 ]
sub_nn_201.out.weight,[[-0.97395456 -0.30110478 -0.54578406]]
sub_nn_201.out.bias,[-0.21664977]
sub_nn_202.hidden.weight,[[-0.2684371  -1.0142539 ] [ 0.18163417 -0.11061464] [-0.33487952 -0.4895623 ]]
sub_nn_202.hidden.bias,[ 0.4221024  -0.5633193  -0.32127514]
sub_nn_202.out.weight,[[0.7776745 0.5862114 1.393251 ]]
sub_nn_202.out.bias,[0.09333146]
sub_nn_203.hidden.weight,[[ 0.76158196 -0.49149925] [-0.92897564 -0.3160056 ] [-0.8256591  -0.2194096 ]]
sub_nn_203.hidden.bias,[-0.3229119  -0.00457489  0.25461024]
sub_nn_203.out.weight,[[-0.14311472 -1.2333943  -0.6650651 ]]
sub_nn_203.out.bias,[-0.43123582]
sub_nn_204.hidden.weight,[[-0.09862871 -0.3289727 ] [-0.8100069   0.219398  ] [-0.3338315  -0.14305604]]
sub_nn_204.hidden.bias,[-0.19025064 -0.43664342  0.19065847]
sub_nn_204.out.weight,[[ 0.9976406  -0.5930755  -0.20740712]]
sub_nn_204.out.bias,[-0.07831821]
sub_nn_205.hidden.weight,[[ 0.11026137 -0.4968276 ] [-0.27673793  0.1963141 ] [-0.41789767 -0.7340782 ]]
sub_nn_205.hidden.bias,[-0.69088745  0.34498423 -0.36803436]
sub_nn_205.out.weight,[[-0.09745982 -0.9937865  -0.12445211]]
sub_nn_205.out.bias,[0.32228416]
sub_nn_206.hidden.weight,[[-0.3239228   0.2707217 ] [-0.27934936  0.7495957 ] [-0.39314398 -0.3655862 ]]
sub_nn_206.hidden.bias,[-0.6508545   0.02309875  0.5565481 ]
sub_nn_206.out.weight,[[ 0.5851955  -0.6615973   0.94425243]]
sub_nn_206.out.bias,[-0.37337402]
sub_nn_207.hidden.weight,[[-0.34489205 -0.9289866 ] [ 0.45683005 -1.0374635 ] [ 1.3683846  -0.5261315 ]]
sub_nn_207.hidden.bias,[ 0.54347926 -0.14105214  0.18117124]
sub_nn_207.out.weight,[[ 0.73413897  0.17002071 -0.44789478]]
sub_nn_207.out.bias,[0.36191922]
sub_nn_208.hidden.weight,[[ 0.3359622   0.32178113] [ 0.7449725  -0.70540965] [ 0.1158536   0.19723292]]
sub_nn_208.hidden.bias,[-0.18474601 -0.4571419  -0.33569786]
sub_nn_208.out.weight,[[-0.8475062   0.4789315   0.46413562]]
sub_nn_208.out.bias,[0.10024124]
sub_nn_209.hidden.weight,[[-0.2645794  -1.0870436 ] [ 0.17672676  0.8541278 ] [ 1.0214409  -1.0747979 ]]
sub_nn_209.hidden.bias,[-0.6374426  -0.6384286   0.27285218]
sub_nn_209.out.weight,[[ 0.13000974 -0.11934751  0.14646861]]
sub_nn_209.out.bias,[0.32731754]
sub_nn_210.hidden.weight,[[-0.04863952 -0.15507248] [-0.3520649   0.6026744 ] [-0.9401152   0.1922724 ]]
sub_nn_210.hidden.bias,[-0.5618862   0.24183346 -0.1373442 ]
sub_nn_210.out.weight,[[-0.33447173 -0.9715851  -0.05523513]]
sub_nn_210.out.bias,[-0.27847862]
sub_nn_211.hidden.weight,[[ 0.03816741  0.19368745] [-0.77953845 -0.21193704] [ 0.7181572  -0.2592009 ]]
sub_nn_211.hidden.bias,[ 0.3308373   0.29529148 -0.17019366]
sub_nn_211.out.weight,[[-1.1976476  -0.08596984  0.03450526]]
sub_nn_211.out.bias,[0.27714658]
sub_nn_212.hidden.weight,[[-1.29074     0.99546355] [-0.36179826  0.37388825] [-0.39433604  0.43172574]]
sub_nn_212.hidden.bias,[ 0.5882279  -0.68831974  0.3692058 ]
sub_nn_212.out.weight,[[ 0.12255576 -0.89625144 -1.2995338 ]]
sub_nn_212.out.bias,[0.1779536]
sub_nn_213.hidden.weight,[[ 0.21879251 -0.512988  ] [-0.2484216  -0.10397599] [-0.26984492 -0.06809349]]
sub_nn_213.hidden.bias,[ 0.30423617 -0.38498026  0.07089395]
sub_nn_213.out.weight,[[ 0.29990116  0.14158535 -0.6542744 ]]
sub_nn_213.out.bias,[-0.14950871]
sub_nn_214.hidden.weight,[[ 0.8375318  -0.63303286] [ 0.00965877 -0.17949401] [-0.33410245  0.2622968 ]]
sub_nn_214.hidden.bias,[ 0.5510281  -0.41125444  0.6735607 ]
sub_nn_214.out.weight,[[-0.11326341  0.14159714  0.45555192]]
sub_nn_214.out.bias,[0.5409217]
sub_nn_215.hidden.weight,[[ 0.86767304  0.10159909] [-0.77977127 -1.0892397 ] [-0.42437017  0.5238619 ]]
sub_nn_215.hidden.bias,[ 0.6701345 -0.5971279  0.5060322]
sub_nn_215.out.weight,[[ 0.85096234 -0.21353118  0.2885051 ]]
sub_nn_215.out.bias,[0.0227254]
sub_nn_216.hidden.weight,[[-0.05549306  0.59732896] [-0.8985945   0.17623252] [ 0.0713004   0.9120252 ]]
sub_nn_216.hidden.bias,[ 0.6339338  -0.03468128  0.4013433 ]
sub_nn_216.out.weight,[[ 1.0036958   0.66350436 -0.33420083]]
sub_nn_216.out.bias,[-0.0157932]
sub_nn_217.hidden.weight,[[ 0.46272752 -1.2081778 ] [-0.8949874  -0.12309375] [-0.19088775  0.5985061 ]]
sub_nn_217.hidden.bias,[ 0.2084604  -0.3552696  -0.61964834]
sub_nn_217.out.weight,[[ 0.6408564  0.692944  -0.8778296]]
sub_nn_217.out.bias,[0.18181169]
sub_nn_218.hidden.weight,[[ 0.02654406 -0.28589585] [ 1.0193008  -0.1456287 ] [-1.8119248  -0.23768276]]
sub_nn_218.hidden.bias,[-0.23781429 -0.1448021   0.52794254]
sub_nn_218.out.weight,[[-0.8080118 -0.6248048 -0.2875564]]
sub_nn_218.out.bias,[-0.5762482]
sub_nn_219.hidden.weight,[[-1.2752185   0.17955928] [ 0.05331778 -0.6593838 ] [-0.12517251 -0.383298  ]]
sub_nn_219.hidden.bias,[-0.70574975 -0.5637703   0.11568043]
sub_nn_219.out.weight,[[ 0.8238381   0.20800684 -0.38739064]]
sub_nn_219.out.bias,[-0.08547887]
sub_nn_220.hidden.weight,[[-0.93798566  0.53428805] [ 0.27666783 -0.4984017 ] [ 0.8983163  -0.4064579 ]]
sub_nn_220.hidden.bias,[0.23230429 0.02248968 0.65831894]
sub_nn_220.out.weight,[[ 0.70804095 -0.4606338   0.30358365]]
sub_nn_220.out.bias,[0.1615575]
sub_nn_221.hidden.weight,[[ 0.6417501  -0.03506763] [-0.4288189   0.0742507 ] [-0.4776618   0.3151707 ]]
sub_nn_221.hidden.bias,[-0.5506614  -0.4718085   0.23241003]
sub_nn_221.out.weight,[[ 0.38591954 -0.06999999 -0.7662409 ]]
sub_nn_221.out.bias,[-0.19225892]
sub_nn_222.hidden.weight,[[-0.42951816 -0.40157017] [ 0.652929   -0.02088609] [ 0.06230589 -0.03484088]]
sub_nn_222.hidden.bias,[ 0.03076402 -0.3107897   0.00746753]
sub_nn_222.out.weight,[[-0.47425416  1.5857562  -0.5961918 ]]
sub_nn_222.out.bias,[-0.25738066]
sub_nn_223.hidden.weight,[[0.89611936 0.50356346] [0.5478378  1.1246941 ] [0.2332228  0.81165725]]
sub_nn_223.hidden.bias,[-0.18573877 -0.2242907  -0.22618815]
sub_nn_223.out.weight,[[-0.21277982  0.16963181  0.27224013]]
sub_nn_223.out.bias,[0.5012113]
sub_nn_224.hidden.weight,[[ 0.95847255  0.5159153 ] [-0.8055299   1.1671053 ] [ 1.6340123   1.3527633 ]]
sub_nn_224.hidden.bias,[-0.59155774 -0.6614818   0.32553858]
sub_nn_224.out.weight,[[0.09503497 0.82367736 0.00580717]]
sub_nn_224.out.bias,[0.51613915]
sub_nn_225.hidden.weight,[[-0.00662125  2.560404  ] [ 0.56590897  0.6554584 ] [ 1.0818667   0.18584359]]
sub_nn_225.hidden.bias,[0.13102296 0.46062332 0.45392734]
sub_nn_225.out.weight,[[-0.5399785  -0.05676643 -0.27092823]]
sub_nn_225.out.bias,[-0.08752739]
sub_nn_226.hidden.weight,[[ 0.11388963 -0.13073704] [-0.13418064  0.1878358 ] [ 0.19409423 -1.1840718 ]]
sub_nn_226.hidden.bias,[-0.14940722 -0.37374246 -0.30362588]
sub_nn_226.out.weight,[[ 0.746853   -0.65998495 -0.70434767]]
sub_nn_226.out.bias,[-0.20493498]
sub_nn_227.hidden.weight,[[-0.6232868   0.08856167] [-0.57636636  0.37308612] [-0.29435226 -0.23777956]]
sub_nn_227.hidden.bias,[-0.2130031  -0.44620034 -0.3852211 ]
sub_nn_227.out.weight,[[ 0.07066604  0.8731042  -0.00097309]]
sub_nn_227.out.bias,[0.37667078]
sub_nn_228.hidden.weight,[[-0.16097705  0.9643053 ] [-0.44548783  1.3601615 ] [ 0.8177458   0.2954624 ]]
sub_nn_228.hidden.bias,[-0.6738463 -0.2691446  0.5043343]
sub_nn_228.out.weight,[[ 1.4423255  -1.2132882  -0.15283611]]
sub_nn_228.out.bias,[-0.47536385]
sub_nn_229.hidden.weight,[[-0.20834164 -0.05508111] [ 0.36238226  0.4777961 ] [-0.9380891  -1.3814667 ]]
sub_nn_229.hidden.bias,[ 0.48586306 -0.2365255  -0.36656404]
sub_nn_229.out.weight,[[ 0.07708533 -0.9637354   0.2818615 ]]
sub_nn_229.out.bias,[0.3318923]
sub_nn_230.hidden.weight,[[-0.31173605 -0.02352994] [-0.54628694  1.2422848 ] [-0.30601618  0.70969397]]
sub_nn_230.hidden.bias,[ 0.51604414  0.6777036  -0.32847768]
sub_nn_230.out.weight,[[-0.27413347 -0.5257619  -0.2499565 ]]
sub_nn_230.out.bias,[-0.44098008]
sub_nn_231.hidden.weight,[[-1.0292758e+00 -6.8482122e-04] [-3.3543429e-01  4.2159379e-01] [ 8.5963911e-01 -4.1626588e-01]]
sub_nn_231.hidden.bias,[-0.47401834  0.48032585 -0.34162349]
sub_nn_231.out.weight,[[-0.89250547 -0.77268475  0.19545059]]
sub_nn_231.out.bias,[0.1392594]
sub_nn_232.hidden.weight,[[ 0.08337573 -0.772637  ] [ 1.0432191   0.22180665] [-0.8307409  -0.4740536 ]]
sub_nn_232.hidden.bias,[ 0.5304294   0.5737156  -0.08502358]
sub_nn_232.out.weight,[[-0.30515417  0.4321241   0.86717343]]
sub_nn_232.out.bias,[0.27228612]
sub_nn_233.hidden.weight,[[-0.6172532  -0.20969161] [-0.7691628  -0.04721897] [-0.86375475 -0.03094573]]
sub_nn_233.hidden.bias,[ 0.08962511 -0.44051987  0.21302298]
sub_nn_233.out.weight,[[-0.70868313 -0.8291808   0.199857  ]]
sub_nn_233.out.bias,[-0.28472516]
sub_nn_234.hidden.weight,[[-0.04186771 -1.5709842 ] [-0.7873555  -0.36378282] [-1.2207808   0.567279  ]]
sub_nn_234.hidden.bias,[-0.58167875 -0.43189678  0.6824862 ]
sub_nn_234.out.weight,[[ 0.60133356  0.5110321  -0.14782023]]
sub_nn_234.out.bias,[0.08386433]
sub_nn_235.hidden.weight,[[-0.7261411  -0.23296009] [ 0.1734062   0.05499923] [-0.99698484 -0.04587298]]
sub_nn_235.hidden.bias,[-0.31872398  0.07396352 -0.4654693 ]
sub_nn_235.out.weight,[[-0.79462314  0.00699363  0.21213849]]
sub_nn_235.out.bias,[-0.25694072]
sub_nn_236.hidden.weight,[[ 0.60519046 -0.81430405] [ 1.3150387   0.37952206] [-1.111848    0.56487024]]
sub_nn_236.hidden.bias,[ 0.05217192 -0.6075029   0.42156518]
sub_nn_236.out.weight,[[-0.00539005 -0.12143336 -0.2042935 ]]
sub_nn_236.out.bias,[-0.2730499]
sub_nn_237.hidden.weight,[[-0.46130815 -0.3225672 ] [ 0.14781289  0.20785655] [ 0.14724651  0.58014405]]
sub_nn_237.hidden.bias,[0.18165107 0.34549803 0.6871974 ]
sub_nn_237.out.weight,[[-0.5473867   0.36109287  0.75434935]]
sub_nn_237.out.bias,[0.20857972]
sub_nn_238.hidden.weight,[[ 0.2551596  -0.32476163] [-0.28498557 -1.0706468 ] [-1.3248993   0.740273  ]]
