w,[0.04505906 0.8101572  0.09595139 0.24453962 0.4481895  0.06213668 0.07245298]
hidden1.weight,[[-0.0798979   0.0059298  -0.02442202 ...  0.0115238  -0.02224846  -0.01498126] [-0.0484786   0.05980013  0.04920548 ...  0.04588515 -0.02574493  -0.01828856] [-0.00258991 -0.04675571 -0.0192406  ... -0.00958704 -0.02368637   0.00209253] ... [ 0.01745524  0.0084819   0.09723664 ... -0.02535225 -0.03003664   0.03047212] [ 0.05211827  0.04138983  0.0575968  ...  0.02421496  0.07303943  -0.16207404] [-0.06462075  0.07280324 -0.02077635 ... -0.00583337 -0.01064016  -0.10088026]]
hidden1.bias,[-2.68494599e-02 -8.79592844e-04 -6.46037888e-03 -1.81977749e-02  4.45320494e-02 -1.42586697e-02  5.17439060e-02 -4.87400182e-02  1.33663276e-02 -1.11665102e-02 -4.19293903e-02 -7.46374670e-03  4.65104952e-02  3.73188220e-02 -1.77117549e-02  5.25199249e-02  2.74209511e-02  4.02871147e-03 -2.49151550e-02 -1.06770247e-02 -4.89964299e-02 -4.93910313e-02 -4.32487465e-02  3.94124575e-02 -2.07412057e-02 -4.64440100e-02  1.38776582e-02  8.41084961e-03 -3.70146707e-02  2.50311960e-02 -1.13953650e-02 -4.71851369e-03 -9.83385555e-03  5.24078980e-02 -5.02348691e-02  4.10384350e-02  3.55222225e-02  2.29148678e-02 -3.59491073e-02 -3.61941494e-02 -1.97884124e-02  9.30714794e-03  9.72685288e-04 -1.11473408e-02 -1.53893409e-02 -4.49953005e-02  2.33034920e-02  4.71126428e-03 -4.65023555e-02 -3.85593809e-02  1.89287737e-02  5.34085594e-02 -9.37072095e-03 -3.44844274e-02  5.11646643e-03  4.85262126e-02  4.74142954e-02  2.28997078e-02 -7.50510953e-03  2.71864422e-02 -1.31404225e-03  1.29255711e-03 -1.35321757e-02 -4.18506041e-02 -4.64281701e-02  9.81838908e-03  5.63988090e-02 -1.50922267e-03 -6.07624650e-03 -5.15083782e-02  4.25462350e-02  2.38886084e-02  3.46805144e-04  2.10695770e-02  2.07993723e-02 -1.17810480e-02 -2.34559365e-02 -2.81910785e-02 -3.84308584e-02  3.18007916e-02 -2.83323750e-02  5.27654588e-02 -1.67394876e-02  4.04883884e-02 -4.06174138e-02 -2.12451834e-02 -4.48103659e-02  3.15140001e-02 -4.12948653e-02 -4.58450280e-02  3.44498716e-02 -1.10387970e-02  2.66502574e-02  1.65429339e-02 -1.15201725e-02 -3.37504409e-02  1.24408202e-02 -5.27051883e-03 -4.43175808e-02  3.57696824e-02  2.03499049e-02 -1.13257580e-02 -5.43293692e-02 -2.66203545e-02 -4.93829697e-02 -4.99356836e-02 -3.17858458e-02 -5.76872677e-02 -2.17050947e-02 -1.10473456e-02  3.02717648e-02 -2.23743659e-03  4.83323298e-02 -4.14918251e-02  1.22873504e-02 -1.84275657e-02 -4.30106837e-03  3.72638367e-02 -3.27670798e-02 -1.68741029e-02  4.28190827e-02 -4.39710217e-03  2.71682255e-02  2.38244496e-02 -2.05948893e-02  8.57832003e-03  2.45243665e-02  1.20900404e-02  1.44532202e-02  6.80838991e-03 -7.14485813e-03 -2.09648572e-02  2.45430991e-02 -8.78617540e-03 -6.55973516e-03 -3.83819416e-02 -2.49781851e-02 -4.64389957e-02 -1.61834918e-02 -4.32284921e-02 -4.92538325e-02  6.45010779e-03  2.24890262e-02  1.32845193e-02 -4.36531715e-02  2.66311653e-02  3.36612090e-02  1.13615748e-02  1.48143172e-02 -4.02987264e-02  6.31367741e-03 -3.03850789e-02  3.56031582e-02 -4.23557013e-02  1.70097258e-02  1.80365071e-02  1.51278470e-02  3.09451409e-02  5.15898177e-03 -3.65315005e-02  3.05454858e-04 -3.65501642e-02  2.13053841e-02  8.85692891e-03  1.55230062e-02  4.00647484e-02 -4.66022007e-02  3.62318493e-02 -4.05272953e-02  1.03990091e-02 -4.40422408e-02 -1.45901088e-02  3.24307904e-02  2.91352570e-02  1.64885297e-02  6.26986031e-04  3.42584327e-02 -2.97299419e-02 -4.55370024e-02  4.23573740e-02  4.28364426e-02  1.10378815e-02  1.82784703e-02 -1.32870683e-02  2.35212427e-02 -2.89229602e-02  3.67468409e-03 -5.35345040e-02  2.81835720e-02 -3.99766713e-02  5.27147353e-02 -6.93529658e-03  5.09960912e-02  6.41913991e-03  3.03003863e-02  6.57354030e-05  2.46094801e-02  3.71383168e-02  5.06439582e-02 -3.96738350e-02 -3.59110311e-02  1.22188451e-02  5.69450855e-02 -3.56937200e-02 -8.29107501e-03  4.15442586e-02  4.45226729e-02  2.27642972e-02  5.02159446e-02  1.73192453e-02  1.45838903e-02  4.54916805e-02 -5.21011762e-02  5.04575036e-02 -5.21054715e-02 -4.22499888e-02  2.77125854e-02  4.84510548e-02 -1.23248547e-02 -4.85823527e-02 -5.09406589e-02 -1.26202088e-02  1.40352724e-02  5.26422355e-03 -4.44860272e-02 -3.40166017e-02 -5.34597635e-02 -3.77138369e-02 -3.77711374e-04  4.44191284e-02 -1.60744898e-02  3.70423198e-02 -1.63444560e-02 -4.40794392e-04 -8.20447132e-03  2.29536183e-02 -5.12781180e-02  4.42516431e-02  1.61265992e-02  1.18564572e-02  1.34673854e-02 -2.11827066e-02 -1.32533005e-02  2.93721817e-02 -4.20269854e-02 -2.00832579e-02  3.24991085e-02 -4.32856102e-03  3.54583114e-02  1.31036155e-02  4.58578914e-02 -5.68374135e-02  3.10671865e-03 -5.20263053e-02  1.69999490e-03  2.54985802e-02  2.87429709e-02 -4.96870726e-02  6.00538589e-03 -1.47119910e-02  4.97986563e-02 -1.59196407e-02 -2.37553585e-02 -2.43195402e-03 -5.44771962e-02 -3.76426168e-02 -2.37234458e-02  2.56790929e-02  4.63510258e-03 -1.54802743e-02  2.39965115e-02  1.11361407e-03  2.31752638e-02  3.46808992e-02  4.43135872e-02  1.35327717e-02  1.25626735e-02  1.18958177e-02  1.52372746e-02 -3.88442399e-03  3.04421522e-02  3.26464027e-02  2.10649688e-02 -1.77656543e-02 -3.74513082e-02  4.69992906e-02 -9.24623944e-03  1.17953308e-03  3.84100564e-02 -5.19120991e-02 -3.85780782e-02  4.74999733e-02 -7.08305219e-04  4.27081808e-02 -4.93244156e-02  3.79590392e-02  5.45961857e-02  5.26508763e-02 -2.95065809e-02 -5.64167611e-02  6.18953304e-03  1.08126362e-04  2.30830405e-02  2.35521365e-02 -1.86901893e-02  2.21827906e-02 -1.55414334e-02  1.44187612e-02  5.57447672e-02  1.49520282e-02  2.72674654e-02 -4.86983433e-02 -1.66611541e-02  5.25223352e-02 -3.22703272e-02 -5.41835912e-02 -3.70883718e-02 -5.49055152e-02 -4.58687432e-02  4.35399488e-02  4.76291105e-02  4.54404242e-02  1.29487403e-02  3.38930525e-02 -1.83774822e-03 -4.99030761e-02  3.38980276e-03  4.51615192e-02 -2.94839367e-02  1.02476599e-02 -3.78928147e-02  3.52395289e-02 -3.81276608e-02  2.33800448e-02 -3.69315557e-02  7.61669734e-03 -7.26132467e-03 -3.03843245e-02 -5.09339795e-02 -1.20614255e-02 -1.44911855e-02 -4.29106429e-02  3.87836210e-02  4.32627797e-02 -3.03543322e-02  4.79895994e-02  5.62610524e-03 -2.11629961e-02  3.02452426e-02  1.22865150e-02  2.12153941e-02  1.87805034e-02  5.11987805e-02  7.48645607e-03  1.42525975e-02  3.28669921e-02  5.03698848e-02  4.11947668e-02  4.86680344e-02 -3.34463939e-02  4.53316420e-02 -3.55091020e-02  2.87076607e-02  3.23200189e-02  3.27389836e-02  1.10208383e-02  4.84886467e-02 -2.65696291e-02 -2.04341915e-02  6.04737876e-03 -3.52014527e-02 -4.06610034e-02  5.27752899e-02  3.41590792e-02  6.39641983e-03  2.38596313e-02  3.79992835e-02  8.54062848e-03 -4.43258025e-02  3.41509990e-02 -4.55886982e-02  4.55508083e-02  2.78982874e-02 -1.60046555e-02 -1.86364520e-02 -6.11060625e-03 -2.31430735e-02  2.78840773e-02  3.73352580e-02  5.04794642e-02  1.37742208e-02 -1.62736811e-02 -2.91503705e-02  3.00828367e-02 -3.32766809e-02 -3.44670638e-02 -1.02290167e-02 -3.13012139e-03  4.08265032e-02  9.82979499e-03]
hidden2.weight,[[ 0.06454556 -0.0641593   0.02508175 ... -0.01440349 -0.14134203  -0.04372479] [-0.00438258  0.02784109 -0.05308858 ... -0.1260651   0.05878655  -0.04742654] [-0.05201981  0.08959987  0.00449767 ...  0.05817755 -0.0295493  -0.11961739] ... [ 0.02517779  0.04186449  0.08098568 ... -0.09052819 -0.06312286  -0.05949003] [-0.00188387  0.00758508  0.00042601 ...  0.02492842  0.01994421   0.02725102] [-0.00139121 -0.00261184 -0.06084387 ...  0.03189689  0.01495666   0.01084916]]
hidden2.bias,[-0.01854392 -0.06960866  0.00918984 -0.0207005  -0.01925288 -0.02083555  0.01510475 -0.0448668   0.04245891  0.03344827  0.02355788  0.00893428  0.05534268 -0.05551225  0.04294566  0.01623652 -0.02535316  0.01676672 -0.04635338  0.04701496  0.00469832 -0.03131266 -0.041963   -0.00699698 -0.03662364 -0.02928084  0.04631193 -0.0145583  -0.02348988 -0.02498737  0.02447099  0.03470181 -0.00896793  0.06230778 -0.04397314 -0.01803036 -0.0153997   0.03930841 -0.01879796  0.00360299]
out.weight,[[-0.36003798 -0.09852963 -0.01712146 -0.09423766  0.17997141 -0.13531795  -0.16960214  0.16486284 -0.2270058   0.1687761  -0.01694974  0.24734563  -0.08261672 -0.3020599  -0.2192196   0.08600314  0.0835454  -0.01035369  -0.00139256  0.00493001  0.32920167 -0.0569274  -0.02090988 -0.36557448  -0.14679971 -0.25338197  0.5255751   0.04044307  0.09844429  0.09633303  -0.00502114 -0.29531842 -0.07186272 -0.04470509 -0.01172845  0.20456803   0.11371402  0.05414096  0.4441098   0.25597858] [-0.12689236 -0.17877647 -0.03906718  0.16752714 -0.31303504 -0.06913567   0.01456093 -0.03748945 -0.1815187  -0.1504096  -0.35523018 -0.11127445   0.00819883  0.22061364 -0.14355695  0.03858905 -0.0199307  -0.03918953  -0.01748522  0.0043545  -0.00375135 -0.14690846  0.11934182  0.3312258  -0.02166403  0.02234231 -0.07208806 -0.14857285 -0.18556418 -0.40719652  -0.00239834 -0.04914946  0.07806365  0.26611954 -0.12842834 -0.0407221  -0.11162501  0.11113087  0.01316609 -0.12312403] [-0.0356342  -0.04507151 -0.24520001  0.16538103 -0.6357847   0.0419388   0.2158387   0.32196522 -0.19928165  0.37085503  0.11262225 -0.23254688  -0.02237852 -0.27971324 -0.252128    0.28408307 -0.02402848  0.18620282   0.10057718  0.13478781 -0.16059095 -0.14770447  0.22705236  0.02255559   0.04047481 -0.05229228  0.05142476  0.00248361  0.2630788  -0.04745073   0.12661041 -0.07531939  0.00936613 -0.46176082  0.08268683  0.5467599  -0.04585602 -0.26813126  0.02189665 -0.07223021] [-0.03602876 -0.10075341  0.17785154 -0.25622496 -0.06804872 -0.16095188  -0.14260595  0.06244137  0.0723506   0.12440719 -0.13343863  0.18842869   0.15637647 -0.17519142  0.05332041  0.27466658 -0.17731851  0.05516902  -0.39539704  0.03084867  0.09424866 -0.14046115  0.35007408 -0.15878   0.19913274  0.01537613 -0.11034544  0.15002313  0.05115704  0.01020312   0.2936677  -0.14883044  0.06952365 -0.11602282  0.21860988  0.14253794   0.04126094  0.21860681 -0.18060088  0.06092271] [ 0.05776121 -0.19964762 -0.31430393  0.15462658  0.03098533  0.318145   0.08819287 -0.04049067  0.07157488 -0.15852104  0.20823775  0.42975825   0.09592188 -0.04884334 -0.06112036 -0.19553825  0.0051852   0.21791045   0.02910703 -0.0536841  -0.05118946 -0.30006325 -0.17210668 -0.25826618  -0.10826433  0.08411369  0.40132493 -0.13050887  0.35772565  0.03618312   0.03026716  0.06522517  0.09270715  0.36779675 -0.3647929   0.03384925   0.12428059 -0.1733616   0.2026348   0.05170102] [-0.34328717  0.17660052  0.00978162  0.5085604   0.11329883  0.00975599  -0.20894995 -0.40609947  0.12356073  0.27490056  0.19435067  0.38545895   0.19980228 -0.30041784 -0.1946732  -0.13151811 -0.07920177 -0.25945213  -0.01634387 -0.1215106  -0.12458044  0.23282534  0.18978341  0.08208945  -0.1060148  -0.21883333  0.15089571  0.0100277   0.13471872  0.19778103   0.05416247  0.2015698  -0.11603934 -0.14587978 -0.07542238 -0.20549956  -0.13478646  0.16846076  0.12731467 -0.33586055] [-0.00107899 -0.2523931  -0.47187817  0.16275786 -0.04573828  0.32855374  -0.06514362  0.05267707 -0.1680917   0.06236197 -0.06317775  0.0421161  -0.22378144 -0.19566599  0.08838221 -0.05317669  0.09548191 -0.12764736  -0.06350762  0.11042697 -0.07646555 -0.31089127  0.2870431   0.20470932   0.12139362 -0.38974008 -0.0505499   0.02781671  0.21103594  0.2376258  -0.00694975 -0.29682803 -0.25778365  0.17783107  0.03475398  0.21909185  -0.00230096  0.01211421  0.28526163  0.28773183]]
out.bias,[ 0.02036827  0.01031817  0.00228776 -0.0084162   0.18731037  0.07364465  0.16210368]
bn0.weight,[1.0009413  0.9957346  0.99579406 1.0009199  0.99442625 0.9976307 0.9977794  0.99833775 1.0007732  1.0006676  0.9985495  0.99707925 1.0000019  0.9988236  0.9992334  0.9999132  0.99759144 1.0017369 0.99803203 0.9991033  0.99986076 1.0003182  1.0007343  1.0025418 1.0001124  0.9986328  1.0000184  0.9957161  1.001204   0.9976576 0.9989882  0.998821   0.998428   1.0003847  1.0008115  0.99836373 0.9976105  1.0037754  0.9986119  0.9999035  0.9975188  1.0010029 1.0000159  0.9979605  1.0054961  0.9995353  0.9973642  0.99927765 1.0031837  0.99695385 0.9996081  1.0017352  0.99684846 0.99766433 1.0041198  0.9953318  1.0005137  0.9964821  0.99934536 1.0025153 0.9967375  0.9974211  0.99969214 0.99235    1.0025645  0.9988219 1.0006622  0.99944    1.0013957  0.9994696  0.9997926  1.0036933 0.99972266 0.9995546  0.9970246  0.9993016  1.0010072  1.001815 1.0002232  0.9947832  1.0026013  0.99836636 0.997275   0.99512833 1.0010148  0.99351436 0.9977168  1.0009228  0.9996162  1.000064 0.9963234  1.0007547  0.9985852  0.99987787 1.0000961  0.99912024 1.0004874  0.9980872  0.99381936 0.9973873  1.0022687  0.997227 1.0000452  1.0000777  0.9973232  0.999329   1.0008724  0.9977278 1.0002815  1.0016814  0.99909663 0.9980254  1.0005853  1.0041147 0.9999427  1.0007824  0.9966736  0.9992433  0.99537325 0.99850816 1.0063579  1.0009702  0.9958795  0.9990912  0.9998047  0.9998001 0.99881494 0.99864006 1.0001041  0.99631333 1.0041531  0.9999213 1.0016073  0.99776495 0.9977083  0.99982333 0.99837476 0.99708974 0.99919176 0.99544483 1.0002557  0.99881387 0.9985914  0.9967141 0.9980598  0.999595   1.0023732  0.9987098  1.0003401  0.9968663 0.99728847 0.9979486  0.9975897  0.9962638  0.9980893  1.0015154 0.9990647  0.99795437 0.99412405 0.9966569  0.9995067  0.9986125 0.9982134  0.998711   1.0002075  0.9948699  0.9972938  1.0029213 0.999598   1.0016224  0.9987596  0.9999091  1.0036043  0.99655354 0.9959579  1.0009699  0.9960931  0.999491   1.005955   1.0025252 1.0040463  0.99818355 0.9975752  0.9980026  0.9977793  0.99696654 0.9982421  0.99801075 0.9981542  0.995339   1.001604   0.9995949 0.9988569  0.996981   0.9980867  0.99834865 0.99542356 1.0032136 0.99630237 1.0001054  0.99819887 0.9993322  0.99755377 0.9978965 0.99950653 0.9991208  0.99751824 0.99848634 1.0032415  0.9984518 1.0035117  0.9991516  0.99877554 0.9982601  1.0020086  0.9984903 1.0045543  1.0010014  0.99983764 1.0014209  0.9936524  0.99934995 0.9986342  0.9957541  0.9990849  0.99690175 0.9960039  0.9997592 1.0018836  0.9975352  0.9990682  0.9951243  0.9981649  0.9963731 0.9983567  1.0007346  0.9961819  0.99716955 0.99926454 0.996528 1.0010434  0.9988657  1.002707   1.0023723  0.9987265  1.0002499 1.0044159  0.99666476 1.001449   0.997984   0.99890584 0.9994412 0.9978395  0.9995944  1.0011307  1.0000589  0.9962745  0.9991759 0.99642473 0.99767035 1.0001907  1.0017118  0.99838036 0.9986754 1.0003276  0.99922746 1.0002525  1.0035394  0.9976852  0.99367744 1.002473   0.99939686 0.9994725  0.9968943  0.9975875  0.99984926 1.0038387  0.99973804 1.0036128  1.0020404  1.000292   0.99830794 1.00374    0.9995553  0.9969702  0.99891716 1.0013044  0.9962344 0.9995918  0.9952638  1.0001171  0.99842465 0.9998397  0.9991087 1.0001316  0.9969184  0.9981848  1.0010031  0.9998377  1.0009066 0.9981576  0.9973856  0.99331653 1.0000772  0.9954141  0.9981556 0.99910384 0.99764955 0.9964291  0.99863005 1.0021939  0.9966968 1.0022824  0.998479   0.99802727 1.0005616  1.0019013  1.0015993 0.9978186  1.0006535  0.99449503 0.9978828  0.9942968  0.9985576 0.99568796 1.0021151  0.99528927 0.99909544 1.0013413  1.0003395 0.99777085 0.9964487  0.99818766 1.0039701  1.0014896  1.0006232 ]
bn0.bias,[-5.0598434e-03  2.4801865e-03  8.7899866e-04  3.2490009e-04 -1.9254931e-03  4.2584556e-04  9.0423033e-05 -2.8424719e-03 -2.5951506e-03  1.7100024e-03 -1.5834887e-03  2.1931194e-03 -6.9922145e-04 -5.3556293e-04 -2.2786094e-03 -5.5233395e-04  2.9545224e-03  7.0585706e-04 -4.9359226e-03 -2.7120772e-03  1.6346482e-03 -1.7031540e-04 -1.2828959e-03  9.6209144e-04  1.9240556e-03 -2.2720909e-03  1.9206688e-03 -2.0667173e-03  1.6843522e-04  6.7997252e-04  1.1957870e-03 -3.8103873e-04 -5.5121407e-03 -1.1608246e-03  6.5503651e-03 -4.7076317e-03 -3.6302793e-03 -1.0581365e-03  2.1162791e-04 -3.6646924e-03 -6.4534810e-03  5.1289285e-03  4.8038975e-04 -4.3003103e-03  5.9009989e-04  3.1867095e-03  1.9602869e-03  2.2388657e-03 -5.8076833e-03  2.0139033e-03 -2.9029747e-04 -9.5304829e-04  7.6971571e-03  1.4386348e-03 -4.0290472e-03  4.6636905e-03 -5.5169095e-03 -2.2218395e-03  2.8393385e-03  1.1002538e-03  2.6888639e-04  1.3247423e-03 -1.2205489e-03  2.2521106e-04 -2.0498699e-03  8.1068015e-04 -1.7081918e-03 -8.1683910e-03 -6.1834737e-04  5.6558293e-03  5.2308179e-03  1.5905758e-03 -1.4997954e-03  1.7256193e-03 -4.0975441e-03  2.5900081e-03 -1.2432468e-03 -2.3215630e-03  1.5058544e-03  3.7220170e-04 -1.0326806e-03 -1.2618373e-03  4.7041518e-03 -2.2556228e-04 -2.9904509e-03 -6.8249559e-04  2.7154780e-03  3.2233601e-03 -1.5933900e-03 -1.1043460e-03 -4.4763498e-03 -1.6209788e-03  1.2929741e-03  1.3129691e-03 -2.1474201e-03 -4.1947281e-03 -3.7585411e-04 -1.1947524e-03  3.0947648e-04  1.3604853e-03 -9.7501936e-05  1.5030120e-03  2.8350642e-03  1.8633776e-03 -1.9024676e-03  4.1450462e-03 -3.8924171e-03  9.4175059e-03 -3.1076991e-03 -3.8305996e-03  3.7097784e-03 -9.0277544e-04 -1.9295323e-03  9.3648810e-04 -4.3509724e-03 -1.9795885e-03 -3.2733640e-04  1.3262621e-04 -1.3181852e-03  3.1751496e-04 -2.0828340e-03 -3.0900510e-03  1.2819405e-03  2.4565095e-03 -4.5188256e-03 -8.8302698e-04 -1.7087307e-03 -1.5143285e-03  3.6371259e-03 -2.6836281e-04 -1.6056210e-03 -3.8326900e-03 -4.2600264e-03  2.3862037e-03 -1.9423377e-03 -4.0860353e-03 -1.0288974e-03 -1.1422471e-03  4.5010648e-03  1.4989403e-03  2.8465791e-03 -9.6132729e-04 -8.5082377e-04 -2.5874926e-03  1.4475817e-03  7.6171523e-04 -3.9792401e-03  1.9068832e-03 -1.2949531e-03  4.2873353e-04  1.1246260e-03  2.4773013e-03  4.7300526e-04 -5.8499598e-03 -1.9562445e-03 -2.6159694e-03 -4.5030112e-03  3.5346576e-03  3.6888556e-03 -4.5863772e-03 -5.0198105e-03 -2.2795222e-04  3.4860934e-03  2.9156562e-03 -1.3565761e-03 -4.4900479e-04  1.1100840e-03  6.9706272e-03 -4.1842242e-03  1.9586969e-03 -2.9797282e-03 -2.2686794e-04 -2.3370900e-03 -2.3513322e-03 -1.3788898e-03 -4.7492801e-04 -1.8226913e-03  8.5738744e-04  5.1069139e-03  5.8197607e-03 -2.9186734e-03  1.1585710e-03 -4.7352887e-03  3.5027117e-03  6.2232901e-04  1.1160601e-03  4.9700206e-03  8.9859718e-04  1.9485627e-03  3.7497727e-03 -7.1184884e-04  5.6789131e-03 -7.7734416e-04 -1.2291903e-03  4.9884518e-04  4.3462124e-03  7.6057232e-04 -4.4106366e-03  4.9479418e-03  1.3017993e-03 -2.3845111e-03 -2.7737275e-03  1.2111623e-03  4.6541630e-03 -1.1163148e-03 -1.0643295e-04 -3.8590045e-03 -2.7438237e-03  4.6878969e-03  1.5127496e-03 -1.2885466e-03  5.2081805e-04  7.6271468e-03 -1.0299503e-03 -9.8685082e-04 -2.9413551e-04  5.5198148e-03  2.3104872e-03 -3.1277062e-03  2.2747573e-03 -5.0206617e-03 -3.2786599e-03 -1.5409215e-03 -1.2811214e-04  2.3624599e-03  1.4186044e-03 -2.4350944e-03 -7.6008346e-03 -4.2154533e-03 -1.4216958e-03 -1.5305196e-03 -1.1626065e-03  1.2658562e-03  1.5790715e-03  3.3463901e-03 -2.4950877e-03 -3.1622802e-03 -1.4717318e-03  1.4444851e-04 -6.1304762e-04  2.2662834e-03  1.1353380e-03 -2.4681271e-03  1.0383375e-03  3.2576572e-03 -3.7113912e-03  7.6865504e-04  5.6581232e-03  1.1120936e-03 -5.2147727e-03  1.6579418e-03 -2.1886595e-03  1.7314679e-03  5.3543359e-04 -2.0456961e-03  4.0034372e-03 -3.6467991e-03  1.2888041e-03 -3.4740898e-03 -1.5106115e-03 -2.0893372e-03  3.1480929e-04  2.6234118e-03 -3.3586146e-03 -9.8920066e-04  2.3700499e-03  6.1904744e-04 -4.9393752e-04 -4.5114147e-04 -2.6108362e-03 -2.5248858e-03 -2.4497246e-03 -2.4655014e-03 -1.1491247e-03 -2.7346320e-04  2.2787352e-03  6.4405828e-04 -4.5567150e-03 -1.1588902e-05 -1.0762980e-03  8.6212094e-05 -2.0884387e-03 -2.6142923e-03  3.4492827e-05 -1.9648969e-03  3.6643383e-03  2.7367012e-03 -1.3875180e-03  3.4488412e-03 -3.9005778e-03 -5.9098459e-04  1.8816012e-03 -1.3679479e-03 -8.0478546e-04  1.2917694e-03  1.3596481e-03  1.4835559e-03 -2.1897699e-03  6.0682823e-03  1.4726972e-03  4.1483496e-03  3.2593547e-03 -3.0763212e-04 -9.4784575e-04  9.6664308e-03 -3.3126001e-03  2.6057980e-03 -2.6972317e-03  1.1730872e-03  3.7604870e-04  3.0565646e-03  4.1512458e-04 -2.6403856e-03 -7.0804486e-04 -1.0491593e-03  4.3853843e-03 -1.1496908e-03 -3.9513575e-04 -1.8940736e-03 -3.7025569e-03 -2.4013345e-03 -3.0263551e-03  3.3434506e-03  2.3960440e-05 -5.1957031e-04  1.1449901e-03  1.0009375e-03 -2.0772289e-03  1.3457421e-03 -5.0914288e-04  3.7949730e-03 -8.3124280e-05 -3.1528820e-04 -6.0935463e-03 -2.4230466e-03 -8.5746706e-04]
bn0.running_mean,[-1.42142105e+02  1.09518288e+02  6.08809998e+02 -1.54247025e+02 -2.94943714e+01  6.15734558e+01 -6.96993332e+01 -7.00732498e+01  9.20948257e+01 -5.73117905e+01 -8.61384794e-02  8.96711960e+01 -3.74479462e+02  2.11794922e+02 -8.34592152e+00  2.55142685e+02 -6.11773148e+01 -1.06995707e+01  5.58288612e+01  1.61288452e+00  5.12903035e-01 -5.05224824e-01  8.04674683e+01  9.98496399e+01 -1.83042583e+01 -2.28912830e+01 -2.08804031e+02  1.42431992e+02 -1.64522076e+01  7.76531448e+01  3.89904541e+02  1.11483688e+02  3.00741367e+01  7.61586279e-02  2.25748024e+01 -6.08680115e+01  3.76924210e+01  8.42914810e+01  4.39607477e+00  5.52517533e-01  2.67334595e+01 -8.13876495e+01 -2.89964581e+01  2.46254135e+02  4.89152565e+01 -1.11416407e+01  7.91937542e+00 -1.23179558e+02  8.34153950e-01  8.09615329e-02  2.40685898e+02 -4.39811821e+01 -7.60380478e+01 -2.14619274e+01 -1.11682220e+02 -2.09635582e+01 -1.04957008e+02  3.72079391e+01 -3.38453084e-01  1.63084912e+00  3.15152740e+00  5.46104698e+01 -1.87900574e+02  5.49360800e+00  1.20032974e+02  1.87587784e+02 -1.74878654e+01  6.42272339e+01 -1.16411646e+03  5.86742737e+02  5.22280931e-01  2.45204735e+01 -2.78604919e+02 -2.82437344e+01  1.39093399e+02 -5.74047709e+00 -4.09561806e+01  1.41303192e+02 -1.54165674e+03  2.63872803e+02 -1.26303108e+02 -1.62314194e+02 -3.91708404e-01  6.81873131e+00 -8.76011124e+01 -6.86685026e-01 -1.92118240e+02  1.72951553e+02  2.87794281e+02 -6.72268753e+01 -1.86541489e+02  2.04392273e+02  1.85176897e+00  2.38562943e+02  4.52001877e+01  2.91205841e+02 -1.14288759e+00  1.70587357e+02 -2.12173035e+02 -2.35150314e+02  2.26779312e+02  3.89155640e+02  1.59572174e+02  8.24344711e+01  4.69083481e+01  1.25516310e-01  1.89274788e+01 -8.51723576e+00  1.01536263e+02  1.25045258e+02  1.00733200e+02 -1.75218552e+02 -9.51992264e+01  1.46429996e+01  8.43541908e+00 -1.42227066e+02 -3.33793235e+00  1.99767181e+02  1.50583847e+02  5.68205070e+00 -4.88312683e+01  1.51460916e-01  1.09118744e+02 -4.07277756e+01  9.69041538e+00 -1.52946671e+02  3.12018524e+02  7.37171326e+01  6.57497025e+00  2.96720333e+01 -3.76254129e+00  1.46403854e+02 -3.22638283e+01  3.06835766e+01 -2.67587509e+01 -1.51086319e+02 -1.26237808e+02  1.76673050e+01 -4.35073107e-01 -7.62297745e+01 -6.65168839e+01 -4.36049004e+01  1.00775841e+02 -4.74121552e+01  6.37710428e+00 -1.19029251e+02  1.92937241e+01  2.73180878e+02 -2.09950314e+01  2.77032828e+00  1.95774803e+01 -1.08918243e+02 -4.76873589e+01 -5.20646513e-01  4.59234142e+00 -2.20184967e+02 -4.45893250e+01 -3.43746758e+01 -1.90509521e+02 -8.16176758e+01 -3.08449954e-01 -1.50714254e+01 -3.75614716e+02 -5.88441420e+00  3.88780564e-01  8.32953358e+00  1.31125555e+01 -4.73023071e+01 -8.69504700e+01 -1.39454880e+02  1.97425095e+02 -8.56068573e+01 -1.57708178e+01 -2.62690563e+01 -7.72407761e+01  1.48062868e+01  1.66697281e+02  3.82595539e-01 -6.58493376e+00 -3.95783966e+02  5.38956976e+00 -3.79101318e+02  2.14138672e+02 -6.77735519e+01  1.03313611e+03  3.57428986e+02  7.10056580e+02 -2.43639983e-02 -3.08645439e+00  3.28341156e+02 -2.50921509e+02 -4.63394806e+02 -3.13222468e-01  1.26398926e+02  1.64017048e+01  2.46417664e+02 -2.43295670e+00  2.48854858e+02 -4.14310074e+01 -4.67124290e+01 -2.19568272e+01 -7.26035461e+01 -6.15844536e+01 -4.85205536e+01  3.29808716e+02  3.05015631e-02  4.60321541e+01 -1.94664948e+02 -6.40073364e+02 -6.83942642e+01  2.46778290e+02  1.84865143e+02  1.13668480e+02  8.70167969e+02  4.41458191e+02 -5.55832565e-01 -7.43398132e+01 -2.13332687e+02  5.01646118e+01  1.57268570e+02  1.15096680e+02 -3.07047539e+01  2.11666336e+01 -2.31151342e-01 -3.21444064e-01  2.95557823e+01  2.37155590e+01  6.54544449e+01  6.27555885e+01  3.61437261e-01  2.31633789e+02 -2.54288055e+02 -3.85446281e+01 -3.97671471e+01  3.32596987e-01  2.39230061e+01  4.13316406e+02  6.58330774e+00  4.37270164e-01 -9.60819721e+00  1.89244762e-01  1.46430862e+02  3.32711983e+01  1.83880005e+01 -1.08377853e+02 -9.54682636e+00  5.32220116e+01 -1.17306602e+02 -4.07663375e-01  2.31223022e+02  2.15676758e+02 -4.07065544e+01 -2.90972382e+02  1.74068497e+02  4.84358788e+01 -5.90957336e+01 -2.96095337e+02  4.37136322e-01 -6.52019501e+01 -1.94458008e-01 -1.90531939e-01  1.34781357e+02  1.90103653e+02 -2.72809353e+01 -1.02098686e+02 -1.66283569e+01 -5.49883270e+00 -2.20704689e+01 -9.85659180e+01  1.17264183e+02  1.64396408e+02  4.77983981e-01  9.48920250e-02 -5.23745422e+01  8.81826172e+01  3.36548271e+01 -6.57296143e+01 -3.07392101e+01  2.55217163e+02  7.53242722e+01  3.44840927e+01 -3.23059738e-01 -1.04974833e+01  7.14301453e+01  5.67430079e-01 -1.62701752e+02  3.21484268e-01 -1.12955330e+02  9.00341263e+01 -8.65174789e+01 -2.20991074e+02 -2.19266541e+02 -2.25418925e-01 -5.60669661e-01  2.16320831e+02  1.12619873e+02 -6.06024971e+01 -6.43138885e+01  1.10388344e+02  3.56590301e-01  2.10112573e+03  9.49405579e+02  7.20317230e+01  3.64254990e+01  1.13987900e+02 -1.79856140e+02 -5.39302101e+01 -1.99530045e+02  8.37983856e+01  4.67086853e+02  7.98430786e+01  1.32047775e+02  4.07413391e+02 -5.67546143e+02  8.36490631e-01  1.50706463e+01  7.69465828e+00 -2.98561230e+01  9.16905925e-02 -1.50074951e+02 -7.25909576e+01 -9.77475357e+01  2.50377686e+02 -5.08225858e-01  3.02150574e+01 -7.28054276e+01  1.06664648e+01  4.81582703e+02 -3.98172766e-01 -4.74649400e-01 -4.03859062e+01 -1.75281265e+02 -5.30557861e+02 -4.49794983e+02 -1.26931429e-01  2.28830904e-01]
bn0.running_var,[3.07023652e+04 1.79623438e+04 5.69390188e+05 3.43133281e+04 1.31421008e+03 5.81225098e+03 7.89592773e+03 7.50591260e+03 1.42036289e+04 5.49053174e+03 6.92266896e-02 1.36046240e+04 2.36116000e+05 7.88013828e+04 1.23797943e+02 1.10015195e+05 6.69740186e+03 1.80058777e+02 3.54901904e+03 2.58347201e+00 3.26449536e-02 1.77012403e-02 7.79668555e+03 1.24719043e+04 4.36454956e+02 3.99822021e+02 4.28325859e+04 2.02032363e+04 2.86820862e+02 5.84691602e+03 1.49914031e+05 1.27046211e+04 1.01941302e+03 1.07533579e+01 5.70979126e+02 4.52396631e+03 1.76946033e+03 8.46649902e+03 2.18840656e+01 1.43860606e-02 8.69493835e+02 8.86714355e+03 1.01355157e+03 1.21958945e+05 4.83020605e+03 2.65072845e+02 1.24457085e+02 2.89754453e+04 1.41121044e+01 7.45691033e-03 1.05457680e+05 3.74235620e+03 1.02365293e+04 1.14186768e+03 2.58485859e+04 8.71075684e+02 2.35276719e+04 2.92637402e+03 5.73039579e-04 4.35444784e+00 2.16008873e+01 6.42418506e+03 7.73817422e+04 7.64637451e+01 3.67203027e+03 2.48171265e+03 2.27889481e+01 3.14876648e+02 1.15593680e+05 3.08695098e+04 1.65074416e-05 5.00230560e+01 5.48443213e+03 1.34653833e+03 1.23049824e+04 5.33447790e+00 1.51217865e+02 1.37663818e+03 1.89327016e+05 6.24461084e+03 1.25116956e+03 3.82920000e+04 2.13225931e-02 7.59613419e+01 1.18354932e+04 1.19651687e+00 5.70212305e+04 4.56265469e+04 1.26111242e+05 7.35266162e+03 5.19091914e+04 6.32855000e+04 8.13926220e+00 2.96027090e+04 3.42872101e+02 6.83970557e+03 1.88513562e-01 2.14141333e+03 3.83266455e+03 4.60437939e+03 4.00336060e+03 2.96431750e+05 5.08589297e+04 1.28465820e+04 4.17439551e+03 6.82020473e-05 6.49724121e+02 2.09567764e+02 2.04278887e+04 3.02052148e+04 1.99105625e+04 6.14634102e+04 1.97565371e+04 3.47114990e+02 1.01200676e+02 4.26968047e+04 2.88457909e+01 8.57955781e+04 4.78655195e+04 6.71285782e+01 5.34433643e+03 4.22705680e-01 2.48361074e+04 3.57804956e+03 2.32100952e+02 5.54335586e+04 2.21856875e+05 1.36529609e+04 1.18970970e+02 1.90174658e+03 1.69361847e+02 4.85872500e+04 2.36182617e+03 2.08206055e+03 1.58220251e+03 5.06805078e+04 3.53883867e+04 5.77683472e+02 9.22320038e-03 1.22961719e+04 1.15235420e+04 4.26231934e+03 2.08957363e+04 4.99700928e+03 1.03591942e+02 2.99545840e+04 6.51992676e+02 1.59824219e+05 9.03032410e+02 1.21071939e+01 1.02043475e+03 2.45463105e+04 2.29827368e+03 3.18394811e-03 2.64232807e+01 7.94736406e+04 3.70252905e+03 1.70977002e+03 5.87892656e+04 1.11855967e+04 4.20226343e-03 3.13850159e+02 2.13288312e+05 4.26756744e+01 5.81128150e-03 5.62606354e+01 1.94287491e+02 3.60575488e+03 1.37859395e+04 3.18095684e+04 6.83843984e+04 1.28235088e+04 4.04434906e+02 1.15922827e+03 1.00396445e+04 3.70810669e+02 4.79179219e+04 1.88678145e-01 2.30733719e+01 1.41520244e+04 1.69955230e+00 1.00517480e+04 3.62965186e+03 3.84140045e+02 9.42845156e+04 1.09780986e+04 4.01286719e+04 5.33753191e-04 9.74048615e+00 5.31494336e+04 1.07744961e+04 1.79590020e+04 1.37205518e-06 1.16918933e+03 2.48400211e+01 5.44429004e+03 3.30859423e-01 1.42756688e+05 4.26085059e+03 5.05471045e+03 1.33760327e+03 1.22154092e+04 9.41334375e+03 5.19851074e+03 2.47452203e+05 6.26489818e-02 4.90410156e+03 4.54844531e+04 1.59334094e+05 6.63276306e+02 4.67195898e+03 2.31751245e+03 9.72194275e+02 6.26348828e+04 1.69929277e+04 1.22342992e-03 4.69561676e+02 3.43949585e+03 5.35023438e+03 5.35699648e+04 2.83754922e+04 1.78762524e+03 8.34525818e+02 4.04435396e-03 1.05387824e-06 1.94963428e+03 1.20071948e+03 8.77052344e+03 8.91410156e+03 2.44458579e-03 1.00693352e+05 1.21071945e+05 3.12320142e+03 3.12960034e+03 1.04750288e-04 8.49064880e+02 3.24726969e+05 1.04066231e+02 3.76450334e-05 1.52267807e+02 7.59967044e-02 3.50752930e+04 1.89848511e+03 5.15520630e+02 1.78431445e+04 1.95170547e+02 3.81897998e+03 1.85252090e+04 1.64111033e-02 7.42731250e+04 6.42725547e+04 2.12469824e+03 1.14283484e+05 4.00905664e+04 3.13647070e+03 4.64229443e+03 1.41517688e+05 3.46396983e-01 7.37722754e+03 8.59349519e-02 5.49019836e-02 3.03462812e+04 6.03754648e+04 1.43744250e+03 1.78145254e+04 6.85851257e+02 8.93697586e+01 9.72501526e+02 1.74339590e+04 2.63892168e+04 5.04627422e+04 7.04089165e-01 4.89773661e-01 5.14374951e+03 1.52578691e+04 2.29487524e+03 9.43278516e+03 1.73960632e+03 1.29829961e+05 1.12560127e+04 1.86303955e+03 3.04519590e-02 2.30267868e+02 1.07686797e+04 4.47404775e-04 5.66635820e+04 8.79555941e-02 2.56123047e+04 1.76540234e+04 1.47754980e+04 1.00415664e+05 9.77832266e+04 1.95924164e-04 9.14284494e-03 7.51815547e+04 6.90515820e+03 6.88643677e+02 3.56562042e+02 8.82815979e+02 9.31469277e-02 3.80887312e+05 7.07148672e+04 1.07449658e+04 1.96031030e+03 2.67491172e+04 6.32782070e+04 6.11133496e+03 8.23983047e+04 1.42604014e+04 4.41408000e+05 1.35370430e+04 4.01555469e+04 3.44330719e+05 6.65355125e+05 9.78589833e-01 4.59478851e+02 9.74019775e+01 1.74834546e+03 1.61094904e-01 4.42095352e+04 1.04249150e+04 1.77399727e+04 1.19550617e+05 1.40176350e-02 1.75394250e+03 5.32643945e+03 1.08918236e+02 2.43923578e+05 1.26721039e-01 4.21264656e-02 1.75826379e+03 3.25584609e+04 2.97223344e+05 2.15623391e+05 6.09429814e-02 1.04509926e+00]
bn0.num_batches_tracked,3000
sub_nn_0.hidden.weight,[[ 0.46990812  0.27119422] [ 0.835378   -0.41498113] [-0.62244874  0.60395926]]
sub_nn_0.hidden.bias,[ 0.677947   -0.58303565  0.35645467]
sub_nn_0.out.weight,[[-0.42655805 -0.39522895 -1.5495483 ]]
sub_nn_0.out.bias,[0.5632049]
sub_nn_1.hidden.weight,[[-0.66088516  0.11813408] [ 0.62994534 -0.22870083] [-0.2279307  -0.0604488 ]]
sub_nn_1.hidden.bias,[-0.1808833  0.5839451 -0.5639072]
sub_nn_1.out.weight,[[-0.29730886  0.6442519  -0.07635517]]
sub_nn_1.out.bias,[0.527302]
sub_nn_2.hidden.weight,[[-0.5990264   0.24147476] [ 0.44368073  1.604409  ] [ 1.0980381   0.192142  ]]
sub_nn_2.hidden.bias,[-0.16679963  0.6711255  -0.6466864 ]
sub_nn_2.out.weight,[[-2.0582387 -0.9985619  2.4844499]]
sub_nn_2.out.bias,[0.21459919]
sub_nn_3.hidden.weight,[[ 0.2928045   0.9356162 ] [ 0.72833484  1.0700715 ] [ 0.17783095 -0.7911924 ]]
sub_nn_3.hidden.bias,[-0.0532226   0.15300006  0.12575282]
sub_nn_3.out.weight,[[-0.17423439 -0.7641081   0.2641911 ]]
sub_nn_3.out.bias,[0.15572113]
sub_nn_4.hidden.weight,[[-0.53787446 -0.21668367] [-0.75695336  0.78211755] [ 0.31446055 -0.18750127]]
sub_nn_4.hidden.bias,[-0.33296406  0.12243974 -0.13132633]
sub_nn_4.out.weight,[[ 0.18464033  0.34564126 -0.34834576]]
sub_nn_4.out.bias,[-0.3061953]
sub_nn_5.hidden.weight,[[-0.5723256  -0.32008058] [-0.40697816 -0.20333976] [ 0.8196943  -0.3487976 ]]
sub_nn_5.hidden.bias,[-0.22205505 -0.22815648 -0.20251565]
sub_nn_5.out.weight,[[-0.61285853 -1.7279805   0.28116018]]
sub_nn_5.out.bias,[-0.00297225]
sub_nn_6.hidden.weight,[[ 0.4673782  -0.7360637 ] [-0.97635114 -0.5384453 ] [-0.52349037 -0.8580898 ]]
sub_nn_6.hidden.bias,[-0.70379055 -0.07938224 -0.6620382 ]
sub_nn_6.out.weight,[[-0.57301754 -1.0055591   1.3139105 ]]
sub_nn_6.out.bias,[0.05872566]
sub_nn_7.hidden.weight,[[-0.03330372 -0.15162618] [ 0.01298358  0.4881638 ] [ 0.38343892  0.01139779]]
sub_nn_7.hidden.bias,[-0.3440229   0.00353163  0.6088634 ]
sub_nn_7.out.weight,[[-0.9206587 -1.722058  -0.6526913]]
sub_nn_7.out.bias,[-0.09030953]
sub_nn_8.hidden.weight,[[ 0.46638507  0.4343498 ] [-0.01812268 -0.06432312] [-0.44791391 -0.704314  ]]
sub_nn_8.hidden.bias,[0.25985944 0.0990796  0.23112196]
sub_nn_8.out.weight,[[ 0.809956    1.671306   -0.12164923]]
sub_nn_8.out.bias,[-0.42338502]
sub_nn_9.hidden.weight,[[-0.35114217 -0.5307752 ] [ 1.0678545   0.45805678] [-0.48640087  0.57548076]]
sub_nn_9.hidden.bias,[ 0.36343342  0.18139368 -0.10790247]
sub_nn_9.out.weight,[[ 0.2558998  -0.22024885  0.22145467]]
sub_nn_9.out.bias,[-0.34114504]
sub_nn_10.hidden.weight,[[-0.23438379 -0.26278454] [-1.0258322  -0.11122176] [ 0.01576707 -0.8176913 ]]
sub_nn_10.hidden.bias,[ 0.69263464 -0.69911027 -0.22076817]
sub_nn_10.out.weight,[[-0.6220882  -1.2819724  -0.06206571]]
sub_nn_10.out.bias,[0.04320377]
sub_nn_11.hidden.weight,[[ 0.49360624  0.35065407] [-1.6154364  -1.0816547 ] [-0.76183814  1.3838875 ]]
sub_nn_11.hidden.bias,[-0.53101754  0.476713    0.69337744]
sub_nn_11.out.weight,[[ 0.7505444  -0.41020948  0.09047577]]
sub_nn_11.out.bias,[0.13208085]
sub_nn_12.hidden.weight,[[-0.11141642  0.23487923] [-0.7072432   0.9627869 ] [ 1.2496841   0.64060825]]
sub_nn_12.hidden.bias,[-0.4438545  -0.02950389  0.5140434 ]
sub_nn_12.out.weight,[[ 0.31979796  0.23524967 -1.2355127 ]]
sub_nn_12.out.bias,[-0.01545125]
sub_nn_13.hidden.weight,[[ 0.01106249  0.4934477 ] [-0.22374427  1.2064028 ] [ 1.6843963  -1.0451103 ]]
sub_nn_13.hidden.bias,[-0.5856584  -0.69295436 -0.22596113]
sub_nn_13.out.weight,[[-1.3339126  -0.10974696  0.5376463 ]]
sub_nn_13.out.bias,[0.55195236]
sub_nn_14.hidden.weight,[[-0.19772199  0.46333304] [-0.5761822  -0.19353655] [ 0.71053565 -0.638087  ]]
sub_nn_14.hidden.bias,[ 0.30492294  0.6984251  -0.6749225 ]
sub_nn_14.out.weight,[[-0.5530294   0.06828337 -0.04978992]]
sub_nn_14.out.bias,[0.05802953]
sub_nn_15.hidden.weight,[[-1.2449548   0.30142173] [ 0.5413339  -0.21726772] [ 1.2227159   0.3525458 ]]
sub_nn_15.hidden.bias,[ 0.38066694 -0.20941311 -0.66294646]
sub_nn_15.out.weight,[[ 1.1781236  -0.1186887   0.91525185]]
sub_nn_15.out.bias,[0.47442734]
sub_nn_16.hidden.weight,[[ 0.26006287 -0.309616  ] [ 0.71288043 -0.43112478] [-0.39696267  0.02249658]]
sub_nn_16.hidden.bias,[ 0.17374739 -0.26334515  0.6139416 ]
sub_nn_16.out.weight,[[-1.1907617   0.07093246  0.30850574]]
sub_nn_16.out.bias,[-0.13596708]
sub_nn_17.hidden.weight,[[-0.7936756  -0.46377847] [ 0.7849202   0.36642966] [-1.0124152  -0.96747   ]]
sub_nn_17.hidden.bias,[0.6888799  0.5131864  0.10664845]
sub_nn_17.out.weight,[[ 0.11174702 -0.05439668  0.71578914]]
sub_nn_17.out.bias,[-0.28933394]
sub_nn_18.hidden.weight,[[-0.15669186 -0.08023993] [-0.76486003 -0.6542508 ] [ 0.678418   -0.37601873]]
sub_nn_18.hidden.bias,[ 0.69458485 -0.01372278  0.61110145]
sub_nn_18.out.weight,[[-0.40397584 -1.625136    0.30477762]]
sub_nn_18.out.bias,[0.38532782]
sub_nn_19.hidden.weight,[[-0.9089451   0.43531284] [ 0.01501328 -0.53719896] [-0.7285105  -0.8151047 ]]
sub_nn_19.hidden.bias,[ 0.33850724  0.43363902 -0.6622256 ]
sub_nn_19.out.weight,[[-0.4206462   0.39192262  0.6719176 ]]
sub_nn_19.out.bias,[0.46283865]
sub_nn_20.hidden.weight,[[-0.221696    0.5915315 ] [-0.15711781 -0.09857801] [-0.6159      0.1812156 ]]
sub_nn_20.hidden.bias,[ 0.50032246 -0.4682834  -0.04171379]
sub_nn_20.out.weight,[[0.47906014 0.23044418 0.05192876]]
sub_nn_20.out.bias,[0.4896475]
sub_nn_21.hidden.weight,[[-1.0364606   0.6920535 ] [-1.5304452   0.44451377] [-0.47544956 -1.0459721 ]]
sub_nn_21.hidden.bias,[ 0.11886463  0.5260102  -0.49863514]
sub_nn_21.out.weight,[[-0.38797057 -0.03077527 -1.4392859 ]]
sub_nn_21.out.bias,[-0.48796952]
sub_nn_22.hidden.weight,[[-0.7669101   0.97871894] [ 0.06412335 -0.7742242 ] [ 0.38419148 -0.4906414 ]]
sub_nn_22.hidden.bias,[-0.47158378 -0.03111388 -0.3093653 ]
sub_nn_22.out.weight,[[0.38652524 0.07379542 0.78141886]]
sub_nn_22.out.bias,[0.22630298]
sub_nn_23.hidden.weight,[[-1.4922371 -0.8813387] [ 0.7467206 -1.0530102] [ 1.2169921 -1.1974406]]
sub_nn_23.hidden.bias,[ 0.514932   0.1259053 -0.0562515]
sub_nn_23.out.weight,[[-0.65109277  1.5364277  -0.6269823 ]]
sub_nn_23.out.bias,[0.03872019]
sub_nn_24.hidden.weight,[[-0.28485358  0.7080323 ] [ 0.55061525 -0.77357644] [ 0.6387033  -0.01936985]]
sub_nn_24.hidden.bias,[-0.6552649   0.21241811 -0.2565145 ]
sub_nn_24.out.weight,[[ 0.19368558 -0.20662339  0.06568535]]
sub_nn_24.out.bias,[0.24180579]
sub_nn_25.hidden.weight,[[-0.9422536   0.36448207] [ 0.39634407  0.30694282] [ 0.37687746  1.4120225 ]]
sub_nn_25.hidden.bias,[-0.31093016  0.25183338 -0.26345018]
sub_nn_25.out.weight,[[-0.6036836   0.20440398 -0.3991629 ]]
sub_nn_25.out.bias,[-0.5076843]
sub_nn_26.hidden.weight,[[ 0.15206572  0.67232585] [ 0.34835127 -0.7794589 ] [-0.71879256 -0.9840659 ]]
sub_nn_26.hidden.bias,[-0.3357073   0.03009581 -0.34239575]
sub_nn_26.out.weight,[[-1.329265   -1.5455854  -0.59171903]]
sub_nn_26.out.bias,[0.09409457]
sub_nn_27.hidden.weight,[[ 0.82445633 -1.0758995 ] [-0.5315052   1.4128515 ] [ 0.91141087 -0.41513216]]
sub_nn_27.hidden.bias,[-0.0507042   0.40820602 -0.5427199 ]
sub_nn_27.out.weight,[[ 1.0398623  -0.14491674 -0.38106138]]
sub_nn_27.out.bias,[0.5252825]
sub_nn_28.hidden.weight,[[ 0.36144802 -0.7023784 ] [-0.11091999  0.7277211 ] [-0.14779617  0.09640285]]
sub_nn_28.hidden.bias,[ 0.32590932 -0.6043412  -0.5776967 ]
sub_nn_28.out.weight,[[-0.1672449   0.6891878  -0.82193345]]
sub_nn_28.out.bias,[0.41797805]
sub_nn_29.hidden.weight,[[ 0.50090647  0.26763052] [ 1.0275605  -0.16019452] [-0.04469925 -0.6972891 ]]
sub_nn_29.hidden.bias,[ 0.09389424 -0.03728065  0.0247212 ]
sub_nn_29.out.weight,[[-0.2615876   0.39319214 -1.338759  ]]
sub_nn_29.out.bias,[0.44498265]
sub_nn_30.hidden.weight,[[ 0.63927037 -0.35548   ] [-0.1756382   0.9707238 ] [ 0.5292739  -0.4495491 ]]
sub_nn_30.hidden.bias,[-0.39404982 -0.32699758  0.23593637]
sub_nn_30.out.weight,[[1.6718023  0.18159826 0.5900626 ]]
sub_nn_30.out.bias,[0.556636]
sub_nn_31.hidden.weight,[[-0.34222734 -0.68343097] [ 1.0337769  -0.3289831 ] [ 0.31475034 -0.48448762]]
sub_nn_31.hidden.bias,[-0.51710314  0.5104554   0.04432058]
sub_nn_31.out.weight,[[-0.1810526  0.0048963  1.2576721]]
sub_nn_31.out.bias,[-0.22898826]
sub_nn_32.hidden.weight,[[-1.3093867   0.05073212] [-0.9018156   0.12528715] [ 0.08085445 -0.19880237]]
sub_nn_32.hidden.bias,[-0.15979297 -0.18590003 -0.2850925 ]
sub_nn_32.out.weight,[[-0.32851893  0.29582894  1.399997  ]]
sub_nn_32.out.bias,[-0.47287795]
sub_nn_33.hidden.weight,[[-0.8912123  -1.2652053 ] [-0.28806806  1.2632347 ] [-0.6032619   1.2160443 ]]
sub_nn_33.hidden.bias,[-0.4709252  -0.07095679  0.62097335]
sub_nn_33.out.weight,[[-0.6840738  1.9356554  0.5760198]]
sub_nn_33.out.bias,[-0.38591802]
sub_nn_34.hidden.weight,[[ 0.22117597 -0.08292753] [-0.22870785  0.5376218 ] [-0.75832176  0.6854096 ]]
sub_nn_34.hidden.bias,[0.183382   0.509998   0.30675417]
sub_nn_34.out.weight,[[0.31366414 0.09082788 0.98436385]]
sub_nn_34.out.bias,[0.57100105]
sub_nn_35.hidden.weight,[[-0.3521866   0.06329428] [ 0.17585039 -0.13379516] [-0.3295686  -1.1590382 ]]
sub_nn_35.hidden.bias,[ 0.4660775  -0.33517018 -0.140409  ]
sub_nn_35.out.weight,[[-0.23818024 -1.1055247   0.5717872 ]]
sub_nn_35.out.bias,[-0.17057177]
sub_nn_36.hidden.weight,[[ 0.08352568 -0.5192843 ] [-0.6080345   0.6470166 ] [ 0.35144743 -0.46980187]]
sub_nn_36.hidden.bias,[-0.43236065  0.6097111  -0.44237754]
sub_nn_36.out.weight,[[-0.00823931  0.30945122  0.34799078]]
sub_nn_36.out.bias,[-0.1984855]
sub_nn_37.hidden.weight,[[-0.64118713 -0.42514643] [ 1.3539422   0.3486574 ] [-1.1832676   0.06734751]]
sub_nn_37.hidden.bias,[ 0.36574382 -0.13403761  0.34682477]
sub_nn_37.out.weight,[[-0.5589838   0.19617762 -0.6501092 ]]
sub_nn_37.out.bias,[0.09318978]
sub_nn_38.hidden.weight,[[-0.36488438 -0.05501782] [ 0.07145112  0.66805816] [-0.04929301  0.31234717]]
sub_nn_38.hidden.bias,[-0.08335704 -0.43245417 -0.33444363]
sub_nn_38.out.weight,[[1.8439839  0.19010474 0.03092073]]
sub_nn_38.out.bias,[-0.21721002]
sub_nn_39.hidden.weight,[[-0.5415456  -0.02583188] [-0.398202    0.18553095] [-0.1954855  -0.5643049 ]]
sub_nn_39.hidden.bias,[0.21545391 0.00218379 0.45984063]
sub_nn_39.out.weight,[[-0.29782304 -1.1070316   0.36950296]]
sub_nn_39.out.bias,[0.56791604]
sub_nn_40.hidden.weight,[[-0.66601664  0.28340483] [ 0.38139197 -0.5180158 ] [-0.5732591   0.6967336 ]]
sub_nn_40.hidden.bias,[ 0.35027838 -0.34167904 -0.46276423]
sub_nn_40.out.weight,[[-0.2901095   0.22275572  0.5204209 ]]
sub_nn_40.out.bias,[0.36251706]
sub_nn_41.hidden.weight,[[ 0.48312896  0.16201511] [ 0.30818066  1.3099028 ] [-0.4196808  -0.64908415]]
sub_nn_41.hidden.bias,[-0.26484197 -0.12179074 -0.3531002 ]
sub_nn_41.out.weight,[[-1.0105927  0.7084275  0.4602098]]
sub_nn_41.out.bias,[0.29445118]
sub_nn_42.hidden.weight,[[ 0.88236326  0.40204751] [-0.12076384  0.22334866] [-0.04341253  0.6441984 ]]
sub_nn_42.hidden.bias,[0.02176213 0.3045007  0.17431417]
sub_nn_42.out.weight,[[-0.10443096  0.93036723 -0.41298872]]
sub_nn_42.out.bias,[0.46018696]
sub_nn_43.hidden.weight,[[ 1.1855043  -1.2670414 ] [ 0.15726773  0.06264126] [-0.23084724  0.07423189]]
sub_nn_43.hidden.bias,[-0.6784958  -0.602046    0.02886365]
sub_nn_43.out.weight,[[ 0.6854615  1.345031  -0.5394037]]
sub_nn_43.out.bias,[-0.539409]
sub_nn_44.hidden.weight,[[ 0.63124394 -0.71660453] [-0.30715743 -0.7983685 ] [-0.0361353  -0.553458  ]]
sub_nn_44.hidden.bias,[-0.3200434   0.39149007 -0.22235218]
sub_nn_44.out.weight,[[ 0.3231468  -0.3621408  -0.00587578]]
sub_nn_44.out.bias,[-0.16999248]
sub_nn_45.hidden.weight,[[ 0.0909811   0.23964079] [ 0.06327454  0.11610945] [-0.11650129 -1.3030901 ]]
sub_nn_45.hidden.bias,[-0.29929078 -0.33702484  0.1937753 ]
sub_nn_45.out.weight,[[ 0.21228744 -1.0554668   0.08876546]]
sub_nn_45.out.bias,[0.5480492]
sub_nn_46.hidden.weight,[[-0.11618172  0.72298324] [ 0.18405665 -1.1569806 ] [-0.50637835 -0.68628764]]
sub_nn_46.hidden.bias,[ 0.3742747  -0.42422345  0.0393528 ]
sub_nn_46.out.weight,[[ 1.1094645   0.18067606 -0.33308965]]
sub_nn_46.out.bias,[0.35886502]
sub_nn_47.hidden.weight,[[ 0.7466379   0.02071041] [-0.7954694  -0.02307601] [-0.10435595 -0.14755718]]
sub_nn_47.hidden.bias,[ 0.41959864 -0.6581257  -0.26544952]
sub_nn_47.out.weight,[[-0.6669431  -1.083697   -0.24046585]]
sub_nn_47.out.bias,[-0.21229312]
sub_nn_48.hidden.weight,[[ 0.07200786 -0.81002796] [ 0.41426456  0.25088596] [-1.0829211  -0.15152822]]
sub_nn_48.hidden.bias,[0.13935268 0.54106265 0.44847518]
sub_nn_48.out.weight,[[ 0.85750675 -0.12382811  0.07195473]]
sub_nn_48.out.bias,[0.22979605]
sub_nn_49.hidden.weight,[[-0.6147693  -0.37885997] [-0.01548226 -0.59376395] [-0.1982394   0.20921844]]
sub_nn_49.hidden.bias,[ 0.04804929 -0.40730494  0.02248689]
sub_nn_49.out.weight,[[0.02958134 0.01095322 0.52793795]]
sub_nn_49.out.bias,[0.06844053]
sub_nn_50.hidden.weight,[[ 0.80714357  1.2332147 ] [-0.06014174 -0.31559023] [-1.0219721   0.8983743 ]]
sub_nn_50.hidden.bias,[-0.28055042 -0.3165145   0.05102784]
sub_nn_50.out.weight,[[ 1.1809095 -0.5564373  0.6513073]]
sub_nn_50.out.bias,[0.42368805]
sub_nn_51.hidden.weight,[[ 0.3853574  -0.03142189] [ 0.28680804 -0.0654987 ] [-0.18230227 -0.3917788 ]]
sub_nn_51.hidden.bias,[ 0.6968599  -0.44679815 -0.32061806]
sub_nn_51.out.weight,[[-0.34354326 -0.16222948 -0.29700732]]
sub_nn_51.out.bias,[0.15650308]
sub_nn_52.hidden.weight,[[-0.27711305  0.74955714] [-0.5679988  -0.13342036] [ 0.50295025  0.7563685 ]]
sub_nn_52.hidden.bias,[-0.27592176  0.48970973  0.57160515]
sub_nn_52.out.weight,[[-0.03544287 -1.0052848  -0.59095806]]
sub_nn_52.out.bias,[-0.04157823]
sub_nn_53.hidden.weight,[[ 0.25886726 -0.5744325 ] [ 0.29516536  0.09320139] [-0.50112975  0.17347172]]
sub_nn_53.hidden.bias,[ 0.42168933 -0.5467804   0.2801435 ]
sub_nn_53.out.weight,[[-0.9900145   0.52407414  1.4200344 ]]
sub_nn_53.out.bias,[-0.04880154]
sub_nn_54.hidden.weight,[[ 0.5234947  -0.35737237] [ 0.05841009  0.0449252 ] [ 0.47075027  1.0115395 ]]
sub_nn_54.hidden.bias,[ 0.16845964  0.02008039 -0.51576716]
sub_nn_54.out.weight,[[-0.823      -0.13223088 -0.07986731]]
sub_nn_54.out.bias,[0.42258584]
sub_nn_55.hidden.weight,[[ 1.2067021   0.53168315] [-0.9514076  -0.06185024] [ 0.49268958  1.0164214 ]]
sub_nn_55.hidden.bias,[-0.53689176 -0.13426673 -0.5375904 ]
sub_nn_55.out.weight,[[-0.05123977  0.33804706 -0.05130903]]
sub_nn_55.out.bias,[-0.03732353]
sub_nn_56.hidden.weight,[[ 0.46892118 -0.43109697] [ 0.02994195 -1.8365476 ] [ 0.1342391  -0.40415287]]
sub_nn_56.hidden.bias,[ 0.6810792  -0.17960066 -0.24664268]
sub_nn_56.out.weight,[[-0.70774776 -0.53226227 -0.8268166 ]]
sub_nn_56.out.bias,[0.1567275]
sub_nn_57.hidden.weight,[[ 0.1403926  -0.21173027] [ 0.48908588 -0.97808903] [ 0.2979364   0.2645282 ]]
sub_nn_57.hidden.bias,[-0.15467595 -0.4840384  -0.00401365]
sub_nn_57.out.weight,[[ 1.2131824 -0.0057476 -0.0240028]]
sub_nn_57.out.bias,[0.13685066]
sub_nn_58.hidden.weight,[[-0.86552763 -0.7297417 ] [-0.3699901  -0.17666125] [-0.00731356 -0.731878  ]]
sub_nn_58.hidden.bias,[ 0.10395456  0.5718325  -0.3751711 ]
sub_nn_58.out.weight,[[-0.79574925 -0.49189582 -0.63059264]]
sub_nn_58.out.bias,[-0.3360891]
sub_nn_59.hidden.weight,[[-0.45919544 -0.19644862] [ 0.12194537 -0.46053973] [-0.11183997  0.40553552]]
sub_nn_59.hidden.bias,[ 0.10823525 -0.3085719   0.05521208]
sub_nn_59.out.weight,[[-0.66874087  0.04987209 -0.6029759 ]]
sub_nn_59.out.bias,[0.30005383]
sub_nn_60.hidden.weight,[[-0.23534083  0.08049475] [-0.15053001  0.3773935 ] [ 0.11380451 -0.24261174]]
sub_nn_60.hidden.bias,[ 0.5990066   0.1349346  -0.63197035]
sub_nn_60.out.weight,[[0.8574714 0.3431764 0.1208692]]
sub_nn_60.out.bias,[0.0324415]
sub_nn_61.hidden.weight,[[ 0.57550883  0.32679185] [ 0.48961145  0.1519905 ] [ 0.3873899  -0.64778477]]
sub_nn_61.hidden.bias,[-0.42144245  0.6773929  -0.49695125]
sub_nn_61.out.weight,[[-0.5931286   0.69844586  0.60737336]]
sub_nn_61.out.bias,[0.38991654]
sub_nn_62.hidden.weight,[[ 0.69163555 -0.45409653] [-0.52259684 -0.81876   ] [ 0.17612822  0.73160046]]
sub_nn_62.hidden.bias,[-0.68984306 -0.4471092  -0.6679611 ]
sub_nn_62.out.weight,[[-1.352273   -0.29262266  0.6554149 ]]
sub_nn_62.out.bias,[0.21609181]
sub_nn_63.hidden.weight,[[ 0.11228611 -1.0612584 ] [ 0.01194684 -0.66644883] [-0.15814465 -0.1936339 ]]
sub_nn_63.hidden.bias,[-0.15051991  0.220254    0.42973948]
sub_nn_63.out.weight,[[ 0.2480569  -0.04323652 -1.496356  ]]
sub_nn_63.out.bias,[0.48903275]
sub_nn_64.hidden.weight,[[ 0.32099068  0.5822346 ] [ 0.47748712  0.4957134 ] [-0.18623623 -0.47625473]]
sub_nn_64.hidden.bias,[-0.590328    0.31088024  0.58722043]
sub_nn_64.out.weight,[[0.4441045 0.3474221 0.9848796]]
sub_nn_64.out.bias,[-0.31664106]
sub_nn_65.hidden.weight,[[ 0.83540684  0.3527959 ] [ 0.0819935   1.1203418 ] [-0.36601835  0.5015894 ]]
sub_nn_65.hidden.bias,[-0.58771205  0.5929988  -0.540084  ]
sub_nn_65.out.weight,[[ 0.41523558 -0.33161712 -2.2447224 ]]
sub_nn_65.out.bias,[0.19819826]
sub_nn_66.hidden.weight,[[-0.15051988 -1.5729214 ] [-0.7425404  -0.1552114 ] [ 0.58597803  0.62004846]]
sub_nn_66.hidden.bias,[ 0.28513232  0.58708507 -0.20788378]
sub_nn_66.out.weight,[[ 0.740337   -0.05120365 -0.04377457]]
sub_nn_66.out.bias,[0.5269929]
sub_nn_67.hidden.weight,[[-0.4546877  -0.4524827 ] [ 0.08310872  0.5160549 ] [-0.33476466  0.3536578 ]]
sub_nn_67.hidden.bias,[-0.55894905 -0.06114965  0.5333856 ]
sub_nn_67.out.weight,[[ 0.2888525   0.9273617  -0.04874075]]
sub_nn_67.out.bias,[0.176983]
sub_nn_68.hidden.weight,[[ 0.9421099   1.1821817 ] [-0.34706038  0.07337454] [ 0.3087539  -0.02512034]]
sub_nn_68.hidden.bias,[ 0.69004494 -0.5809325  -0.32580954]
sub_nn_68.out.weight,[[-1.1979401  -0.38688084 -0.37633708]]
sub_nn_68.out.bias,[-0.2613296]
sub_nn_69.hidden.weight,[[ 0.20389481 -0.01451802] [ 0.11974636 -0.50248516] [ 0.50523293 -0.28107655]]
sub_nn_69.hidden.bias,[-0.19949597  0.04360253  0.62507457]
sub_nn_69.out.weight,[[0.05838517 0.95995593 0.8577514 ]]
sub_nn_69.out.bias,[-0.5274681]
sub_nn_70.hidden.weight,[[-0.12601826 -0.44740826] [-1.044443   -0.27589205] [-0.06187572  0.03078976]]
sub_nn_70.hidden.bias,[0.3046375  0.43790767 0.22734307]
sub_nn_70.out.weight,[[-0.77359927  0.31110856  0.10976842]]
sub_nn_70.out.bias,[0.52250284]
sub_nn_71.hidden.weight,[[-0.1860193  -0.1961221 ] [-0.95535445 -0.22433244] [ 0.17517264  1.214555  ]]
sub_nn_71.hidden.bias,[-0.26740378 -0.33776787 -0.3768885 ]
sub_nn_71.out.weight,[[1.4570684  0.8582834  0.10652757]]
sub_nn_71.out.bias,[-0.37541807]
sub_nn_72.hidden.weight,[[ 0.53471845 -0.28668797] [-0.08374604  0.14040229] [-1.5868988   0.676087  ]]
sub_nn_72.hidden.bias,[-0.05512043 -0.60347533 -0.15773845]
sub_nn_72.out.weight,[[-0.3632545   0.2598648   0.44446886]]
sub_nn_72.out.bias,[-0.14500374]
sub_nn_73.hidden.weight,[[-0.33648905  0.6363487 ] [-1.0845087  -0.29563883] [ 0.15003304 -0.01328654]]
sub_nn_73.hidden.bias,[-0.05238426  0.23923233  0.5619641 ]
sub_nn_73.out.weight,[[-0.35871643  0.76567215 -0.7743935 ]]
sub_nn_73.out.bias,[0.07456887]
sub_nn_74.hidden.weight,[[ 0.15462267 -0.9277356 ] [ 0.2406447  -0.5329134 ] [ 0.02393307 -0.21418723]]
sub_nn_74.hidden.bias,[0.23149592 0.08983308 0.0698278 ]
sub_nn_74.out.weight,[[-0.24494451  2.0019288   0.48389083]]
sub_nn_74.out.bias,[-0.153357]
sub_nn_75.hidden.weight,[[-0.699297    0.352619  ] [ 0.08537447  0.23447587] [ 0.02428866 -0.13734621]]
sub_nn_75.hidden.bias,[ 0.218792   -0.46610045  0.6768289 ]
sub_nn_75.out.weight,[[-0.783504    0.00312104 -0.5406306 ]]
sub_nn_75.out.bias,[-0.40101284]
sub_nn_76.hidden.weight,[[-0.02931596  0.2158797 ] [-0.2931799   0.8507111 ] [ 0.07974106  0.8295219 ]]
sub_nn_76.hidden.bias,[ 0.37014169  0.2700104  -0.27922168]
sub_nn_76.out.weight,[[ 0.18204428  0.22138692 -0.93330985]]
sub_nn_76.out.bias,[-0.5016402]
sub_nn_77.hidden.weight,[[-0.279975    0.46574298] [ 0.21161155 -0.46836308] [-0.15856127 -0.579364  ]]
sub_nn_77.hidden.bias,[-0.14314401  0.2716788  -0.55640286]
sub_nn_77.out.weight,[[1.2244673  1.0958011  0.24910206]]
sub_nn_77.out.bias,[-0.41866952]
sub_nn_78.hidden.weight,[[-0.6608748   0.25663415] [ 0.05811002 -0.06637297] [ 1.5940304  -0.31728762]]
sub_nn_78.hidden.bias,[-0.48862138  0.07438195  0.37678057]
sub_nn_78.out.weight,[[-0.44989422  1.497461   -1.2038728 ]]
sub_nn_78.out.bias,[0.19827837]
sub_nn_79.hidden.weight,[[-1.4219301   0.25829414] [ 0.35890222 -1.1212199 ] [ 0.2441055   1.2672867 ]]
sub_nn_79.hidden.bias,[-0.70175916  0.22309124  0.11020547]
sub_nn_79.out.weight,[[-0.59541667  1.1632804  -0.7833375 ]]
sub_nn_79.out.bias,[-0.10154584]
sub_nn_80.hidden.weight,[[-1.0713452  -0.59840024] [ 0.40811512  0.15200356] [ 0.38684162  0.12080219]]
sub_nn_80.hidden.bias,[-0.4867402   0.4837628   0.07430404]
sub_nn_80.out.weight,[[-0.5969426 -0.5576297  0.345486 ]]
sub_nn_80.out.bias,[-0.49992183]
sub_nn_81.hidden.weight,[[ 0.21743286  1.0784813 ] [ 1.0486314   0.54562026] [-0.23600465 -0.9952581 ]]
sub_nn_81.hidden.bias,[-0.08842862 -0.61447847 -0.3864532 ]
sub_nn_81.out.weight,[[-0.67369044 -0.46094754  0.910115  ]]
sub_nn_81.out.bias,[0.29348898]
sub_nn_82.hidden.weight,[[-0.93879074  0.71290696] [-0.37881297 -1.3213563 ] [-0.86913115 -0.8173534 ]]
sub_nn_82.hidden.bias,[ 0.61489034  0.6110598  -0.50029606]
sub_nn_82.out.weight,[[ 0.18350421 -1.6517074   0.19028537]]
sub_nn_82.out.bias,[-0.4106971]
sub_nn_83.hidden.weight,[[-1.4815811   0.8161561 ] [-0.11659054 -0.9735971 ] [ 0.20778388  0.29689845]]
sub_nn_83.hidden.bias,[ 0.32102513  0.64369816 -0.11889533]
sub_nn_83.out.weight,[[-0.56945807 -0.41893157  0.1343787 ]]
sub_nn_83.out.bias,[-0.2269105]
sub_nn_84.hidden.weight,[[-0.3188247   0.557654  ] [ 1.4728512  -0.37686485] [-0.14195172 -0.6627059 ]]
sub_nn_84.hidden.bias,[-0.2717697 -0.3061451 -0.5951778]
sub_nn_84.out.weight,[[-0.07241743 -0.23907194  1.1748916 ]]
sub_nn_84.out.bias,[0.1330756]
sub_nn_85.hidden.weight,[[ 0.5766359   0.93324524] [-0.7378993  -0.09287484] [-0.42112088 -0.46217376]]
sub_nn_85.hidden.bias,[ 0.6642577  -0.46714926 -0.41550165]
sub_nn_85.out.weight,[[-0.00613023 -1.2559761  -0.3588012 ]]
sub_nn_85.out.bias,[0.21851832]
sub_nn_86.hidden.weight,[[ 0.7268164  -0.22298065] [-1.091351    0.23230122] [-0.4768655   1.0089872 ]]
sub_nn_86.hidden.bias,[-0.31345466 -0.44457474 -0.5738396 ]
sub_nn_86.out.weight,[[-1.0629957   0.63430953 -0.2515487 ]]
sub_nn_86.out.bias,[0.14726263]
sub_nn_87.hidden.weight,[[-1.156655    0.1946578 ] [ 0.4419627  -0.7172629 ] [ 0.88285273  1.6351233 ]]
sub_nn_87.hidden.bias,[0.02673916 0.4988887  0.2198034 ]
sub_nn_87.out.weight,[[-0.7818592   0.84799236  0.3582844 ]]
sub_nn_87.out.bias,[-0.37405002]
sub_nn_88.hidden.weight,[[ 1.2816852   0.10179453] [ 0.5708293   0.24941058] [-0.08552969 -0.0212129 ]]
sub_nn_88.hidden.bias,[-0.26173007 -0.45444265  0.54236156]
sub_nn_88.out.weight,[[0.83393735 0.1405532  0.06575614]]
sub_nn_88.out.bias,[0.23884165]
sub_nn_89.hidden.weight,[[ 0.23233157  0.06755608] [-0.11446624 -0.30071265] [ 0.64168775 -0.4720113 ]]
sub_nn_89.hidden.bias,[-0.0669854   0.63295335 -0.30673555]
sub_nn_89.out.weight,[[ 0.6155324   0.20835745 -0.6539945 ]]
sub_nn_89.out.bias,[0.47002745]
sub_nn_90.hidden.weight,[[-0.01670177  0.9484287 ] [-0.16003785 -0.48470372] [ 1.3761269   0.70109314]]
sub_nn_90.hidden.bias,[-0.0667972   0.54678077  0.66242844]
sub_nn_90.out.weight,[[-0.09781358 -0.4511398  -0.5366407 ]]
sub_nn_90.out.bias,[0.5025836]
sub_nn_91.hidden.weight,[[ 0.3483829  -0.28999686] [ 1.1057059   0.5791755 ] [-0.06324774  0.56978047]]
sub_nn_91.hidden.bias,[ 0.33775115 -0.4136129   0.32968903]
sub_nn_91.out.weight,[[0.9172426  0.44793668 1.4345249 ]]
sub_nn_91.out.bias,[0.04420984]
sub_nn_92.hidden.weight,[[ 0.03069361 -0.8737111 ] [-0.2667506   0.45812592] [-0.55872726 -0.18089747]]
sub_nn_92.hidden.bias,[ 0.49145496 -0.3429124  -0.14002061]
sub_nn_92.out.weight,[[ 0.33567756  0.17510416 -0.07771912]]
sub_nn_92.out.bias,[0.03770751]
sub_nn_93.hidden.weight,[[-0.42084596  0.64254427] [ 0.09181239  0.69751316] [ 1.8753515   0.17071538]]
sub_nn_93.hidden.bias,[ 0.2693187  -0.5543637   0.41325694]
sub_nn_93.out.weight,[[ 0.8691246  -0.02887524  0.38662615]]
sub_nn_93.out.bias,[0.54642105]
sub_nn_94.hidden.weight,[[ 0.5190754 -1.2566633] [ 0.4449703  0.5126474] [-1.5059671  0.9190039]]
sub_nn_94.hidden.bias,[-0.56857145  0.6891654  -0.59074247]
sub_nn_94.out.weight,[[-0.47980267  0.779481   -0.5456022 ]]
sub_nn_94.out.bias,[0.5117699]
sub_nn_95.hidden.weight,[[-0.03148041  0.19372417] [ 0.17030343 -0.1406759 ] [ 1.0249661  -0.66036177]]
sub_nn_95.hidden.bias,[ 0.12082513 -0.7070765   0.50138   ]
sub_nn_95.out.weight,[[ 0.64235914 -0.33884388  0.6146644 ]]
sub_nn_95.out.bias,[0.5316014]
sub_nn_96.hidden.weight,[[-1.288902   -0.25877866] [ 0.00533964 -0.4926188 ] [-0.31582448 -0.179462  ]]
sub_nn_96.hidden.bias,[-0.04801798 -0.26272815 -0.54119384]
sub_nn_96.out.weight,[[ 0.20186645 -0.43689737  0.44126987]]
sub_nn_96.out.bias,[-0.4636611]
sub_nn_97.hidden.weight,[[-1.1689708  -0.13268678] [-0.4683929   0.5380764 ] [ 0.80170274  1.9557632 ]]
sub_nn_97.hidden.bias,[ 0.07184463  0.4510997  -0.55375624]
sub_nn_97.out.weight,[[-0.28503463 -0.2998005   0.25282556]]
sub_nn_97.out.bias,[-0.08278057]
sub_nn_98.hidden.weight,[[ 0.05099162  0.47448   ] [ 1.1263626  -0.31226903] [-0.13932164 -0.04685838]]
sub_nn_98.hidden.bias,[ 0.657185   -0.4577955   0.04852324]
sub_nn_98.out.weight,[[ 0.05930669 -0.17827949  1.3360137 ]]
sub_nn_98.out.bias,[-0.23498449]
sub_nn_99.hidden.weight,[[0.54842216 0.24500014] [0.05418441 0.19373184] [0.60632557 0.1041706 ]]
sub_nn_99.hidden.bias,[-0.27485377  0.05346656 -0.4618922 ]
sub_nn_99.out.weight,[[-0.11036162 -0.12556888 -0.21211316]]
sub_nn_99.out.bias,[-0.02260709]
sub_nn_100.hidden.weight,[[-0.3850896  -0.42875096] [ 0.77750534 -0.8639071 ] [ 0.17761478 -0.5473459 ]]
sub_nn_100.hidden.bias,[-0.13985848  0.29050493 -0.14100613]
sub_nn_100.out.weight,[[-0.66974837 -0.01143046  1.026905  ]]
sub_nn_100.out.bias,[-0.45409244]
sub_nn_101.hidden.weight,[[ 0.61001635  0.18785587] [ 0.9926187  -0.6872804 ] [-0.03336015 -0.13901776]]
sub_nn_101.hidden.bias,[ 0.53036493 -0.510864    0.09895855]
sub_nn_101.out.weight,[[ 0.7324924  1.093429  -0.3224872]]
sub_nn_101.out.bias,[-0.57269484]
sub_nn_102.hidden.weight,[[ 0.11152827  0.4294836 ] [ 0.04037764  0.59794116] [ 1.0552542  -0.64476806]]
sub_nn_102.hidden.bias,[-0.00945884 -0.33175883  0.11752631]
sub_nn_102.out.weight,[[-0.04151824 -0.8526636   0.63992554]]
sub_nn_102.out.bias,[0.3199036]
sub_nn_103.hidden.weight,[[-1.0826467  -0.5433536 ] [ 0.20353568 -0.03332246] [-1.5465814   0.35635677]]
sub_nn_103.hidden.bias,[-0.49465966  0.22905475  0.07565751]
sub_nn_103.out.weight,[[-0.48913154  1.5660365   0.6684549 ]]
sub_nn_103.out.bias,[0.4660343]
sub_nn_104.hidden.weight,[[ 0.73549736 -0.45565596] [-0.7301555   0.61239666] [ 0.48114765 -0.866245  ]]
sub_nn_104.hidden.bias,[-0.40880838  0.50344545  0.1212168 ]
sub_nn_104.out.weight,[[ 0.5171737  -0.6141317  -0.41384134]]
sub_nn_104.out.bias,[0.29436535]
sub_nn_105.hidden.weight,[[-0.5018389  -0.8092138 ] [-0.11011568 -0.6760672 ] [-0.35754487 -0.06365224]]
sub_nn_105.hidden.bias,[-0.69993496 -0.43959525  0.30197054]
sub_nn_105.out.weight,[[-1.4045943   1.0744443  -0.31255937]]
sub_nn_105.out.bias,[0.12663841]
sub_nn_106.hidden.weight,[[-0.42847028 -0.438165  ] [ 0.2966175   0.8802131 ] [-1.2905163   0.32208198]]
sub_nn_106.hidden.bias,[-0.14913857 -0.5231684   0.09174357]
sub_nn_106.out.weight,[[2.1994727  0.24167438 0.24580358]]
sub_nn_106.out.bias,[0.02419001]
sub_nn_107.hidden.weight,[[-0.2910672  -1.2620687 ] [ 0.05290581 -1.0727532 ] [-1.3437253   0.17096998]]
sub_nn_107.hidden.bias,[0.4809665  0.12406731 0.03983868]
sub_nn_107.out.weight,[[-0.12726253 -0.76458395 -0.28702465]]
sub_nn_107.out.bias,[-0.25606552]
sub_nn_108.hidden.weight,[[ 0.6852325  -0.37686896] [ 0.5767538  -0.18736915] [ 0.03923272  0.26230603]]
sub_nn_108.hidden.bias,[0.07148268 0.27086335 0.04686457]
sub_nn_108.out.weight,[[ 0.52235085  0.11585389 -0.5997577 ]]
sub_nn_108.out.bias,[-0.17265913]
sub_nn_109.hidden.weight,[[-0.49749     1.2059023 ] [ 1.2772733  -0.2408166 ] [-0.27901638  1.3178056 ]]
sub_nn_109.hidden.bias,[-0.19420254  0.21433014  0.5575412 ]
sub_nn_109.out.weight,[[0.3895456  0.38249713 0.2842948 ]]
sub_nn_109.out.bias,[-0.15746412]
sub_nn_110.hidden.weight,[[-0.91307485 -0.12009453] [ 0.73110783  0.37720883] [ 0.08562797  0.90837735]]
sub_nn_110.hidden.bias,[0.68776625 0.5400639  0.317748  ]
sub_nn_110.out.weight,[[-0.97607183  0.6106695  -0.59129584]]
sub_nn_110.out.bias,[0.45327222]
sub_nn_111.hidden.weight,[[ 0.9753178  -0.85533404] [-0.4237168  -0.5117262 ] [-0.8172857   0.5679389 ]]
sub_nn_111.hidden.bias,[ 0.14610991 -0.17378062  0.608931  ]
sub_nn_111.out.weight,[[-0.712771   -1.205168    0.86269677]]
sub_nn_111.out.bias,[-0.07934785]
sub_nn_112.hidden.weight,[[-0.86382717  0.5888314 ] [ 0.96098465 -0.53688735] [-0.5595014  -1.0404615 ]]
sub_nn_112.hidden.bias,[-0.597711   -0.30236995 -0.5441382 ]
sub_nn_112.out.weight,[[-0.31370008 -0.41489697  0.5832728 ]]
sub_nn_112.out.bias,[0.55259097]
sub_nn_113.hidden.weight,[[ 0.0215283   0.33783323] [ 0.4344476   0.44927457] [ 0.2191448  -1.371086  ]]
sub_nn_113.hidden.bias,[0.6968481  0.5866994  0.20965213]
sub_nn_113.out.weight,[[ 0.45747867  0.18914515 -0.18611304]]
sub_nn_113.out.bias,[-0.48718238]
sub_nn_114.hidden.weight,[[-0.15776809 -0.9180278 ] [ 0.09900411  1.2733468 ] [-0.75863254  0.7906097 ]]
sub_nn_114.hidden.bias,[ 0.4339469  -0.11017209  0.43064165]
sub_nn_114.out.weight,[[ 0.07046933  0.27828276 -0.23892838]]
sub_nn_114.out.bias,[0.35962135]
sub_nn_115.hidden.weight,[[ 0.2251748   0.29242638] [ 0.93856126 -0.8571498 ] [-0.7948698  -1.0968654 ]]
sub_nn_115.hidden.bias,[-0.16132188  0.13938937 -0.5587295 ]
sub_nn_115.out.weight,[[-0.64381427 -0.4693907   0.20228587]]
sub_nn_115.out.bias,[-0.45588005]
sub_nn_116.hidden.weight,[[-0.90757906  0.76100224] [-0.02974266 -0.1061427 ] [ 0.08255808 -0.6694131 ]]
sub_nn_116.hidden.bias,[-0.1952634   0.12896189  0.2891903 ]
sub_nn_116.out.weight,[[ 0.19503893 -0.61964923 -0.18569705]]
sub_nn_116.out.bias,[0.05912638]
sub_nn_117.hidden.weight,[[ 0.62533975 -0.47146803] [-1.1117557   0.06496265] [-0.54739195  1.2193127 ]]
sub_nn_117.hidden.bias,[-0.6283534   0.38243228  0.39945   ]
sub_nn_117.out.weight,[[1.3271608 0.2497742 0.3056652]]
sub_nn_117.out.bias,[0.3219955]
sub_nn_118.hidden.weight,[[ 0.4855283   0.18328655] [-0.01643723 -0.5645889 ] [-1.112687   -0.69776374]]
sub_nn_118.hidden.bias,[-0.50322425 -0.00188565 -0.41760218]
sub_nn_118.out.weight,[[ 1.2760268  -0.08557451 -0.09749919]]
sub_nn_118.out.bias,[-0.27321053]
sub_nn_119.hidden.weight,[[-1.1282783   0.11836907] [-0.27583927  0.74640465] [ 0.05461347  0.20662878]]
sub_nn_119.hidden.bias,[-0.41610128  0.12607723 -0.28542617]
sub_nn_119.out.weight,[[0.99663174 0.00692665 0.42613825]]
sub_nn_119.out.bias,[-0.14052904]
sub_nn_120.hidden.weight,[[-0.15472782 -0.26278087] [-0.9488744   0.75240207] [ 0.13292035 -0.27046406]]
sub_nn_120.hidden.bias,[0.17098957 0.66728246 0.50271416]
sub_nn_120.out.weight,[[ 2.010326  -0.8887106 -1.551728 ]]
sub_nn_120.out.bias,[0.3823269]
sub_nn_121.hidden.weight,[[-0.03011202 -0.12414899] [-0.03902695  0.44768184] [-0.62520814  0.7307928 ]]
sub_nn_121.hidden.bias,[-0.70279735  0.258903    0.48974228]
sub_nn_121.out.weight,[[-0.5965252  0.7936351 -0.5130007]]
sub_nn_121.out.bias,[-0.12809336]
sub_nn_122.hidden.weight,[[ 0.5006413   0.9596999 ] [-0.6967172   0.3966262 ] [-1.198829    0.39873645]]
sub_nn_122.hidden.bias,[-0.09487624 -0.49508107 -0.21317314]
sub_nn_122.out.weight,[[0.90731496 1.0866547  0.6149534 ]]
sub_nn_122.out.bias,[0.3304215]
sub_nn_123.hidden.weight,[[ 0.6171974  -0.16729799] [-0.4742787  -0.45701823] [ 0.46915686 -0.38536596]]
sub_nn_123.hidden.bias,[ 0.6999357   0.56546384 -0.4040167 ]
sub_nn_123.out.weight,[[-0.8847904  -0.5011387   0.79556465]]
sub_nn_123.out.bias,[0.5012655]
sub_nn_124.hidden.weight,[[-0.42004734  0.43128484] [-0.198646   -0.45648116] [ 0.05613218 -0.39428547]]
sub_nn_124.hidden.bias,[0.49234217 0.18576513 0.20244405]
sub_nn_124.out.weight,[[0.21480381 0.70441145 0.79649484]]
sub_nn_124.out.bias,[0.3506688]
sub_nn_125.hidden.weight,[[ 0.10999418 -0.64616174] [ 0.7958657   0.9580545 ] [ 1.2280809  -0.7511019 ]]
sub_nn_125.hidden.bias,[-0.70556134  0.02753586 -0.5487959 ]
sub_nn_125.out.weight,[[-1.3853351  -0.29248616 -0.2428065 ]]
sub_nn_125.out.bias,[0.02312022]
sub_nn_126.hidden.weight,[[ 0.91714627 -0.47193432] [ 0.42433038  0.46822375] [-0.1721614   0.5876021 ]]
sub_nn_126.hidden.bias,[-0.58123827 -0.1412803   0.19983643]
sub_nn_126.out.weight,[[ 0.99650997  1.0625726  -0.7961802 ]]
sub_nn_126.out.bias,[0.16493511]
sub_nn_127.hidden.weight,[[ 0.40250808  1.0415561 ] [-0.60225856  0.17224284] [ 0.8369034  -0.27946147]]
sub_nn_127.hidden.bias,[-0.54508173 -0.10347259 -0.60988104]
sub_nn_127.out.weight,[[-0.9130687   0.02618612  0.84345365]]
sub_nn_127.out.bias,[-0.2657663]
sub_nn_128.hidden.weight,[[ 0.0999691  -0.5404265 ] [-0.51337    -0.31292087] [-0.57285005 -0.04522939]]
sub_nn_128.hidden.bias,[ 0.33863747 -0.6974314  -0.1572349 ]
sub_nn_128.out.weight,[[ 0.31477684 -0.588182   -1.5707685 ]]
sub_nn_128.out.bias,[-0.21678412]
sub_nn_129.hidden.weight,[[-0.3856833   1.0086393 ] [-0.4158163   0.9688741 ] [ 0.6163171   0.45758665]]
sub_nn_129.hidden.bias,[ 0.30094972 -0.21248582  0.09838796]
sub_nn_129.out.weight,[[0.5966042  0.28168795 0.20573826]]
sub_nn_129.out.bias,[0.06689215]
sub_nn_130.hidden.weight,[[ 0.532633   -0.8748992 ] [-0.46598545  0.9339716 ] [ 0.09267423  1.3372691 ]]
sub_nn_130.hidden.bias,[ 0.4648794  -0.16540001 -0.37280133]
sub_nn_130.out.weight,[[-0.18261157 -0.7579124   0.61692816]]
sub_nn_130.out.bias,[0.3978852]
sub_nn_131.hidden.weight,[[-0.8521783  -0.08847734] [ 0.40287986 -0.7341413 ] [ 0.76876473 -0.27707374]]
sub_nn_131.hidden.bias,[-0.6136378   0.06377624  0.5820504 ]
sub_nn_131.out.weight,[[-1.0211186   0.25182256  0.7121349 ]]
sub_nn_131.out.bias,[0.08407718]
sub_nn_132.hidden.weight,[[ 0.24756792 -0.38444284] [-0.6856581  -0.01536229] [-0.35938662 -1.4462878 ]]
sub_nn_132.hidden.bias,[0.6324332  0.18743801 0.33376175]
sub_nn_132.out.weight,[[-0.57910925 -0.33935317  0.53912365]]
sub_nn_132.out.bias,[-0.15252966]
sub_nn_133.hidden.weight,[[ 0.48225656 -0.39255422] [-0.9774607  -0.27990928] [-1.1021233  -0.7373063 ]]
sub_nn_133.hidden.bias,[ 0.23539777 -0.45192835 -0.47859246]
sub_nn_133.out.weight,[[ 0.27852088 -0.7564148   0.36631158]]
sub_nn_133.out.bias,[0.4303789]
sub_nn_134.hidden.weight,[[-0.3724368   1.1895846 ] [-0.14103088 -0.2929596 ] [ 0.61766416  0.17210193]]
sub_nn_134.hidden.bias,[-0.5601549  -0.48201942  0.6171797 ]
sub_nn_134.out.weight,[[ 0.24456243 -0.3248972  -0.18915093]]
sub_nn_134.out.bias,[0.00838524]
sub_nn_135.hidden.weight,[[-0.27803028 -0.3399941 ] [-0.8580967   0.00707769] [ 0.6981584   0.387984  ]]
sub_nn_135.hidden.bias,[ 0.0367304   0.3786587  -0.68476415]
sub_nn_135.out.weight,[[-0.6941714   0.0985424  -0.94776106]]
sub_nn_135.out.bias,[-0.10922202]
sub_nn_136.hidden.weight,[[ 0.30324432 -0.05808827] [ 0.74430335 -0.05348899] [-0.93467695  0.304727  ]]
sub_nn_136.hidden.bias,[-0.07435316  0.15211758  0.25565875]
sub_nn_136.out.weight,[[ 0.49017236 -0.9425006  -0.25657964]]
sub_nn_136.out.bias,[-0.33760443]
sub_nn_137.hidden.weight,[[ 0.11395866  0.71800786] [-0.24528588  0.76472557] [-0.64687806 -0.84458363]]
sub_nn_137.hidden.bias,[ 0.2912277   0.20224957 -0.03456473]
sub_nn_137.out.weight,[[0.62752324 1.8676072  0.4459709 ]]
sub_nn_137.out.bias,[-0.51793903]
sub_nn_138.hidden.weight,[[-1.3332508  -0.30020422] [-0.71183366  0.39089698] [-0.55116606 -0.00820618]]
sub_nn_138.hidden.bias,[ 0.01371341 -0.00601596 -0.50784093]
sub_nn_138.out.weight,[[-0.03119706  0.27984002 -0.46008658]]
sub_nn_138.out.bias,[-0.44902226]
sub_nn_139.hidden.weight,[[ 1.2375692   0.04694724] [ 0.04383581 -0.63210386] [ 1.1527423   0.01215601]]
sub_nn_139.hidden.bias,[-0.20600043 -0.04530694  0.6055339 ]
sub_nn_139.out.weight,[[-0.92673886  1.1411977   0.6681426 ]]
sub_nn_139.out.bias,[0.3166693]
sub_nn_140.hidden.weight,[[ 0.46829706 -0.86932737] [-0.05501034  0.015044  ] [ 0.06159557 -0.69943506]]
sub_nn_140.hidden.bias,[-0.58632934 -0.12554991  0.44773588]
sub_nn_140.out.weight,[[-0.60330665  0.2744534  -0.5034169 ]]
sub_nn_140.out.bias,[0.27016675]
sub_nn_141.hidden.weight,[[-0.23550108 -0.6153567 ] [-0.4154361   0.83700985] [ 0.3097642  -0.43893382]]
sub_nn_141.hidden.bias,[-0.55085576 -0.28077963  0.40327865]
sub_nn_141.out.weight,[[-0.31065464 -0.22482927 -0.6332968 ]]
sub_nn_141.out.bias,[0.43940985]
sub_nn_142.hidden.weight,[[ 0.30848265  0.23209791] [ 0.6304164  -1.2679422 ] [ 0.72918224  1.5196457 ]]
sub_nn_142.hidden.bias,[-0.18779457  0.4024333  -0.69104666]
sub_nn_142.out.weight,[[-0.53321666  0.28646106  0.5694472 ]]
sub_nn_142.out.bias,[-0.36686835]
sub_nn_143.hidden.weight,[[-0.74443054 -0.46619067] [ 0.5934165  -0.9472093 ] [-0.22628775 -0.14623182]]
sub_nn_143.hidden.bias,[ 3.2084261e-04  5.2592653e-01 -3.2098305e-01]
sub_nn_143.out.weight,[[ 0.5656773  -0.35766694 -1.0510131 ]]
sub_nn_143.out.bias,[0.41254872]
sub_nn_144.hidden.weight,[[ 0.62797344 -0.35476774] [ 0.6459414  -0.8880249 ] [-1.4009963   0.9100449 ]]
sub_nn_144.hidden.bias,[-0.16048351  0.01664792  0.41533047]
sub_nn_144.out.weight,[[-0.5791841   0.611227    0.30290917]]
sub_nn_144.out.bias,[0.20434952]
sub_nn_145.hidden.weight,[[-0.3654752  -0.06802855] [ 1.6022794   0.4233229 ] [-0.8202487   0.85841256]]
sub_nn_145.hidden.bias,[-0.49023393  0.17496306  0.32271022]
sub_nn_145.out.weight,[[ 0.09070922 -0.32276332  1.4949938 ]]
sub_nn_145.out.bias,[0.56878924]
sub_nn_146.hidden.weight,[[ 0.06691848  0.5226775 ] [-0.20309995 -0.15077887] [-0.19040257 -0.09751342]]
sub_nn_146.hidden.bias,[-0.36733097 -0.0310545  -0.3460156 ]
sub_nn_146.out.weight,[[ 1.1414076   0.69054216 -0.61541224]]
sub_nn_146.out.bias,[0.33245277]
sub_nn_147.hidden.weight,[[ 0.8410025  -0.62763876] [-0.35000026 -0.6410921 ] [-0.45691237  0.8782101 ]]
sub_nn_147.hidden.bias,[0.0546804 0.6173753 0.3965127]
sub_nn_147.out.weight,[[ 1.4205087   0.26982048 -1.0716373 ]]
sub_nn_147.out.bias,[0.35760707]
sub_nn_148.hidden.weight,[[-0.7863387  -0.14920504] [-0.2507858   0.0014551 ] [ 0.3947498   0.5218281 ]]
sub_nn_148.hidden.bias,[-0.37877887 -0.42122808 -0.30094722]
sub_nn_148.out.weight,[[ 0.5725443   0.21074411 -0.2281029 ]]
sub_nn_148.out.bias,[0.11774158]
sub_nn_149.hidden.weight,[[-0.19365825  0.314939  ] [ 0.7129242  -1.278697  ] [ 0.34565124 -0.7416303 ]]
sub_nn_149.hidden.bias,[0.00829666 0.35315698 0.43177968]
sub_nn_149.out.weight,[[ 0.4135647   0.1741231  -0.32888815]]
sub_nn_149.out.bias,[0.3334359]
sub_nn_150.hidden.weight,[[ 0.4264781  -0.7970964 ] [ 0.40935478 -0.10603685] [-0.9892099   1.0605192 ]]
sub_nn_150.hidden.bias,[0.5461905 0.3339381 0.2019843]
sub_nn_150.out.weight,[[ 0.61540824 -0.4105834   0.04697474]]
sub_nn_150.out.bias,[-0.39426434]
sub_nn_151.hidden.weight,[[ 0.25847238 -0.10989251] [ 0.5237271   0.1448815 ] [-1.5682442   0.40589058]]
sub_nn_151.hidden.bias,[ 0.429637   0.5023454 -0.6164041]
sub_nn_151.out.weight,[[-0.19115731 -0.8007152   0.1465413 ]]
sub_nn_151.out.bias,[0.20406306]
sub_nn_152.hidden.weight,[[ 0.01202647  1.0972081 ] [ 0.27643993 -0.07176367] [-0.25888133 -1.1467898 ]]
sub_nn_152.hidden.bias,[ 0.6991064   0.00071942 -0.6431625 ]
sub_nn_152.out.weight,[[-1.7472887  -0.44116274  0.17436892]]
sub_nn_152.out.bias,[-0.36729258]
sub_nn_153.hidden.weight,[[-0.33570358 -0.3105569 ] [-0.04729682  0.18755282] [-0.50154805  0.17269947]]
sub_nn_153.hidden.bias,[ 0.53491235 -0.33147913  0.18170828]
sub_nn_153.out.weight,[[ 0.7592421  -0.7829803   0.20562206]]
sub_nn_153.out.bias,[-0.51694494]
sub_nn_154.hidden.weight,[[-0.30576777  0.88225144] [ 0.3531582   0.78405094] [ 0.13809869 -0.24757951]]
sub_nn_154.hidden.bias,[-0.2979459  -0.55673236  0.21197295]
sub_nn_154.out.weight,[[ 0.58992547  0.15356064 -0.27785373]]
sub_nn_154.out.bias,[0.14543885]
sub_nn_155.hidden.weight,[[ 0.08770257  0.98717034] [-1.1984619   2.2932515 ] [ 0.974562   -0.5590196 ]]
sub_nn_155.hidden.bias,[-0.0999006   0.02492012  0.05227586]
sub_nn_155.out.weight,[[-0.4974011   0.04090283 -0.860047  ]]
sub_nn_155.out.bias,[-0.09471649]
sub_nn_156.hidden.weight,[[ 0.25271425  0.88415325] [ 1.0312922  -0.38494924] [ 0.2009014   0.17032968]]
sub_nn_156.hidden.bias,[-0.06492506 -0.20783281 -0.13874422]
sub_nn_156.out.weight,[[ 1.1278753  -0.28020325 -0.9231406 ]]
sub_nn_156.out.bias,[-0.39498976]
sub_nn_157.hidden.weight,[[ 0.6052335  -0.5288757 ] [ 0.1176379  -0.7101007 ] [-0.76534134 -0.43586537]]
sub_nn_157.hidden.bias,[0.521541   0.43387738 0.04094595]
sub_nn_157.out.weight,[[-0.44214597  1.1687628   0.14055122]]
sub_nn_157.out.bias,[-0.16970107]
sub_nn_158.hidden.weight,[[0.8223527  0.5956124 ] [0.00555646 0.63609654] [0.80234843 2.401066  ]]
sub_nn_158.hidden.bias,[-0.45439622 -0.31688976  0.2961914 ]
sub_nn_158.out.weight,[[-1.1338947  -0.6120019   0.21971999]]
sub_nn_158.out.bias,[0.38068694]
sub_nn_159.hidden.weight,[[ 0.433793    0.71084976] [ 0.64033335 -0.03619784] [-1.255672   -0.4395941 ]]
sub_nn_159.hidden.bias,[-0.09956223  0.06907415  0.08553207]
sub_nn_159.out.weight,[[ 0.13070603 -0.6046378   0.27640316]]
sub_nn_159.out.bias,[0.37091196]
sub_nn_160.hidden.weight,[[-1.8856633  -0.58455557] [-0.69762385 -0.9367849 ] [-0.44469628 -0.23831834]]
sub_nn_160.hidden.bias,[0.03295442 0.6960338  0.6588289 ]
sub_nn_160.out.weight,[[-0.16479605  1.1282912   0.5763743 ]]
sub_nn_160.out.bias,[-0.31293646]
sub_nn_161.hidden.weight,[[ 0.5958882   0.44229627] [-0.36003324 -0.43614182] [ 0.43435827  0.5148754 ]]
sub_nn_161.hidden.bias,[ 0.6483727  -0.35673016 -0.07328279]
sub_nn_161.out.weight,[[-0.00257949 -0.29982072 -0.10740829]]
sub_nn_161.out.bias,[-0.45164624]
sub_nn_162.hidden.weight,[[ 0.5874189   0.19013304] [-0.8972694  -0.60814583] [ 0.7995499   0.12944569]]
sub_nn_162.hidden.bias,[0.28497547 0.09231424 0.02554649]
sub_nn_162.out.weight,[[-1.2251172   0.16656119 -0.67489505]]
sub_nn_162.out.bias,[0.29444146]
sub_nn_163.hidden.weight,[[ 0.19069304 -0.40741032] [ 0.04447455  0.18668735] [ 0.20283116  0.0535815 ]]
sub_nn_163.hidden.bias,[ 0.65874124 -0.4796903  -0.46938658]
sub_nn_163.out.weight,[[-0.22153586 -0.87448865  0.31238595]]
sub_nn_163.out.bias,[-0.55011284]
sub_nn_164.hidden.weight,[[-0.08365523 -0.20204279] [-0.3667449   0.08843995] [-0.2697478  -0.179712  ]]
sub_nn_164.hidden.bias,[0.25496638 0.61649495 0.37621692]
sub_nn_164.out.weight,[[0.16773468 0.4806451  0.3848956 ]]
sub_nn_164.out.bias,[0.37621987]
sub_nn_165.hidden.weight,[[ 0.17118476  0.1061888 ] [ 0.18723334 -0.3986378 ] [ 0.03955941  1.4742042 ]]
sub_nn_165.hidden.bias,[-0.63624585 -0.39248422  0.0214678 ]
sub_nn_165.out.weight,[[-0.5008095   0.44676214  0.5665841 ]]
sub_nn_165.out.bias,[0.33203417]
sub_nn_166.hidden.weight,[[-0.33647156  0.5414214 ] [ 0.49139234  0.41627827] [ 0.09028041  1.3279066 ]]
sub_nn_166.hidden.bias,[ 0.6724134  -0.25597197 -0.41980466]
sub_nn_166.out.weight,[[ 0.18934944 -0.02219475  0.5458565 ]]
sub_nn_166.out.bias,[-0.312597]
sub_nn_167.hidden.weight,[[ 0.52150524  0.19763806] [ 0.4244144  -1.0293131 ] [-0.1654835   0.2152934 ]]
sub_nn_167.hidden.bias,[0.3883919  0.5221858  0.25952247]
sub_nn_167.out.weight,[[-0.0622789  -0.30830777 -0.3272909 ]]
sub_nn_167.out.bias,[0.22755468]
sub_nn_168.hidden.weight,[[-1.182285    0.08684909] [ 0.3030268  -1.630678  ] [-0.01147936 -0.2507946 ]]
sub_nn_168.hidden.bias,[-0.17333764  0.2794752   0.34751636]
sub_nn_168.out.weight,[[-2.197877   -1.0451472  -0.11649446]]
sub_nn_168.out.bias,[-0.20946562]
sub_nn_169.hidden.weight,[[ 0.409636    0.9947546 ] [-0.49728352 -0.2855276 ] [ 0.70096564 -0.86313534]]
sub_nn_169.hidden.bias,[ 0.514314   -0.640719    0.48097897]
sub_nn_169.out.weight,[[ 0.16226234 -0.72773933 -0.786198  ]]
sub_nn_169.out.bias,[0.2751664]
sub_nn_170.hidden.weight,[[ 0.02947957  0.2831368 ] [-0.4284881  -0.61404485] [ 0.84570813 -0.26252717]]
sub_nn_170.hidden.bias,[ 0.02458394  0.17632693 -0.41588405]
sub_nn_170.out.weight,[[0.32389238 0.84929574 0.83372223]]
sub_nn_170.out.bias,[0.06223154]
sub_nn_171.hidden.weight,[[ 5.1476192e-01 -3.9498818e-01] [ 6.4334947e-01 -9.1086373e-02] [ 2.1482877e-04  5.0490463e-01]]
sub_nn_171.hidden.bias,[0.04618147 0.6265852  0.575517  ]
sub_nn_171.out.weight,[[-0.27735996 -0.25950554  0.2154201 ]]
sub_nn_171.out.bias,[-0.43260902]
sub_nn_172.hidden.weight,[[-0.34063196  0.78303176] [ 0.4351627   0.48417264] [-0.44557157 -0.15596597]]
sub_nn_172.hidden.bias,[-0.31293243 -0.5813203   0.33774665]
sub_nn_172.out.weight,[[ 0.7947345  -0.12590617  1.0155009 ]]
sub_nn_172.out.bias,[-0.47746098]
sub_nn_173.hidden.weight,[[-0.20736025 -0.05695417] [-0.8682481   0.5966354 ] [ 0.30772865  0.5226604 ]]
sub_nn_173.hidden.bias,[ 0.13875383  0.41443664 -0.21531679]
sub_nn_173.out.weight,[[-0.15974067  0.79620135 -0.3017137 ]]
sub_nn_173.out.bias,[-0.12776452]
sub_nn_174.hidden.weight,[[-1.116941   -0.44947708] [-0.5954856   0.97788966] [ 0.41611838  0.64264005]]
sub_nn_174.hidden.bias,[0.442311   0.20202772 0.5836255 ]
sub_nn_174.out.weight,[[-0.28617316  0.40561047 -0.65767473]]
sub_nn_174.out.bias,[0.3324073]
sub_nn_175.hidden.weight,[[ 0.37498963  0.6544225 ] [-1.1776386   0.11739119] [-0.27149004 -0.01559937]]
sub_nn_175.hidden.bias,[-0.26394734 -0.06652863 -0.6575802 ]
sub_nn_175.out.weight,[[ 0.1404069 -0.7542317 -0.7022455]]
sub_nn_175.out.bias,[-0.05486178]
sub_nn_176.hidden.weight,[[0.53411955 0.3334918 ] [0.25163233 0.5279139 ] [0.61045516 0.00306077]]
sub_nn_176.hidden.bias,[-0.67270863 -0.02638257  0.6488517 ]
sub_nn_176.out.weight,[[0.7186442  0.09315722 0.31286094]]
sub_nn_176.out.bias,[-0.09407139]
sub_nn_177.hidden.weight,[[-0.5940844   0.87800646] [-0.9819552  -0.00218071] [-0.2105251  -1.3473418 ]]
sub_nn_177.hidden.bias,[0.1936448  0.23165515 0.13330992]
sub_nn_177.out.weight,[[ 0.7390775  -1.6753722   0.03672939]]
sub_nn_177.out.bias,[0.3301502]
sub_nn_178.hidden.weight,[[ 0.16162601  0.5839905 ] [ 0.8981123  -0.28690767] [-0.02118613 -0.25044566]]
sub_nn_178.hidden.bias,[0.49147838 0.5407489  0.6106365 ]
sub_nn_178.out.weight,[[-0.23599742  0.02120151  0.8546573 ]]
sub_nn_178.out.bias,[0.08658808]
sub_nn_179.hidden.weight,[[ 0.15925393  0.21186456] [ 0.5877998  -2.2168417 ] [ 0.7784032  -1.4731519 ]]
sub_nn_179.hidden.bias,[ 0.18257761  0.3050272  -0.1659213 ]
sub_nn_179.out.weight,[[ 0.7428459   0.51670676 -1.5635698 ]]
sub_nn_179.out.bias,[0.13525742]
sub_nn_180.hidden.weight,[[ 0.05784729 -0.6601662 ] [-0.80571365 -0.22208612] [-0.04053646 -0.57683605]]
sub_nn_180.hidden.bias,[0.16666204 0.06902205 0.48275128]
sub_nn_180.out.weight,[[ 0.14797692 -1.2287397   1.1338658 ]]
sub_nn_180.out.bias,[0.43685794]
sub_nn_181.hidden.weight,[[ 0.01461551  0.72752863] [ 1.0538452  -0.7084949 ] [ 0.48828483 -1.4443382 ]]
sub_nn_181.hidden.bias,[ 0.444156   -0.5361664  -0.61885685]
sub_nn_181.out.weight,[[-0.71791196 -0.43849593 -0.1095375 ]]
sub_nn_181.out.bias,[-0.32907152]
sub_nn_182.hidden.weight,[[ 0.31381714 -0.35698187] [ 0.17156412  1.0326498 ] [ 0.33494774  0.03937438]]
sub_nn_182.hidden.bias,[0.55884784 0.0335871  0.04474622]
sub_nn_182.out.weight,[[0.2871883  0.08918128 0.45289838]]
sub_nn_182.out.bias,[-0.532122]
sub_nn_183.hidden.weight,[[ 0.17542502 -0.48415434] [ 0.2827261   1.1240915 ] [-0.22867282 -0.5331635 ]]
sub_nn_183.hidden.bias,[ 0.4300397  -0.4170972  -0.05070704]
sub_nn_183.out.weight,[[ 0.29764983 -0.42865944 -1.0294278 ]]
sub_nn_183.out.bias,[-0.2330328]
sub_nn_184.hidden.weight,[[ 0.22510111  0.01821542] [-0.36688653 -0.71737725] [ 0.6919359   0.82720983]]
sub_nn_184.hidden.bias,[ 0.3442207  -0.05883968  0.2525311 ]
sub_nn_184.out.weight,[[0.49017766 0.07988535 1.2251434 ]]
sub_nn_184.out.bias,[-0.04352635]
sub_nn_185.hidden.weight,[[-0.01704785  0.1574327 ] [ 0.25070795  0.24291004] [-0.3253236  -0.2842418 ]]
sub_nn_185.hidden.bias,[ 0.6172381   0.24981093 -0.24374813]
sub_nn_185.out.weight,[[-0.07651421  1.1829462   0.49723667]]
sub_nn_185.out.bias,[0.23944551]
sub_nn_186.hidden.weight,[[ 1.088341    0.90040284] [-0.8354885  -0.5391185 ] [ 1.2992951   0.09303177]]
sub_nn_186.hidden.bias,[0.41452998 0.23430538 0.64961976]
sub_nn_186.out.weight,[[-0.9112834  -0.25825447  1.1770961 ]]
sub_nn_186.out.bias,[-0.40291646]
sub_nn_187.hidden.weight,[[-0.48938337 -0.47779524] [-0.46058828  0.4633287 ] [-0.56856954  0.06098536]]
sub_nn_187.hidden.bias,[-0.5191113  -0.57371974  0.46737543]
sub_nn_187.out.weight,[[-0.38228193  0.19062205  0.9060934 ]]
sub_nn_187.out.bias,[-0.02562451]
sub_nn_188.hidden.weight,[[ 0.19306602  0.5937865 ] [-0.24025576  1.0595064 ] [-0.10905136  0.43358052]]
sub_nn_188.hidden.bias,[0.22338295 0.10755455 0.21468718]
sub_nn_188.out.weight,[[-0.05301128  0.5400774  -1.0377456 ]]
sub_nn_188.out.bias,[-0.37970272]
sub_nn_189.hidden.weight,[[ 0.43949386  0.08283801] [ 1.0242319   0.46857744] [-0.675198    0.05264915]]
sub_nn_189.hidden.bias,[-0.36895737  0.31095415 -0.06259513]
sub_nn_189.out.weight,[[ 0.53551096  0.74042857 -0.16487323]]
sub_nn_189.out.bias,[0.1766985]
sub_nn_190.hidden.weight,[[-0.7515767  -0.82689935] [ 0.31539416  0.5480652 ] [ 0.745979    0.0688572 ]]
sub_nn_190.hidden.bias,[-0.19252264 -0.369298    0.66326374]
sub_nn_190.out.weight,[[ 0.18552312 -0.54040194 -0.5616919 ]]
sub_nn_190.out.bias,[0.47084165]
sub_nn_191.hidden.weight,[[ 0.8982972  -0.9428576 ] [-0.38972414  0.1779193 ] [ 0.89958423 -0.46162394]]
sub_nn_191.hidden.bias,[-0.00559865 -0.0687927  -0.08192688]
sub_nn_191.out.weight,[[-1.2795804  -0.6869013   0.29164174]]
sub_nn_191.out.bias,[-0.06893748]
sub_nn_192.hidden.weight,[[-0.62261456  0.5628372 ] [-0.60368353  0.22753364] [-0.9536832   0.14926492]]
sub_nn_192.hidden.bias,[-0.1510731   0.14636199 -0.14935607]
sub_nn_192.out.weight,[[-0.79883796 -0.14669593 -0.21678846]]
sub_nn_192.out.bias,[-0.31315994]
sub_nn_193.hidden.weight,[[ 0.25058174  0.7649165 ] [-0.00549034  0.1526173 ] [ 0.5267985   0.45882523]]
sub_nn_193.hidden.bias,[ 0.10626155 -0.4582122   0.25683242]
sub_nn_193.out.weight,[[-0.02963568  0.37737745  0.335029  ]]
sub_nn_193.out.bias,[0.04426199]
sub_nn_194.hidden.weight,[[-0.12782457  0.28321883] [ 0.4565985   1.0423307 ] [ 0.29817855  0.1660785 ]]
sub_nn_194.hidden.bias,[0.16544856 0.46877223 0.6957385 ]
sub_nn_194.out.weight,[[ 0.20737953  0.13467227 -0.14937155]]
sub_nn_194.out.bias,[-0.55543905]
sub_nn_195.hidden.weight,[[ 0.06093089 -0.6924827 ] [-0.06261519 -0.54556483] [ 0.49751633  0.06287655]]
sub_nn_195.hidden.bias,[-0.63616645  0.0153399   0.49175185]
sub_nn_195.out.weight,[[0.47009042 1.189176   0.39422667]]
sub_nn_195.out.bias,[0.21765488]
sub_nn_196.hidden.weight,[[-0.6508397  -0.5034001 ] [-0.42831358  0.52035433] [ 0.08918539 -0.06340907]]
sub_nn_196.hidden.bias,[-0.48577875 -0.47910482 -0.04639251]
sub_nn_196.out.weight,[[ 0.28657004 -0.07559932 -0.01706869]]
sub_nn_196.out.bias,[-0.37444314]
sub_nn_197.hidden.weight,[[-0.27274707 -0.64646983] [ 1.0235026  -0.505878  ] [-0.29549554  0.77969927]]
sub_nn_197.hidden.bias,[-0.3628181   0.5616977  -0.42474145]
sub_nn_197.out.weight,[[ 1.090181    1.0446676  -0.32279825]]
sub_nn_197.out.bias,[0.5626265]
sub_nn_198.hidden.weight,[[-0.28129387  0.2834518 ] [-0.18917827 -0.25555235] [ 0.1893951  -0.2701646 ]]
sub_nn_198.hidden.bias,[ 0.19413655 -0.03511775 -0.68779975]
sub_nn_198.out.weight,[[-0.2949293  -0.40077105 -0.9775264 ]]
sub_nn_198.out.bias,[0.289272]
sub_nn_199.hidden.weight,[[-0.5657948  -0.64348006] [-0.0973087   0.4683514 ] [ 0.555746   -0.15016787]]
sub_nn_199.hidden.bias,[ 0.53254706 -0.3522995   0.24635017]
sub_nn_199.out.weight,[[ 0.85800445  0.01272705 -0.36169335]]
sub_nn_199.out.bias,[0.29864562]
sub_nn_200.hidden.weight,[[-1.5964353  -0.4672636 ] [ 0.1578136  -1.0253506 ] [-0.5197716   0.79486984]]
sub_nn_200.hidden.bias,[-0.00962055  0.01780966  0.3684579 ]
sub_nn_200.out.weight,[[-0.81235224 -0.6593696   0.5875153 ]]
sub_nn_200.out.bias,[0.3310746]
sub_nn_201.hidden.weight,[[-0.5002458   0.74728334] [ 0.5564339  -0.02073429] [ 0.6265667  -0.39058247]]
sub_nn_201.hidden.bias,[ 0.6109211  0.7058334 -0.548107 ]
sub_nn_201.out.weight,[[-0.40333873  0.01672078 -0.5136559 ]]
sub_nn_201.out.bias,[-0.18490979]
sub_nn_202.hidden.weight,[[-0.14835344 -0.07441921] [ 0.2693396  -0.74436706] [-0.42297077  0.32617941]]
sub_nn_202.hidden.bias,[-0.08703393 -0.4149371  -0.43386325]
sub_nn_202.out.weight,[[-0.14213601 -1.0180488  -1.1553613 ]]
sub_nn_202.out.bias,[0.11374873]
sub_nn_203.hidden.weight,[[-0.09141261 -1.7049849 ] [-0.7491582  -0.17328238] [ 0.5703916   0.13608436]]
sub_nn_203.hidden.bias,[-0.5183526   0.39711732  0.49517173]
sub_nn_203.out.weight,[[-0.3214884 -0.2887367 -0.3572883]]
sub_nn_203.out.bias,[-0.427492]
sub_nn_204.hidden.weight,[[ 0.62971145 -0.2502738 ] [ 0.39050213 -0.3185325 ] [ 0.744873    0.39527956]]
sub_nn_204.hidden.bias,[-0.06808189  0.33702117  0.667949  ]
sub_nn_204.out.weight,[[1.0536274  0.4489899  0.76102537]]
sub_nn_204.out.bias,[0.09994483]
sub_nn_205.hidden.weight,[[-0.62657076  0.98072   ] [-0.17979848  0.08506067] [-0.31255433  1.2336793 ]]
sub_nn_205.hidden.bias,[-0.4142477  -0.36581975 -0.06137247]
sub_nn_205.out.weight,[[-0.2433449   0.44602382 -0.08149511]]
sub_nn_205.out.bias,[0.06683034]
sub_nn_206.hidden.weight,[[ 0.44577897 -0.13719359] [-0.38534668  0.15320349] [ 1.3212763   0.32715115]]
sub_nn_206.hidden.bias,[ 0.69299614 -0.34767282 -0.13330668]
sub_nn_206.out.weight,[[0.1327857  0.18006307 0.10501798]]
sub_nn_206.out.bias,[-0.53166896]
sub_nn_207.hidden.weight,[[ 0.11892807  0.27175304] [ 0.33402833 -0.3263862 ] [ 1.020661    0.10978817]]
sub_nn_207.hidden.bias,[-0.39452207  0.24010867 -0.13527048]
sub_nn_207.out.weight,[[ 0.7979085 -1.0607026 -0.4709932]]
sub_nn_207.out.bias,[-0.5721864]
sub_nn_208.hidden.weight,[[ 1.4590617  -0.44915712] [-0.26541466 -0.36252987] [ 0.09210739 -0.22325559]]
sub_nn_208.hidden.bias,[-0.342437   -0.09025335 -0.50253534]
sub_nn_208.out.weight,[[-1.1963916  0.6689808 -0.8939776]]
sub_nn_208.out.bias,[-0.30884162]
sub_nn_209.hidden.weight,[[-0.06596302 -1.272539  ] [ 0.28372556 -0.76634073] [-0.7175328  -0.31580493]]
sub_nn_209.hidden.bias,[0.64573497 0.22066295 0.68015426]
sub_nn_209.out.weight,[[ 0.07797786 -0.5476568  -0.8037191 ]]
sub_nn_209.out.bias,[0.12242848]
sub_nn_210.hidden.weight,[[-0.40622354 -0.5722556 ] [-0.43700755 -1.2644045 ] [ 1.2666832  -0.85146683]]
sub_nn_210.hidden.bias,[0.53642863 0.17576104 0.28993636]
sub_nn_210.out.weight,[[0.5582904  0.01367402 0.3542185 ]]
sub_nn_210.out.bias,[-0.32667893]
sub_nn_211.hidden.weight,[[ 0.4189337  -0.29902098] [ 0.04512661  0.20105977] [-0.17784417 -0.08981182]]
sub_nn_211.hidden.bias,[ 0.5056878  -0.63817763 -0.65494484]
sub_nn_211.out.weight,[[ 0.5594265   0.9980994  -0.10872275]]
sub_nn_211.out.bias,[0.54550433]
sub_nn_212.hidden.weight,[[ 0.49554244  0.11640238] [-0.78916204  0.66649246] [ 0.05472621  0.74735373]]
sub_nn_212.hidden.bias,[ 0.15135431 -0.14007229 -0.7003256 ]
sub_nn_212.out.weight,[[ 0.36808255 -1.8749347  -0.6252066 ]]
sub_nn_212.out.bias,[-0.07857576]
sub_nn_213.hidden.weight,[[ 0.2538334   0.07205205] [-0.01286786 -0.38619858] [ 1.1903743  -0.4965851 ]]
sub_nn_213.hidden.bias,[-0.6065923   0.15090495 -0.0585639 ]
sub_nn_213.out.weight,[[ 0.35649854 -0.6906151   0.74782723]]
sub_nn_213.out.bias,[-0.03852332]
sub_nn_214.hidden.weight,[[-0.60142726  0.02308312] [-0.5478041   0.58207995] [ 0.8146405   0.7279307 ]]
sub_nn_214.hidden.bias,[ 0.41305035 -0.32106456  0.679241  ]
sub_nn_214.out.weight,[[-0.44422078 -0.09543414  0.5350369 ]]
sub_nn_214.out.bias,[0.41210425]
sub_nn_215.hidden.weight,[[-0.10565782  1.0275367 ] [-0.35307458 -0.1959956 ] [-0.03403796 -0.8274732 ]]
sub_nn_215.hidden.bias,[-0.12315327  0.41798964  0.02760103]
sub_nn_215.out.weight,[[-0.70857954 -1.5427009   0.13346304]]
sub_nn_215.out.bias,[-0.5539262]
sub_nn_216.hidden.weight,[[ 0.320607    0.17109025] [ 0.07976787  0.17707887] [-0.3420159   0.5413354 ]]
sub_nn_216.hidden.bias,[-0.29194954  0.06421918  0.01475386]
sub_nn_216.out.weight,[[-0.098053   -0.3485463   0.29660457]]
sub_nn_216.out.bias,[0.48217773]
sub_nn_217.hidden.weight,[[ 0.48836395 -0.19913368] [-0.26085886  0.40141523] [-0.6636288  -0.2099663 ]]
sub_nn_217.hidden.bias,[ 0.09405577 -0.49908704  0.24658929]
sub_nn_217.out.weight,[[-0.31608385 -1.0312275   0.24760075]]
sub_nn_217.out.bias,[0.5099939]
sub_nn_218.hidden.weight,[[-0.8417702   0.6293598 ] [ 0.95490646 -0.33459264] [-0.1357782   0.0761655 ]]
sub_nn_218.hidden.bias,[ 0.19631535 -0.6393896   0.49757534]
sub_nn_218.out.weight,[[-0.7623666   0.22330284 -0.11273409]]
sub_nn_218.out.bias,[0.37952423]
sub_nn_219.hidden.weight,[[ 1.0925972  -0.8593602 ] [-0.20536314  0.62374747] [-1.0779567  -0.17483953]]
sub_nn_219.hidden.bias,[0.27335098 0.31568485 0.19843227]
sub_nn_219.out.weight,[[ 0.61868477 -0.32717332 -0.12700984]]
sub_nn_219.out.bias,[-0.2474918]
sub_nn_220.hidden.weight,[[ 1.1005433   0.6698034 ] [ 0.28515413 -0.4585214 ] [-1.0310771   0.50429523]]
sub_nn_220.hidden.bias,[ 0.11301899 -0.11507549 -0.24483009]
sub_nn_220.out.weight,[[0.27167422 0.67442083 0.19806121]]
sub_nn_220.out.bias,[-0.54317933]
sub_nn_221.hidden.weight,[[ 0.7157532   0.4278089 ] [ 0.5566624  -0.40945315] [ 0.28730577  0.28258938]]
sub_nn_221.hidden.bias,[ 0.55763894 -0.32440343 -0.622591  ]
sub_nn_221.out.weight,[[-0.39947692  0.43717235 -0.27779877]]
sub_nn_221.out.bias,[-0.10368267]
sub_nn_222.hidden.weight,[[ 0.06734876 -0.6927488 ] [-0.41556728  0.77488697] [ 0.552997    0.5612785 ]]
sub_nn_222.hidden.bias,[-0.0897352  -0.50169843 -0.46349892]
sub_nn_222.out.weight,[[-0.40215257 -0.8852529   0.19994009]]
sub_nn_222.out.bias,[0.37046415]
sub_nn_223.hidden.weight,[[-0.02986119 -0.34202504] [-0.04718583 -0.38431665] [-0.7066877   0.08792866]]
sub_nn_223.hidden.bias,[-0.4829829   0.14379726  0.4469122 ]
sub_nn_223.out.weight,[[ 0.3602764  -0.47838423  0.5134241 ]]
sub_nn_223.out.bias,[-0.24248889]
sub_nn_224.hidden.weight,[[-0.2265808  -0.41121855] [-0.4979396  -0.08896288] [-0.00962976 -0.15125008]]
sub_nn_224.hidden.bias,[ 0.3553892  -0.32536936 -0.06162035]
sub_nn_224.out.weight,[[ 0.05294422  0.8645103  -0.4733525 ]]
sub_nn_224.out.bias,[-0.32149887]
sub_nn_225.hidden.weight,[[ 0.77876407 -1.2106843 ] [-0.2629648  -0.43931547] [-0.2558856  -1.513674  ]]
sub_nn_225.hidden.bias,[-0.24559803  0.21948989 -0.00417584]
sub_nn_225.out.weight,[[ 0.16507466 -0.12301704 -0.6511767 ]]
sub_nn_225.out.bias,[-0.19156101]
sub_nn_226.hidden.weight,[[ 1.053401   -1.3389734 ] [-0.2562442  -0.58718777] [-0.79938763 -0.12187799]]
sub_nn_226.hidden.bias,[ 0.5728542  -0.5611312  -0.20772907]
sub_nn_226.out.weight,[[ 0.09570505 -0.13853116  0.9551668 ]]
sub_nn_226.out.bias,[0.2571267]
sub_nn_227.hidden.weight,[[ 0.93150353 -0.18740831] [ 0.04099313  0.20736082] [-0.21092786 -1.3738738 ]]
sub_nn_227.hidden.bias,[-0.08853651 -0.02795043  0.39157295]
sub_nn_227.out.weight,[[ 0.2606753  0.7401852 -0.7198931]]
sub_nn_227.out.bias,[0.4991609]
sub_nn_228.hidden.weight,[[-0.47396284 -0.16322526] [ 0.49661106  0.7803622 ] [ 0.67672986  0.10795395]]
sub_nn_228.hidden.bias,[ 0.5984927  0.3683477 -0.1095705]
sub_nn_228.out.weight,[[ 0.15260288 -0.4725916   0.75230247]]
sub_nn_228.out.bias,[-0.5333311]
sub_nn_229.hidden.weight,[[-0.7436897  -0.38276616] [-1.2622299  -0.45216808] [-0.4864117   0.2212187 ]]
sub_nn_229.hidden.bias,[ 0.10441501 -0.70210534  0.36276177]
sub_nn_229.out.weight,[[ 0.34517533 -0.339775   -0.16653365]]
sub_nn_229.out.bias,[0.36904788]
sub_nn_230.hidden.weight,[[-0.0825519  -0.09827594] [ 1.0996795   0.5599186 ] [-0.18957004  0.15356632]]
sub_nn_230.hidden.bias,[-0.49074173 -0.667593   -0.5070634 ]
sub_nn_230.out.weight,[[0.27484283 0.8576807  1.00517   ]]
sub_nn_230.out.bias,[-0.5519228]
sub_nn_231.hidden.weight,[[0.5611002  0.0555408 ] [0.14843175 0.03782266] [0.82763433 0.27788016]]
sub_nn_231.hidden.bias,[0.00890023 0.0216493  0.6183186 ]
sub_nn_231.out.weight,[[-0.2581863 -0.0205977 -1.0716816]]
sub_nn_231.out.bias,[0.5386305]
sub_nn_232.hidden.weight,[[-0.04770965  0.30882868] [-0.8692789   0.13188533] [ 0.25949708 -1.1249537 ]]
sub_nn_232.hidden.bias,[-0.05797578 -0.66354555 -0.70344573]
sub_nn_232.out.weight,[[ 1.3694264   0.6406535  -0.64445084]]
sub_nn_232.out.bias,[-0.37114227]
sub_nn_233.hidden.weight,[[ 0.21529828 -0.09358412] [-0.5288399   0.29875264] [-0.8076562   1.0761342 ]]
sub_nn_233.hidden.bias,[-0.22708355 -0.47185075  0.13241117]
sub_nn_233.out.weight,[[-0.7726804  0.7151396  0.8216318]]
sub_nn_233.out.bias,[0.4161455]
sub_nn_234.hidden.weight,[[-1.2232461  -0.18083747] [-0.11708966 -0.33836734] [-0.5257074   0.14529718]]
sub_nn_234.hidden.bias,[-0.62036693  0.58884066 -0.3590533 ]
sub_nn_234.out.weight,[[-0.30450743  0.27263972  0.02271872]]
sub_nn_234.out.bias,[0.33160016]
sub_nn_235.hidden.weight,[[-0.0971128  -0.5622498 ] [-1.386666    0.9089169 ] [ 0.09739802  0.7668435 ]]
sub_nn_235.hidden.bias,[-0.168181    0.58252275  0.14102983]
sub_nn_235.out.weight,[[ 0.67772615 -0.61584073  0.8938738 ]]
sub_nn_235.out.bias,[0.4407096]
sub_nn_236.hidden.weight,[[ 1.2562236  -0.05163803] [-0.60538137 -0.35361382] [ 1.2736866  -0.07739706]]
sub_nn_236.hidden.bias,[-0.40547055 -0.49614275 -0.4325868 ]
sub_nn_236.out.weight,[[ 0.17984343 -1.2780589   1.1541482 ]]
sub_nn_236.out.bias,[-0.25273776]
sub_nn_237.hidden.weight,[[-0.3147321   1.7234939 ] [ 0.07521448 -0.44313404] [-0.71757764 -1.4681772 ]]
sub_nn_237.hidden.bias,[-0.31401944  0.24000646  0.58086824]
sub_nn_237.out.weight,[[-0.50025994  0.39155316 -1.060912  ]]
sub_nn_237.out.bias,[0.24964142]
sub_nn_238.hidden.weight,[[-0.92446613 -0.66703516] [-0.38415375 -0.3559537 ] [-0.34981015 -0.46503556]]
sub_nn_238.hidden.bias,[-0.18788457 -0.0980286   0.42472467]
sub_nn_238.out.weight,[[-0.6204067  -0.65761    -0.26479915]]
sub_nn_238.out.bias,[0.43760377]
sub_nn_239.hidden.weight,[[ 1.7173125  -1.0622071 ] [-0.40704548  0.19433384] [-0.14438958  1.0104982 ]]
sub_nn_239.hidden.bias,[-0.02987103 -0.51063716 -0.45234776]
sub_nn_239.out.weight,[[-0.0219284  -0.5020187   0.16264918]]
sub_nn_239.out.bias,[-0.09138873]
sub_nn_240.hidden.weight,[[-0.34448633  0.6942877 ] [-0.19952093  0.15012021] [-0.6740892   0.09620349]]
sub_nn_240.hidden.bias,[-0.04331568  0.137859    0.68454033]
sub_nn_240.out.weight,[[-0.75224423  0.5863229  -0.37680045]]
sub_nn_240.out.bias,[0.22175848]
sub_nn_241.hidden.weight,[[-0.21800077  0.16323635] [ 1.1030902   0.11736456] [-0.3189772  -0.2770917 ]]
sub_nn_241.hidden.bias,[-0.67583424  0.27167064 -0.10383821]
sub_nn_241.out.weight,[[0.8783169  0.51813906 0.52156544]]
sub_nn_241.out.bias,[-0.44608527]
sub_nn_242.hidden.weight,[[ 0.14121929 -0.3489473 ] [-0.27263796  0.40627378] [-0.6340944  -0.53854483]]
sub_nn_242.hidden.bias,[ 0.64738846  0.27418518 -0.12124199]
sub_nn_242.out.weight,[[ 0.94305015 -0.1682815   0.00211149]]
sub_nn_242.out.bias,[-0.513798]
sub_nn_243.hidden.weight,[[-0.38396898  0.2592084 ] [-1.2182066  -0.57754374] [ 0.39153668  1.4888526 ]]
sub_nn_243.hidden.bias,[ 0.7039856  -0.29313132 -0.14100063]
sub_nn_243.out.weight,[[0.40043187 0.49135253 0.17712046]]
sub_nn_243.out.bias,[-0.15719941]
sub_nn_244.hidden.weight,[[ 0.39772525  0.7729818 ] [-0.13748233 -0.17862354] [-0.15003031  0.23175731]]
sub_nn_244.hidden.bias,[ 0.34578687 -0.5818685  -0.07677341]
sub_nn_244.out.weight,[[-1.0294918   1.0209887  -0.93272793]]
sub_nn_244.out.bias,[0.12406558]
sub_nn_245.hidden.weight,[[ 0.17611067 -1.4448388 ] [-0.43177253  0.44500214] [-0.5339573  -1.1971769 ]]
sub_nn_245.hidden.bias,[ 0.08575577 -0.66141653 -0.40483683]
sub_nn_245.out.weight,[[-0.23754591 -0.11408752 -0.89530015]]
sub_nn_245.out.bias,[-0.2781868]
sub_nn_246.hidden.weight,[[ 0.6652508   0.30648166] [-0.37734136  0.05787107] [-0.71311253  0.7087585 ]]
sub_nn_246.hidden.bias,[-0.55185884  0.55911833 -0.1868634 ]
sub_nn_246.out.weight,[[ 0.29111376 -0.04779432 -0.71529853]]
sub_nn_246.out.bias,[0.37872624]
sub_nn_247.hidden.weight,[[-0.26050732  0.35280976] [ 0.619555    0.4880974 ] [-0.58757555  0.38172656]]
sub_nn_247.hidden.bias,[-0.6985656   0.16416258  0.01678279]
sub_nn_247.out.weight,[[ 1.806453   -0.6883076   0.29485494]]
sub_nn_247.out.bias,[0.11015171]
sub_nn_248.hidden.weight,[[-0.15491992  0.34489986] [-0.8855957  -1.1392729 ] [-0.2951001   0.53820044]]
sub_nn_248.hidden.bias,[ 0.49581778 -0.0470252   0.3138906 ]
sub_nn_248.out.weight,[[ 0.8517296   0.7079538  -0.87428975]]
sub_nn_248.out.bias,[-0.39154738]
sub_nn_249.hidden.weight,[[ 0.30991545  0.24416518] [ 0.6856505  -0.23049985] [ 1.0246186  -0.31607538]]
sub_nn_249.hidden.bias,[-0.088467    0.58990043 -0.24825981]
sub_nn_249.out.weight,[[0.05143149 0.17179115 0.70568776]]
sub_nn_249.out.bias,[-0.5081758]
sub_nn_250.hidden.weight,[[ 1.0158528  -0.15055726] [ 0.28862917 -0.49484593] [-0.20683283 -0.39919814]]
sub_nn_250.hidden.bias,[0.1741557 0.4635373 0.5495425]
sub_nn_250.out.weight,[[0.5894996  0.68595356 0.5171647 ]]
sub_nn_250.out.bias,[0.12210077]
sub_nn_251.hidden.weight,[[ 0.55687183  0.05800436] [ 0.85683274  0.73229367] [ 0.1362526  -0.37128183]]
sub_nn_251.hidden.bias,[ 0.46228176 -0.26480386  0.67639905]
sub_nn_251.out.weight,[[ 0.51873547 -0.70470864  1.2488354 ]]
sub_nn_251.out.bias,[0.11728138]
sub_nn_252.hidden.weight,[[ 0.49896505  1.1327091 ] [-0.04069411  0.21713495] [ 1.0352023  -0.04324862]]
sub_nn_252.hidden.bias,[-0.49562147 -0.57514423  0.5569084 ]
sub_nn_252.out.weight,[[-0.7224179  -0.46013737 -0.67843705]]
sub_nn_252.out.bias,[0.109231]
sub_nn_253.hidden.weight,[[ 0.8808492  -0.22676411] [ 0.3247706   0.82256   ] [ 0.22233008  0.51867336]]
sub_nn_253.hidden.bias,[0.37572753 0.01418251 0.5062168 ]
sub_nn_253.out.weight,[[0.34569937 0.7204227  0.41268083]]
sub_nn_253.out.bias,[0.05918711]
sub_nn_254.hidden.weight,[[ 0.46932724  0.45583636] [ 0.26354834  0.16967963] [-0.517533   -0.00333425]]
sub_nn_254.hidden.bias,[ 0.60960513  0.1832133  -0.55463743]
sub_nn_254.out.weight,[[ 0.11764299  0.45948744 -0.42532015]]
sub_nn_254.out.bias,[-0.20384866]
sub_nn_255.hidden.weight,[[ 0.29939976  0.26615712] [-0.7049611   0.77153194] [-0.5098696  -0.5812453 ]]
sub_nn_255.hidden.bias,[ 0.2961895   0.52611893 -0.18777281]
sub_nn_255.out.weight,[[-0.71652114  0.2685996  -0.32924446]]
sub_nn_255.out.bias,[0.3737269]
sub_nn_256.hidden.weight,[[ 1.5599365   0.864126  ] [-0.4945342   0.6414073 ] [ 0.19552818  0.65660906]]
sub_nn_256.hidden.bias,[ 0.04362172 -0.6968071  -0.01115923]
sub_nn_256.out.weight,[[-0.5725606   0.20106055 -0.58946526]]
sub_nn_256.out.bias,[0.1718381]
sub_nn_257.hidden.weight,[[-0.24354368  0.31808513] [-0.27976468 -0.1505213 ] [-0.16862419  0.5353684 ]]
sub_nn_257.hidden.bias,[-0.17429173  0.6958265   0.3253446 ]
sub_nn_257.out.weight,[[0.9684917  0.49226883 0.504001  ]]
sub_nn_257.out.bias,[0.34638757]
sub_nn_258.hidden.weight,[[ 0.334404  -0.6170791] [-0.5607229 -0.2525801] [-0.5471843 -0.7578992]]
sub_nn_258.hidden.bias,[-0.45817915 -0.00088888 -0.32557893]
sub_nn_258.out.weight,[[-0.692874   -0.75165266 -0.50984687]]
sub_nn_258.out.bias,[-0.21840498]
sub_nn_259.hidden.weight,[[-0.45037574  0.86580503] [-0.74270767 -0.5965433 ] [-0.76063406  0.5992003 ]]
sub_nn_259.hidden.bias,[-0.33602208  0.17886029  0.0774079 ]
sub_nn_259.out.weight,[[ 0.5885512   0.93403023 -0.14991637]]
sub_nn_259.out.bias,[-0.23616022]
sub_nn_260.hidden.weight,[[-0.48009792  0.159894  ] [-0.31825483 -0.30807966] [-0.16662191  0.83030957]]
sub_nn_260.hidden.bias,[-0.50632375 -0.38136077 -0.14731027]
sub_nn_260.out.weight,[[-1.1564645   1.4948901  -0.33908492]]
sub_nn_260.out.bias,[-0.15686917]
sub_nn_261.hidden.weight,[[ 0.6501677   0.04725569] [ 0.10082792 -0.8821138 ] [-0.04819196 -0.78980976]]
sub_nn_261.hidden.bias,[-0.39662644 -0.2153711  -0.49443883]
sub_nn_261.out.weight,[[ 0.6885266   0.20307223 -0.7097249 ]]
sub_nn_261.out.bias,[0.23016989]
sub_nn_262.hidden.weight,[[-1.056215   -0.39643008] [ 1.1627831  -0.43119225] [-0.46701264 -1.1993449 ]]
sub_nn_262.hidden.bias,[0.4614796  0.53558165 0.31039613]
sub_nn_262.out.weight,[[0.48546362 0.5677214  2.4420035 ]]
sub_nn_262.out.bias,[-0.25243244]
sub_nn_263.hidden.weight,[[-1.1409554   1.0999012 ] [-0.7497579   0.6319884 ] [ 0.19639248 -0.7007135 ]]
sub_nn_263.hidden.bias,[ 0.6459647  -0.09025644 -0.63094515]
sub_nn_263.out.weight,[[-0.40837428  0.584693   -0.5168721 ]]
sub_nn_263.out.bias,[0.54680395]
