w,[0.0429582  0.75397664 0.1204066  0.05813944 0.40723786 0.56841236 0.8276796 ]
hidden1.weight,[[ 0.01607176 -0.03692686 -0.0026328  ...  0.01319278  0.08214571   0.0175459 ] [-0.02435072  0.01406537 -0.06493738 ...  0.04236423 -0.06344584  -0.02995811] [ 0.07449389  0.0659048  -0.02931855 ... -0.03345207  0.0596999  -0.03565954] ... [-0.0625603  -0.01192433  0.03816333 ... -0.05172447 -0.01870519   0.04169505] [ 0.04459786  0.03685473  0.05558707 ... -0.00878249 -0.05282272  -0.06899832] [-0.0424054   0.05477821 -0.03399123 ...  0.06490761  0.00085109  -0.0116805 ]]
hidden1.bias,[-2.82174964e-02  3.91165055e-02  1.34176351e-02 -2.35834941e-02 -1.85379591e-02  4.70202789e-03 -4.57061268e-02  3.35402451e-02 -3.91989239e-02 -3.27467956e-02 -4.09373501e-03 -5.59979025e-03  2.90357098e-02 -2.77481694e-02 -1.79138295e-02  2.34452914e-03 -3.32840942e-02 -1.85943376e-02 -8.83063069e-04 -5.81537490e-04  4.44804169e-02 -7.61273177e-03 -4.46553677e-02  3.60600576e-02 -7.36078899e-03  3.32322977e-02  3.92375737e-02 -3.51956226e-02  3.06670871e-02 -4.90274178e-05 -4.12394479e-02 -1.77905653e-02 -2.88893152e-02 -3.03094974e-03  1.59094781e-02 -2.15224866e-02 -8.84875376e-03  2.30835229e-02  8.87512520e-04 -3.19284797e-02  1.65923461e-02 -1.02820741e-02 -2.79136151e-02 -4.21933010e-02 -2.34562717e-02 -2.53186617e-02  4.66435477e-02  3.25805768e-02 -2.86947563e-02 -3.84664424e-02 -2.48902235e-02 -1.65908244e-02  4.29418422e-02 -4.41921083e-03 -4.72430773e-02  3.18348296e-02  1.61316211e-03  3.03751342e-02  4.74045984e-03  4.11646860e-03  4.77572009e-02  2.60298233e-02  3.53092737e-02 -2.07156222e-02 -1.70846265e-02  3.03633865e-02  1.66891403e-02  4.57014702e-02  2.12811567e-02 -2.12514605e-02  7.17251003e-03 -1.15671046e-02  3.81185450e-02  3.74215618e-02  3.26517224e-02  3.24397273e-02 -1.37523217e-02 -2.49147415e-02  3.57918739e-02  3.99014167e-02  1.15548503e-02  3.34086195e-02 -2.89718099e-02  3.42927538e-02  3.84298377e-02 -3.24797481e-02 -2.19513215e-02 -4.48535085e-02 -2.18175184e-02  3.98578160e-02  9.37789399e-03  3.78342234e-02 -4.55388427e-02  2.44379696e-02 -2.89145944e-04 -9.07145068e-03 -3.22679281e-02 -3.55448537e-02 -4.44450974e-02  4.78985086e-02  4.79582660e-02 -2.09875777e-02  3.91227752e-02 -7.63720321e-03 -2.19294038e-02  2.76954267e-02 -1.71173271e-02  9.73943993e-03 -1.28770135e-02 -4.68750857e-02  4.07264661e-03  3.24563235e-02  3.00426055e-02  2.29757149e-02 -4.25487682e-02 -1.30645810e-02 -2.76933275e-02  1.49495574e-02  1.71761177e-02 -2.61493009e-02  8.28792714e-03  6.91045029e-03 -3.62127423e-02  1.12891411e-02 -3.67849879e-02  3.85197103e-02  4.18643579e-02 -4.16000746e-02  6.03003707e-03 -4.83431481e-02 -4.20522206e-02  1.18446779e-02  9.27027222e-03 -4.34335954e-02 -1.47186732e-02 -4.60048616e-02  4.01620455e-02  5.42763947e-03  2.11051921e-03 -1.25143938e-02  1.83371436e-02 -8.81899521e-03  3.37136239e-02  3.32659073e-02 -1.48194460e-02  1.90611696e-03 -3.44895013e-02  3.87432501e-02  4.15725783e-02 -2.83380393e-02  4.05655243e-02 -1.40957041e-02  2.97216438e-02  4.42640632e-02 -1.19048439e-03  1.31763024e-02 -1.93728320e-02  1.75628159e-02 -4.64078188e-02  3.75927426e-02  3.77209373e-02 -4.24671546e-02 -2.06361394e-02 -4.72472683e-02  2.97487713e-02  2.54327827e-03  3.54278274e-02  1.72925368e-02 -4.29549813e-02 -2.20803693e-02 -3.04905474e-02 -1.87681559e-02 -2.25006677e-02  2.70975176e-02  1.99088622e-02  1.99726988e-02  4.26884256e-02  4.44722548e-02 -2.03846451e-02 -1.08277425e-02  8.82311724e-04  1.94605310e-02 -1.09446165e-03  3.76512595e-02  3.42615545e-02 -1.89856365e-02 -8.71771760e-03 -2.63154730e-02 -4.22457792e-03 -4.54174839e-02 -4.33364399e-02  3.53364050e-02  5.37541136e-03  2.95301676e-02 -3.18298489e-03 -2.67560519e-02  1.72995497e-02 -4.31522503e-02  1.90707501e-02  4.48488630e-02  1.44587248e-03 -2.72632372e-02 -1.80489067e-02  5.89381857e-03  2.12236755e-02  4.96778041e-02  1.42268287e-02 -2.31156088e-02 -4.31533158e-03 -1.55796083e-02 -3.52472737e-02  1.66419782e-02 -2.43774448e-02  2.10262369e-02  8.80957954e-03  7.17501994e-03 -8.08098912e-03  2.39796396e-02  1.75897777e-02 -9.36293881e-03  4.67384532e-02 -3.71153615e-02 -4.64518443e-02  1.48015674e-02 -2.01219320e-02  4.08046693e-02  4.42970321e-02  4.48178612e-02  4.50100899e-02  4.14354168e-02 -3.29036824e-02  2.31358763e-02  3.38857956e-02  6.02820236e-03  1.78416688e-02 -2.70048026e-02  8.82630609e-03 -1.59730352e-02  3.46329442e-04 -2.67686360e-02  4.09105271e-02 -3.24941762e-02 -3.04737557e-02 -2.16441490e-02 -2.74683684e-02 -3.55143845e-02 -3.62912635e-03 -3.77416275e-02 -4.14804295e-02 -1.23254284e-02  3.44453827e-02 -1.71445962e-02  5.10547252e-04  8.07029568e-03  2.59515382e-02  4.58991481e-03 -2.77848896e-02 -3.78945656e-02  1.67697389e-02 -3.49990167e-02 -3.33006792e-02  4.42909971e-02 -4.50080670e-02 -2.75435615e-02  1.77770872e-02  3.91839221e-02  8.74778721e-03  8.69974308e-03 -4.55877744e-02 -1.75232869e-02  4.52337228e-02  1.78591479e-02 -3.61821279e-02  3.51916486e-03 -4.63946126e-02 -4.43008393e-02 -3.27959657e-02 -4.03081346e-03  2.80592572e-02  7.06408347e-04 -4.40929644e-03 -3.28033902e-02  1.68944318e-02  4.69520316e-02 -6.62296370e-04 -3.34603488e-02 -2.08986960e-02 -7.43960170e-03 -4.18633223e-02  3.18261087e-02  4.40440848e-02 -1.70418471e-02  1.20204017e-02  1.26958806e-02 -2.02019215e-02  4.66215871e-02 -1.77074578e-02 -4.60749567e-02  4.68474701e-02 -3.91790085e-02  1.27838375e-02  1.79664884e-02  8.25714134e-03 -3.49123105e-02  7.85285700e-03  2.41024345e-02  3.75312492e-02 -3.31491157e-02  4.16471176e-02 -3.53124291e-02 -1.67697691e-03  9.99170821e-03 -2.64328308e-02  1.07264481e-02  2.10611448e-02 -7.27265282e-03 -3.99029180e-02  4.14674357e-02 -2.16018409e-02  2.69116163e-02  3.61390114e-02 -4.43014205e-02 -3.72281373e-02 -3.05744745e-02  3.94427590e-02  1.69146992e-02  5.03888540e-03 -8.60569905e-03  2.69092731e-02 -1.45421466e-02  2.40751151e-02 -1.64403277e-03 -8.45957175e-03  3.79528403e-02  3.13563310e-02  4.18233983e-02  3.49050611e-02  2.39550751e-02 -4.17846767e-03  1.05671799e-02 -4.72501991e-03 -1.19893095e-02  2.72179376e-02  4.58851689e-03 -4.12690565e-02  3.54879126e-02 -3.52492221e-02 -1.90295633e-02  1.66386086e-02  3.17664891e-02  9.09323152e-03 -4.03670371e-02  3.63821015e-02 -1.85149442e-02  3.84711735e-02  5.20677259e-03 -4.92631719e-02  9.26186237e-03 -4.70150774e-03  4.37443703e-02  1.94305356e-03 -3.82791646e-02  4.62456755e-02  4.18064892e-02 -4.32487391e-02  9.12803691e-03  2.55666133e-02 -2.18342356e-02 -1.72933359e-02  1.13768820e-02  1.66585809e-03  1.21064177e-02  2.24930476e-02 -4.06720769e-03 -3.25816907e-02 -4.26453575e-02  2.42307521e-02 -3.82238105e-02  3.07336394e-02 -4.25803661e-02  3.73764522e-03  9.49659036e-04  3.05087194e-02 -9.10029840e-03  2.58043706e-02 -2.72539333e-02 -4.25368771e-02  1.64661277e-02  4.01197560e-02 -2.86902171e-02 -3.14975716e-02  2.95907483e-02 -2.10142694e-02 -2.06103232e-02  3.51209193e-02 -7.88198132e-03 -1.41771114e-03 -4.35452089e-02  3.27942297e-02 -1.13881836e-02]
hidden2.weight,[[-0.01908432 -0.02336388  0.02220383 ...  0.12661448  0.06644433   0.11105002] [-0.05734816 -0.04328478 -0.04482853 ... -0.07765514 -0.09182847  -0.03480244] [ 0.01015539  0.00165667  0.09109058 ...  0.07723465  0.01641106  -0.02827924] ... [-0.04237671  0.05710687 -0.01566757 ... -0.07035385 -0.0110449   0.05166155] [-0.091211   -0.01759457 -0.06927668 ... -0.0189456   0.12688391   0.0806511 ] [-0.0145506   0.05175382 -0.02554787 ... -0.13179547 -0.11995984   0.01801639]]
hidden2.bias,[ 0.04047334 -0.03690644  0.01208728 -0.03744452 -0.03829047 -0.02409928  0.00606203  0.01310096 -0.00254881 -0.03095831 -0.01371088 -0.0369669  0.03754718 -0.03945205  0.04573378  0.00580853 -0.03845806  0.03504744  0.02053442 -0.00329343 -0.01514379  0.00188771  0.01816958  0.00089646  0.02236468  0.0441672   0.02562349  0.03339963  0.03148917  0.01643016 -0.01494919 -0.02642066 -0.03870851  0.02321969 -0.03634586 -0.00388884 -0.00713196 -0.00903973  0.0194541  -0.0101482 ]
out.weight,[[-0.07216432 -0.06607765 -0.27256235 -0.0499818   0.10826731 -0.01294107  -0.14865226 -0.37446526 -0.43165553  0.12531692  0.07183514  0.10893654  -0.09010866 -0.08158835  0.03154682  0.02535785 -0.10711747  0.15128864   0.40872586  0.09115256 -0.32927513  0.14684421 -0.32281435 -0.21059683   0.6133349  -0.11818165 -0.17750354 -0.29825953  0.11998393 -0.13975655   0.41537046  0.17826018  0.33573046 -0.25086272 -0.00509509 -0.03270641  -0.33713272 -0.44008473  0.20497525  0.05128312] [ 0.01653359 -0.03795745  0.23863877  0.06359845  0.24400505 -0.06952491   0.4369375   0.23113835 -0.13942184  0.14152211  0.12918128 -0.33775905   0.07880473 -0.20548584  0.0066186   0.10673342  0.10441066  0.23691253  -0.01097489  0.03230444 -0.25041062 -0.28784323 -0.18531954  0.47671303  -0.24213994  0.08929018 -0.11691659 -0.18736503 -0.17658707 -0.12177049  -0.02333314 -0.02849235  0.03845977 -0.22711661  0.10196875  0.33696306  -0.14222562  0.09204902  0.21693191  0.10867061] [-0.1139239  -0.3582533   0.17029338  0.06128561  0.26322505  0.0084807  -0.04505413  0.15474205  0.3237839  -0.03059599  0.31054932 -0.00837378   0.07863957 -0.04879091 -0.16791393  0.08302622 -0.25284892  0.01119216   0.2813845   0.16239691  0.2516325   0.2660835  -0.26062608  0.1548546   0.30165067  0.19433537  0.249956   -0.38461462  0.18786775  0.2064479  -0.05387076  0.24541824  0.19150056  0.00125151 -0.17321934  0.07602734   0.07080933  0.20982876  0.40283915  0.09137164] [-0.20373322  0.10198747  0.5141724  -0.13997644 -0.09757458 -0.08697525   0.28163987 -0.11771145 -0.19894521  0.05084185 -0.23485383 -0.07853199  -0.04349588 -0.12203828  0.00283023  0.06000762  0.02086718  0.02783873   0.06304763  0.15858163  0.20715633  0.08514649 -0.118683    0.35774007  -0.15499336  0.1280495   0.12639387 -0.4326125  -0.02067984  0.03936689  -0.24437481 -0.04069054 -0.17918901 -0.22861233 -0.07808627  0.22527492  -0.02191162  0.16894303  0.22637324 -0.12976962] [ 0.1071955   0.01344487  0.00716575 -0.10282493  0.40674344  0.10182691  -0.323458   -0.07434789 -0.11213644  0.10678631 -0.16380973 -0.27846006   0.01234543  0.15463376  0.09903406 -0.22951715 -0.37902504 -0.08286896  -0.217997   -0.08442062  0.18119076  0.2640183  -0.00099937  0.4018294   0.01058055 -0.29884928  0.18315668 -0.01360814  0.14426383  0.0992999   0.10304931  0.03524017  0.00679712  0.05078526 -0.10285287 -0.18419369   0.03185704  0.10071906  0.21117485  0.60731506] [-0.03174033  0.3962176  -0.00639173  0.12041154 -0.2745503  -0.2296565  -0.19247578  0.0618214  -0.06867469 -0.05075328  0.2148407   0.27224118  -0.02183852 -0.13894415  0.08105641  0.08111891 -0.4403062   0.25698116  -0.17219803  0.18331347 -0.02656604 -0.12509838  0.19813432 -0.02155882   0.24089836 -0.11420896 -0.18038063  0.45933038 -0.05218844  0.0905365  -0.15783116  0.42354578  0.35614127 -0.01667269 -0.12983447 -0.21308643  -0.05813358 -0.03208705  0.485841   -0.07816626] [-0.01537186 -0.2283102   0.06651984 -0.07463827 -0.03887464  0.14954358  -0.07164093 -0.39438725 -0.32536578  0.3044569  -0.16948326 -0.055796  -0.15960766 -0.11542092  0.06686264  0.29557386 -0.18579797  0.14140677   0.12311243 -0.06346135 -0.11496308 -0.32699296 -0.322071    0.2497132   0.04765268  0.32357448 -0.14820786 -0.02193438  0.1793941  -0.4229691   0.0282179   0.02223345  0.07553218 -0.00873135  0.04168493  0.39514554   0.3443891   0.30742964 -0.04226867 -0.28084785]]
out.bias,[-0.13969573  0.14430937  0.11607489 -0.01186845  0.0796274   0.12184545  0.05861533]
bn0.weight,[0.99957955 1.0004363  1.0003823  0.99961007 1.0000441  1.0001166 0.99994123 1.000602   0.9988704  0.99897736 0.9979864  1.0007498 0.9991081  1.0002238  0.9994373  0.9993586  0.994706   1.0009261 1.0003949  1.0003682  1.00079    1.0012091  0.9984771  0.9997531 0.99766934 1.0001388  0.9995825  0.9991573  1.0023731  1.000786 0.99952185 0.9997476  0.999979   0.99984485 0.9998972  1.0003029 1.000425   0.9992515  0.99929655 0.9990387  0.9994086  0.9987052 0.9994794  1.001037   1.0001643  0.9997326  0.9999027  0.9997988 1.0003439  1.0003457  0.9994888  0.9995629  0.9998722  1.0010165 1.00097    0.9997467  1.0006322  1.0000991  0.9983927  1.0001595 0.99837524 0.9995792  0.999871   0.999873   0.9984265  1.0000968 1.0005105  0.9990638  0.9991445  1.0006635  0.9989886  1.0004214 0.9991374  0.99972385 0.9996228  0.9995917  0.9983986  0.9995265 0.9996872  0.9992469  1.0005381  1.000259   0.9992682  0.99866307 0.9997126  1.0002052  1.0004327  0.9994544  1.000692   1.000007 1.000639   1.000375   1.000149   0.99820316 0.9982084  0.9982798 0.99955267 0.99851483 0.99975485 0.9998458  0.9989982  1.0008274 0.99835294 0.99856764 0.9995667  0.9991302  1.0005162  0.998755 0.99972564 1.0005522  1.0006819  1.0008144  1.0000104  0.99889094 0.99968374 0.99888986 1.0005189  1.0000197  0.9994766  0.9979224 1.0003417  0.99973625 0.9996178  0.9996426  0.99943876 1.0010608 1.0015756  1.00003    1.0004853  1.0018812  1.0021112  1.0006117 0.9982637  0.9987096  0.99982    1.0001827  0.99870664 1.0006393 1.0001019  0.9985884  0.9994807  1.0000668  0.99983275 1.0008225 0.99848413 1.0018445  1.0002538  0.9999418  1.0004513  1.0004365 1.0006067  0.99889636 1.0003694  0.9993182  0.9988671  0.9989959 0.9996825  0.9995242  1.0006669  0.9998993  1.000549   0.9981318 0.9994984  0.9998557  1.0006762  1.0003613  1.0002208  0.99901336 0.99993247 0.9985917  0.999438   1.0013729  0.9983076  1.0000771 1.0005193  0.99868375 0.99827594 0.99856603 1.000083   0.9987119 0.99956125 0.99901557 0.9993862  1.0008563  0.99873585 0.99903464 0.9997067  0.9991986  0.999286   0.99994266 1.0006033  0.9992307 1.0006218  1.0000526  0.9977924  0.9981266  1.000053   0.9989238 1.0005953  1.0003545  0.9992852  1.000489   0.9990607  0.99930334 0.99934715 0.9993897  0.99928606 0.9998724  1.0004208  1.000128 1.0001079  0.99985164 0.9995794  1.0001107  0.9987125  0.99950033 0.99990875 0.9998956  0.9987567  1.0000712  0.99832004 1.0007476 1.0005369  0.99951196 0.99872756 1.0008274  1.0002267  0.9981408 1.0006299  0.99919295 1.000179   0.9990689  0.99962986 1.0007312 0.9994499  1.001059   1.0010527  1.001635   0.99994946 0.99907106 0.9998794  1.0004573  1.0000117  0.99957925 0.99944866 0.99960214 0.99935097 0.9999696  0.99832785 1.0010239  1.0001521  1.0012728 1.000533   0.99915296 0.99961776 0.9984283  0.99829227 0.9994825 1.000102   1.0002027  0.9981051  0.9991681  0.9980958  1.0000434 1.0004164  0.9997394  1.0003906  0.9988263  1.0005891  0.9998521 1.0003164  1.0013027  1.0002011  0.99985135 1.0007197  1.0014325 1.000215   0.9978952  1.000074   0.9993187  0.9990013  0.9993149 1.000856   0.999324   1.0002362  0.9990592  1.0006177  0.9998243 1.0003653  0.99973035 1.0004262  0.99824375 0.9990721  0.9987854 1.0002267  0.9984617  0.9990275  0.9989673  1.0001676  0.9989901 1.0001172  0.99866873 0.9987908  1.0003424  0.9974305  0.99972266 1.0006375  1.0001714  0.99922013 0.9996283  0.99980056 0.9989259 0.998402   1.0014725  1.0005361  0.99880093 1.0022315  1.0005182 0.9999627  1.0001084  1.0004715  1.0015854  0.9979772  0.999926 0.999222   1.0003461  0.99705565 0.9995132  0.99974704 0.99938446 0.99842626 0.99957824 0.99932575 0.99977493 0.9984787  0.99801946 0.99975353 1.0002427  0.99914825 0.99898803 0.99898183 0.99906117 0.9984642  0.99942285 0.99895084 1.0004561  1.0004724  1.0009222 0.99960405 1.0004367  0.9996208  0.99900085 0.9997801  0.99883604 1.0004524  1.0007985  1.0000311  0.99979657 1.000308   0.9997174 0.9978945  0.99792296 1.0000719  0.99906105 1.001403   0.9998184 0.9986744  0.9989067  0.99851674 1.0002759  0.9990857  0.9994157 0.99989957 1.0008756  0.99894464 0.99945647 0.99927425 1.0004979 1.0001012  1.0003484  0.9989206  0.9977739  0.99926925 0.9998809 0.9980521  0.9984409  0.9987699  1.0013031  0.99787337 0.9989315 0.9991418  0.99945    1.0003608  0.9993208  0.9984967  1.000303 0.9980598  1.0003798  1.000382   0.9991253  0.9992063  1.0001191 1.0006571  0.9992816  0.99923086 0.9991737  1.000246   0.9988184 0.99939644 1.0007088  1.0006812  1.0006075  0.99810743 0.9984056 0.9999181  1.0000213  1.0005254  1.0002149  0.999977   1.0001752 0.99901235 0.9991101  0.9982037  0.99943876 0.9999982  1.0001782 0.99818426 1.0021707  1.0014044  1.0019188  0.9992871  0.99903774 0.99889255 0.99851567 1.0001129  0.99903846 0.99796206 1.000061 0.9991747  0.9979019  0.99959916 0.99798346]
bn0.bias,[ 1.43747777e-03 -7.52268068e-04  2.67719408e-03 -2.29482003e-03 -8.49098491e-04 -1.77797454e-04 -1.35938753e-03  5.60257758e-04 -6.43910491e-04  6.69419242e-04 -2.42826133e-03 -3.78152996e-04 -2.45763629e-04  2.19827355e-03  1.62349222e-03 -6.13408512e-04  2.46019481e-04 -7.52357300e-04  5.56479383e-04  7.62660464e-04 -4.51045198e-04 -6.79102202e-04  1.05600781e-03  1.40184839e-03  6.85587074e-05 -7.69217324e-04 -4.17952484e-04  5.35954721e-04  1.55008107e-03  1.34766963e-03  8.96073645e-04 -2.59039504e-03 -1.10407895e-03  1.27034588e-03 -1.32208224e-04  1.00007781e-03  2.36572287e-05  1.95942330e-03  6.59663347e-04  4.90327599e-04  1.20788824e-03  2.90021690e-05 -1.40620279e-03  2.91831821e-04  5.52872254e-04  1.83317263e-03  5.94255456e-04  5.21825452e-04 -6.32485724e-04  5.34283812e-04 -1.03668135e-03  1.86369856e-04  3.28027905e-04 -9.63292085e-04 -1.86833669e-03 -2.16982956e-03  3.10295261e-04 -8.65307811e-04 -6.17533864e-04  9.13026917e-04  1.86511152e-03  3.43271036e-04  2.18255173e-05 -1.42698773e-05  9.73247748e-04 -4.26361403e-05 -8.79387022e-04  2.86296033e-03  4.57800284e-04 -2.56373594e-03  1.04501401e-03 -6.65767060e-04  6.76570880e-06 -1.53794931e-03  1.12058490e-03  1.02254104e-04 -9.45402891e-04  7.88897683e-04  7.20579061e-04 -3.02406331e-03  1.20188715e-03  6.64257153e-04  5.57987601e-04  1.93559899e-04 -6.28123409e-04 -1.70011446e-03 -8.28116536e-05 -3.28080700e-04 -5.14755317e-04 -1.28252991e-03  7.66359663e-05 -1.70063949e-03  8.19087785e-04  8.88424227e-04 -9.37423960e-04  1.54060067e-03  1.09320390e-04 -5.65662573e-04  7.42327102e-05  6.84522965e-04  2.96636252e-03 -6.01585314e-04 -1.11401617e-03 -1.37217590e-04 -6.63798302e-04 -7.58036622e-04 -1.10835524e-03 -1.44176639e-03  1.10361760e-03 -2.51823716e-04 -2.71382299e-03 -6.67896005e-04  1.44898542e-03 -1.08037994e-03 -8.19937093e-04 -2.14429200e-03  1.25295483e-03  2.42738330e-04 -2.35627827e-04 -5.72693592e-04  4.08933498e-04 -5.97476959e-04  1.66821352e-03 -1.72147457e-03 -1.40001217e-03  2.20846327e-04  8.32240446e-04  4.17246774e-04  9.63221464e-05  1.02797395e-03  2.41623075e-05  1.33376190e-04 -6.99460797e-04  4.05284896e-04  1.13421213e-03 -6.06488320e-04  1.39399653e-03 -3.16402497e-04  3.01735452e-03  9.40290687e-04 -1.23433431e-03  5.31421283e-05  1.12975773e-03 -7.90470338e-04 -1.55386969e-03  6.09949988e-04  2.36518332e-04  1.05581630e-03 -1.17526401e-03  2.66480003e-03 -9.35177959e-04  3.94821021e-04  2.68168020e-04 -1.29724422e-03 -3.08960397e-03 -6.26630965e-04 -5.21786387e-05 -2.00428931e-05  1.81506411e-03 -1.63334550e-03  5.50367404e-04  3.39498016e-04 -1.57848280e-03 -1.69381005e-04  1.33358082e-03  2.13893363e-04 -6.60796592e-04 -9.71728878e-04 -3.91944079e-04 -3.61129432e-03 -9.75857547e-04 -1.28922911e-04 -1.36023096e-03 -2.32084957e-03  5.55433726e-05 -4.23178513e-04  2.16983003e-03 -1.76442089e-03 -1.46304560e-03  1.18412939e-03 -1.14017527e-03 -6.49936672e-04 -1.98700093e-03  4.52567940e-04 -1.05518615e-03  1.48212494e-04 -1.49975601e-03 -2.48683849e-03  9.25473229e-04  3.94657982e-04 -6.61427213e-04 -3.21158470e-04 -6.87654188e-04 -2.14116089e-03 -9.97512834e-04  4.79686976e-04 -1.34773890e-03  4.16867406e-04  1.47511496e-03  1.10672484e-03  7.90188671e-04  1.68443436e-03 -2.66337604e-03  2.38436565e-04 -6.93802605e-04  2.92800862e-04 -1.37960844e-04  2.68379372e-04  1.57366705e-03 -2.89370044e-04  3.16166261e-04 -1.45933661e-03  1.03005521e-04  2.91702483e-04  3.27257992e-04 -2.78561329e-03 -1.28146657e-03  7.06102524e-04 -6.80957164e-04  1.66110194e-03 -6.59455312e-04  8.71610187e-04  7.33058841e-04 -4.09437198e-04  1.18141889e-03 -1.07184227e-03 -2.29907339e-03 -1.53046276e-03  6.99317839e-04  1.12823222e-03 -6.62464474e-04 -1.25084294e-03 -1.19415381e-04  1.20060542e-03 -3.06870643e-04  1.03949045e-03 -1.11379800e-03 -6.34952448e-04  4.94151143e-04  1.66704354e-03  6.69309520e-04  1.83536531e-03  1.33625313e-03  1.68136190e-04 -8.63722875e-04  2.46387906e-03 -1.76662230e-04  4.33211244e-04  8.58360669e-04  1.06044638e-03 -1.80589745e-03 -7.69471691e-04  7.19189469e-04  1.86153292e-03  1.57037470e-03 -1.26294128e-03 -8.58246116e-04  3.06061811e-05  3.06739239e-03 -1.71701959e-03  1.36143027e-03 -1.08845509e-03  1.76788482e-03  1.20865891e-03 -8.68489966e-04 -2.76355073e-04  1.26141729e-03 -1.41524547e-03 -1.62061164e-03 -9.18214966e-04  7.89322192e-04  1.41755227e-04 -8.65557755e-04  1.35351648e-03 -3.45264067e-04  7.80223403e-04 -1.96004548e-04  1.43220043e-03  7.21859862e-04  3.05437978e-04 -9.47035092e-04 -2.64773902e-04 -9.11399140e-04  1.25078019e-03 -1.06905506e-03 -1.02434086e-03 -1.00104371e-03  4.26946499e-04  1.29069187e-04 -7.63655480e-05  9.62093123e-04  1.58384570e-03  4.44005156e-04  4.57698770e-04 -1.54982822e-03 -8.38908425e-04  1.48149673e-03  6.44337677e-04 -4.07131738e-05 -4.45819984e-04 -4.07804386e-04  4.54161724e-04  3.97566881e-04 -4.22295241e-04  7.77889742e-04 -8.67331866e-04  1.42049615e-03  2.18462985e-04 -2.83235189e-04  1.24538929e-04  7.83484196e-04  1.22614333e-03  1.68967445e-03  9.74297349e-04  7.66287616e-04  5.48047945e-04 -3.16750920e-05  1.11821375e-03  1.31314353e-03 -1.17454235e-03  1.94625533e-03  5.82862995e-04 -5.16384782e-04  9.93633643e-04 -7.32550921e-04 -7.01351499e-04 -8.44179129e-04 -1.42512517e-03 -1.22426089e-03 -5.26254240e-04 -7.80034243e-05 -7.25293998e-04 -4.85529978e-04 -6.84484898e-04  1.28726056e-03  8.39719083e-04 -1.22736863e-04  5.40157605e-04  2.10448343e-04 -1.72264059e-03  6.38275291e-04  1.01991266e-03 -2.49431236e-04 -1.38603139e-03 -2.27994315e-05  3.57666402e-04 -9.59176861e-04 -4.31647553e-04 -4.93941479e-04 -1.25614891e-03  8.40864668e-04 -9.65967556e-05  4.33755980e-04 -9.92111862e-04  1.04684825e-03 -5.73844649e-04  1.46410486e-03 -2.60943023e-04 -7.13824236e-04  5.89170493e-04 -2.51051970e-03 -2.71744141e-03  3.12932348e-03 -5.31063706e-04  1.32138527e-03  6.61430240e-04  4.41853015e-04  1.78930559e-03 -5.51106932e-04 -1.53797911e-03  6.33674790e-04  1.98015734e-03 -1.15206465e-03  1.35689101e-03 -1.86776591e-03  1.51450909e-03 -7.44449848e-04  5.20197907e-04  1.28408894e-03  1.25581937e-04  2.62750662e-03  8.38697073e-04 -1.01833524e-04 -5.95469319e-04 -1.17073942e-03 -1.25749607e-03  1.68231595e-03  1.72587100e-03  2.95373553e-04 -9.53122100e-04 -1.19929528e-03 -8.58583255e-04  5.67672250e-04 -5.85072848e-04  5.41633344e-04 -4.20791708e-04  3.37774982e-04  9.58749675e-04 -1.16564927e-03  2.26476404e-04  5.43619040e-04  1.03496714e-03  2.11863531e-04  3.42310872e-04 -9.02311076e-05  1.37583353e-04 -7.66922603e-05 -1.02514273e-03 -5.36035164e-04  4.14366310e-04 -9.72842914e-04  7.82339077e-04  5.81981963e-04 -1.21963548e-03 -3.79227422e-04  1.94830252e-04 -6.85623498e-04 -1.11119635e-03  4.87462996e-04 -2.64545262e-04 -5.66904142e-04 -1.20089843e-03 -1.86560777e-04  2.46214360e-04  1.01450202e-03 -3.37278703e-04 -8.00649228e-04  1.76173926e-03 -2.79478240e-03  1.77268626e-03  1.46108482e-03  4.73411317e-04  7.46545382e-04  4.99005895e-04  1.02146769e-04  8.42342852e-04  1.61329121e-03  1.99019240e-04  5.09490143e-04  1.20572711e-03  9.16658537e-05 -1.11330801e-03]
bn0.running_mean,[ 3.05728793e-01  1.43619263e+02 -2.69582005e+01  2.79753170e+01  1.02846382e+02  7.80788651e+01  2.12186551e+00 -1.00982075e+01  2.07452953e-01 -8.44769955e-01  1.54246445e+01  6.88670807e+01  3.10162961e-01  7.49716699e-01 -1.10333500e+01  2.60474606e+01 -7.86212161e-02 -3.73012657e+01  2.36300888e+01  3.01818937e-01  4.04218340e+00  5.08241057e-01  1.24650974e+01 -1.38617828e-01 -9.53672943e+01  8.03879678e-01 -1.74636459e+01  2.04360237e+01  6.34283104e+01  4.00455017e+01 -2.22234192e+01  3.92210503e+01 -7.28260193e+01 -1.75187664e+01 -1.54676631e-01  3.42930260e+01 -1.15456800e+01  7.43489304e+01  5.43004646e+01 -2.24157200e+01  2.21340042e+02  6.80152416e-01 -1.24259701e+01  3.35115099e+00  6.39797926e-01 -1.27252684e+01 -1.83330223e-01  5.55865135e+01  9.20678177e+01  7.10501175e+01 -3.78827400e+01 -6.46477966e+01 -2.38147717e+01  4.59562302e-01 -2.94126377e+01 -5.13524199e+00  1.41671104e+01 -4.55103970e+00  1.38833818e+01  1.26801176e+01 -8.52040329e+01 -3.20471954e+01 -1.03438511e+01  8.90261459e+00 -5.94060593e+01  4.47144270e-01 -1.27415476e+01 -5.19429436e+01 -5.04346886e+01  1.03905618e+00  1.59903458e+02  3.29892159e+01  7.02141333e+00  3.52477252e-01  2.40298340e+02  8.99898931e-02 -2.63043537e+01  9.05014267e+01 -8.78061008e+00 -6.91500473e+01 -2.11360397e+01  8.73542950e-02 -1.05157061e+01  4.65193987e+00 -8.17077541e+00 -2.81292605e+00  4.61377068e+01 -1.21018515e+01 -6.51801825e-02  1.49369345e+01 -3.63750041e-01  1.72080666e-01 -9.67327213e+00  9.96850739e+01 -7.35931921e+00 -7.28920135e+01  1.97348366e+01 -5.41036904e-01 -9.99440842e+01  1.48029221e+02 -6.82035494e+00 -9.25980606e+01  2.75303135e+01  1.09189386e+01 -1.49231262e+01 -6.97315598e+01  2.52436233e+00  7.02472734e+00  7.30091248e+01 -1.13716631e+01  3.78397446e+01 -1.08151787e+02  8.09788513e+00  3.08114414e+01 -9.67453613e+01  1.74775906e+01 -2.83553802e+02  9.37759653e-02  3.27517357e+01  4.64732628e+01  1.58261280e+01 -1.14333351e+02  4.15948868e+00 -2.22248626e+00  5.31899118e+00 -1.93590660e+01  7.54598713e+00  1.91291847e+01 -2.96835175e+01 -1.48403046e+02 -2.53902340e+00 -4.69523735e+01 -9.68209457e+00 -7.94507828e+01  7.78900299e+01 -5.57283068e+00 -7.12304230e+01 -1.18698509e+02 -3.20513840e+01 -1.92420425e+01  4.16184992e-01 -4.74097786e+01 -1.01655424e+00  1.50541261e-01  5.08884125e+01  4.80594015e+00 -2.42364597e+01 -5.79284706e+01  2.47632198e+01 -2.48332233e+01  3.02462101e+00  4.08307642e-01  4.76802940e+01  5.29789810e+01  2.20692620e-01  1.15511490e+02  1.48627448e+00  7.23954163e+01  4.47581177e+01  7.90748367e+01 -1.34111786e+02 -1.65503159e+01  3.26118050e+01 -6.49359207e+01  3.49895549e+00  6.27035046e+00 -7.36262665e+01  2.91628189e+01 -1.08281487e+02  5.80996811e-01 -4.90720940e+00 -6.64433384e+00 -2.62594014e-01 -2.59497375e+02  2.74454653e-01 -1.70442867e+01 -3.43613684e-01 -5.12547791e-01  3.37084198e+01  1.47933111e+01  1.36774426e+01 -9.19473457e+00 -1.11650988e-01 -3.98207588e+01 -1.36452824e-01 -2.65979910e+00  2.79374199e+01 -2.29897175e+01  5.04090919e+01 -1.19050911e+02 -7.61569672e+01  4.86949196e+01 -4.62984705e+00  6.51666021e+00  3.00277192e-02 -9.48376846e+00 -1.27947395e+02 -8.63244057e+00 -3.49221992e+00  1.48374680e+02  9.05654240e+00 -5.91227112e+01 -2.29101849e+01  2.01546059e+01 -2.26460739e+02 -2.27885954e-02 -3.80749893e+01  5.65337121e-01 -1.92082858e+00  5.80651550e+01  2.80973520e-02  4.70288582e+01  2.97582793e+00  1.30303818e+02 -6.47670822e+01 -9.99827862e+00  1.11609459e+01 -1.09097221e+02 -2.31066467e+02  4.56436272e+01 -5.54546773e-01 -1.51780784e+00 -3.53903847e+01  4.41362076e+01  5.23849525e+01  2.65162067e+01  3.85486481e+02 -4.68360596e+01 -4.86768036e+01  2.08764664e+02  1.23976068e+01 -6.29313736e+01  3.69638557e+01 -2.06988068e+01 -4.26329536e+01 -1.49338093e+01  2.32111424e-01  8.47811279e+01 -2.05818348e+01 -4.09867954e+00 -7.59398651e+00 -9.61565304e+00 -6.78406525e+01  3.77034593e+00 -6.28132324e+01 -5.56370201e+01  6.72060490e-01 -1.98408676e+02  5.08336544e+00 -1.16073787e+00 -2.97395916e+01  1.08494431e+02  1.49113052e+02  7.57713852e+01 -2.85959598e-02  2.09431052e-02 -9.68075943e+01  2.97126389e+01  4.81429367e+01  9.96515465e+00 -5.21723509e-01  7.75524292e+01  1.62369823e+00 -6.22095108e+00  1.75177948e+02 -1.98758793e+01 -4.44733009e+01 -5.35625114e+01  1.72038651e+01  2.41541843e+01 -4.52312279e+01  8.05638962e+01  2.28711662e+01 -4.98364487e+01  5.48141899e+01 -3.55334206e+01 -7.76758041e+01  4.11478500e+01  4.22155876e+01  1.21777067e+01  4.17150993e+01 -3.72666473e+01  4.12149277e+01  2.97599494e-01 -6.86206198e+00 -1.26008320e+01  4.78062582e+00  4.55288811e+01 -3.06489792e+01  3.70771141e+01 -4.44639540e+00  7.78305626e+00  1.07345667e+01 -5.98474312e+01 -2.27216339e+00 -3.35073280e+00  1.20337692e+02  9.23440018e+01  5.84666138e+01  5.79394569e+01 -1.88000450e+01 -9.43744049e+01 -1.13519447e+02 -1.36299820e+02  1.15893545e+01  3.97240143e+01 -3.06225586e+01 -7.43340454e+01 -5.89539490e+01  1.75784332e+02 -1.42860764e+02  5.52519302e+01  8.42374649e+01  1.16793831e+02 -6.54316711e+01  3.45197678e-01 -5.49049616e+00 -3.49293938e+01  2.42697895e-01 -1.81148407e+02  3.26715767e-01 -1.99293633e+01  3.00946450e+00 -1.09887853e-01  4.87220955e+00  5.60154495e+01  2.95660287e-01 -3.08697739e+01  3.57653122e+01  1.06253338e+01 -1.37583160e+02  9.04545784e+00 -2.98775643e-01  6.06443062e+01  5.57797318e+01 -3.46635628e+01  3.57032776e-01  3.17900124e+01 -1.02638260e+02  2.49074669e+01 -1.44501429e+01 -9.22472153e+01 -1.55898462e+03  8.36210632e+01 -2.43055105e-01 -2.82369270e+01 -7.53724823e+01 -1.33529434e+01  3.45674658e+00 -3.43579636e+01  2.23680553e+01 -1.04642763e+01 -1.45729637e+01  2.32846241e+01  3.51625862e+01 -5.01011276e+01 -4.19855309e+01  2.37101269e+01 -2.44988441e+01  2.38606445e+02  1.14021767e+02  1.14894457e+01  2.24816162e+02  2.31864433e+01  4.59811592e+00 -7.40994120e+00 -1.39589384e-01 -1.01072683e+01 -1.00650040e+02  5.96790009e+01 -1.32496080e+01 -5.84242325e+01 -1.35208302e+01  8.11275768e+00  5.25695457e+01 -7.97744217e+01 -7.81382227e+00 -7.46388960e+00  6.79427338e+01 -3.38631058e+01 -2.99363651e+01 -7.31891861e+01  3.78095436e+01  5.71794093e-01  1.07635355e+01 -5.65494490e+00  5.50695956e-01  8.58020172e+01  2.99925596e-01  1.04150856e+02 -2.53308964e+01 -5.38686848e+00  9.11835384e+00  7.77311172e+01 -1.56364334e+02 -4.17679548e-02  1.34266663e+02 -5.55250406e+00  5.72700958e+01  3.04837341e+01  6.14890039e-01 -1.12476766e+00 -1.99818707e+00  3.91611785e-01  1.17087715e+02 -7.73135529e+01  1.30775681e+02  2.67352057e+00  5.71871414e+01 -7.40000305e+01  1.98337669e+01  1.51211271e+01 -3.01775366e-01  4.12043571e+01  5.72200000e-01  1.88307777e-01  1.65292037e+00 -3.91357005e-01 -1.53487883e+01 -1.90615088e-01 -7.65814352e+00  1.79492741e+01  6.53509235e+00  6.14777660e+00 -5.64177399e+01 -6.19847775e+00  5.08275642e+01  2.62932549e+01 -2.70258675e+01  4.82997388e-01 -5.08042946e+01  2.44126720e+01  1.12572029e+02 -6.53327990e+00  1.31897326e+01  1.11724024e+01  4.62656766e-01  1.28190775e+01 -8.25808105e+01 -1.20155878e+01  2.79505386e+01  9.23932552e+00]
bn0.running_var,[9.03294325e-01 6.19839111e+03 2.08647324e+02 2.50526398e+02 3.28417749e+03 1.89862720e+03 1.17660666e+00 4.10073509e+01 1.43473840e-03 5.67839146e-01 8.07088547e+01 1.62141541e+03 5.15075810e-02 3.44535053e-01 3.99960022e+01 2.19368439e+02 1.01975119e-02 3.73671600e+02 1.68030823e+02 7.84229371e-04 3.73421741e+00 5.76470373e-03 3.65444870e+01 2.08677296e-02 2.69296631e+03 5.98232925e-01 7.10567932e+01 1.20152924e+02 1.02421167e+03 4.71801758e+02 1.52848251e+02 4.97660706e+02 1.55486902e+03 9.75926361e+01 3.08664232e-01 2.85466644e+02 7.85150681e+01 1.03713232e+03 6.40515991e+02 1.76216721e+02 1.05400137e+04 5.27107492e-02 2.83323326e+01 2.95750713e+00 1.10561334e-01 3.85574074e+01 1.04467906e-01 6.37046021e+02 1.43702942e+03 8.24086243e+02 2.45767731e+02 6.61526978e+02 9.44383621e+01 1.61969149e+00 1.30431412e+02 5.59679413e+00 3.34034958e+01 3.41536331e+00 3.12809620e+01 2.48614197e+01 2.58274536e+03 3.06436218e+02 3.49496880e+01 3.44939613e+01 1.20422681e+03 2.01141476e-04 7.11441803e+01 8.22121582e+02 8.16604797e+02 4.87178326e-01 7.47886523e+03 3.15137756e+02 1.27452984e+01 6.48612404e-05 1.66741523e+04 5.80357191e-05 2.33114182e+02 2.27941406e+03 5.92123260e+01 1.37764453e+03 1.41816315e+02 1.99067479e-04 3.98968124e+01 6.31135082e+00 1.74824581e+01 2.02431355e+01 5.79032349e+02 2.95188141e+01 6.35782361e-01 3.93759689e+01 3.85856052e-04 3.55366677e-01 2.55097942e+01 3.01074951e+03 1.38896246e+01 1.54161548e+03 8.31553345e+01 7.38944769e-01 2.93231494e+03 6.62757617e+03 7.32417679e+00 2.73850269e+03 2.12749298e+02 3.12588997e+01 6.40512238e+01 1.27992883e+03 1.11528778e+00 2.19893703e+01 1.45266235e+03 2.80374031e+01 2.74298584e+02 2.00599414e+03 1.30981684e+01 1.66700195e+02 1.66400403e+03 5.69234238e+01 1.46588545e+04 2.72897065e-01 2.01994370e+02 3.19643890e+02 9.40876999e+01 4.08638037e+03 4.71480656e+00 1.16375077e+00 1.25550795e+01 1.59857178e+02 2.76155128e+01 1.16853523e+02 2.94921997e+02 6.93611035e+03 1.68457687e+00 6.13952087e+02 2.54673042e+01 1.67875586e+03 1.62817920e+03 7.61884117e+00 1.59170435e+03 4.24195361e+03 4.18694000e+02 9.35462875e+01 4.51254717e-04 5.41276794e+02 3.34408879e-01 6.86641634e-02 6.17932007e+02 5.06196451e+00 1.57034912e+02 7.06306152e+02 1.57397232e+02 1.39331223e+02 2.45932293e+00 8.51813893e-05 5.52082886e+02 7.27877991e+02 8.05292949e-02 3.42163843e+03 2.80666828e+00 1.27124121e+03 4.41777008e+02 1.29262427e+03 3.99080811e+03 7.64852066e+01 2.53279999e+02 8.97846008e+02 3.29691267e+00 9.60474396e+00 1.13145654e+03 2.44668915e+02 3.49726660e+03 2.53007724e-03 1.01425056e+01 1.87004223e+01 5.50163314e-02 2.17821406e+04 9.89020392e-02 9.76993942e+01 1.32361159e-01 4.17731656e-03 2.81320679e+02 4.91653366e+01 6.19341087e+01 1.82257309e+01 2.25080289e-02 5.16621399e+02 1.97515890e-01 2.21285772e+00 1.98883301e+02 1.61259552e+02 8.72494507e+02 4.70371094e+03 2.14421973e+03 7.82777466e+02 5.39087200e+00 1.26870947e+01 5.57381427e-05 2.21751060e+01 5.38615820e+03 2.47935753e+01 3.07664847e+00 7.43295459e+03 2.86099949e+01 1.21527332e+03 1.44509857e+02 1.43130875e+02 1.69367695e+04 2.70300180e-01 4.98891907e+02 1.47055136e-04 1.10932531e+01 9.11018127e+02 2.11272873e-05 5.71231140e+02 3.99457335e+00 4.58260254e+03 1.16629492e+03 2.57207851e+01 3.31083107e+01 3.21282471e+03 1.53828789e+04 5.34083313e+02 5.98555058e-03 4.49420023e+00 4.38588043e+02 7.04479248e+02 9.81227417e+02 1.86766830e+02 5.04389336e+04 7.95240967e+02 8.61084778e+02 1.58446895e+04 5.99896774e+01 1.30737512e+03 4.39204773e+02 2.55714203e+02 5.56864502e+02 7.34238129e+01 1.47619434e-02 2.18284277e+03 1.76127197e+02 8.85794926e+00 2.40698738e+01 3.11234818e+01 1.57048193e+03 5.24339676e+00 1.18959375e+03 1.04257788e+03 6.94040835e-01 1.09625869e+04 1.34383917e+01 1.82270899e-01 2.58558258e+02 3.52375757e+03 6.63627686e+03 1.80802563e+03 2.08497822e-01 9.14125681e-01 2.76100708e+03 2.43392960e+02 7.24125366e+02 3.28056297e+01 5.14641926e-02 1.82868372e+03 3.49378675e-01 9.46676826e+00 9.30553809e+03 1.13742035e+02 4.90901642e+02 8.84467590e+02 7.42672348e+01 1.70911148e+02 5.73102112e+02 2.08695068e+03 1.45726242e+02 6.74937317e+02 8.93282593e+02 3.65411987e+02 1.67661865e+03 5.00910156e+02 5.55430298e+02 4.50655556e+01 5.30408997e+02 4.59795715e+02 4.35586334e+02 3.88878136e-04 9.72592640e+00 5.51492386e+01 4.87180233e+00 6.52454163e+02 3.21360626e+02 4.66401123e+02 7.59920073e+00 2.23817768e+01 3.70494804e+01 1.14813330e+03 2.94931245e+00 6.87691545e+00 4.82146289e+03 3.05387207e+03 6.54498840e+02 6.48533813e+02 8.85118866e+01 1.84138672e+03 2.64623608e+03 3.79418530e+03 2.00092144e+01 3.16819855e+02 1.78719666e+02 1.11677734e+03 7.74194519e+02 4.99319141e+03 3.10866431e+03 4.83988159e+02 1.07728833e+03 2.16026147e+03 6.72978271e+02 1.48505876e-02 3.62920570e+00 1.68513763e+02 6.51072897e-03 8.11996240e+03 4.10479605e-02 5.60685196e+01 1.77690899e+00 1.25442763e-04 5.44654131e+00 8.41632996e+02 4.38687131e-02 2.37302338e+02 3.15543213e+02 3.54964180e+01 4.37445068e+03 2.43120575e+01 6.52584061e-02 9.88599365e+02 6.54024353e+02 2.09717194e+02 6.73211599e-03 1.82815750e+02 1.87604089e+03 9.69023972e+01 3.05768681e+01 1.47679956e+03 4.20423594e+05 1.14511157e+03 1.91693136e-04 2.18003174e+02 1.78448267e+03 4.56292458e+01 4.01661205e+00 3.53127716e+02 1.59912415e+02 3.83161850e+01 6.98088150e+01 1.52261505e+02 3.55310944e+02 6.95045105e+02 5.21542786e+02 1.83002289e+02 1.63899139e+02 1.72671816e+04 4.02899927e+03 4.19648094e+01 1.55040762e+04 1.22674942e+02 3.47847009e+00 1.97151680e+01 9.52026308e-01 3.26149101e+01 3.58030249e+03 1.15420325e+03 7.18618622e+01 1.12543860e+03 6.36452065e+01 2.75946598e+01 9.69288269e+02 2.01210315e+03 2.53994141e+01 1.55356522e+01 1.42410718e+03 5.04354767e+02 3.13401550e+02 2.01133057e+03 4.08498566e+02 2.33774641e-04 5.21982803e+01 1.19029789e+01 9.26045177e-04 2.49614648e+03 7.17631355e-03 3.77495044e+03 1.67793686e+02 1.75635014e+01 2.91109009e+01 2.20549243e+03 8.35443457e+03 2.74477720e-01 5.93051172e+03 9.05068016e+00 1.05040393e+03 4.24830475e+02 4.00789410e-01 3.00310016e+00 2.28905559e+00 8.64762962e-02 4.28525830e+03 1.78248950e+03 5.34153516e+03 3.17598629e+00 1.60731262e+03 1.96840210e+03 1.44475937e+02 7.78917618e+01 2.19167322e-02 7.54547241e+02 2.21582868e-05 3.45945358e-01 1.68501914e+00 1.83142778e-02 7.90133820e+01 3.78461599e+00 1.45919857e+01 1.03847076e+02 1.91488056e+01 1.06383104e+01 9.43161255e+02 1.60514145e+01 6.85939392e+02 1.31926636e+02 1.89823654e+02 4.84307371e-02 9.57300293e+02 1.35222870e+02 2.58090894e+03 7.55634499e+00 4.21792336e+01 3.10239410e+01 9.71662812e-03 3.31444817e+01 1.47709375e+03 3.47074928e+01 1.66701050e+02 1.21125040e+01]
bn0.num_batches_tracked,3000
sub_nn_0.hidden.weight,[[-0.01319281 -1.5961994 ] [-0.6175743   1.0910852 ] [-0.5797223   0.0882795 ]]
sub_nn_0.hidden.bias,[ 0.37699792 -0.50934047  0.02857376]
sub_nn_0.out.weight,[[-1.2656785 -1.0717704  0.4897519]]
sub_nn_0.out.bias,[0.43288064]
sub_nn_1.hidden.weight,[[ 1.2699953   0.13102445] [-0.28636864 -1.4745296 ] [-1.0738238   0.62445074]]
sub_nn_1.hidden.bias,[ 0.04078567 -0.46094644 -0.17092115]
sub_nn_1.out.weight,[[ 1.2277775  -0.44370183  0.09008633]]
sub_nn_1.out.bias,[-0.12106258]
sub_nn_2.hidden.weight,[[ 0.17453182  0.12055446] [ 0.60330904  0.60326076] [-0.19408278  0.25497618]]
sub_nn_2.hidden.bias,[ 0.01952791  0.11301869 -0.6336771 ]
sub_nn_2.out.weight,[[-0.37644616 -0.36467597  0.36186177]]
sub_nn_2.out.bias,[0.20638645]
sub_nn_3.hidden.weight,[[-0.33528745 -0.02753225] [ 0.59558606 -0.5046134 ] [-0.27167284 -1.8354634 ]]
sub_nn_3.hidden.bias,[ 0.02214158  0.22771287 -0.18473214]
sub_nn_3.out.weight,[[0.64980984 0.52678806 0.3730226 ]]
sub_nn_3.out.bias,[-0.14565757]
sub_nn_4.hidden.weight,[[-1.3343728e+00  7.4006009e-01] [ 1.6563623e+00 -4.7538608e-01] [-3.1164700e-01 -2.7470349e-04]]
sub_nn_4.hidden.bias,[-0.54631484 -0.3035846   0.663264  ]
sub_nn_4.out.weight,[[ 0.76491183  0.68609995 -0.14086647]]
sub_nn_4.out.bias,[-0.21207088]
sub_nn_5.hidden.weight,[[-0.28303528 -0.30554697] [ 1.3967965  -0.28560817] [ 0.14428593  0.05505041]]
sub_nn_5.hidden.bias,[ 0.30326658 -0.3449092   0.37813157]
sub_nn_5.out.weight,[[-0.7701892  0.6311205 -0.1251881]]
sub_nn_5.out.bias,[-0.22974142]
sub_nn_6.hidden.weight,[[-0.22249013  0.0813975 ] [-0.24672358 -0.09176515] [ 0.3693845   1.5445026 ]]
sub_nn_6.hidden.bias,[-0.40108895 -0.49932027 -0.44610286]
sub_nn_6.out.weight,[[-0.14671235 -0.20512593  0.05633134]]
sub_nn_6.out.bias,[-0.11647198]
sub_nn_7.hidden.weight,[[-0.34765366 -0.25919923] [-0.7913341   0.33533463] [ 0.26225424 -0.5762041 ]]
sub_nn_7.hidden.bias,[ 0.13553348  0.6072337  -0.44057304]
sub_nn_7.out.weight,[[-0.51989967 -0.5475402  -0.48646095]]
sub_nn_7.out.bias,[0.10710603]
sub_nn_8.hidden.weight,[[-1.1151776   0.0166812 ] [-0.8250096   0.50551146] [-0.1470704   0.09045006]]
sub_nn_8.hidden.bias,[ 0.00739252 -0.38750985 -0.14230554]
sub_nn_8.out.weight,[[-0.09706665 -0.1217325   0.17630617]]
sub_nn_8.out.bias,[0.21185474]
sub_nn_9.hidden.weight,[[-0.88476425  0.81791383] [ 0.06925867 -0.64816535] [ 0.12525044  0.65502   ]]
sub_nn_9.hidden.bias,[-0.68723303 -0.39006704 -0.14801276]
sub_nn_9.out.weight,[[ 0.10917465 -0.0991394  -0.06267972]]
sub_nn_9.out.bias,[0.44667947]
sub_nn_10.hidden.weight,[[ 0.23212671 -0.30710047] [-0.04330093 -0.2331164 ] [ 0.28490987  0.55083317]]
sub_nn_10.hidden.bias,[-0.3905899  0.563969  -0.2045456]
sub_nn_10.out.weight,[[0.54758966 0.7981056  0.15312868]]
sub_nn_10.out.bias,[-0.35795936]
sub_nn_11.hidden.weight,[[ 0.02989845 -0.1930355 ] [-1.0612547   0.9029754 ] [ 0.66447186 -0.7758532 ]]
sub_nn_11.hidden.bias,[-0.2813132  -0.6211692  -0.68548054]
sub_nn_11.out.weight,[[ 0.2778795 -1.5541142  1.1342837]]
sub_nn_11.out.bias,[-0.23701918]
sub_nn_12.hidden.weight,[[-0.6591881   0.15786305] [-0.40011606  0.8780023 ] [-0.39674452  0.33618242]]
sub_nn_12.hidden.bias,[ 0.27650195  0.1609552  -0.64224523]
sub_nn_12.out.weight,[[-0.16741744  0.47140425  0.4491091 ]]
sub_nn_12.out.bias,[0.28248423]
sub_nn_13.hidden.weight,[[ 0.06648128  0.64355093] [-0.3937329   0.51711094] [-1.0937465  -0.84237677]]
sub_nn_13.hidden.bias,[-0.6125835  -0.36904135 -0.4006206 ]
sub_nn_13.out.weight,[[ 0.14743884  1.4916166  -0.87346804]]
sub_nn_13.out.bias,[-0.43571725]
sub_nn_14.hidden.weight,[[ 0.25769612 -0.84882355] [ 0.2601857   1.4576508 ] [-1.009008   -0.38427275]]
sub_nn_14.hidden.bias,[-0.6165065 -0.1100511  0.3497765]
sub_nn_14.out.weight,[[-0.38020638 -0.08613702 -0.5038462 ]]
sub_nn_14.out.bias,[-0.55233127]
sub_nn_15.hidden.weight,[[ 0.42445093 -0.48858657] [-0.50540835 -0.78451085] [-0.12782577  0.16866666]]
sub_nn_15.hidden.bias,[ 0.51431274 -0.25973848 -0.70244193]
sub_nn_15.out.weight,[[ 0.65977305 -0.4889896  -0.9004058 ]]
sub_nn_15.out.bias,[0.5070485]
sub_nn_16.hidden.weight,[[-0.2210585  -0.34141302] [-0.71364063  0.6083094 ] [-0.7063199   0.43138093]]
sub_nn_16.hidden.bias,[ 0.36992568  0.49953768 -0.36260077]
sub_nn_16.out.weight,[[-0.9417618  -0.02245565  0.34330803]]
sub_nn_16.out.bias,[-0.08897653]
sub_nn_17.hidden.weight,[[ 0.46194535  0.479744  ] [-1.0184553  -0.89448726] [-0.17240354  0.15604874]]
sub_nn_17.hidden.bias,[-0.40267864 -0.08235645  0.06452594]
sub_nn_17.out.weight,[[-0.79548734 -0.27937895  0.32706502]]
sub_nn_17.out.bias,[0.15246916]
sub_nn_18.hidden.weight,[[-0.13726018 -0.01440452] [ 1.1726077  -0.09957305] [ 0.0209791   0.12096251]]
sub_nn_18.hidden.bias,[-0.09567171 -0.4201178  -0.59305185]
sub_nn_18.out.weight,[[0.07767534 0.20539093 0.31521672]]
sub_nn_18.out.bias,[-0.24797618]
sub_nn_19.hidden.weight,[[-1.3286021   0.00578699] [-0.20676364 -0.3556879 ] [-0.7119239  -0.2552596 ]]
sub_nn_19.hidden.bias,[ 0.13221613 -0.06097788 -0.69676477]
sub_nn_19.out.weight,[[ 1.1701977  -0.45043325 -0.35831258]]
sub_nn_19.out.bias,[0.2973714]
sub_nn_20.hidden.weight,[[-0.10210326  0.80946106] [-0.5965724   0.97781974] [ 0.26485336  0.05815878]]
sub_nn_20.hidden.bias,[-0.5675763  -0.5271511  -0.30347204]
sub_nn_20.out.weight,[[ 0.35607848 -0.30481225  0.14174977]]
sub_nn_20.out.bias,[0.37304276]
sub_nn_21.hidden.weight,[[-0.64678824  0.7822764 ] [-0.86701936 -0.59952813] [-0.5069159   0.01849847]]
sub_nn_21.hidden.bias,[-0.07069831  0.2265826  -0.023413  ]
sub_nn_21.out.weight,[[-0.20446889 -0.34967092  0.8036978 ]]
sub_nn_21.out.bias,[0.5186758]
sub_nn_22.hidden.weight,[[ 0.21874304  0.2545341 ] [ 0.40486124 -0.39421016] [-0.42557207  0.2120237 ]]
sub_nn_22.hidden.bias,[ 0.18439269 -0.45096713 -0.31395933]
sub_nn_22.out.weight,[[ 0.84236175 -0.17113718  0.802534  ]]
sub_nn_22.out.bias,[0.21431118]
sub_nn_23.hidden.weight,[[-0.81769973  0.23631734] [-0.71596265  0.14717968] [-0.97041667 -0.37002656]]
sub_nn_23.hidden.bias,[-0.51979196  0.27960792  0.46824935]
sub_nn_23.out.weight,[[-0.1847065  1.348806  -0.6355957]]
sub_nn_23.out.bias,[-0.15980542]
sub_nn_24.hidden.weight,[[ 0.43375742 -0.18339734] [-1.2447852  -0.2603698 ] [ 1.155542   -0.3336674 ]]
sub_nn_24.hidden.bias,[ 0.1834051  -0.07168782  0.5205811 ]
sub_nn_24.out.weight,[[ 0.06248696 -0.09419288 -0.8803838 ]]
sub_nn_24.out.bias,[0.4889611]
sub_nn_25.hidden.weight,[[-1.0891542  -0.7866517 ] [ 0.15907317 -0.05944232] [-0.45168442 -0.69660044]]
sub_nn_25.hidden.bias,[ 0.04636955 -0.5774036  -0.03846532]
sub_nn_25.out.weight,[[1.0624657  0.09315838 0.7186029 ]]
sub_nn_25.out.bias,[-0.5657795]
sub_nn_26.hidden.weight,[[-1.1254078e+00  5.3778518e-04] [-2.0290023e-01  5.5706787e-01] [ 1.8380298e-01  6.2833637e-01]]
sub_nn_26.hidden.bias,[-0.41928646  0.092289    0.45534903]
sub_nn_26.out.weight,[[-0.05505956  0.7468612  -0.85018706]]
sub_nn_26.out.bias,[0.24967474]
sub_nn_27.hidden.weight,[[-0.7671196   0.3574683 ] [ 0.69407386 -0.04792381] [-0.04823628  0.16017993]]
sub_nn_27.hidden.bias,[-0.35817578 -0.12589286  0.10862825]
sub_nn_27.out.weight,[[-0.22455117  0.30200878  0.7075097 ]]
sub_nn_27.out.bias,[0.14132702]
sub_nn_28.hidden.weight,[[ 0.37856498 -0.02924621] [ 0.90312934 -0.50337756] [-1.002149   -0.59479606]]
sub_nn_28.hidden.bias,[-0.6647468   0.54482824  0.39236385]
sub_nn_28.out.weight,[[-0.25330967  0.65675604  0.49059448]]
sub_nn_28.out.bias,[0.41017973]
sub_nn_29.hidden.weight,[[-0.2670892  -0.55580366] [ 0.16406935 -0.32955253] [ 0.40205035  0.60880435]]
sub_nn_29.hidden.bias,[-0.22186741 -0.21342692  0.11190325]
sub_nn_29.out.weight,[[0.5242557  1.3282555  0.54813826]]
sub_nn_29.out.bias,[0.09158182]
sub_nn_30.hidden.weight,[[-1.2142521   0.06884673] [ 0.6974698  -0.84596   ] [-0.11489686 -0.8661955 ]]
sub_nn_30.hidden.bias,[0.4321431  0.67513907 0.2210312 ]
sub_nn_30.out.weight,[[ 0.20112202 -0.35645068  0.29612443]]
sub_nn_30.out.bias,[-0.10731989]
sub_nn_31.hidden.weight,[[-0.0334433   0.54232615] [ 0.7035892  -1.4039767 ] [-0.01173422 -1.0176704 ]]
sub_nn_31.hidden.bias,[-0.28905332  0.5115794   0.13080645]
sub_nn_31.out.weight,[[ 0.34460106  0.64013314 -0.23478307]]
sub_nn_31.out.bias,[-0.15299574]
sub_nn_32.hidden.weight,[[-0.7629211   1.0000815 ] [-1.0266505  -0.1616878 ] [ 0.87204516 -0.24952231]]
sub_nn_32.hidden.bias,[-0.11610212 -0.5322185  -0.18446875]
sub_nn_32.out.weight,[[ 0.5671172   0.26820636 -0.9081646 ]]
sub_nn_32.out.bias,[-0.3312866]
sub_nn_33.hidden.weight,[[ 0.47060072  0.39078718] [-0.11822928  0.45007846] [-0.06279716  1.381394  ]]
sub_nn_33.hidden.bias,[ 0.514715   0.1551622 -0.3733085]
sub_nn_33.out.weight,[[-0.39770633  1.1395473   0.44351506]]
sub_nn_33.out.bias,[-0.04891938]
sub_nn_34.hidden.weight,[[-0.39343533  1.292387  ] [-0.31135356 -0.17788287] [-0.12596622  0.35089722]]
sub_nn_34.hidden.bias,[ 0.15423854 -0.2842032  -0.6079902 ]
sub_nn_34.out.weight,[[ 0.68399197 -0.45779914 -0.01359063]]
sub_nn_34.out.bias,[-0.228984]
sub_nn_35.hidden.weight,[[ 0.51470166  0.8308656 ] [-0.16492558 -0.8678817 ] [-0.5020752   0.08818697]]
sub_nn_35.hidden.bias,[-0.20164198  0.09831854 -0.6063978 ]
sub_nn_35.out.weight,[[ 0.6556739  -0.51199514 -0.15825416]]
sub_nn_35.out.bias,[0.55896926]
sub_nn_36.hidden.weight,[[-0.22855324 -1.0376546 ] [ 0.24266669 -1.2014005 ] [-0.24605437 -0.13594706]]
sub_nn_36.hidden.bias,[ 0.27217898 -0.6354072  -0.30269563]
sub_nn_36.out.weight,[[-1.6761293 -0.7358123  0.5439816]]
sub_nn_36.out.bias,[-0.11926162]
sub_nn_37.hidden.weight,[[ 0.9689459   1.2521461 ] [-0.13320312  1.5251334 ] [ 0.1840252  -0.35051522]]
sub_nn_37.hidden.bias,[-0.35528532  0.17438819  0.23756537]
sub_nn_37.out.weight,[[ 0.68326724  0.04848426 -0.13763797]]
sub_nn_37.out.bias,[0.01935744]
sub_nn_38.hidden.weight,[[ 0.7036458   0.08294003] [ 0.82189924 -0.78062826] [-0.6316747  -0.23954041]]
sub_nn_38.hidden.bias,[-0.598589   -0.06467643 -0.6700645 ]
sub_nn_38.out.weight,[[ 0.22911143  0.4179654  -0.5830859 ]]
sub_nn_38.out.bias,[0.5563313]
sub_nn_39.hidden.weight,[[-0.6605683  -0.00976158] [ 0.26924497  0.8958589 ] [ 0.42253405 -0.7099777 ]]
sub_nn_39.hidden.bias,[ 0.6846171  -0.14257506  0.4017859 ]
sub_nn_39.out.weight,[[-0.72291553  0.8051321  -1.117219  ]]
sub_nn_39.out.bias,[0.287942]
sub_nn_40.hidden.weight,[[ 0.5747295   1.2106695 ] [ 1.3762422  -1.1192886 ] [-0.23899339 -0.93362975]]
sub_nn_40.hidden.bias,[-0.10667062 -0.00364341  0.41617817]
sub_nn_40.out.weight,[[0.5911536 1.239571  1.1870736]]
sub_nn_40.out.bias,[-0.40274352]
sub_nn_41.hidden.weight,[[-1.7767814  -0.26362824] [ 0.01893121  0.3392808 ] [-0.48960438 -0.2061185 ]]
sub_nn_41.hidden.bias,[ 0.35373834 -0.2499495  -0.53603923]
sub_nn_41.out.weight,[[0.7983298  0.1976047  0.10804828]]
sub_nn_41.out.bias,[0.11020911]
sub_nn_42.hidden.weight,[[ 0.4248152   0.704299  ] [-0.08732841 -0.7430202 ] [ 0.22429621 -0.49918556]]
sub_nn_42.hidden.bias,[-0.6174363  -0.58603406 -0.20607455]
sub_nn_42.out.weight,[[-0.34722048 -0.6615726   0.19049521]]
sub_nn_42.out.bias,[-0.12664714]
sub_nn_43.hidden.weight,[[-0.45056778  0.43360537] [ 0.09475513 -0.66627496] [-0.6585989   0.8594461 ]]
sub_nn_43.hidden.bias,[ 0.2659845  -0.03416304 -0.05975937]
sub_nn_43.out.weight,[[-0.36892754  0.3609      0.32676986]]
sub_nn_43.out.bias,[0.312088]
sub_nn_44.hidden.weight,[[-0.06300348 -0.89890593] [-0.8773768  -1.0004941 ] [-0.05386501  0.7477869 ]]
sub_nn_44.hidden.bias,[-0.02083749 -0.3431679  -0.6070051 ]
sub_nn_44.out.weight,[[-0.21394314  0.83624345  0.65500575]]
sub_nn_44.out.bias,[0.5620854]
sub_nn_45.hidden.weight,[[ 0.5617388  -0.38701594] [ 0.09026268  0.39862466] [-0.3224072  -0.4176223 ]]
sub_nn_45.hidden.bias,[-0.51590437  0.69166285  0.59003395]
sub_nn_45.out.weight,[[-0.21618867 -0.0255301   0.18421537]]
sub_nn_45.out.bias,[0.47954082]
sub_nn_46.hidden.weight,[[-0.4616373   0.07803657] [-0.6062226   0.02734517] [-0.690974    0.18663383]]
sub_nn_46.hidden.bias,[ 0.24300669 -0.48795438  0.3729128 ]
sub_nn_46.out.weight,[[-1.2068595   0.15547055 -1.041942  ]]
sub_nn_46.out.bias,[-0.1363225]
sub_nn_47.hidden.weight,[[ 0.4337446   0.06489304] [-0.191529    0.07613347] [ 1.2191772   0.16273205]]
sub_nn_47.hidden.bias,[-0.20185053  0.13354044 -0.23275073]
sub_nn_47.out.weight,[[-1.7103149  0.5490123  1.0202198]]
sub_nn_47.out.bias,[0.24441904]
sub_nn_48.hidden.weight,[[-0.65086335 -0.51891106] [ 0.90908176 -0.27006423] [-0.2375256   0.5565822 ]]
sub_nn_48.hidden.bias,[0.12076522 0.00369848 0.05357664]
sub_nn_48.out.weight,[[ 0.24698159  0.9058736  -0.5044225 ]]
sub_nn_48.out.bias,[0.25578934]
sub_nn_49.hidden.weight,[[ 0.8810938   1.2321906 ] [-0.7431949  -0.94185317] [ 0.59938097 -0.49117303]]
sub_nn_49.hidden.bias,[-0.1533425  -0.31662726  0.18804358]
sub_nn_49.out.weight,[[ 0.2786663  -0.53338945  0.6342806 ]]
sub_nn_49.out.bias,[0.03597641]
sub_nn_50.hidden.weight,[[-0.1955603  -1.0241835 ] [-0.2333286  -0.17338857] [ 0.649892   -0.57944316]]
sub_nn_50.hidden.bias,[0.3896988  0.03822958 0.37991118]
sub_nn_50.out.weight,[[-0.03996441  0.7698984  -0.5263406 ]]
sub_nn_50.out.bias,[-0.1578317]
sub_nn_51.hidden.weight,[[ 0.5382016  -0.12079478] [-0.7450997   0.4632641 ] [ 0.8421278   0.98266196]]
sub_nn_51.hidden.bias,[-0.18095154  0.15928698 -0.00531868]
sub_nn_51.out.weight,[[-0.09642419  0.51809484 -0.5989495 ]]
sub_nn_51.out.bias,[0.18159902]
sub_nn_52.hidden.weight,[[ 0.51798034  0.5264089 ] [ 0.32395032 -0.98022926] [-0.5603061  -1.0096571 ]]
sub_nn_52.hidden.bias,[ 0.51858455  0.06387796 -0.40440482]
sub_nn_52.out.weight,[[-0.29575676 -0.1814656  -0.9750409 ]]
sub_nn_52.out.bias,[0.26770204]
sub_nn_53.hidden.weight,[[-0.5868872  -1.4614685 ] [ 0.10596585 -0.5815685 ] [ 0.14282165 -0.01344204]]
sub_nn_53.hidden.bias,[ 0.04187242 -0.19215249  0.48996383]
sub_nn_53.out.weight,[[ 1.8717436   0.80233777 -0.43011382]]
sub_nn_53.out.bias,[-0.5202127]
sub_nn_54.hidden.weight,[[-0.68944025  0.42816475] [ 0.42408088  1.2354921 ] [ 0.06961054 -1.2296753 ]]
sub_nn_54.hidden.bias,[-0.27853933  0.6939408  -0.5399519 ]
sub_nn_54.out.weight,[[ 0.56695366 -0.5330465  -0.36950904]]
sub_nn_54.out.bias,[-0.04353714]
sub_nn_55.hidden.weight,[[ 0.23340471  0.5450215 ] [-0.57716334  0.6504487 ] [ 0.1638516   0.54572916]]
sub_nn_55.hidden.bias,[0.06482142 0.14310536 0.38495535]
sub_nn_55.out.weight,[[-0.01177568  1.7463604  -0.24794425]]
sub_nn_55.out.bias,[0.21406364]
sub_nn_56.hidden.weight,[[-0.20778835 -0.38200292] [ 0.76358837 -0.57089674] [-1.3436409   1.0093161 ]]
sub_nn_56.hidden.bias,[ 0.47971115 -0.33543947 -0.23096052]
sub_nn_56.out.weight,[[-0.5464977   0.16237988 -0.39539716]]
sub_nn_56.out.bias,[0.5551467]
sub_nn_57.hidden.weight,[[-0.5630706  -0.86018616] [-0.40980217 -0.17135566] [ 0.60688883 -0.67975134]]
sub_nn_57.hidden.bias,[ 0.01984851 -0.19931453  0.67641526]
sub_nn_57.out.weight,[[-0.03742032  0.26422638 -0.06631161]]
sub_nn_57.out.bias,[-0.13519037]
sub_nn_58.hidden.weight,[[-0.19340879 -0.30242437] [ 0.51500636 -0.41946205] [-0.29907525  0.27432582]]
sub_nn_58.hidden.bias,[-0.44136888  0.4088442  -0.28855914]
sub_nn_58.out.weight,[[1.5466413  0.24015644 1.4143927 ]]
sub_nn_58.out.bias,[0.23150355]
sub_nn_59.hidden.weight,[[ 0.02335504 -0.17187956] [ 0.9504564  -0.10320036] [-0.3584389   0.66034794]]
sub_nn_59.hidden.bias,[ 0.63497394 -0.6713024   0.11053107]
sub_nn_59.out.weight,[[-0.2769674   0.12044914 -0.0613279 ]]
sub_nn_59.out.bias,[0.53060806]
sub_nn_60.hidden.weight,[[-0.20267422 -0.43699095] [ 0.55017614 -1.1141663 ] [ 0.8296595  -0.37594   ]]
sub_nn_60.hidden.bias,[0.01871911 0.5090006  0.42124575]
sub_nn_60.out.weight,[[-0.7773213  -0.48916224 -0.69195825]]
sub_nn_60.out.bias,[-0.27203476]
sub_nn_61.hidden.weight,[[ 0.2801078  -0.83252925] [ 0.41335958  0.9103874 ] [-0.81853646 -0.1301572 ]]
sub_nn_61.hidden.bias,[-0.6559393  -0.61116606 -0.2208924 ]
sub_nn_61.out.weight,[[-0.1929691  -0.5693831  -0.46422508]]
sub_nn_61.out.bias,[-0.4551681]
sub_nn_62.hidden.weight,[[ 0.63645744  0.2697103 ] [-0.136286    1.445547  ] [-0.6364805  -1.0641648 ]]
sub_nn_62.hidden.bias,[ 0.36590034 -0.6872617   0.05519504]
sub_nn_62.out.weight,[[-0.15801534 -0.34529227  0.4421391 ]]
sub_nn_62.out.bias,[0.5654409]
sub_nn_63.hidden.weight,[[-0.31609443 -1.1209553 ] [ 0.19995284 -0.50821495] [-0.01406112 -1.2163852 ]]
sub_nn_63.hidden.bias,[-0.33523527 -0.41483533 -0.04899359]
sub_nn_63.out.weight,[[ 0.01173162  0.4873855  -1.6531973 ]]
sub_nn_63.out.bias,[-0.42067194]
sub_nn_64.hidden.weight,[[ 1.9207267  -0.9110681 ] [-0.29583177 -0.1771293 ] [ 0.10010504 -0.55304575]]
sub_nn_64.hidden.bias,[ 0.657466   -0.6024481   0.66738325]
sub_nn_64.out.weight,[[-0.28209826 -0.08790526 -0.32788235]]
sub_nn_64.out.bias,[0.09796023]
sub_nn_65.hidden.weight,[[-0.57021976 -0.51213723] [-0.34359023 -0.4209736 ] [-0.40379933 -1.3437026 ]]
sub_nn_65.hidden.bias,[-0.4033606 -0.1549967  0.5416926]
sub_nn_65.out.weight,[[ 0.13919887  0.23042466 -0.55044156]]
sub_nn_65.out.bias,[0.44782028]
sub_nn_66.hidden.weight,[[ 0.7291229   1.1170532 ] [ 0.8111105  -0.35447827] [ 0.7563506  -0.41742215]]
sub_nn_66.hidden.bias,[ 0.28718382 -0.45658302 -0.15275256]
sub_nn_66.out.weight,[[ 0.35047773 -0.7225093   0.2544474 ]]
sub_nn_66.out.bias,[-0.52801186]
sub_nn_67.hidden.weight,[[-0.6024673  -0.5700226 ] [ 0.11899605  0.23586065] [ 0.9634895   0.7316337 ]]
sub_nn_67.hidden.bias,[-0.21506745 -0.35305092  0.39784545]
sub_nn_67.out.weight,[[ 1.1793306 -0.3670382 -0.4469309]]
sub_nn_67.out.bias,[-0.3648016]
sub_nn_68.hidden.weight,[[-0.3280131  -1.1740502 ] [ 0.14328761 -0.69032645] [ 0.38461804  0.0450323 ]]
sub_nn_68.hidden.bias,[-0.4173057   0.37531596 -0.12203905]
sub_nn_68.out.weight,[[-0.3517509   0.35664684 -1.3577548 ]]
sub_nn_68.out.bias,[0.4370731]
sub_nn_69.hidden.weight,[[-0.07143143  0.12870514] [ 0.08043341 -0.64264464] [-0.7003556  -0.3331311 ]]
sub_nn_69.hidden.bias,[-0.10845052 -0.29178986 -0.10339904]
sub_nn_69.out.weight,[[ 0.62765986  0.18232986 -0.64128983]]
sub_nn_69.out.bias,[0.2836994]
sub_nn_70.hidden.weight,[[-0.43233892  0.5708877 ] [ 0.50317985  0.42867786] [ 1.0625354  -0.02195052]]
sub_nn_70.hidden.bias,[-0.20941262  0.3762341   0.09127023]
sub_nn_70.out.weight,[[-0.32150853  0.7075385   1.304899  ]]
sub_nn_70.out.bias,[0.5133828]
sub_nn_71.hidden.weight,[[-0.026739   -0.03818737] [-0.39152998 -0.7644629 ] [ 0.49275652  0.18675378]]
sub_nn_71.hidden.bias,[-0.41729534 -0.50456756  0.47884208]
sub_nn_71.out.weight,[[-0.8922151  -0.47901982  0.726112  ]]
sub_nn_71.out.bias,[-0.25415927]
sub_nn_72.hidden.weight,[[-0.08042134  1.2186012 ] [-0.17802934  0.23983935] [ 0.534854   -0.18768378]]
sub_nn_72.hidden.bias,[0.30047134 0.03975932 0.68073815]
sub_nn_72.out.weight,[[ 0.24244145 -0.04991595  0.14106746]]
sub_nn_72.out.bias,[0.01269919]
sub_nn_73.hidden.weight,[[-1.8682379   0.11099663] [-1.0641142   0.3052384 ] [-0.5902698   0.00355129]]
sub_nn_73.hidden.bias,[-0.10855869  0.1552904  -0.04882914]
sub_nn_73.out.weight,[[-0.70144945  0.15073112  0.09691744]]
sub_nn_73.out.bias,[0.3524783]
sub_nn_74.hidden.weight,[[-0.26400867 -0.39739978] [-0.03180871 -0.14776053] [ 1.7330364   0.84031415]]
sub_nn_74.hidden.bias,[-0.57415557  0.1229149   0.41740757]
sub_nn_74.out.weight,[[-0.566762   1.3987943  1.5017298]]
sub_nn_74.out.bias,[-0.0264504]
sub_nn_75.hidden.weight,[[-0.34917808  0.5867887 ] [-0.6159485  -0.19068798] [-0.04518785 -0.5150913 ]]
sub_nn_75.hidden.bias,[ 0.52027404  0.5387249  -0.40513623]
sub_nn_75.out.weight,[[ 0.00562432 -0.21687198  0.30582893]]
sub_nn_75.out.bias,[0.09043608]
sub_nn_76.hidden.weight,[[ 0.17618226 -0.22319645] [-0.63543856  0.01537116] [ 0.20448364 -0.30218863]]
sub_nn_76.hidden.bias,[-0.42501798 -0.53414774  0.17921455]
sub_nn_76.out.weight,[[-0.31078452  0.07955126 -1.2407391 ]]
sub_nn_76.out.bias,[0.20569426]
sub_nn_77.hidden.weight,[[-0.4391577 -0.7757706] [ 1.0835168  1.0853996] [-0.6208876 -1.2112027]]
sub_nn_77.hidden.bias,[-0.05959624 -0.2145131   0.00601941]
sub_nn_77.out.weight,[[-0.35106772  0.88590926  0.00828633]]
sub_nn_77.out.bias,[-0.23921552]
sub_nn_78.hidden.weight,[[-0.56394213 -0.04480292] [ 0.22807601 -0.57387215] [ 0.17522801 -0.7562708 ]]
sub_nn_78.hidden.bias,[ 0.09683269  0.24026442 -0.39534938]
sub_nn_78.out.weight,[[ 0.16330978  0.671078   -1.7519327 ]]
sub_nn_78.out.bias,[0.15304524]
sub_nn_79.hidden.weight,[[-1.1086463   0.4559315 ] [ 0.37034345  0.40140975] [ 0.5432354  -0.6541841 ]]
sub_nn_79.hidden.bias,[ 0.52089494  0.37975317 -0.08345893]
sub_nn_79.out.weight,[[ 0.38591197 -1.147128   -0.5967212 ]]
sub_nn_79.out.bias,[-0.45046547]
sub_nn_80.hidden.weight,[[ 0.04874279  0.4852079 ] [ 0.49426523 -0.61892945] [-0.21796925 -0.18082626]]
sub_nn_80.hidden.bias,[0.6026618  0.22507745 0.56251425]
sub_nn_80.out.weight,[[ 0.7154375  -0.60720295  0.01084214]]
sub_nn_80.out.bias,[0.32025325]
sub_nn_81.hidden.weight,[[-0.7777105   0.410091  ] [-0.01049011 -0.1882457 ] [-0.6212922   0.05943822]]
sub_nn_81.hidden.bias,[ 0.5091235  0.3463133 -0.537572 ]
sub_nn_81.out.weight,[[ 0.02995396 -0.74474114 -1.3038749 ]]
sub_nn_81.out.bias,[0.08764926]
sub_nn_82.hidden.weight,[[-0.36970627  0.98350817] [ 0.10562792 -0.71560687] [-0.87532663  0.14364389]]
sub_nn_82.hidden.bias,[-0.16759735  0.3681362  -0.07025028]
sub_nn_82.out.weight,[[ 0.50324816 -1.2759566  -0.09722562]]
sub_nn_82.out.bias,[-0.539101]
sub_nn_83.hidden.weight,[[-0.12413555  1.2187467 ] [ 0.3026622  -0.20487063] [-0.50835925  0.01142876]]
sub_nn_83.hidden.bias,[0.5003076  0.11240382 0.5123229 ]
sub_nn_83.out.weight,[[-0.18778299  0.17407101 -0.62992525]]
sub_nn_83.out.bias,[-0.02337867]
sub_nn_84.hidden.weight,[[-0.30910665  1.5207063 ] [ 0.27284124  0.02208167] [-0.7185838   0.54934317]]
sub_nn_84.hidden.bias,[ 0.44435737 -0.7056782  -0.5063011 ]
sub_nn_84.out.weight,[[-0.9649014  -0.33054462  1.7634485 ]]
sub_nn_84.out.bias,[0.15201974]
sub_nn_85.hidden.weight,[[-0.38651392 -0.2467586 ] [ 0.53665376 -0.9064243 ] [ 0.13788946  0.5147261 ]]
sub_nn_85.hidden.bias,[ 0.16121998  0.5588359  -0.44570786]
sub_nn_85.out.weight,[[ 0.8006771 -0.4809558  1.3985035]]
sub_nn_85.out.bias,[-0.409065]
sub_nn_86.hidden.weight,[[-0.29192644 -0.9854803 ] [ 0.5228085  -0.42158577] [ 0.66997254  0.9108965 ]]
sub_nn_86.hidden.bias,[-0.24701053  0.34086066 -0.5943059 ]
sub_nn_86.out.weight,[[0.7290475  0.19128202 0.5821135 ]]
sub_nn_86.out.bias,[-0.00230223]
sub_nn_87.hidden.weight,[[ 0.9338601  -0.29503992] [-0.23310159  0.15159155] [ 0.07295579  0.46112162]]
sub_nn_87.hidden.bias,[-0.12370264 -0.27928713  0.4951827 ]
sub_nn_87.out.weight,[[-0.01712291  0.5842495  -1.270466  ]]
sub_nn_87.out.bias,[0.22002512]
sub_nn_88.hidden.weight,[[ 0.83731383 -0.32219306] [-0.3798663  -0.0465085 ] [ 0.22354585  0.5186411 ]]
sub_nn_88.hidden.bias,[0.06116892 0.18591854 0.5817861 ]
sub_nn_88.out.weight,[[ 0.1315271   0.693385   -0.45597884]]
sub_nn_88.out.bias,[0.425866]
sub_nn_89.hidden.weight,[[-0.00940558  0.14728461] [ 0.05606959  0.4142831 ] [-0.9656001  -0.08467958]]
sub_nn_89.hidden.bias,[ 0.18027656  0.06055492 -0.6012563 ]
sub_nn_89.out.weight,[[ 0.26316985  2.0922234  -0.54754317]]
sub_nn_89.out.bias,[0.47594738]
sub_nn_90.hidden.weight,[[-0.43200433 -0.54130644] [-0.21455745  0.53961164] [-0.31809658  0.31811917]]
sub_nn_90.hidden.bias,[-0.14130235  0.33844894 -0.4006624 ]
sub_nn_90.out.weight,[[ 0.24773015 -0.10031289  0.13530798]]
sub_nn_90.out.bias,[-0.36093608]
sub_nn_91.hidden.weight,[[ 0.32159644  0.12631135] [ 0.18160893 -0.6440025 ] [ 0.17019974  0.10811411]]
sub_nn_91.hidden.bias,[0.5349075  0.48664328 0.36013967]
sub_nn_91.out.weight,[[-0.43160248  0.18429004  0.673536  ]]
sub_nn_91.out.bias,[-0.36593142]
sub_nn_92.hidden.weight,[[-0.98564637  0.04505822] [ 0.38745236  0.18183833] [ 0.08639584 -0.01307383]]
sub_nn_92.hidden.bias,[0.27596265 0.1074487  0.36655623]
sub_nn_92.out.weight,[[ 0.12052866 -0.31052312  0.3703843 ]]
sub_nn_92.out.bias,[-0.47741044]
sub_nn_93.hidden.weight,[[-0.07922979 -0.6061206 ] [ 1.0595105   0.29299083] [-0.09571876 -0.9177108 ]]
sub_nn_93.hidden.bias,[-0.37644032  0.04263109  0.69243914]
sub_nn_93.out.weight,[[ 0.04213541  0.9069044  -0.40325797]]
sub_nn_93.out.bias,[0.46019733]
sub_nn_94.hidden.weight,[[ 0.5495423 -0.3299184] [ 0.4115689  0.1333917] [-0.8964638  1.0800512]]
sub_nn_94.hidden.bias,[ 0.47459403 -0.2106651  -0.40718666]
sub_nn_94.out.weight,[[ 0.21748604 -0.45141438 -0.8819967 ]]
sub_nn_94.out.bias,[-0.32823664]
sub_nn_95.hidden.weight,[[-0.3427026  -0.0741391 ] [ 0.5248051   0.40719664] [-0.00214899 -0.05723384]]
sub_nn_95.hidden.bias,[-0.5053643   0.49033564  0.05179092]
sub_nn_95.out.weight,[[-0.35531068 -1.3102963  -1.0088805 ]]
sub_nn_95.out.bias,[-0.41988355]
sub_nn_96.hidden.weight,[[ 0.89304394 -0.3092052 ] [ 0.63755876  1.2872833 ] [ 0.11700602  0.40989047]]
sub_nn_96.hidden.bias,[-0.45638615  0.07718462 -0.13845982]
sub_nn_96.out.weight,[[-0.3814851   0.62103516  0.8489639 ]]
sub_nn_96.out.bias,[0.05459905]
sub_nn_97.hidden.weight,[[-0.3613534   0.5689713 ] [-0.14355001  0.4176312 ] [-1.0432147   0.5576624 ]]
sub_nn_97.hidden.bias,[-0.1102871   0.55439514  0.6385805 ]
sub_nn_97.out.weight,[[-0.82019657 -1.2819746  -0.25891778]]
sub_nn_97.out.bias,[-0.40935153]
sub_nn_98.hidden.weight,[[ 0.2647544  -0.25966904] [ 0.57500696  1.5692209 ] [ 0.84288186 -0.19397637]]
sub_nn_98.hidden.bias,[ 0.48518842 -0.11385621  0.11776678]
sub_nn_98.out.weight,[[-0.27225387 -0.6183843  -0.61771303]]
sub_nn_98.out.bias,[0.2528615]
sub_nn_99.hidden.weight,[[-0.07066727 -0.9227286 ] [ 1.2966527   0.47927386] [-0.7573647  -0.10550122]]
sub_nn_99.hidden.bias,[-0.60289913 -0.47597158 -0.43018648]
sub_nn_99.out.weight,[[ 0.12817083  1.0998737  -0.87751985]]
sub_nn_99.out.bias,[0.3455938]
sub_nn_100.hidden.weight,[[-0.5484565   0.08402002] [-0.22944136 -0.2549576 ] [ 0.03933569  0.62247753]]
sub_nn_100.hidden.bias,[-0.20451252 -0.14244819  0.10804784]
sub_nn_100.out.weight,[[ 0.63438785 -0.48449615 -0.8985264 ]]
sub_nn_100.out.bias,[-0.24590889]
sub_nn_101.hidden.weight,[[ 0.8356755   0.35052115] [ 0.54671353 -0.33061174] [ 0.67759514 -0.9302414 ]]
sub_nn_101.hidden.bias,[-0.6322696  -0.47723815  0.1310893 ]
sub_nn_101.out.weight,[[ 0.0813539  -0.44328544 -1.2147115 ]]
sub_nn_101.out.bias,[-0.10729229]
sub_nn_102.hidden.weight,[[ 0.4769363  -0.70977956] [ 0.36538935 -0.06102607] [-0.288892   -0.5792451 ]]
sub_nn_102.hidden.bias,[ 0.62787104 -0.6256618  -0.13777542]
sub_nn_102.out.weight,[[-0.35280836  1.2195507  -0.18817452]]
sub_nn_102.out.bias,[0.4823979]
sub_nn_103.hidden.weight,[[ 0.6703283   0.95042795] [-0.03698511 -0.01054188] [ 0.1983737   0.4608259 ]]
sub_nn_103.hidden.bias,[-0.22755174 -0.54843634 -0.55266297]
sub_nn_103.out.weight,[[ 0.26309785  1.775131   -0.35386884]]
sub_nn_103.out.bias,[0.02201837]
sub_nn_104.hidden.weight,[[ 0.49440444  0.42616117] [-0.5302087  -0.37432414] [-0.05987639 -0.43788686]]
sub_nn_104.hidden.bias,[-0.3084168  0.6462216 -0.5379381]
sub_nn_104.out.weight,[[-0.30756804  0.23916535 -1.0910845 ]]
sub_nn_104.out.bias,[0.3790025]
sub_nn_105.hidden.weight,[[ 1.0375961   0.35532355] [ 0.35782877  0.91827095] [ 0.02632862 -0.12882878]]
sub_nn_105.hidden.bias,[-0.01458531 -0.5238479  -0.3944675 ]
sub_nn_105.out.weight,[[-0.137283  -1.4439025 -0.7805941]]
sub_nn_105.out.bias,[0.00480443]
sub_nn_106.hidden.weight,[[-0.7048498  -0.13216476] [-0.2274645  -1.0442617 ] [ 0.8647423   0.56400263]]
sub_nn_106.hidden.bias,[-0.63654274 -0.1989755  -0.37909034]
sub_nn_106.out.weight,[[-0.60492927  0.34340006  0.0232241 ]]
sub_nn_106.out.bias,[0.51420486]
sub_nn_107.hidden.weight,[[-0.7533674  -0.3066313 ] [-0.25268003 -0.6412944 ] [ 0.17447452 -0.88493484]]
sub_nn_107.hidden.bias,[ 0.31726772 -0.49599135 -0.16421925]
sub_nn_107.out.weight,[[-1.1809461   0.23878428  0.5073817 ]]
sub_nn_107.out.bias,[-0.22214782]
sub_nn_108.hidden.weight,[[ 0.8773054   0.04352184] [ 0.60428363 -0.22370331] [ 0.66082984  0.5501971 ]]
sub_nn_108.hidden.bias,[ 0.18085659 -0.430047    0.64756244]
sub_nn_108.out.weight,[[-0.21224551  0.6564639   0.7795909 ]]
sub_nn_108.out.bias,[0.16033989]
sub_nn_109.hidden.weight,[[ 0.15920871 -0.21032177] [-1.1969362  -0.40657657] [ 0.68932414 -0.5886185 ]]
sub_nn_109.hidden.bias,[-0.5339317  -0.42864043  0.28693348]
sub_nn_109.out.weight,[[-0.5809495  -0.0458355  -0.00455617]]
sub_nn_109.out.bias,[0.21131492]
sub_nn_110.hidden.weight,[[-0.44133022 -0.7354024 ] [-0.07671899  0.16119178] [ 0.8684     -0.86914057]]
sub_nn_110.hidden.bias,[ 0.06926696  0.20785794 -0.5523789 ]
sub_nn_110.out.weight,[[0.19447148 1.4740661  0.34470886]]
sub_nn_110.out.bias,[0.07578963]
sub_nn_111.hidden.weight,[[ 0.68629366  0.65836775] [ 0.5937113   0.15646084] [ 0.44733182 -1.2882776 ]]
sub_nn_111.hidden.bias,[0.45191973 0.28911084 0.26675594]
sub_nn_111.out.weight,[[-0.13078399 -1.5361438   0.46108395]]
sub_nn_111.out.bias,[0.00320631]
sub_nn_112.hidden.weight,[[-0.2588625   1.1412901 ] [ 0.7599601  -0.42519847] [-0.19872835  0.23136288]]
sub_nn_112.hidden.bias,[-0.21426116 -0.30085716 -0.27621996]
sub_nn_112.out.weight,[[ 0.18959261  0.08587508 -0.6630383 ]]
sub_nn_112.out.bias,[-0.31849495]
sub_nn_113.hidden.weight,[[-0.0674767   0.85334027] [ 0.3542563  -0.2055472 ] [-1.0661225   0.20980796]]
sub_nn_113.hidden.bias,[0.10276451 0.16472664 0.09563754]
sub_nn_113.out.weight,[[0.6247041 0.6620809 0.9031259]]
sub_nn_113.out.bias,[0.28404915]
sub_nn_114.hidden.weight,[[-0.66814804 -0.11394159] [-0.20598409 -0.74646175] [ 1.1239107   0.8215017 ]]
sub_nn_114.hidden.bias,[ 0.52689433 -0.06257039  0.00573617]
sub_nn_114.out.weight,[[-0.5121061 -1.0759776 -0.6486582]]
sub_nn_114.out.bias,[0.39053982]
sub_nn_115.hidden.weight,[[-0.26002392  0.19485863] [ 1.3486191   0.2946579 ] [ 0.2681082   0.5722045 ]]
sub_nn_115.hidden.bias,[-0.700579    0.6601965   0.46346205]
sub_nn_115.out.weight,[[-0.78570825  0.17641202 -0.38517222]]
sub_nn_115.out.bias,[0.39988434]
sub_nn_116.hidden.weight,[[ 1.5856361  -0.6856172 ] [ 0.722016    0.46369058] [-0.89897364  0.30630925]]
sub_nn_116.hidden.bias,[-0.12395597  0.03896803 -0.05216934]
sub_nn_116.out.weight,[[-0.95899796 -0.8950894  -0.29245508]]
sub_nn_116.out.bias,[-0.35443783]
sub_nn_117.hidden.weight,[[-0.99464273  0.6218987 ] [-1.5865211   0.86800736] [-0.23127685  0.20914939]]
sub_nn_117.hidden.bias,[ 0.63327515 -0.34568214  0.46516737]
sub_nn_117.out.weight,[[-0.05423824 -0.24627006 -1.6952662 ]]
sub_nn_117.out.bias,[0.17120868]
sub_nn_118.hidden.weight,[[ 0.21953769 -0.24283242] [-0.2157618   1.389157  ] [ 1.0744704  -0.47087687]]
sub_nn_118.hidden.bias,[-0.04096284 -0.58175266  0.25586414]
sub_nn_118.out.weight,[[ 0.565444   -0.25722775  0.11979686]]
sub_nn_118.out.bias,[0.41569954]
sub_nn_119.hidden.weight,[[-0.42502207  0.43940756] [ 0.49782562 -0.02444756] [ 0.19509807  0.5750052 ]]
sub_nn_119.hidden.bias,[-0.69084454 -0.08543289  0.58052415]
sub_nn_119.out.weight,[[1.1767108  0.12096519 1.3281165 ]]
sub_nn_119.out.bias,[0.17338282]
sub_nn_120.hidden.weight,[[-0.86080897  0.5013628 ] [ 0.12064714 -0.6920398 ] [-0.4095508  -0.35386822]]
sub_nn_120.hidden.bias,[ 0.13293095 -0.613437    0.40916374]
sub_nn_120.out.weight,[[-0.22618596  1.4067488   0.27997264]]
sub_nn_120.out.bias,[-0.2809158]
sub_nn_121.hidden.weight,[[-0.5446233   0.34347418] [ 0.79048467  0.01323995] [ 0.6917526   0.2930605 ]]
sub_nn_121.hidden.bias,[-0.12853551 -0.36052087  0.57757896]
sub_nn_121.out.weight,[[-0.35867748 -1.0320976  -0.42276818]]
sub_nn_121.out.bias,[0.08062875]
sub_nn_122.hidden.weight,[[-0.49363387 -1.3682656 ] [ 0.2662014  -0.5194771 ] [-1.8943206   0.7606638 ]]
sub_nn_122.hidden.bias,[ 0.32654065  0.33886433 -0.5380282 ]
sub_nn_122.out.weight,[[0.06818596 0.1438373  0.6170263 ]]
sub_nn_122.out.bias,[0.46741104]
sub_nn_123.hidden.weight,[[ 0.02364907  0.04419573] [-0.22303475 -0.12744522] [-0.32605186 -1.3583223 ]]
sub_nn_123.hidden.bias,[-0.00251217 -0.21940377  0.446027  ]
sub_nn_123.out.weight,[[-0.7880876   0.63542587 -0.5381359 ]]
sub_nn_123.out.bias,[-0.17472926]
sub_nn_124.hidden.weight,[[ 0.60615236  1.3680706 ] [-0.23711193 -0.3846693 ] [-0.14427201  1.0922998 ]]
sub_nn_124.hidden.bias,[ 0.26672912  0.24718001 -0.08584096]
sub_nn_124.out.weight,[[ 0.08994323 -0.76781195 -0.95986307]]
sub_nn_124.out.bias,[-0.5136386]
sub_nn_125.hidden.weight,[[ 0.541054   -0.20249796] [ 0.17108709  0.92336684] [ 0.10210329  0.31621844]]
sub_nn_125.hidden.bias,[-0.15714857  0.10312164  0.06475329]
sub_nn_125.out.weight,[[-0.75809914  0.50797004  1.0380208 ]]
sub_nn_125.out.bias,[-0.10056612]
sub_nn_126.hidden.weight,[[-1.0704166  -0.02192701] [ 0.03681489 -0.50572336] [ 0.21481681 -1.1279402 ]]
sub_nn_126.hidden.bias,[-0.40053758 -0.36973572  0.5535391 ]
sub_nn_126.out.weight,[[0.1942161  0.77563894 0.30134696]]
sub_nn_126.out.bias,[0.19013411]
sub_nn_127.hidden.weight,[[-1.2532349   0.547037  ] [ 0.4991457  -0.00248065] [-0.11899935 -0.43320423]]
sub_nn_127.hidden.bias,[ 0.14819986 -0.6878347  -0.03519464]
sub_nn_127.out.weight,[[-0.1909941   0.37503096  1.4049485 ]]
sub_nn_127.out.bias,[0.1753993]
sub_nn_128.hidden.weight,[[ 0.33214778 -0.8122102 ] [-0.07314587 -0.2547711 ] [ 0.09314794 -1.4069215 ]]
sub_nn_128.hidden.bias,[ 0.08290295  0.11175065 -0.6359915 ]
sub_nn_128.out.weight,[[-1.1023985   1.049872    0.96228427]]
sub_nn_128.out.bias,[0.05832177]
sub_nn_129.hidden.weight,[[ 1.876852    1.4394864 ] [ 0.41427833 -0.80598587] [-1.3691046   0.17240241]]
sub_nn_129.hidden.bias,[ 0.3387254 -0.1322626 -0.691433 ]
sub_nn_129.out.weight,[[-0.53528905 -1.065128   -0.17307122]]
sub_nn_129.out.bias,[-0.24462989]
sub_nn_130.hidden.weight,[[ 0.13498735  0.5230797 ] [ 0.57905596 -0.03923698] [-0.42114004  1.4638326 ]]
sub_nn_130.hidden.bias,[ 0.56536025 -0.5918404   0.5166961 ]
sub_nn_130.out.weight,[[-0.5853166   0.14113751 -0.3077802 ]]
sub_nn_130.out.bias,[-0.53891855]
sub_nn_131.hidden.weight,[[ 0.96747524  0.01640919] [ 0.50004894  0.40942642] [-0.0021204   0.05800086]]
sub_nn_131.hidden.bias,[ 0.660001   -0.6125044  -0.26027513]
sub_nn_131.out.weight,[[-0.18334039 -0.5020018  -0.911173  ]]
sub_nn_131.out.bias,[0.07289773]
sub_nn_132.hidden.weight,[[-0.6009377   0.28342998] [ 0.13624923  0.18562435] [-0.45520163  0.15544532]]
sub_nn_132.hidden.bias,[-0.05346241  0.34444004 -0.6240747 ]
sub_nn_132.out.weight,[[ 0.5985698  -0.63553154 -1.2581018 ]]
sub_nn_132.out.bias,[0.3737346]
sub_nn_133.hidden.weight,[[ 0.77863336  0.9557161 ] [ 0.52351165 -0.4429182 ] [ 0.08187086  0.20532252]]
sub_nn_133.hidden.bias,[ 0.20512009 -0.3205916   0.31296045]
sub_nn_133.out.weight,[[-1.0763654   0.26790774 -0.11086084]]
sub_nn_133.out.bias,[0.53611636]
sub_nn_134.hidden.weight,[[-0.10370831  0.66636497] [-1.2076634  -1.0443828 ] [ 0.6356104   1.1115605 ]]
sub_nn_134.hidden.bias,[-0.02610373  0.5165189  -0.4670711 ]
sub_nn_134.out.weight,[[-0.36061242 -0.01159383  1.0950238 ]]
sub_nn_134.out.bias,[-0.03184098]
sub_nn_135.hidden.weight,[[-0.7570525  -0.41673246] [-0.4550607  -0.8329707 ] [ 0.1495056   1.1450411 ]]
sub_nn_135.hidden.bias,[-0.61417776 -0.30698338 -0.6814945 ]
sub_nn_135.out.weight,[[ 0.08843596 -1.2924446  -0.3109956 ]]
sub_nn_135.out.bias,[0.2827683]
sub_nn_136.hidden.weight,[[ 0.05871867 -0.14786349] [ 0.29319927 -0.20998667] [ 0.15148126 -0.2480162 ]]
sub_nn_136.hidden.bias,[-0.33277842 -0.5898736   0.59415406]
sub_nn_136.out.weight,[[-0.676881  -1.8465137 -0.7258538]]
sub_nn_136.out.bias,[0.12937534]
sub_nn_137.hidden.weight,[[ 0.8968245  -0.7978475 ] [-0.2256392   0.33497494] [ 0.09134922 -0.00970234]]
sub_nn_137.hidden.bias,[0.5312323  0.15539198 0.19311196]
sub_nn_137.out.weight,[[-1.115327   0.4569046 -1.3789955]]
sub_nn_137.out.bias,[0.09500229]
sub_nn_138.hidden.weight,[[ 0.3753352  -0.5602219 ] [ 0.35105985 -1.4396173 ] [-0.33799085 -0.9267214 ]]
sub_nn_138.hidden.bias,[ 0.7009918  -0.44602165 -0.44233927]
sub_nn_138.out.weight,[[ 0.07161963 -1.0815439   0.7387702 ]]
sub_nn_138.out.bias,[-0.5742759]
sub_nn_139.hidden.weight,[[-1.2640736   0.23467621] [ 0.05451724  1.0396328 ] [ 0.6808798  -0.47177243]]
sub_nn_139.hidden.bias,[ 0.5113022  -0.32267103  0.4946283 ]
sub_nn_139.out.weight,[[-0.14296521 -0.3073165  -0.22107893]]
sub_nn_139.out.bias,[-0.2018373]
sub_nn_140.hidden.weight,[[-1.4389958  -0.08314342] [-0.05294067 -1.1781886 ] [-0.43931785 -0.505801  ]]
sub_nn_140.hidden.bias,[0.6763695  0.24837694 0.39151543]
sub_nn_140.out.weight,[[-0.29283443 -0.9367315   0.05148447]]
sub_nn_140.out.bias,[0.41781136]
sub_nn_141.hidden.weight,[[ 0.011233   -0.3772062 ] [ 0.1004736   0.03477444] [ 0.7070253  -0.20796539]]
sub_nn_141.hidden.bias,[ 0.33876067 -0.25015673  0.57450926]
sub_nn_141.out.weight,[[ 0.7750833   0.31397268 -0.6927328 ]]
sub_nn_141.out.bias,[0.01023304]
sub_nn_142.hidden.weight,[[ 0.5625404   0.11760737] [-0.13709669 -0.34881422] [-0.38915148 -0.15642837]]
sub_nn_142.hidden.bias,[-0.65118605  0.546202    0.26845637]
sub_nn_142.out.weight,[[-0.02007726  0.07836798 -0.7541081 ]]
sub_nn_142.out.bias,[0.15992463]
sub_nn_143.hidden.weight,[[-0.37391347 -0.26846057] [ 0.01555517 -0.01384779] [-0.21135351 -0.77195686]]
sub_nn_143.hidden.bias,[ 0.23077774 -0.6302176  -0.52331686]
sub_nn_143.out.weight,[[-0.48035175 -0.34960794  0.15894862]]
sub_nn_143.out.bias,[0.49617147]
sub_nn_144.hidden.weight,[[-0.17826353 -1.3242882 ] [ 1.0277091   0.03928271] [-0.02786933  0.86128753]]
sub_nn_144.hidden.bias,[0.06794496 0.31781358 0.47943726]
sub_nn_144.out.weight,[[ 0.9600449   0.47030935 -0.07618846]]
sub_nn_144.out.bias,[0.17818278]
sub_nn_145.hidden.weight,[[ 0.56784225 -0.12023259] [ 0.8111468   0.16062759] [-0.66016376 -0.5649186 ]]
sub_nn_145.hidden.bias,[-0.08202261 -0.67988867  0.4524712 ]
sub_nn_145.out.weight,[[ 0.59731716 -0.364483   -0.64604723]]
sub_nn_145.out.bias,[0.5103929]
sub_nn_146.hidden.weight,[[ 0.30710152  0.14746241] [ 0.11180405 -1.0454308 ] [-0.5896489  -2.6550267 ]]
sub_nn_146.hidden.bias,[ 0.55930847  0.07420512 -0.14554691]
sub_nn_146.out.weight,[[-0.52951825 -0.7717011   0.15920061]]
sub_nn_146.out.bias,[-0.5446736]
sub_nn_147.hidden.weight,[[-0.31361967  0.56964105] [ 0.41414124  0.719231  ] [ 0.42058304 -0.68239516]]
sub_nn_147.hidden.bias,[ 0.4844167   0.45113236 -0.6732229 ]
sub_nn_147.out.weight,[[ 0.31815603 -1.0712363  -0.17141327]]
sub_nn_147.out.bias,[0.09613121]
sub_nn_148.hidden.weight,[[ 0.9773905   0.08683301] [-0.30384442  0.6191401 ] [-0.09997336 -0.39506662]]
sub_nn_148.hidden.bias,[0.03366548 0.11662643 0.15202922]
sub_nn_148.out.weight,[[ 0.22034447 -0.3271012   1.2945092 ]]
sub_nn_148.out.bias,[-0.28476164]
sub_nn_149.hidden.weight,[[-0.10206836 -0.9299449 ] [-0.9232357   0.41540405] [ 0.67029625  1.4878799 ]]
sub_nn_149.hidden.bias,[ 0.19880018 -0.02687015 -0.06467446]
sub_nn_149.out.weight,[[-0.63172907  1.0519906  -0.29953235]]
sub_nn_149.out.bias,[0.39801204]
sub_nn_150.hidden.weight,[[ 0.219548   -0.41185635] [ 0.73786026 -0.3574492 ] [-0.7766682  -0.00638442]]
sub_nn_150.hidden.bias,[-0.5471495   0.21682371 -0.45026648]
sub_nn_150.out.weight,[[-0.13012627  0.07510577  0.00744905]]
sub_nn_150.out.bias,[-0.27548128]
sub_nn_151.hidden.weight,[[-0.52180165 -1.444271  ] [-0.17407778 -0.65033025] [-0.16444424 -0.08151052]]
sub_nn_151.hidden.bias,[-0.64003074  0.40293777  0.28903353]
sub_nn_151.out.weight,[[-0.33987427  0.16822635 -0.58998847]]
sub_nn_151.out.bias,[0.40927354]
sub_nn_152.hidden.weight,[[-0.84199804  0.5361684 ] [ 0.20625009  0.04827964] [ 0.48627168  0.16775548]]
sub_nn_152.hidden.bias,[-0.22681716  0.38078648 -0.50357395]
sub_nn_152.out.weight,[[0.6740867  0.68537337 0.543688  ]]
sub_nn_152.out.bias,[0.27253383]
sub_nn_153.hidden.weight,[[ 0.69163436 -0.19361474] [ 0.25060868 -0.12007812] [-0.02538213  0.27218974]]
sub_nn_153.hidden.bias,[-0.03653638  0.07504117  0.19552355]
sub_nn_153.out.weight,[[ 0.6745286  -0.00766311 -0.44139883]]
sub_nn_153.out.bias,[-0.44577217]
sub_nn_154.hidden.weight,[[-0.49410248  0.5887559 ] [-0.4885631  -0.54060036] [-1.4513237   0.05780288]]
sub_nn_154.hidden.bias,[-0.27627558 -0.5415762   0.14609364]
sub_nn_154.out.weight,[[-0.87771463 -0.04207927 -0.23133664]]
sub_nn_154.out.bias,[0.25490063]
sub_nn_155.hidden.weight,[[-0.5191451  -0.9438409 ] [ 0.28812557  0.03699399] [ 1.2424802  -0.86181736]]
sub_nn_155.hidden.bias,[-0.29869622  0.6701787   0.645487  ]
sub_nn_155.out.weight,[[-0.50070614  0.5609756   0.682398  ]]
sub_nn_155.out.bias,[-0.34164357]
sub_nn_156.hidden.weight,[[-0.5663779  -1.673468  ] [-0.05879277  1.2601492 ] [-0.3008721  -0.22490449]]
sub_nn_156.hidden.bias,[0.00342116 0.071399   0.00966552]
sub_nn_156.out.weight,[[ 0.36715484  0.7241595  -1.2774084 ]]
sub_nn_156.out.bias,[0.5330051]
sub_nn_157.hidden.weight,[[-0.820229   -1.3660777 ] [ 1.6292536   1.376446  ] [ 0.15615666 -0.39515394]]
sub_nn_157.hidden.bias,[-0.69548595 -0.00230403 -0.56399673]
sub_nn_157.out.weight,[[0.8049211 0.3177321 0.6272834]]
sub_nn_157.out.bias,[0.28280133]
sub_nn_158.hidden.weight,[[ 0.9735529   0.6111443 ] [-0.83905745 -1.415485  ] [ 0.06351011  1.1500362 ]]
sub_nn_158.hidden.bias,[-0.6590546  -0.19963396  0.52225953]
sub_nn_158.out.weight,[[ 0.43334657  0.6028323  -0.19864622]]
sub_nn_158.out.bias,[0.26370937]
sub_nn_159.hidden.weight,[[ 0.6797879   0.4414823 ] [-0.00162254  0.30071068] [-0.8535008   1.1695127 ]]
sub_nn_159.hidden.bias,[-0.07199618 -0.64138764  0.28441188]
sub_nn_159.out.weight,[[1.0343428 0.5041477 0.6325839]]
sub_nn_159.out.bias,[0.24550551]
sub_nn_160.hidden.weight,[[ 0.5437446  -0.5500459 ] [ 0.679049   -0.08847886] [ 0.5109644   0.40011868]]
sub_nn_160.hidden.bias,[ 0.33190343  0.2634631  -0.2757487 ]
sub_nn_160.out.weight,[[-0.8113856  -0.58872926 -0.7638801 ]]
sub_nn_160.out.bias,[-0.07650697]
sub_nn_161.hidden.weight,[[ 0.13259043  0.6306921 ] [ 0.08514991 -0.53114134] [ 0.44605598 -0.7923348 ]]
sub_nn_161.hidden.bias,[-0.33709505 -0.24613525  0.424252  ]
sub_nn_161.out.weight,[[ 0.3102144  -0.50649846 -0.37486666]]
sub_nn_161.out.bias,[-0.25627813]
sub_nn_162.hidden.weight,[[-0.5183109   0.58283406] [ 0.56598645  0.3813687 ] [ 0.02090148  0.5487311 ]]
sub_nn_162.hidden.bias,[-0.25226757 -0.5963218   0.46695572]
sub_nn_162.out.weight,[[-0.1928774  0.5732569 -0.7135497]]
sub_nn_162.out.bias,[0.0120129]
sub_nn_163.hidden.weight,[[-0.11544252  0.73015034] [-1.2871311   0.08628178] [ 0.9474926   0.41136533]]
sub_nn_163.hidden.bias,[-0.17259845  0.11862105  0.55979484]
sub_nn_163.out.weight,[[ 0.32272577  0.6169281  -0.6146125 ]]
sub_nn_163.out.bias,[-0.22134691]
sub_nn_164.hidden.weight,[[ 0.76277876 -0.24617162] [-0.23264185  1.1821733 ] [-1.2751601   0.04847552]]
sub_nn_164.hidden.bias,[ 0.12773995 -0.31116658  0.34768102]
sub_nn_164.out.weight,[[ 0.04574344 -0.16839284  0.34179795]]
sub_nn_164.out.bias,[-0.26648688]
sub_nn_165.hidden.weight,[[-0.0485483   0.11499182] [ 0.25029173 -0.38660434] [-0.5356508   0.59175664]]
sub_nn_165.hidden.bias,[0.04163838 0.27421755 0.52273244]
sub_nn_165.out.weight,[[-0.06964605  0.23735899 -0.38508096]]
sub_nn_165.out.bias,[0.11003834]
sub_nn_166.hidden.weight,[[-0.39021182 -0.08511647] [ 0.7830615   0.5726862 ] [ 0.04960168  0.14252892]]
sub_nn_166.hidden.bias,[ 0.5446257  -0.10836396  0.15956265]
sub_nn_166.out.weight,[[-0.15177977 -0.87442243  0.6166699 ]]
sub_nn_166.out.bias,[-0.41716933]
sub_nn_167.hidden.weight,[[-0.62820023 -0.35990402] [ 0.19311637 -0.3826382 ] [-0.38662705 -0.51886123]]
sub_nn_167.hidden.bias,[ 0.68141955 -0.4338459  -0.03528005]
sub_nn_167.out.weight,[[-0.34116778  1.5820811   0.9191855 ]]
sub_nn_167.out.bias,[-0.17743719]
sub_nn_168.hidden.weight,[[-0.04639277 -0.09472491] [ 1.3382384   1.5060403 ] [ 0.40030655 -0.1944848 ]]
sub_nn_168.hidden.bias,[0.46808714 0.6472841  0.4561226 ]
sub_nn_168.out.weight,[[-1.1035511 -0.6315904 -0.5954227]]
sub_nn_168.out.bias,[0.24158716]
sub_nn_169.hidden.weight,[[-0.62427634 -0.7620918 ] [-0.6738089   0.12745981] [-0.08603238 -0.25872776]]
sub_nn_169.hidden.bias,[-0.4080748  -0.69448715 -0.55603707]
sub_nn_169.out.weight,[[-0.32880622  1.7790618   0.09882474]]
sub_nn_169.out.bias,[0.5767864]
sub_nn_170.hidden.weight,[[-1.2827841  -0.09876914] [ 0.2899119  -0.94583523] [-0.35311913 -0.27938062]]
sub_nn_170.hidden.bias,[-0.04124838  0.01383286 -0.13180035]
sub_nn_170.out.weight,[[ 0.6176089  -0.20103751  0.44116357]]
sub_nn_170.out.bias,[-0.05864251]
sub_nn_171.hidden.weight,[[ 0.1308864  -0.71879226] [-1.086073    0.03402602] [-0.57714295 -0.47079304]]
sub_nn_171.hidden.bias,[-0.08026113  0.04856201 -0.06276828]
sub_nn_171.out.weight,[[-0.6058656  -0.17829742  0.2170869 ]]
sub_nn_171.out.bias,[-0.53150284]
sub_nn_172.hidden.weight,[[-0.284196   -0.00864557] [-0.9267953   0.99010056] [-0.27266482  1.0594764 ]]
sub_nn_172.hidden.bias,[ 0.08347195  0.17486969 -0.04109748]
sub_nn_172.out.weight,[[-0.70001554 -0.9986708   0.6649719 ]]
sub_nn_172.out.bias,[-0.2523795]
sub_nn_173.hidden.weight,[[ 0.608284    0.4317033 ] [-0.16895677 -0.22003534] [ 1.6536797   0.44569153]]
sub_nn_173.hidden.bias,[-0.5727272   0.00839591 -0.44512695]
sub_nn_173.out.weight,[[ 0.05351593 -0.96914303 -1.6556716 ]]
sub_nn_173.out.bias,[-0.02298075]
sub_nn_174.hidden.weight,[[-0.45681936 -0.3341455 ] [-0.65126735  1.7206898 ] [-0.11757909  1.3651769 ]]
sub_nn_174.hidden.bias,[0.12889045 0.09807117 0.544288  ]
sub_nn_174.out.weight,[[ 0.2731632   0.14134844 -0.27366072]]
sub_nn_174.out.bias,[0.38923937]
sub_nn_175.hidden.weight,[[ 1.0902529   0.7926119 ] [-0.87671065  0.21559215] [ 0.31549987 -0.78907996]]
sub_nn_175.hidden.bias,[ 0.27602804 -0.519209   -0.39886478]
sub_nn_175.out.weight,[[-0.09595661  0.8150691  -0.24387324]]
sub_nn_175.out.bias,[-0.1556127]
sub_nn_176.hidden.weight,[[-1.7789667   0.45330432] [-0.27647007  0.5216353 ] [-0.36475602 -0.9160986 ]]
sub_nn_176.hidden.bias,[-0.6044548  -0.6354806  -0.36763507]
sub_nn_176.out.weight,[[-0.30758765 -1.0386326   0.78205806]]
sub_nn_176.out.bias,[-0.3018992]
sub_nn_177.hidden.weight,[[-0.14178105  0.30314976] [-0.31892198 -0.1406211 ] [-0.6909373  -0.7313975 ]]
sub_nn_177.hidden.bias,[-0.41114214  0.5655652   0.6166922 ]
sub_nn_177.out.weight,[[-0.32100293  0.11165077  0.53658897]]
sub_nn_177.out.bias,[-0.5062459]
sub_nn_178.hidden.weight,[[-0.29239294  0.17752092] [ 1.2189244   0.8209369 ] [ 1.2408351   0.03073877]]
sub_nn_178.hidden.bias,[-0.03389236  0.11190474 -0.6997912 ]
sub_nn_178.out.weight,[[-0.795066   1.0066966 -0.7452845]]
sub_nn_178.out.bias,[0.420776]
sub_nn_179.hidden.weight,[[ 0.12320571  0.26876304] [ 0.04896586  1.2079266 ] [ 0.8134734  -0.36147082]]
sub_nn_179.hidden.bias,[ 0.39556044 -0.2041383  -0.29219735]
sub_nn_179.out.weight,[[ 0.16194905  1.5275112  -0.05654576]]
sub_nn_179.out.bias,[0.18736452]
sub_nn_180.hidden.weight,[[ 0.8678175  -0.6559748 ] [ 0.30049774  0.798265  ] [-0.0544556   0.2617285 ]]
sub_nn_180.hidden.bias,[-0.6512301   0.19084728  0.34756812]
sub_nn_180.out.weight,[[ 0.15867344  0.03586153 -0.47764382]]
sub_nn_180.out.bias,[0.10098857]
sub_nn_181.hidden.weight,[[-0.48406002  1.3036599 ] [ 1.4213649   0.6741778 ] [ 0.91391027 -0.590201  ]]
sub_nn_181.hidden.bias,[ 0.5294028  -0.0557547  -0.42384097]
sub_nn_181.out.weight,[[-1.4343683 -0.3326209  0.4313791]]
sub_nn_181.out.bias,[0.415698]
sub_nn_182.hidden.weight,[[-0.00621369 -0.33097348] [-0.59118193  0.2523593 ] [-1.1126732   0.5754604 ]]
sub_nn_182.hidden.bias,[-0.03403246 -0.3728647  -0.70549285]
sub_nn_182.out.weight,[[-0.6489412   0.61988336 -0.9007617 ]]
sub_nn_182.out.bias,[-0.09903029]
sub_nn_183.hidden.weight,[[-0.45494702 -0.34255284] [ 0.63491535 -0.37757346] [-0.35808524  0.218923  ]]
sub_nn_183.hidden.bias,[ 0.3445805  -0.2940252   0.35065255]
sub_nn_183.out.weight,[[-1.2862438  -0.68229914 -0.5715877 ]]
sub_nn_183.out.bias,[0.21935606]
sub_nn_184.hidden.weight,[[-0.12951525  1.0334476 ] [-0.11327338 -0.9853988 ] [-0.01324216 -0.14367196]]
sub_nn_184.hidden.bias,[ 0.48124796  0.6372842  -0.3322617 ]
sub_nn_184.out.weight,[[ 0.54300356 -0.5027005  -1.8019915 ]]
sub_nn_184.out.bias,[-0.25918788]
sub_nn_185.hidden.weight,[[-0.48126754  0.87947404] [ 0.5096385  -0.89264214] [ 0.04636588 -0.7422596 ]]
sub_nn_185.hidden.bias,[ 0.4821971  -0.57707536  0.5386038 ]
sub_nn_185.out.weight,[[-0.46082196 -0.05818363  0.01611332]]
sub_nn_185.out.bias,[-0.08756885]
sub_nn_186.hidden.weight,[[-0.363276   -0.27463177] [ 0.31450105  0.519325  ] [-0.34074578  0.9357795 ]]
sub_nn_186.hidden.bias,[0.01368744 0.1780613  0.322554  ]
sub_nn_186.out.weight,[[-0.49599996  0.8600464   0.7083772 ]]
sub_nn_186.out.bias,[-0.49257752]
sub_nn_187.hidden.weight,[[-0.10758972 -0.21434167] [ 0.45102668  0.7123638 ] [ 0.90660673 -0.33694193]]
sub_nn_187.hidden.bias,[-0.06089926 -0.55660975  0.38025108]
sub_nn_187.out.weight,[[ 0.92935055 -0.5361512   0.07343947]]
sub_nn_187.out.bias,[0.43779266]
sub_nn_188.hidden.weight,[[ 1.0967379  -0.08183218] [-0.51581883 -0.58501697] [-1.3798319   0.11197821]]
sub_nn_188.hidden.bias,[0.1258047  0.49878675 0.20681863]
sub_nn_188.out.weight,[[ 0.37395468 -0.19844821  1.5009048 ]]
sub_nn_188.out.bias,[-0.03285551]
sub_nn_189.hidden.weight,[[ 0.56086874  0.35689825] [-0.34637368 -0.7701978 ] [-0.2841375  -0.1567681 ]]
sub_nn_189.hidden.bias,[-0.30063927  0.3593008   0.51279885]
sub_nn_189.out.weight,[[-1.6948595   0.39549175  0.31551462]]
sub_nn_189.out.bias,[-0.444171]
sub_nn_190.hidden.weight,[[ 0.60205674 -1.2020152 ] [ 0.06381787  0.9096894 ] [-0.48537406  0.464685  ]]
sub_nn_190.hidden.bias,[ 0.41557643 -0.6514324  -0.2814845 ]
sub_nn_190.out.weight,[[-1.0725738   0.04553366 -0.11454581]]
sub_nn_190.out.bias,[-0.5641326]
sub_nn_191.hidden.weight,[[0.67460895 0.6228887 ] [0.5929997  0.37050676] [0.73620933 0.82185674]]
sub_nn_191.hidden.bias,[-0.03492739  0.45843524 -0.59781307]
sub_nn_191.out.weight,[[ 0.37628934  0.31879684 -0.07487596]]
sub_nn_191.out.bias,[-0.09627113]
sub_nn_192.hidden.weight,[[-0.10565998 -0.4626946 ] [ 0.10104246  0.29585934] [-0.20156819  0.39262575]]
sub_nn_192.hidden.bias,[0.34408256 0.62058    0.5475173 ]
sub_nn_192.out.weight,[[-0.91368014 -0.31597868  0.18014216]]
sub_nn_192.out.bias,[-0.2288754]
sub_nn_193.hidden.weight,[[ 0.6412795   0.3245197 ] [ 0.32742614 -0.47933456] [ 0.5087879  -0.48503348]]
sub_nn_193.hidden.bias,[-0.27105442  0.13479465 -0.26282868]
sub_nn_193.out.weight,[[ 0.3323819 -0.2162335 -0.18512  ]]
sub_nn_193.out.bias,[-0.29075798]
sub_nn_194.hidden.weight,[[-0.2826305  -0.07805463] [-0.69179857  0.02701266] [-0.20812686 -0.6239293 ]]
sub_nn_194.hidden.bias,[ 0.6762118  -0.68759596  0.20352338]
sub_nn_194.out.weight,[[-0.02642127  0.45890915  0.8373797 ]]
sub_nn_194.out.bias,[0.02991915]
sub_nn_195.hidden.weight,[[-0.219154    0.4404465 ] [-0.6104943  -0.30153954] [ 0.0348921   1.017416  ]]
sub_nn_195.hidden.bias,[ 0.6920925  -0.51051754 -0.61140054]
sub_nn_195.out.weight,[[-0.5878646  0.8855733 -1.2082201]]
sub_nn_195.out.bias,[0.0144434]
sub_nn_196.hidden.weight,[[-0.4891107  -0.28861204] [ 1.2347349   0.45614356] [ 0.4893868   0.7525294 ]]
sub_nn_196.hidden.bias,[ 0.6750217  -0.12219929 -0.06736708]
sub_nn_196.out.weight,[[-0.78574395 -0.7206947  -0.2590277 ]]
sub_nn_196.out.bias,[-0.3584225]
sub_nn_197.hidden.weight,[[-0.41395485  0.02526088] [-0.6043733  -0.2791683 ] [ 0.19334772  0.26656702]]
sub_nn_197.hidden.bias,[ 0.3399959  -0.43859443 -0.12208223]
sub_nn_197.out.weight,[[-0.187574   1.332231  -0.3560762]]
sub_nn_197.out.bias,[0.33982992]
sub_nn_198.hidden.weight,[[-1.050021    0.11019827] [ 0.6647832  -0.47259977] [-0.3087648   0.34467578]]
sub_nn_198.hidden.bias,[-0.68424004 -0.14399408 -0.11094147]
sub_nn_198.out.weight,[[-0.28002918 -0.0324911  -0.26547265]]
sub_nn_198.out.bias,[-0.43986565]
sub_nn_199.hidden.weight,[[ 0.9537208  -0.54222673] [ 0.22908767  0.03377384] [-0.58855605 -0.32363737]]
sub_nn_199.hidden.bias,[-0.26722327 -0.15144879  0.55847394]
sub_nn_199.out.weight,[[1.0681902 0.1295775 1.7976128]]
sub_nn_199.out.bias,[-0.46047318]
sub_nn_200.hidden.weight,[[ 0.13324869 -0.2696727 ] [ 0.30965358  0.4548588 ] [-0.7768956  -0.01309931]]
sub_nn_200.hidden.bias,[ 0.03635505 -0.703007   -0.49646163]
sub_nn_200.out.weight,[[ 0.2166632   0.11712544 -0.05165807]]
sub_nn_200.out.bias,[-0.2795992]
sub_nn_201.hidden.weight,[[ 0.18734512  0.988513  ] [-0.251678    0.50407094] [ 0.22799212 -0.1348835 ]]
sub_nn_201.hidden.bias,[-0.5737637  -0.584684   -0.11246238]
sub_nn_201.out.weight,[[ 0.34386608 -0.23539057 -2.1413915 ]]
sub_nn_201.out.bias,[0.03685874]
sub_nn_202.hidden.weight,[[ 0.10165747  0.5813373 ] [-0.40443572 -0.41607392] [-0.01330192  0.7252955 ]]
sub_nn_202.hidden.bias,[0.11789823 0.2924769  0.5647986 ]
sub_nn_202.out.weight,[[-1.4054637   0.53587514  0.27790144]]
sub_nn_202.out.bias,[0.11781347]
sub_nn_203.hidden.weight,[[-0.2811574   0.89434713] [ 0.73723483 -0.5520437 ] [ 0.05924249 -0.26848596]]
sub_nn_203.hidden.bias,[ 0.5872433   0.17511827 -0.14440314]
sub_nn_203.out.weight,[[-1.1339694   0.20300078 -0.12394619]]
sub_nn_203.out.bias,[-0.11981249]
sub_nn_204.hidden.weight,[[-1.0277259   0.26327857] [ 1.3110383  -1.0975715 ] [ 0.62750643  0.53070176]]
sub_nn_204.hidden.bias,[ 0.4618553   0.49615526 -0.5148954 ]
sub_nn_204.out.weight,[[-0.54942465 -1.0386312  -0.35327435]]
sub_nn_204.out.bias,[-0.01197565]
sub_nn_205.hidden.weight,[[-0.8256591   0.5473993 ] [-0.54157495  0.5113865 ] [-0.5108901  -0.09862871]]
sub_nn_205.hidden.bias,[-0.02486863  0.52008057 -0.29156396]
sub_nn_205.out.weight,[[-0.36783004 -0.90560704  0.24342686]]
sub_nn_205.out.bias,[0.04968941]
sub_nn_206.hidden.weight,[[-0.6079544   0.15046372] [ 1.239125   -0.9320969 ] [ 0.5048302   0.2829592 ]]
sub_nn_206.hidden.bias,[ 0.48437843 -0.25348863 -0.45720327]
sub_nn_206.out.weight,[[-0.55547994 -0.30915555  0.21948299]]
sub_nn_206.out.bias,[-0.04531789]
sub_nn_207.hidden.weight,[[-0.41789767  0.05566854] [-0.32905617  0.03604484] [-1.1460742  -0.3239228 ]]
sub_nn_207.hidden.bias,[-0.06420749 -0.2883612  -0.68349284]
sub_nn_207.out.weight,[[ 0.30325523 -0.31723893  0.8357215 ]]
sub_nn_207.out.bias,[0.5638582]
sub_nn_208.hidden.weight,[[ 0.12658504 -0.31178877] [ 0.18767606  0.37801597] [-0.6894531  -0.57652986]]
sub_nn_208.hidden.bias,[ 0.09559082  0.23859501 -0.54123694]
sub_nn_208.out.weight,[[-1.0399619   0.50805813 -1.1599143 ]]
sub_nn_208.out.bias,[0.46506834]
sub_nn_209.hidden.weight,[[ 1.3684036   0.6482748 ] [ 0.08696627 -0.16207221] [ 0.26528865  0.33575264]]
sub_nn_209.hidden.bias,[-0.31730154  0.6874908  -0.32773727]
sub_nn_209.out.weight,[[ 0.3602168  0.8328655 -0.7885596]]
sub_nn_209.out.bias,[0.36088723]
sub_nn_210.hidden.weight,[[-0.8352766  -1.0628667 ] [-0.59752494 -0.18762848] [-0.322343   -0.35657713]]
sub_nn_210.hidden.bias,[ 0.11736619  0.5706783  -0.01596522]
sub_nn_210.out.weight,[[-1.216164    0.19249275  0.95493066]]
sub_nn_210.out.bias,[0.02783139]
sub_nn_211.hidden.weight,[[ 1.0213639  -0.5686535 ] [ 0.20930992 -0.81527483] [ 0.7991732  -0.04910563]]
sub_nn_211.hidden.bias,[-0.17057812 -0.20175721  0.5654686 ]
sub_nn_211.out.weight,[[-0.1720616 -0.3928883  0.6745365]]
sub_nn_211.out.bias,[-0.41293204]
sub_nn_212.hidden.weight,[[ 0.10832725 -0.43436083] [-0.84536767  0.41597715] [-0.1688049   0.00195574]]
sub_nn_212.hidden.bias,[-0.23828651 -0.4136178   0.5943834 ]
sub_nn_212.out.weight,[[ 0.21345186 -0.8714214  -0.2369478 ]]
sub_nn_212.out.bias,[-0.42839438]
sub_nn_213.hidden.weight,[[ 0.7177003   0.06428511] [-0.29429188  0.08891385] [-0.12686333 -1.29074   ]]
sub_nn_213.hidden.bias,[ 0.5317164  0.3153681 -0.6792955]
sub_nn_213.out.weight,[[ 1.1129667  -0.4045023   0.41857025]]
sub_nn_213.out.bias,[-0.2864469]
sub_nn_214.hidden.weight,[[ 0.5854395  -0.47405154] [-0.92150646 -0.7297978 ] [ 0.5837282  -0.81937575]]
sub_nn_214.hidden.bias,[ 0.09879372  0.41818887 -0.09362639]
sub_nn_214.out.weight,[[-0.5734873  -0.2777438  -0.11623612]]
sub_nn_214.out.bias,[-0.21959373]
sub_nn_215.hidden.weight,[[-0.26984492  0.00546812] [ 0.9464537   0.42001012] [ 0.36076942  0.8378238 ]]
sub_nn_215.hidden.bias,[ 0.594187   -0.43544278  0.12419301]
sub_nn_215.out.weight,[[-0.70772386  0.01319174 -0.20057456]]
sub_nn_215.out.bias,[0.28862]
sub_nn_216.hidden.weight,[[ 0.59847784 -0.03060019] [-0.829176    0.30208746] [-0.90098953 -0.165471  ]]
sub_nn_216.hidden.bias,[ 0.3592679  -0.34910065 -0.32171178]
sub_nn_216.out.weight,[[ 0.11278    -0.87188673 -1.217807  ]]
sub_nn_216.out.bias,[0.18420011]
sub_nn_217.hidden.weight,[[-0.42437017  0.9281471 ] [ 0.66412246  0.15885815] [-0.03470095 -0.05498455]]
sub_nn_217.hidden.bias,[0.19814618 0.02784389 0.6670968 ]
sub_nn_217.out.weight,[[ 0.66790545 -1.0046549   0.19691414]]
sub_nn_217.out.bias,[0.04049677]
sub_nn_218.hidden.weight,[[-0.9362982   0.31572393] [ 1.4624298  -1.2526555 ] [ 0.04158657 -0.23566853]]
sub_nn_218.hidden.bias,[ 0.6655441  -0.21971028 -0.11644692]
sub_nn_218.out.weight,[[-1.3507884  -1.0006266  -0.13761494]]
sub_nn_218.out.bias,[0.3791989]
sub_nn_219.hidden.weight,[[-0.19075675  0.03147709] [ 0.39811772  1.1126828 ] [ 1.0527385   0.02718564]]
sub_nn_219.hidden.bias,[-0.05060596  0.2822984   0.07170063]
sub_nn_219.out.weight,[[-0.31959584  1.1396432  -0.16298126]]
sub_nn_219.out.bias,[-0.16928777]
sub_nn_220.hidden.weight,[[-0.17438321 -0.6612039 ] [-1.1077712   0.32668486] [-1.3230709   0.23328032]]
sub_nn_220.hidden.bias,[ 0.11455388  0.25980452 -0.5801956 ]
sub_nn_220.out.weight,[[ 0.20103112  0.06523499 -0.73668236]]
sub_nn_220.out.bias,[-0.5469959]
sub_nn_221.hidden.weight,[[-0.12517251 -0.12835069] [-0.30392906  0.39902657] [ 0.0489974  -0.93710226]]
sub_nn_221.hidden.bias,[ 0.03111465 -0.4624155  -0.24011613]
sub_nn_221.out.weight,[[ 0.59729123  0.30949095 -0.557286  ]]
sub_nn_221.out.bias,[0.50224674]
sub_nn_222.hidden.weight,[[ 0.92600495  0.17899716] [ 0.46579257 -0.32352597] [-0.28247786  0.9029169 ]]
sub_nn_222.hidden.bias,[0.4437241  0.34943286 0.56326395]
sub_nn_222.out.weight,[[-0.03895599 -0.4794329   0.08305412]]
sub_nn_222.out.bias,[-0.09544846]
sub_nn_223.hidden.weight,[[-0.4776618  -0.03924474] [ 0.46914002 -0.41130623] [ 0.5825152  -0.4295195 ]]
sub_nn_223.hidden.bias,[ 0.60931313  0.58169633 -0.59789664]
sub_nn_223.out.weight,[[-0.4489678   0.7299967  -0.02341732]]
sub_nn_223.out.bias,[-0.55394435]
sub_nn_224.hidden.weight,[[-0.04062624  0.34045562] [ 0.37637442 -0.9536769 ] [ 0.12641184  0.3533792 ]]
sub_nn_224.hidden.bias,[-0.01143908 -0.5914192  -0.6478096 ]
sub_nn_224.out.weight,[[0.56300193 0.6126046  1.2574389 ]]
sub_nn_224.out.bias,[0.4220088]
sub_nn_225.hidden.weight,[[ 0.23356116  0.00583611] [ 0.48830488 -0.03301138] [ 0.36149248  0.9584298 ]]
sub_nn_225.hidden.bias,[-0.33625838  0.34591204  0.5016399 ]
sub_nn_225.out.weight,[[ 0.57695097 -0.90039027  1.3049471 ]]
sub_nn_225.out.bias,[-0.3874765]
sub_nn_226.hidden.weight,[[ 0.8208882   0.22730884] [-0.14518166  0.85052687] [ 0.59076685 -0.09272747]]
sub_nn_226.hidden.bias,[ 0.61821824 -0.6249455  -0.5384852 ]
sub_nn_226.out.weight,[[2.862654  0.6326849 0.7328272]]
sub_nn_226.out.bias,[0.12105793]
sub_nn_227.hidden.weight,[[ 1.0817834  -0.329552  ] [ 1.2753806  -0.9373879 ] [-0.53239506  0.1090987 ]]
sub_nn_227.hidden.bias,[-0.5173262   0.56706864 -0.181201  ]
sub_nn_227.out.weight,[[-0.14657873 -0.1498707   0.20996119]]
sub_nn_227.out.bias,[0.53407764]
sub_nn_228.hidden.weight,[[0.63406956 1.5622647 ] [0.6967591  0.1732882 ] [0.05317547 0.3716807 ]]
sub_nn_228.hidden.bias,[-0.24230796 -0.2513544   0.6406509 ]
sub_nn_228.out.weight,[[ 0.0995691  -0.64423317  0.4170636 ]]
sub_nn_228.out.bias,[-0.11688718]
sub_nn_229.hidden.weight,[[-0.29435226  0.21650779] [ 0.6871717   1.2414249 ] [ 1.2516029  -0.1644068 ]]
sub_nn_229.hidden.bias,[-0.43603432  0.49390477 -0.5045619 ]
sub_nn_229.out.weight,[[ 1.0773108  -0.49779028  1.5206192 ]]
sub_nn_229.out.bias,[0.25723666]
sub_nn_230.hidden.weight,[[-0.0298479 -0.5705782] [-0.7435822  0.5610335] [ 0.2602373 -0.2994442]]
sub_nn_230.hidden.bias,[-0.00506872 -0.23594722 -0.23739775]
sub_nn_230.out.weight,[[-0.06158238  0.4050198   0.53430253]]
sub_nn_230.out.bias,[-0.4630152]
sub_nn_231.hidden.weight,[[-0.9380891   0.56944454] [ 1.054236   -0.20658283] [-0.03750664 -0.31173605]]
sub_nn_231.hidden.bias,[-0.0644995  -0.44375518  0.14464675]
sub_nn_231.out.weight,[[-0.02623622 -0.6121377   1.3883204 ]]
sub_nn_231.out.bias,[0.27767897]
sub_nn_232.hidden.weight,[[ 0.21455143  0.46596646] [-0.505093   -0.86938673] [ 0.7929334   0.00549936]]
sub_nn_232.hidden.bias,[0.2291789  0.3644001  0.65689546]
sub_nn_232.out.weight,[[-0.0007676  -0.3750269   0.47153297]]
sub_nn_232.out.bias,[-0.43777776]
sub_nn_233.hidden.weight,[[ 0.8602319  -0.4341232 ] [ 0.19071399  1.1837816 ] [ 0.9920259   0.08358354]]
sub_nn_233.hidden.bias,[0.083129   0.20308453 0.4232698 ]
sub_nn_233.out.weight,[[-0.86438864  1.166122    0.24727406]]
sub_nn_233.out.bias,[0.3785165]
sub_nn_234.hidden.weight,[[-0.38003084 -0.46056473] [ 0.4890394   0.5730071 ] [-0.6558709  -0.22022386]]
sub_nn_234.hidden.bias,[-0.13362497 -0.35542583  0.15786481]
sub_nn_234.out.weight,[[-0.23444235 -0.8599501  -0.05279242]]
sub_nn_234.out.bias,[0.32445723]
sub_nn_235.hidden.weight,[[-0.86375475  0.06581886] [-0.804178    0.40975896] [ 0.38045537 -0.04238337]]
sub_nn_235.hidden.bias,[ 0.44501042  0.3588517  -0.56085414]
sub_nn_235.out.weight,[[-1.7564138  -0.8802998  -0.40667525]]
sub_nn_235.out.bias,[0.20572025]
sub_nn_236.hidden.weight,[[-0.7604069  -0.17764503] [-0.37742537  0.5389366 ] [-0.03488808  0.8998083 ]]
sub_nn_236.hidden.bias,[-0.44838774  0.46631157 -0.579527  ]
sub_nn_236.out.weight,[[-0.2604573   0.19220945  0.06652005]]
sub_nn_236.out.bias,[0.18315816]
sub_nn_237.hidden.weight,[[-0.99698484 -0.18292178] [-0.7934795   1.2463787 ] [ 1.9751362   0.60516244]]
sub_nn_237.hidden.bias,[ 0.18456312  0.3146627  -0.08091617]
sub_nn_237.out.weight,[[-0.91041976  1.4702154   0.42447498]]
sub_nn_237.out.bias,[0.38966691]
sub_nn_238.hidden.weight,[[ 0.65717864 -1.5523877 ] [-0.29797894 -1.5433908 ] [-0.6235022  -0.14254008]]
sub_nn_238.hidden.bias,[-0.7045158  -0.02794158  0.12197024]
sub_nn_238.out.weight,[[-0.36064106  0.16548347  0.23231786]]
sub_nn_238.out.bias,[0.07004201]
sub_nn_239.hidden.weight,[[ 0.14819355 -0.5791187 ] [-0.60696435  0.21802667] [-0.7004292   0.25623894]]
