w,[ 0.04961652  0.7673285   0.08916556  0.21356958  0.46981642 -0.17211913  0.10970373]
w_ng,[ 0.31671587  0.16556357 -0.09616711  0.13018613 -0.13746068]
hidden1.weight,[[ 0.05194875 -0.12027615 -0.02659326 ...  0.04260556  0.06790955   0.08711117] [ 0.00603783  0.07007584 -0.00972865 ...  0.02494377  0.00836236  -0.02265458] [ 0.01183938  0.07508147  0.06206964 ... -0.08637285 -0.04883166  -0.01972003] ... [ 0.05315281  0.02934882  0.05980173 ... -0.0775457  -0.01778812   0.01476543] [ 0.08755655 -0.05212969 -0.0293806  ...  0.11704975 -0.05503727   0.0036696 ] [-0.04076228 -0.01559175  0.04695018 ...  0.06341173 -0.00928283   0.00640433]]
hidden1.bias,[-0.02513454  0.00481476 -0.02038659 -0.01524343  0.04313928 -0.01375327  0.05218059 -0.04852704  0.00942971 -0.00965818 -0.04387855 -0.01523032  0.05103762  0.03396783 -0.01557096  0.05192295  0.02754991  0.003363 -0.03143921 -0.01007081 -0.04674106 -0.05447752 -0.0532668   0.03554476 -0.01009381 -0.04903045  0.00081652  0.00866496 -0.03702521  0.02505665 -0.01865816 -0.00666487 -0.02147504  0.05632332 -0.05371144  0.03704229  0.03060069  0.01525722 -0.03839046 -0.0338127  -0.02055161  0.01016875 -0.00553316 -0.00991943 -0.01103749 -0.03772626  0.02487708  0.01728761 -0.04168748 -0.03758037  0.01839988  0.05455963 -0.01093059 -0.0296966  0.00324811  0.05747413  0.057301    0.01595838 -0.01165981  0.02661565  0.00204831 -0.00197564 -0.01789645 -0.0312926  -0.04246723  0.01588725  0.05466758 -0.00616847 -0.00923816 -0.05661655  0.04551469  0.02833709 -0.00835763  0.02243607  0.02069385  0.00144389 -0.02391909 -0.02936139 -0.04263037  0.03905162 -0.02746597  0.04277158 -0.0253583   0.03949587 -0.04880191 -0.02133041 -0.05155726  0.02893633 -0.03797547 -0.05717142  0.03785034 -0.01104005  0.03836415  0.00297609 -0.00504006 -0.0329712  0.00813417 -0.00725754 -0.04182699  0.03151266  0.02335047 -0.00344731 -0.05302808 -0.02371309 -0.0545563  -0.04548489 -0.03351523 -0.05200816 -0.03212861 -0.02282097  0.02847509  0.01258088  0.04655348 -0.03878372  0.01040763 -0.01957747 -0.0006715   0.04078075 -0.03993096 -0.01963623  0.03658861 -0.00933966  0.03346394  0.0259161  -0.01700119  0.01211565  0.02446861  0.00293799  0.01768853  0.012215   -0.00056586 -0.03202971  0.02517109 -0.01425022 -0.01469089 -0.03700253 -0.02919427 -0.04857847 -0.0139318  -0.04541674 -0.05079783 -0.0013168   0.02409172  0.00905311 -0.04274578  0.0262345   0.03630824  0.00871522  0.02313457 -0.03055388  0.00669813 -0.03445923  0.04152298 -0.04560846  0.02015332  0.01716436  0.0133083   0.03614321 -0.00013118 -0.03600801  0.00637563 -0.04677273  0.01461542  0.01317368  0.01521948  0.03229335 -0.04312851  0.03335112 -0.0334879   0.00993669 -0.04508571 -0.01768056  0.03014235  0.02971862  0.02359778 -0.00035203  0.03197295 -0.02961346 -0.04236532  0.04166504  0.04145813  0.01530123  0.00803997 -0.01575599  0.01687165 -0.03188603  0.0112716  -0.05477523  0.02758589 -0.0475349   0.06080752 -0.00654188  0.05535607  0.0079928   0.02052657  0.00110149  0.03319725  0.03804998  0.05004024 -0.03554517 -0.0415892   0.01302108  0.04444289 -0.03856384 -0.00804639  0.04118351  0.04581791  0.02815036  0.04151611  0.01992242  0.01882413  0.04686117 -0.05471166  0.05584934 -0.04950934 -0.03489022  0.0296251   0.04718791 -0.01217113 -0.05300659 -0.04726833 -0.01623942  0.02399138  0.00899678 -0.04416922 -0.03771022 -0.05165469 -0.03613514 -0.01067195  0.04762845 -0.02108237  0.04148388 -0.01769279  0.00177896 -0.01446329  0.00878305 -0.06734911  0.03646142  0.01550664  0.01707285  0.00987755 -0.0209624  -0.01591484  0.03490844 -0.04847324 -0.02544907  0.03407646 -0.00569624  0.0264224   0.01134125  0.05382796 -0.0546924  0.00146701 -0.0585257   0.00104119  0.03184513  0.03323581 -0.04982891  0.0030035  -0.0185692   0.05377045 -0.01410272 -0.02375072 -0.00166552 -0.05283644 -0.03205301 -0.01998966  0.01315936  0.00973081 -0.00282331  0.02838295 -0.000305    0.01705441  0.03442266  0.05665454  0.01313089  0.00954981  0.00493627  0.01487354  0.00204655  0.02461819  0.02917719  0.0214623  -0.01280092 -0.03670168  0.04186795  0.00403057  0.00478144  0.03748501 -0.05262417 -0.04192688  0.04944167 -0.00400039  0.03724533 -0.04608771  0.04349222  0.05114383  0.04311373 -0.03102248 -0.05499461 -0.00574403  0.003113    0.02555971  0.02461291 -0.0272133   0.01474627 -0.01251716  0.00953338  0.05338865  0.00562562  0.02754276 -0.03658804 -0.01312631  0.05632166 -0.03091139 -0.0507597  -0.02763965 -0.05457432 -0.0531235   0.04189599  0.05217081  0.04735726  0.0081344   0.02692622  0.01058742 -0.04653889 -0.00166363  0.04683198 -0.03315166  0.01350615 -0.03900386  0.03459993 -0.03360829  0.02010496 -0.04206398  0.00965744 -0.00378564 -0.03064305 -0.05733884 -0.0198904  -0.00635012 -0.04422626  0.02924911  0.04572992 -0.04475994  0.03909482  0.00493051 -0.02522675  0.03704053  0.01265724  0.02830108  0.02100367  0.04594697  0.0046616  0.00809863  0.02614815  0.04983259  0.03987745  0.03107373 -0.03268395  0.04441099 -0.0304409   0.02813606  0.03027688  0.04092457  0.00587888  0.05563201 -0.0167094  -0.01845683  0.00640967 -0.03956005 -0.04163498  0.04273197  0.03955172  0.01267269  0.0280347   0.01941007  0.00195935 -0.03307621  0.03576321 -0.04608389  0.04540303  0.02772596 -0.01657862 -0.02240208 -0.00044996 -0.01789579  0.01638958  0.03620497  0.05255981  0.01306852 -0.01764476 -0.02300866  0.03326881 -0.02304211 -0.04538161 -0.01243159  0.00192244  0.03772815  0.01031884]
hidden2.weight,[[-0.12074503 -0.00413858 -0.00109236 ...  0.05890531  0.1030789  -0.00257255] [ 0.067277   -0.06485281 -0.0318385  ... -0.07883572  0.08044358   0.03655596] [-0.05206312 -0.07470308  0.0739845  ... -0.04316693  0.03991504   0.01114746] ... [-0.00293163 -0.02644246 -0.01749573 ...  0.02033775  0.07152093  -0.01919493] [-0.07898819  0.08471404  0.04088063 ...  0.08328531  0.04427707   0.03350786] [-0.10629077  0.09211441  0.05439844 ...  0.00161094 -0.05650637   0.03920569]]
hidden2.bias,[-0.00518969 -0.05593554  0.02393928 -0.06653587 -0.02497685 -0.02447054  0.03992691 -0.0380567   0.0357995   0.04009137  0.0047866  -0.00955216  0.06992846 -0.02845744  0.05380204  0.01207697 -0.02035723 -0.03665913 -0.01336861  0.0224312   0.00638322 -0.04074028 -0.06485116 -0.03692001 -0.03889011 -0.01647583  0.02867134 -0.01104336 -0.00170546 -0.03761899  0.01348069  0.04246753 -0.06093701  0.05640842 -0.03004844 -0.02797638 -0.02062088  0.03378499 -0.01525151  0.00201567]
out.weight,[[-0.1351273  -0.17085102  0.16479224 -0.05945361 -0.1833127   0.28031877   0.17588495  0.00123411 -0.30250317 -0.21867642  0.08547837  0.26940793  -0.03384165 -0.0705082   0.02166101 -0.47806948 -0.05551351 -0.02070489  -0.3654131   0.06497433 -0.18353382  0.15468301 -0.14035815 -0.00690793   0.09665618 -0.00429073 -0.2957241   0.38400698  0.28804925  0.02303387  -0.05390926 -0.0638069   0.0528268   0.4433796   0.2563661  -0.10577598  -0.04885476  0.057261    0.06874402  0.3727987 ] [-0.06815977 -0.00466513 -0.03291296  0.2736556   0.3157926  -0.31679842   0.08123901  0.00302683  0.21367285 -0.12970407  0.02324118  0.23855482  -0.16721135 -0.00267039  0.04736153 -0.34823996 -0.11359704  0.12200709   0.3393414   0.08213189 -0.01724635  0.24242431  0.23203069  0.14952114  -0.40563393  0.01407569 -0.03136463 -0.13208619  0.08651623 -0.27120057  -0.19669944  0.27048558  0.09321079 -0.00094051 -0.11435638  0.11280639  -0.14071958 -0.14305821 -0.18074483 -0.01584596] [ 0.04195939  0.21908939  0.32344422  0.3281808  -0.09999153  0.13775729   0.13714613 -0.11767433 -0.27864382 -0.2516052   0.2866539   0.05067761   0.12795009  0.17095482  0.37481958 -0.21220365 -0.15234128  0.22661613   0.02515592  0.18153416  0.46974105 -0.0461559   0.01328736  0.14175202  -0.04843536  0.12427767 -0.07366529  0.0519135  -0.21683718  0.06895377  -0.00105431  0.1253113  -0.26529306  0.02475709 -0.07223556 -0.35464448   0.1669236   0.10238167 -0.46516526 -0.29239598] [-0.17072594 -0.25421295  0.05043057 -0.08853827  0.13756159 -0.05540967  -0.06735199 -0.09465045 -0.22434433  0.07968195  0.21668127 -0.34252566   0.08152716 -0.2960392  -0.02223945  0.068313    0.02835187  0.37346873  -0.09442934 -0.06058953  0.05418413 -0.1577418  -0.07442424 -0.08108794   0.03673281  0.32476094 -0.20051526  0.02505098 -0.10658258  0.03701832   0.08402569 -0.02584164  0.04145516 -0.23894046  0.07486847  0.04444488  -0.19414848 -0.18113731 -0.05785485  0.03876903] [ 0.32534438  0.00896711 -0.04337578  0.04781237 -0.30170643  0.07211689   0.08366829  0.08977348 -0.07720902 -0.03038268 -0.23132297  0.10257816   0.20906645 -0.2106166   0.10765997 -0.123777   -0.20589001 -0.15840273  -0.23620598  0.05924099  0.01571873  0.02312352  0.25009978 -0.04538574   0.05631189  0.07079013  0.03603674 -0.35512033  0.04317686 -0.16349827  -0.10053994  0.13943711 -0.26878852  0.16154903  0.07190312 -0.09494365   0.04395806 -0.15131441  0.0908262  -0.10183899] [-0.00700836 -0.23857363 -0.41640043  0.3121156  -0.08650497  0.19857694  -0.10064249 -0.03905766 -0.31466225 -0.20464022 -0.15203851  0.05275605  -0.39408624  0.01560911 -0.40844232 -0.34972095  0.27028477  0.1980414   0.09387213  0.44421548 -0.2392274   0.5771774   0.27165127  0.23425564   0.20028466  0.04071866  0.1818672  -0.03971661 -0.25981775  0.40664265  -0.08041309 -0.41856447  0.10759772  0.10491876 -0.3448439   0.29101872  -0.0824218  -0.18867898  0.33430764  0.13218147] [ 0.3291937  -0.07548378  0.05160472 -0.34603745 -0.17591153  0.10725435   0.02524319  0.0280838  -0.19932045  0.09160626 -0.05841319  0.06061782   0.16334207  0.22541457  0.0527178   0.32416484 -0.30205545  0.2887494   0.2049432  -0.32482955 -0.19258653 -0.3038534   0.08739594  0.12023391   0.23944244 -0.00189071 -0.30265212  0.04874405 -0.11096944 -0.17102545   0.12546048  0.20788613 -0.00177929  0.2790047   0.29002097 -0.37978482   0.1841485  -0.13072781 -0.07726344  0.6581637 ]]
out.bias,[ 0.01999998  0.01379552  0.00774807 -0.16307683  0.14806712 -0.0496723  0.15504771]
bn0.weight,[1.0015708  1.0018562  1.0049682  0.99543774 0.99850583 0.9992386 1.0002079  0.9994241  1.0034317  1.0004476  0.99780107 1.0005478 0.99653345 1.0009124  0.99256927 0.99841964 0.9995363  0.9972051 0.9976943  0.99165666 0.99813306 0.996645   0.9965718  0.9983515 1.0025946  1.0003818  0.9967725  0.99750155 1.0013403  1.0025345 0.999699   0.99952763 0.9955253  0.99703723 0.99664277 1.0006212 1.00513    1.0028058  0.9972684  0.99278754 1.0005188  1.0012743 0.9969356  0.9967875  1.0006006  0.9946633  1.0025142  0.9957415 1.0018929  0.9958405  1.0016614  0.99511546 1.0000883  0.99680686 0.9945716  0.9995675  0.9953428  0.99923813 0.99994874 0.9962288 0.9972131  1.001443   0.99257845 0.99686426 1.0001757  1.0022078 1.0016081  1.0051595  0.99670935 1.003786   1.0007963  0.99566615 1.0012548  0.99608326 0.99904615 0.9973742  1.0019891  0.99854946 0.9978778  0.9959115  0.9955296  0.9967631  0.99601114 0.9985562 1.0021316  1.0001554  0.9983806  0.9985467  0.99794525 0.9937102 1.0012574  0.99770534 1.0003172  0.9984838  1.0014265  0.99998397 1.0098343  0.999835   0.9971277  1.0017356  0.99670535 0.9938568 0.99464524 0.9977569  0.9985708  1.0006399  0.9967944  0.99359393 0.9998972  0.9988475  0.9974901  0.99448895 0.9977562  0.9952463 0.9984807  0.99915063 0.9962507  0.99714905 0.99856645 1.0051072 1.0018201  0.99691373 1.0000741  0.9987777  1.0032353  1.0014943 0.9986012  0.9964821  0.99607396 0.99942935 0.99687356 0.9988115 0.99517816 1.0017678  0.9982308  1.0021912  0.9991296  1.0022821 1.0090764  0.998356   0.99358547 1.0015761  0.99492365 0.99862844 0.99619037 0.9979275  0.9999673  1.0059549  1.0004563  0.9986434 1.0035913  0.9981806  0.9973968  0.99591494 0.9961444  1.0020449 0.9971646  0.99991703 1.0026251  0.9995578  1.000148   0.9990976 1.0008024  0.99709755 0.994418   1.0068607  0.9974974  1.0013005 0.9951135  0.9994479  0.9943232  0.9971643  0.9982761  0.99316305 0.9965439  1.0011653  1.000907   1.0008398  0.9971591  1.003975 0.9980866  0.99381983 1.001586   1.0021764  1.0007443  1.0007364 1.0006092  0.9983851  0.9925614  1.0014801  1.0009006  0.99998534 0.9976947  0.99827325 1.0018892  0.9977387  1.0050099  1.001346 0.9968145  0.997214   0.99624467 0.99892324 0.999763   1.0009085 0.99982613 0.994016   0.9999685  1.0005738  0.99944806 1.0022271 1.0001487  1.0038295  0.9975815  1.0023574  1.0006801  0.9964866 0.9982335  0.99916774 1.0026407  1.006731   1.0022577  0.9980155 0.99884754 0.9966617  0.9981932  0.9953987  0.9991497  1.0004617 0.99761176 1.0005772  1.0000738  1.0035937  1.0009406  1.0000602 0.99710774 0.99893105 0.99964875 1.0016613  1.0003561  0.99795455 0.9954757  0.99946886 0.9987505  0.9926349  0.9956629  0.9965266 0.99775606 1.0049495  0.99430096 1.0026124  0.9999728  0.9981133 0.9968549  1.0006729  1.0005796  0.9992568  0.99792767 1.000736 0.99990994 1.0013722  0.99903077 0.99540824 0.99816394 1.0033967 1.0011203  1.0027877  0.9998738  0.996006   1.0031779  0.99986064 0.9969866  1.001812   1.0029982  0.9988136  0.99901307 0.9985886 0.9964614  0.99976635 1.0038576  0.9990489  0.9988004  0.99873346 0.9992019  1.0005257  1.0005473  0.99934256 0.99831724 0.997684 1.0017071  1.0000575  1.0003079  0.9950347  1.0007831  1.0011636 0.9998781  0.9992924  0.9961265  0.99947184 0.99725276 1.0030168 1.0019666  1.0007651  0.99528354 1.0031196  0.9969176  0.9977676 0.99747145 1.0013319  0.9977656  1.0035096  0.99707633 0.9964336 0.99792117 1.0003321  1.0044528  0.99999714 0.9931469  0.99721724 1.0006595  0.99841815 0.99782854 0.99764836 0.99560827 0.99678195 0.99497133 0.99877363 1.0021275  1.000211   0.9995891  0.999156 0.9981818  1.0009423  0.9980779  1.0031618  0.9983735  1.0063928 ]
bn0.bias,[-2.31761209e-04  8.87828763e-04 -2.19231029e-03  5.74409310e-03  8.40676134e-04 -3.80928954e-03 -4.01356211e-03  7.50354520e-05 -3.88247869e-03  4.21350542e-03 -1.92151085e-04 -1.58006942e-03 -5.29619912e-03 -3.01468419e-03 -1.38794285e-05  1.58186234e-03 -5.16845984e-03 -2.24155514e-03  3.76466033e-03  4.15765122e-03  5.74679673e-03  2.25226185e-03  3.68982414e-03  2.25566793e-03  2.59359414e-03  9.31869261e-03 -1.37195003e-03  3.64024728e-03  1.93193625e-03 -1.70144462e-03  2.91602197e-03 -1.92546519e-03  5.52798947e-03  1.07505983e-02  1.84557121e-03  7.38196773e-03  3.08936898e-04 -2.93474225e-03  6.02524634e-03  1.33605283e-02  4.34858864e-03  6.90575317e-03 -1.36210630e-03 -1.30051305e-03 -4.73963795e-03 -7.80589227e-03  7.68294465e-03  5.43553790e-04 -1.61052577e-03  3.69466376e-03 -2.59153923e-04 -1.22446129e-02 -3.38160014e-03  2.11616769e-03 -3.25485901e-03 -3.75837064e-03 -2.87373620e-03  6.16121455e-04 -5.82331140e-03 -3.54639231e-03  3.14586126e-04 -1.01494873e-02 -1.35100086e-03  8.14373046e-03 -1.36486324e-03  2.63473252e-03 -2.22098781e-03 -4.48873965e-03 -6.62089651e-03 -6.44560845e-04  1.12761545e-03 -4.40780714e-04 -8.77879001e-03 -6.91494159e-03  5.61307138e-03 -7.24360533e-03 -1.68828433e-03  6.10506814e-03 -4.04387200e-03 -3.40885576e-03 -2.19520196e-04 -2.32061907e-03 -1.65584520e-03  6.76859869e-04  1.32181146e-03  1.17841745e-02 -1.07202847e-02  5.84365288e-03  4.77483915e-03 -5.60772326e-03  9.93545726e-03 -5.43639180e-04  1.95747707e-03  5.15044993e-03  6.59919903e-03  3.09270713e-03  1.62584556e-03 -8.23976845e-03 -4.64691641e-03 -2.42919615e-03 -8.73273937e-04  9.28706396e-03  7.38519616e-03 -7.76309427e-03  5.25699230e-03  3.53595149e-03 -6.24144264e-03 -8.62718001e-03 -6.02468196e-03  4.76103369e-03  7.92151038e-03  1.51331362e-03 -2.10360717e-03  6.82554999e-03  6.17627800e-03 -9.37234703e-03 -1.34552363e-02 -3.12406057e-03  4.87201556e-04  2.27947626e-03  3.26680043e-03  8.19951389e-03  1.02562236e-03  8.57388426e-04  5.54778846e-04 -1.78526272e-03  3.15279001e-03  2.83655873e-03  4.29122522e-03  1.04775997e-02  6.27587130e-03  4.17910144e-03 -1.46743283e-03 -4.64497786e-03  2.33921059e-03  1.13882776e-02  9.86758806e-03 -4.35930939e-04 -9.28607211e-03 -4.75924928e-03 -4.60912567e-03  1.19692599e-03  1.09587163e-02  2.45541311e-03  7.15815753e-04 -4.47412860e-03  5.74075105e-03  6.32660463e-03 -1.27623754e-03 -1.78391871e-04 -4.73229168e-03 -1.17730454e-03 -3.56238242e-03 -3.55328503e-03 -7.47247227e-03  4.74579958e-03 -6.81816414e-03 -2.17514881e-03  3.09930812e-03  5.28325932e-03 -4.05260129e-03 -7.77450274e-04 -5.16983587e-03  7.81782158e-03 -6.90875622e-03  6.73470367e-03 -2.91291531e-03  8.45839456e-03  1.03401346e-02  2.28026416e-03  8.38408619e-03 -3.46732978e-03 -6.34948781e-04 -4.50012769e-04 -1.08096739e-02 -7.54977576e-04 -5.53994579e-03  5.69380261e-03  3.85940657e-03 -1.23392418e-03 -6.35683117e-03  1.29946955e-02  1.74138683e-03  2.60608096e-04  1.82649982e-03 -9.59264208e-03  2.18896125e-03 -1.38095452e-03  2.44145212e-03  2.64407299e-03  6.27247617e-03  2.77165510e-03 -2.40180059e-03  2.09835614e-03  1.04848074e-03  6.56305905e-03 -1.80511491e-03  7.29869585e-03 -8.06974620e-03  5.08129051e-05  1.88704138e-03  8.60375585e-04 -4.18759184e-03  2.63986504e-03 -8.68180301e-04 -1.61792291e-03 -5.60178515e-03  1.66130334e-03  1.30295986e-03 -5.00898284e-04  1.02418693e-04 -2.69394880e-03 -5.12077287e-03 -2.65928474e-03  3.24535812e-03  7.01144431e-03  3.67694278e-03  4.52178856e-03  3.38710914e-03 -6.67270832e-03  1.25947664e-03 -2.10672058e-03 -1.06560113e-03 -4.80324822e-03 -4.85236669e-04 -2.97865667e-03 -3.69524211e-03  6.17284607e-03 -5.42420021e-04  8.24122597e-03 -3.64683894e-03  5.38344320e-04 -4.94675059e-03  2.86613777e-03  9.64317238e-04  3.17945564e-03 -5.82309207e-03 -1.22908805e-03 -3.39432224e-03 -3.18716094e-03 -3.07462132e-03 -7.77108548e-03  8.48304539e-04 -2.52407254e-03  5.69677958e-03  1.31536182e-03 -3.15392652e-04 -6.98020728e-03 -6.06844667e-03 -4.71267384e-03 -3.60606401e-03  1.37863646e-03 -6.82536606e-03  1.63317577e-03 -5.49157150e-03 -5.21262176e-03 -9.35703982e-04  1.09685690e-03 -1.55828253e-03 -6.31208299e-03 -1.21624060e-02  5.37439110e-03 -5.48413489e-03  3.38802300e-03  7.62895495e-03  1.67229876e-03  1.10860392e-02 -9.65465233e-03 -1.02851226e-03 -1.29494947e-04  5.71498007e-04 -3.30803776e-03  5.61336381e-03 -1.25886218e-04  5.89507073e-03 -4.09831991e-03 -1.21882802e-03 -1.52710069e-03 -7.16364535e-04 -2.98047625e-03  2.03860272e-03  9.02674720e-03 -1.38799241e-02 -2.10187311e-04  2.24603177e-03 -9.80677735e-03  1.45915162e-03  9.94080212e-04 -2.76976009e-03 -5.00478223e-03  4.64110449e-03 -6.88844966e-03 -3.22645321e-03 -3.37621826e-03  2.15525553e-03  2.86286511e-03 -5.42030903e-03  7.69331772e-03 -3.13764485e-03  3.20067676e-03 -9.95307975e-03 -1.28027238e-02 -6.44469401e-04 -1.11989619e-03 -5.09602774e-04 -9.93770640e-03  9.98169929e-03  9.04358644e-03  4.96544782e-03  3.59321316e-03 -2.57642288e-03  3.79603193e-03  5.26530312e-05  2.57330039e-03  1.12863425e-02  2.67621758e-03  5.09648491e-03 -5.36736101e-03 -6.68129278e-03  3.85498752e-05  1.74690504e-03  1.34833390e-03  4.38374700e-03  2.20293226e-03  9.89814382e-03 -8.83381057e-04  2.72036414e-03  3.57734645e-03  5.08384733e-03 -2.42770347e-03  6.27404032e-03 -2.90169357e-03 -1.33857632e-03  1.02091515e-02  6.59710215e-03  4.21285396e-03]
bn0.running_mean,[-1.42250809e+02  1.09514481e+02  6.08806335e+02 -1.54222916e+02 -2.94762058e+01  6.15731850e+01 -6.97047729e+01 -6.93760147e+01  9.20775757e+01 -5.73066254e+01 -2.07093298e-01  8.96521912e+01 -3.74472717e+02  2.11922028e+02 -8.01293659e+00  2.55133224e+02 -6.12475090e+01 -1.06968203e+01  5.58354645e+01  4.03113651e+00  5.12900054e-01 -5.05241811e-01  8.04683914e+01  9.96616287e+01 -1.88862495e+01 -2.27669945e+01 -2.08858231e+02  1.42453049e+02 -1.65861282e+01  7.76587830e+01  3.89915527e+02  1.11081810e+02  3.11439056e+01  7.78434798e-02  2.28229580e+01 -6.08384285e+01  3.77119560e+01  8.42926254e+01  4.10620594e+00  5.52525580e-01  2.67750301e+01 -8.16131363e+01 -2.89498405e+01  2.46225204e+02  4.89323120e+01 -1.16499195e+01  7.77529478e+00 -1.23179565e+02  1.07295532e+01  8.09364244e-02  2.40648514e+02 -4.39821320e+01 -7.60509644e+01 -2.17301388e+01 -1.11672417e+02 -2.08455067e+01 -1.04938118e+02  3.72701645e+01 -3.38644326e-01  1.90770829e+00  3.24806046e+00  5.51169662e+01 -1.87914307e+02  5.15081882e+00  1.20062073e+02  1.87627747e+02 -1.74952393e+01  5.84604073e+01 -1.16407495e+03  5.86024292e+02  5.22305965e-01  2.43006687e+01 -2.78604309e+02 -2.82418652e+01  1.38438873e+02 -9.22908974e+00 -4.17872810e+01  1.41475922e+02 -1.54168359e+03  2.60665588e+02 -1.26121841e+02 -1.62247650e+02 -3.92502129e-01  6.86761618e+00 -8.76034775e+01 -6.88078523e-01 -1.92121292e+02  1.72951645e+02  2.87797028e+02 -6.71703339e+01 -1.86532333e+02  2.04407822e+02  1.15948461e-01  2.38567993e+02  4.91008568e+01  2.91211609e+02 -9.02121723e-01  1.70692490e+02 -2.12175781e+02 -2.35157639e+02  2.27128296e+02  3.89154419e+02  1.59551117e+02  8.24199066e+01  4.68924828e+01  1.25133440e-01  1.89098377e+01 -7.22771072e+00  1.01603249e+02  1.25056473e+02  1.00705582e+02 -1.75198547e+02 -9.51986923e+01  1.53980837e+01  8.36400414e+00 -1.42230560e+02 -3.40544343e+00  1.99764572e+02  1.50584915e+02  5.68518305e+00 -4.96681023e+01 -1.23747801e-02  1.09232964e+02 -4.05364189e+01  9.89192677e+00 -1.52958710e+02  3.12018219e+02  7.44140854e+01  6.18043613e+00  2.92868252e+01 -2.21803999e+00  1.46399109e+02 -3.22295685e+01  3.06787510e+01 -2.67796879e+01 -1.51093948e+02 -1.26237656e+02  1.60849953e+01 -4.35086846e-01 -7.49210052e+01 -6.66082077e+01 -4.35683136e+01  1.00795677e+02 -4.74078445e+01  2.26601601e+01 -1.19001328e+02  1.67850132e+01  2.73201477e+02 -2.10041790e+01  4.61147356e+00  1.97982044e+01 -1.08915344e+02 -5.35240059e+01 -5.21857917e-01  8.78977776e-01 -2.20189072e+02 -4.40796127e+01 -3.07748451e+01 -1.90526611e+02 -8.16414032e+01 -3.08437109e-01 -1.50633774e+01 -3.75615601e+02 -8.39293659e-01  3.89504254e-01  1.38946486e+00 -1.68887258e-01 -4.74077988e+01 -8.73925018e+01 -1.39583221e+02  1.97424042e+02 -8.56027451e+01 -1.58021584e+01 -2.62716694e+01 -7.72612915e+01  1.48032780e+01  1.66681854e+02  3.82863492e-01 -7.34244633e+00 -3.96575684e+02  4.89111900e+00 -3.79030945e+02  2.14136368e+02 -6.53164902e+01  1.03317090e+03  3.57700500e+02  7.10971863e+02 -2.43639238e-02 -3.10115337e+00  3.28339905e+02 -2.50947144e+02 -4.63263580e+02 -3.13208759e-01  1.26384735e+02  1.12091637e+00  2.46164276e+02 -2.40801287e+00  2.48847076e+02 -4.14297028e+01 -4.67129250e+01 -2.19944229e+01 -7.25702362e+01 -6.18085823e+01 -4.85209694e+01  3.29805389e+02  3.06356307e-02  4.60495644e+01 -1.94648605e+02 -6.40059387e+02 -6.83257675e+01  2.46778595e+02  1.84870483e+02  1.12412117e+02  8.70166138e+02  4.41446869e+02 -5.55832565e-01 -7.44646530e+01 -2.13338043e+02  5.01584435e+01  1.57262299e+02  1.15114914e+02 -3.09621506e+01  2.13561420e+01 -2.30957031e-01 -3.21460426e-01  2.95574799e+01  2.37171421e+01  6.54687576e+01  6.26035194e+01  3.61425847e-01  2.31633942e+02 -2.54288971e+02 -3.83510513e+01 -3.98472900e+01  3.32657486e-01  2.28790607e+01  4.13317932e+02  6.83388042e+00  4.37260598e-01 -8.94911575e+00  1.89259380e-01  1.46430862e+02  3.38569183e+01  1.83874187e+01 -1.08445633e+02 -9.30816936e+00  5.32032509e+01 -1.17296913e+02 -4.01393801e-01  2.31221634e+02  2.15681030e+02 -4.25112877e+01 -2.91001984e+02  1.73952972e+02  4.84551888e+01 -5.90531616e+01 -2.96083740e+02  4.37174112e-01 -6.51895905e+01 -1.94626674e-01 -1.90386638e-01  1.34779144e+02  1.90103195e+02 -2.71364021e+01 -1.02434708e+02 -1.72805042e+01 -7.91692352e+00 -2.20805702e+01 -9.85662994e+01  1.17287346e+02  1.64393814e+02  4.77996409e-01 -5.96242857e+00 -5.23467331e+01  8.81788101e+01  3.35705910e+01 -6.56590195e+01 -3.09350433e+01  2.55196869e+02  7.54480515e+01  3.38708076e+01 -3.24015260e-01 -1.06257544e+01  7.14235840e+01  5.66946507e-01 -1.62722504e+02  3.18802238e-01 -1.12994476e+02  9.00578537e+01 -8.64526520e+01 -2.21004517e+02 -2.19266220e+02 -2.25984961e-01 -5.22290111e-01  2.16329681e+02  1.12621475e+02 -6.05933838e+01 -6.43338623e+01  1.10994011e+02  1.01530731e+00  2.10107202e+03  9.49403137e+02  7.20630035e+01  3.54462662e+01  1.13987976e+02 -1.79793121e+02 -5.39644661e+01 -1.99540894e+02  8.37963257e+01  4.67086548e+02  7.99545441e+01  1.31645584e+02  4.07413696e+02 -5.67544922e+02  1.18607020e+00  1.41012793e+01  9.34775925e+00 -2.98551579e+01  9.15098861e-02 -1.50111893e+02 -7.26757202e+01 -9.75509262e+01  2.50388824e+02 -5.08002698e-01  3.02156601e+01 -7.29092636e+01  1.95587552e+00  4.81583618e+02 -3.98378700e-01 -4.74596053e-01 -4.03859062e+01 -1.75272705e+02 -5.30559143e+02 -4.49814819e+02  7.20263869e-02  2.28746116e-01]
bn0.running_var,[3.07494746e+04 1.79611445e+04 5.69381125e+05 3.43022344e+04 1.31261267e+03 5.81220117e+03 7.89707959e+03 7.34801904e+03 1.41981748e+04 5.48952881e+03 2.20217630e-01 1.35987422e+04 2.36107266e+05 7.88945781e+04 1.14130898e+02 1.10006570e+05 6.71223145e+03 1.79963440e+02 3.54984375e+03 1.81145515e+01 3.26347686e-02 1.77329797e-02 7.79686426e+03 1.24269756e+04 4.63078461e+02 3.95001099e+02 4.28549883e+04 2.02091113e+04 2.91343445e+02 5.84775586e+03 1.49922375e+05 1.26160518e+04 1.08723474e+03 1.07779999e+01 5.84074097e+02 4.51966406e+03 1.77127051e+03 8.46674805e+03 1.90175800e+01 1.44984303e-02 8.72199829e+02 8.91310254e+03 1.00908954e+03 1.21931586e+05 4.83346729e+03 2.88765808e+02 1.20231537e+02 2.89754453e+04 3.00104004e+02 7.44196726e-03 1.05423734e+05 3.74250269e+03 1.02402275e+04 1.16780286e+03 2.58441895e+04 8.61077759e+02 2.35108906e+04 2.93589722e+03 6.14970573e-04 6.25652361e+00 2.29257030e+01 6.53926367e+03 7.73924609e+04 6.78959732e+01 3.67381567e+03 2.48275952e+03 2.28075962e+01 2.60168488e+02 1.15585703e+05 3.07942070e+04 1.88180911e-05 4.91395760e+01 5.48441260e+03 1.34633887e+03 1.21927891e+04 1.50602093e+01 1.57396057e+02 1.37998596e+03 1.89334078e+05 6.09688037e+03 1.24754773e+03 3.82595859e+04 2.00415887e-02 7.70007095e+01 1.18361338e+04 1.20020807e+00 5.70229727e+04 4.56266562e+04 1.26113125e+05 7.34075586e+03 5.19037070e+04 6.32958867e+04 2.05974914e-02 2.96039395e+04 4.07753082e+02 6.83995703e+03 1.46906376e-01 2.14406396e+03 3.83277051e+03 4.60466748e+03 4.01558081e+03 2.96429969e+05 5.08458164e+04 1.28418945e+04 4.17151270e+03 9.14180928e-05 6.48466248e+02 1.57970139e+02 2.04542090e+04 3.02106602e+04 1.99001973e+04 6.14499688e+04 1.97563652e+04 3.89352692e+02 9.92851715e+01 4.26990156e+04 2.98900986e+01 8.57934141e+04 4.78661758e+04 6.72036514e+01 5.52184131e+03 1.84970841e-01 2.48904199e+04 3.54315356e+03 2.41454285e+02 5.54418828e+04 2.21856297e+05 1.38986201e+04 1.06366783e+02 1.85214062e+03 1.16095795e+02 4.85839375e+04 2.35690723e+03 2.08141504e+03 1.58467651e+03 5.06858594e+04 3.53882422e+04 4.69550476e+02 9.21138097e-03 1.18266328e+04 1.15546865e+04 4.25545947e+03 2.09045430e+04 4.99612842e+03 1.15024463e+03 2.99408848e+04 4.79400909e+02 1.59847641e+05 9.03838989e+02 3.88988419e+01 1.04102026e+03 2.45446328e+04 3.06685767e+03 4.01925435e-03 3.87215167e-01 7.94766875e+04 3.62371875e+03 1.34747217e+03 5.87967188e+04 1.11917715e+04 4.20664717e-03 3.13503021e+02 2.13289469e+05 8.80364329e-02 6.53350540e-03 2.60611486e+00 7.99773407e+00 3.62122607e+03 1.39141172e+04 3.18647441e+04 6.83836797e+04 1.28223086e+04 4.06089264e+02 1.15947449e+03 1.00451035e+04 3.70659943e+02 4.79086680e+04 1.90285593e-01 2.90663147e+01 1.42083896e+04 1.38446951e+00 1.00479795e+04 3.62956299e+03 3.56523773e+02 9.42908594e+04 1.09948604e+04 4.02318438e+04 5.33814251e-04 9.83759212e+00 5.31488984e+04 1.07767012e+04 1.79488613e+04 1.12135194e-06 1.16893005e+03 2.64197528e-01 5.43314355e+03 3.22923779e-01 1.42748141e+05 4.26056299e+03 5.05481396e+03 1.34166553e+03 1.22043965e+04 9.47887500e+03 5.19861230e+03 2.47448625e+05 6.25571683e-02 4.90774561e+03 4.54769297e+04 1.59327219e+05 6.61959106e+02 4.67196973e+03 2.31765503e+03 9.50923767e+02 6.26346562e+04 1.69920527e+04 1.22320803e-03 4.71134308e+02 3.43966846e+03 5.34891016e+03 5.35657969e+04 2.83842383e+04 1.81936523e+03 8.50610962e+02 4.19566222e-03 4.45824242e-07 1.94984863e+03 1.20087744e+03 8.77445605e+03 8.87328613e+03 2.44784774e-03 1.00693375e+05 1.21072906e+05 3.09370312e+03 3.14186841e+03 1.06442581e-04 7.67472778e+02 3.24728500e+05 1.11189468e+02 3.79804624e-05 1.32019226e+02 7.58490935e-02 3.50752969e+04 1.96394910e+03 5.15455017e+02 1.78665762e+04 1.86629120e+02 3.81629248e+03 1.85221641e+04 7.65712047e-03 7.42722188e+04 6.42750859e+04 2.32380103e+03 1.14307422e+05 4.00357695e+04 3.13912549e+03 4.63527490e+03 1.41506328e+05 3.46922040e-01 7.37451562e+03 8.52906033e-02 5.48770912e-02 3.03452910e+04 6.03751602e+04 1.42341895e+03 1.79289668e+04 7.32003296e+02 1.60295547e+02 9.73381470e+02 1.74444668e+04 2.63992793e+04 5.04611484e+04 7.03908920e-01 7.49943008e+01 5.13797754e+03 1.52564219e+04 2.28380762e+03 9.41355469e+03 1.76264648e+03 1.29809953e+05 1.12867383e+04 1.79964673e+03 3.31956781e-02 2.36011520e+02 1.07669834e+04 6.14898163e-04 5.66775078e+04 9.01954323e-02 2.56304492e+04 1.76629688e+04 1.47527441e+04 1.00427609e+05 9.77837344e+04 1.15874413e-04 1.17083989e-01 7.51873438e+04 6.90535791e+03 6.88421570e+02 3.56784332e+02 8.92521423e+02 1.07108854e-01 3.80867469e+05 7.07144141e+04 1.07538701e+04 1.83811267e+03 2.67491758e+04 6.32327070e+04 6.11890137e+03 8.24071875e+04 1.42595664e+04 4.41407188e+05 1.35733398e+04 3.99263789e+04 3.44330875e+05 6.65352625e+05 1.68608105e+00 4.04146057e+02 1.47638443e+02 1.74839124e+03 1.60241634e-01 4.42308789e+04 1.04487617e+04 1.76584160e+04 1.19561727e+05 1.41763184e-02 1.75401196e+03 5.34218408e+03 2.35038996e+00 2.43924656e+05 1.27765536e-01 4.23039123e-02 1.75826135e+03 3.25551016e+04 2.97225344e+05 2.15641828e+05 1.96426108e-01 1.04629910e+00]
bn0.num_batches_tracked,3000
sub_nn_0.hidden.weight,[[ 0.47006127  0.27110717] [ 0.83546704 -0.41498575] [-0.62244874  0.6036552 ]]
sub_nn_0.hidden.bias,[ 0.677947   -0.58303565  0.35645226]
sub_nn_0.out.weight,[[-0.426687   -0.39552438 -1.5495435 ]]
sub_nn_0.out.bias,[0.5632049]
sub_nn_1.hidden.weight,[[-0.66088516  0.11815543] [ 0.6299243  -0.22874591] [-0.2279307  -0.0604488 ]]
sub_nn_1.hidden.bias,[-0.18088299  0.5839451  -0.5639072 ]
sub_nn_1.out.weight,[[-0.29730886  0.6442519  -0.07635517]]
sub_nn_1.out.bias,[0.527302]
sub_nn_2.hidden.weight,[[-0.5990264   0.2414758 ] [ 0.44368303  1.6044129 ] [ 1.0980333   0.19213323]]
sub_nn_2.hidden.bias,[-0.16679913  0.6711255  -0.6466864 ]
sub_nn_2.out.weight,[[-2.0582387 -0.9985715  2.4844499]]
sub_nn_2.out.bias,[0.21459919]
sub_nn_3.hidden.weight,[[ 0.29278725  0.93562376] [ 0.72825944  1.070106  ] [ 0.17785497 -0.7912064 ]]
sub_nn_3.hidden.bias,[-0.05322262  0.15300006  0.12575272]
sub_nn_3.out.weight,[[-0.17424792 -0.76408416  0.26424614]]
sub_nn_3.out.bias,[0.15572113]
sub_nn_4.hidden.weight,[[-0.53787446 -0.21668367] [-0.75695336  0.7821198 ] [ 0.31430954 -0.18769589]]
sub_nn_4.hidden.bias,[-0.33296406  0.12246619 -0.13131212]
sub_nn_4.out.weight,[[ 0.18464033  0.34568807 -0.34830007]]
sub_nn_4.out.bias,[-0.3061953]
sub_nn_5.hidden.weight,[[-0.5723256  -0.32008058] [-0.40697816 -0.20333976] [ 0.81969035 -0.348809  ]]
sub_nn_5.hidden.bias,[-0.22205505 -0.22815648 -0.20251542]
sub_nn_5.out.weight,[[-0.61285853 -1.7279805   0.28116018]]
sub_nn_5.out.bias,[-0.00297225]
sub_nn_6.hidden.weight,[[ 0.46741188 -0.73603106] [-0.97635114 -0.5384453 ] [-0.52349037 -0.8580898 ]]
sub_nn_6.hidden.bias,[-0.7037906  -0.07938224 -0.6620382 ]
sub_nn_6.out.weight,[[-0.57301754 -1.0055591   1.3139105 ]]
sub_nn_6.out.bias,[0.05872566]
sub_nn_7.hidden.weight,[[-0.03330372 -0.15162618] [ 0.01155509  0.48862368] [ 0.38289943  0.0115708 ]]
sub_nn_7.hidden.bias,[-0.3440229   0.00353163  0.6088634 ]
sub_nn_7.out.weight,[[-0.9206587 -1.7221112 -0.6524202]]
sub_nn_7.out.bias,[-0.09030953]
sub_nn_8.hidden.weight,[[ 0.46629477  0.43444657] [-0.01812268 -0.06432359] [-0.44791391 -0.704314  ]]
sub_nn_8.hidden.bias,[0.25985944 0.09908251 0.23112196]
sub_nn_8.out.weight,[[ 0.809956    1.671306   -0.12164919]]
sub_nn_8.out.bias,[-0.42338502]
sub_nn_9.hidden.weight,[[-0.35114217 -0.5307752 ] [ 1.067864    0.45800132] [-0.48640087  0.5754981 ]]
sub_nn_9.hidden.bias,[ 0.36343342  0.18139368 -0.10789739]
sub_nn_9.out.weight,[[ 0.2558998  -0.22022699  0.2214763 ]]
sub_nn_9.out.bias,[-0.34114504]
sub_nn_10.hidden.weight,[[-0.23438379 -0.26028556] [-1.0258322  -0.11122176] [ 0.02560072 -0.8174531 ]]
sub_nn_10.hidden.bias,[ 0.6935443  -0.69911027 -0.22079927]
sub_nn_10.out.weight,[[-0.62204874 -1.2819724  -0.06257815]]
sub_nn_10.out.bias,[0.04320377]
sub_nn_11.hidden.weight,[[ 0.4934993   0.3508053 ] [-1.6154364  -1.0816547 ] [-0.76183814  1.3838875 ]]
sub_nn_11.hidden.bias,[-0.53101754  0.476713    0.69337744]
sub_nn_11.out.weight,[[ 0.7505442  -0.41020948  0.09048033]]
sub_nn_11.out.bias,[0.13208085]
sub_nn_12.hidden.weight,[[-0.11141642  0.2348799 ] [-0.7072432   0.9627869 ] [ 1.2496601   0.6406568 ]]
sub_nn_12.hidden.bias,[-0.4438545  -0.02950317  0.5140434 ]
sub_nn_12.out.weight,[[ 0.31979796  0.23525357 -1.2355127 ]]
sub_nn_12.out.bias,[-0.01545125]
sub_nn_13.hidden.weight,[[ 0.01088226  0.49329263] [-0.22374436  1.2064028 ] [ 1.6844816  -1.0450599 ]]
sub_nn_13.hidden.bias,[-0.5856584  -0.69295436 -0.22596055]
sub_nn_13.out.weight,[[-1.3338668  -0.10974661  0.53778934]]
sub_nn_13.out.bias,[0.55195236]
sub_nn_14.hidden.weight,[[-0.19772199  0.4634971 ] [-0.5761822  -0.19354425] [ 0.71034735 -0.63812125]]
sub_nn_14.hidden.bias,[ 0.30498928  0.6984214  -0.6749247 ]
sub_nn_14.out.weight,[[-0.5531507   0.06821882 -0.04782322]]
sub_nn_14.out.bias,[0.05802953]
sub_nn_15.hidden.weight,[[-1.2449548   0.3014167 ] [ 0.5413339  -0.21728097] [ 1.2226883   0.35265705]]
sub_nn_15.hidden.bias,[ 0.3806654  -0.20941311 -0.66294646]
sub_nn_15.out.weight,[[ 1.1781228  -0.11871602  0.915251  ]]
sub_nn_15.out.bias,[0.47442734]
sub_nn_16.hidden.weight,[[ 0.26026982 -0.30944625] [ 0.7128792  -0.43112758] [-0.39696267  0.02251814]]
sub_nn_16.hidden.bias,[ 0.17376158 -0.26334524  0.61394304]
sub_nn_16.out.weight,[[-1.1907617   0.07087387  0.30851325]]
sub_nn_16.out.bias,[-0.13596708]
sub_nn_17.hidden.weight,[[-0.7936756  -0.4637785 ] [ 0.7849004   0.36643392] [-1.0124152  -0.96747   ]]
sub_nn_17.hidden.bias,[0.6888799  0.5131864  0.10665045]
sub_nn_17.out.weight,[[ 0.1117482  -0.05438353  0.71578914]]
sub_nn_17.out.bias,[-0.28933394]
sub_nn_18.hidden.weight,[[-0.15669186 -0.0802438 ] [-0.76486003 -0.6542508 ] [ 0.67849714 -0.37587592]]
sub_nn_18.hidden.bias,[ 0.6945859  -0.01372278  0.6111021 ]
sub_nn_18.out.weight,[[-0.40397644 -1.625136    0.30477726]]
sub_nn_18.out.bias,[0.38532782]
sub_nn_19.hidden.weight,[[-0.9089451   0.43531123] [ 0.03837702 -0.5362214 ] [-0.7285105  -0.8151047 ]]
sub_nn_19.hidden.bias,[ 0.33853385  0.4333875  -0.6622256 ]
sub_nn_19.out.weight,[[-0.4206892   0.39187947  0.6719176 ]]
sub_nn_19.out.bias,[0.46283865]
sub_nn_20.hidden.weight,[[-0.221696    0.5914286 ] [-0.15711781 -0.09857801] [-0.6159      0.18119527]]
sub_nn_20.hidden.bias,[ 0.50042915 -0.4682834  -0.04168664]
sub_nn_20.out.weight,[[0.47904998 0.23044418 0.05186451]]
sub_nn_20.out.bias,[0.4896475]
sub_nn_21.hidden.weight,[[-1.0364606   0.6919319 ] [-1.5304452   0.44451052] [-0.47544956 -1.0459721 ]]
sub_nn_21.hidden.bias,[ 0.11931723  0.52603555 -0.49863514]
sub_nn_21.out.weight,[[-0.3879258  -0.03127127 -1.4392859 ]]
sub_nn_21.out.bias,[-0.48796952]
sub_nn_22.hidden.weight,[[-0.7669101   0.97872007] [ 0.06418186 -0.7742262 ] [ 0.38419494 -0.4906706 ]]
sub_nn_22.hidden.bias,[-0.47158352 -0.03111306 -0.3093658 ]
sub_nn_22.out.weight,[[0.38652092 0.07375347 0.78141665]]
sub_nn_22.out.bias,[0.22630298]
sub_nn_23.hidden.weight,[[-1.4922371 -0.8813387] [ 0.746443  -1.0531311] [ 1.2171084 -1.1973853]]
sub_nn_23.hidden.bias,[ 0.514932    0.12591405 -0.0562534 ]
sub_nn_23.out.weight,[[-0.65109277  1.5363734  -0.62711126]]
sub_nn_23.out.bias,[0.03872019]
sub_nn_24.hidden.weight,[[-0.28471652  0.7080758 ] [ 0.5514297  -0.7732263 ] [ 0.63845986 -0.01947574]]
sub_nn_24.hidden.bias,[-0.65526575  0.21241805 -0.25651458]
sub_nn_24.out.weight,[[ 0.1936132  -0.20744821  0.06328011]]
sub_nn_24.out.bias,[0.24180579]
sub_nn_25.hidden.weight,[[-0.9422536   0.36439255] [ 0.3965847   0.3069003 ] [ 0.3764148   1.412118  ]]
sub_nn_25.hidden.bias,[-0.3109424   0.25183338 -0.2634496 ]
sub_nn_25.out.weight,[[-0.60359555  0.20479383 -0.39904797]]
sub_nn_25.out.bias,[-0.5076843]
sub_nn_26.hidden.weight,[[ 0.1521234   0.6722564 ] [ 0.34842944 -0.77950174] [-0.71879256 -0.9840659 ]]
sub_nn_26.hidden.bias,[-0.3357073   0.03010766 -0.34239575]
sub_nn_26.out.weight,[[-1.3292516  -1.5455834  -0.59171903]]
sub_nn_26.out.bias,[0.09409457]
sub_nn_27.hidden.weight,[[ 0.8245162  -1.0758901 ] [-0.5315052   1.4128522 ] [ 0.9114052  -0.41513473]]
sub_nn_27.hidden.bias,[-0.05069909  0.40820616 -0.54272056]
sub_nn_27.out.weight,[[ 1.0398484  -0.1449671  -0.38103858]]
sub_nn_27.out.bias,[0.5252825]
sub_nn_28.hidden.weight,[[ 0.36245644 -0.7020914 ] [-0.11065638  0.7274838 ] [-0.14779617  0.09651877]]
sub_nn_28.hidden.bias,[ 0.32590196 -0.6043693  -0.5776906 ]
sub_nn_28.out.weight,[[-0.16809264  0.6889506  -0.82193345]]
sub_nn_28.out.bias,[0.41797805]
sub_nn_29.hidden.weight,[[ 0.50089693  0.26762652] [ 1.0275753  -0.16018143] [-0.04469925 -0.6972891 ]]
sub_nn_29.hidden.bias,[ 0.09389424 -0.03728074  0.02472123]
sub_nn_29.out.weight,[[-0.26157877  0.39319867 -1.338759  ]]
sub_nn_29.out.bias,[0.44498265]
sub_nn_30.hidden.weight,[[ 0.6392902  -0.35541123] [-0.17563848  0.9707238 ] [ 0.52928156 -0.44953856]]
sub_nn_30.hidden.bias,[-0.39404896 -0.32699758  0.23593673]
sub_nn_30.out.weight,[[1.6718023  0.18159595 0.590064  ]]
sub_nn_30.out.bias,[0.556636]
sub_nn_31.hidden.weight,[[-0.34222734 -0.68343097] [ 1.0337769  -0.3289831 ] [ 0.3140212  -0.4849672 ]]
sub_nn_31.hidden.bias,[-0.51710314  0.5104554   0.04431878]
sub_nn_31.out.weight,[[-0.1810526  0.0044229  1.2576721]]
sub_nn_31.out.bias,[-0.22898826]
sub_nn_32.hidden.weight,[[-1.3093867   0.05070757] [-0.9018156   0.1252962 ] [ 0.08351544 -0.1977011 ]]
sub_nn_32.hidden.bias,[-0.15979321 -0.18590057 -0.28507486]
sub_nn_32.out.weight,[[-0.32851824  0.2958294   1.399997  ]]
sub_nn_32.out.bias,[-0.47287795]
sub_nn_33.hidden.weight,[[-0.8912123  -1.2652053 ] [-0.28394678  1.2642237 ] [-0.6032619   1.21599   ]]
sub_nn_33.hidden.bias,[-0.4709252  -0.07027485  0.6211374 ]
sub_nn_33.out.weight,[[-0.6840738   1.9356364   0.57604504]]
sub_nn_33.out.bias,[-0.38591802]
sub_nn_34.hidden.weight,[[ 0.22281358 -0.08317865] [-0.22870785  0.53758836] [-0.75832176  0.68487954]]
sub_nn_34.hidden.bias,[0.18339412 0.50999653 0.30670014]
sub_nn_34.out.weight,[[0.31489143 0.090527   0.98397046]]
sub_nn_34.out.bias,[0.57100105]
sub_nn_35.hidden.weight,[[-0.3521866   0.06329909] [ 0.17576666 -0.13391633] [-0.3295686  -1.1590382 ]]
sub_nn_35.hidden.bias,[ 0.4660762  -0.33516097 -0.140409  ]
sub_nn_35.out.weight,[[-0.23817524 -1.1055247   0.5717872 ]]
sub_nn_35.out.bias,[-0.17057177]
sub_nn_36.hidden.weight,[[ 0.08352505 -0.5192843 ] [-0.6080345   0.6469808 ] [ 0.35156563 -0.46975625]]
sub_nn_36.hidden.bias,[-0.43236065  0.6097126  -0.4423791 ]
sub_nn_36.out.weight,[[-0.00827001  0.3093713   0.34805742]]
sub_nn_36.out.bias,[-0.1984855]
sub_nn_37.hidden.weight,[[-0.64118713 -0.42514643] [ 1.3539444   0.34867176] [-1.1832676   0.06732605]]
sub_nn_37.hidden.bias,[ 0.36574414 -0.13403761  0.3468265 ]
sub_nn_37.out.weight,[[-0.5589838   0.19618015 -0.65010947]]
sub_nn_37.out.bias,[0.09318978]
sub_nn_38.hidden.weight,[[-0.36488438 -0.05501782] [ 0.06665905  0.6685254 ] [-0.04929301  0.31237638]]
sub_nn_38.hidden.bias,[-0.08335704 -0.4324417  -0.33444637]
sub_nn_38.out.weight,[[1.8439839  0.19006522 0.03114359]]
sub_nn_38.out.bias,[-0.21721002]
sub_nn_39.hidden.weight,[[-0.5415456  -0.02527585] [-0.398202    0.18759917] [-0.1954855  -0.5643049 ]]
sub_nn_39.hidden.bias,[ 0.2138044  -0.00397782  0.45977333]
sub_nn_39.out.weight,[[-0.29658437 -1.107321    0.36942658]]
sub_nn_39.out.bias,[0.56791604]
sub_nn_40.hidden.weight,[[-0.66601664  0.2834376 ] [ 0.38168117 -0.51784647] [-0.5732591   0.6966753 ]]
sub_nn_40.hidden.bias,[ 0.35028574 -0.34167355 -0.46277788]
sub_nn_40.out.weight,[[-0.29015896  0.22293323  0.5203532 ]]
sub_nn_40.out.bias,[0.36251706]
sub_nn_41.hidden.weight,[[ 0.48348138  0.16215116] [ 0.30793312  1.3098599 ] [-0.4196808  -0.64908415]]
sub_nn_41.hidden.bias,[-0.26481533 -0.12179838 -0.3531002 ]
sub_nn_41.out.weight,[[-1.0107917   0.70817846  0.4602098 ]]
sub_nn_41.out.bias,[0.29445118]
sub_nn_42.hidden.weight,[[ 0.8823732   0.40201935] [-0.12076384  0.22320636] [-0.04131343  0.6444214 ]]
sub_nn_42.hidden.bias,[0.02176213 0.30447936 0.17434154]
sub_nn_42.out.weight,[[-0.10422119  0.9303386  -0.41313776]]
sub_nn_42.out.bias,[0.46018696]
sub_nn_43.hidden.weight,[[ 1.1854721  -1.2670808 ] [ 0.15718229  0.0625641 ] [-0.23084724  0.07422958]]
sub_nn_43.hidden.bias,[-0.6784958  -0.6020465   0.02886385]
sub_nn_43.out.weight,[[ 0.6854817  1.3450261 -0.5394037]]
sub_nn_43.out.bias,[-0.539409]
sub_nn_44.hidden.weight,[[ 0.6314556  -0.7164428 ] [-0.30715743 -0.7983685 ] [-0.0361353  -0.553458  ]]
sub_nn_44.hidden.bias,[-0.3200425   0.3914899  -0.22235218]
sub_nn_44.out.weight,[[ 0.323147   -0.36214063 -0.00587578]]
sub_nn_44.out.bias,[-0.16999248]
sub_nn_45.hidden.weight,[[ 0.09059661  0.23989192] [ 0.06518582  0.1148474 ] [-0.11650129 -1.3030901 ]]
sub_nn_45.hidden.bias,[-0.29929107 -0.3370306   0.1937753 ]
sub_nn_45.out.weight,[[ 0.21240827 -1.0554415   0.08876541]]
sub_nn_45.out.bias,[0.5480492]
sub_nn_46.hidden.weight,[[-0.1253213   0.72189593] [ 0.1825168  -1.1570839 ] [-0.50637835 -0.68628764]]
sub_nn_46.hidden.bias,[ 0.3742151  -0.42421055  0.03934886]
sub_nn_46.out.weight,[[ 1.1098205   0.17900537 -0.33308965]]
sub_nn_46.out.bias,[0.35886502]
sub_nn_47.hidden.weight,[[ 0.7466379   0.02073812] [-0.7954694  -0.02307601] [-0.10435595 -0.14755718]]
sub_nn_47.hidden.bias,[ 0.41959864 -0.6581257  -0.26544952]
sub_nn_47.out.weight,[[-0.6669431  -1.083697   -0.24046585]]
sub_nn_47.out.bias,[-0.21229312]
sub_nn_48.hidden.weight,[[ 0.09748974 -0.812145  ] [ 0.40475172  0.24996834] [-1.0829211  -0.15172435]]
sub_nn_48.hidden.bias,[0.13783038 0.54106265 0.44833976]
sub_nn_48.out.weight,[[ 0.8623351  -0.08267515  0.07148609]]
sub_nn_48.out.bias,[0.22979605]
sub_nn_49.hidden.weight,[[-0.6147693  -0.37885997] [-0.01548226 -0.59376395] [-0.1982394   0.20947203]]
sub_nn_49.hidden.bias,[ 0.04804232 -0.40730494  0.01994566]
sub_nn_49.out.weight,[[0.02957032 0.01095322 0.52794087]]
sub_nn_49.out.bias,[0.06844051]
sub_nn_50.hidden.weight,[[ 0.8070139   1.233275  ] [-0.06014174 -0.31559023] [-1.0219721   0.89837486]]
sub_nn_50.hidden.bias,[-0.28055042 -0.3165145   0.05102758]
sub_nn_50.out.weight,[[ 1.1809098  -0.5564373   0.65130764]]
sub_nn_50.out.bias,[0.42368805]
sub_nn_51.hidden.weight,[[ 0.38537547 -0.0314016 ] [ 0.28681543 -0.0654585 ] [-0.18230227 -0.3917788 ]]
sub_nn_51.hidden.bias,[ 0.6968599  -0.4467979  -0.32061806]
sub_nn_51.out.weight,[[-0.3435501  -0.16220689 -0.29700732]]
sub_nn_51.out.bias,[0.15650308]
sub_nn_52.hidden.weight,[[-0.2771136   0.74955666] [-0.5679988  -0.13345134] [ 0.5030402   0.75628364]]
sub_nn_52.hidden.bias,[-0.27592176  0.48971254  0.57160515]
sub_nn_52.out.weight,[[-0.03543879 -1.0052848  -0.5909589 ]]
sub_nn_52.out.bias,[-0.04157823]
sub_nn_53.hidden.weight,[[ 0.25965896 -0.57441515] [ 0.29474407  0.0930752 ] [-0.50112975  0.17317946]]
sub_nn_53.hidden.bias,[ 0.4216887 -0.5467847  0.2801374]
sub_nn_53.out.weight,[[-0.99020845  0.52381814  1.4200221 ]]
sub_nn_53.out.bias,[-0.04880154]
sub_nn_54.hidden.weight,[[ 0.5234755  -0.35738406] [ 0.05841067  0.0449188 ] [ 0.47074956  1.0115391 ]]
sub_nn_54.hidden.bias,[ 0.16845994  0.02008039 -0.51576716]
sub_nn_54.out.weight,[[-0.82300884 -0.13222662 -0.07980621]]
sub_nn_54.out.bias,[0.42258584]
sub_nn_55.hidden.weight,[[ 1.2066818   0.5317142 ] [-0.9514076  -0.06185024] [ 0.49263832  1.0164449 ]]
sub_nn_55.hidden.bias,[-0.53689176 -0.13426673 -0.5375904 ]
sub_nn_55.out.weight,[[-0.05054737  0.33804706 -0.05199132]]
sub_nn_55.out.bias,[-0.03732353]
sub_nn_56.hidden.weight,[[ 0.46899286 -0.431035  ] [ 0.02946327 -1.8365543 ] [ 0.13432027 -0.40409037]]
sub_nn_56.hidden.bias,[ 0.6810792  -0.17959888 -0.24664241]
sub_nn_56.out.weight,[[-0.707729  -0.5322887 -0.8268159]]
sub_nn_56.out.bias,[0.1567275]
sub_nn_57.hidden.weight,[[ 0.1405929  -0.2116076 ] [ 0.48908564 -0.97808903] [ 0.29793593  0.264527  ]]
sub_nn_57.hidden.bias,[-0.15468247 -0.4840384  -0.00401366]
sub_nn_57.out.weight,[[ 1.2131824  -0.00576677 -0.02391403]]
sub_nn_57.out.bias,[0.13685066]
sub_nn_58.hidden.weight,[[-0.86552763 -0.7297417 ] [-0.3699901  -0.16285706] [-0.00731356 -0.731878  ]]
sub_nn_58.hidden.bias,[ 0.10675694  0.57542    -0.3751711 ]
sub_nn_58.out.weight,[[-0.7961724  -0.49132082 -0.63059264]]
sub_nn_58.out.bias,[-0.3360891]
sub_nn_59.hidden.weight,[[-0.45919544 -0.19644862] [ 0.1252076  -0.46065295] [-0.11183997  0.4044141 ]]
sub_nn_59.hidden.bias,[ 0.10825821 -0.30857143  0.05507889]
sub_nn_59.out.weight,[[-0.66874194  0.05838856 -0.6022174 ]]
sub_nn_59.out.bias,[0.30005383]
sub_nn_60.hidden.weight,[[-0.23534083  0.08002621] [-0.15053001  0.3772217 ] [ 0.1159442  -0.24230587]]
sub_nn_60.hidden.bias,[ 0.59890556  0.13489556 -0.63196254]
sub_nn_60.out.weight,[[0.8573625  0.34296897 0.12222197]]
sub_nn_60.out.bias,[0.0324415]
sub_nn_61.hidden.weight,[[ 0.5748243   0.32648924] [ 0.49036366  0.15234166] [ 0.38804266 -0.64751405]]
sub_nn_61.hidden.bias,[-0.4214436   0.6773929  -0.49695104]
sub_nn_61.out.weight,[[-0.59231454  0.69909036  0.60739434]]
sub_nn_61.out.bias,[0.38991654]
sub_nn_62.hidden.weight,[[ 0.6916651  -0.45407555] [-0.52259684 -0.81876   ] [ 0.17611364  0.73158514]]
sub_nn_62.hidden.bias,[-0.68984306 -0.4471092  -0.6679611 ]
sub_nn_62.out.weight,[[-1.3522791  -0.29262266  0.65539557]]
sub_nn_62.out.bias,[0.21609181]
sub_nn_63.hidden.weight,[[ 0.10592505 -1.0619742 ] [ 0.0110463  -0.6664464 ] [-0.15814465 -0.1936339 ]]
sub_nn_63.hidden.bias,[-0.15053178  0.22025277  0.42969048]
sub_nn_63.out.weight,[[ 0.24819383 -0.04310828 -1.496356  ]]
sub_nn_63.out.bias,[0.48903275]
sub_nn_64.hidden.weight,[[ 0.32108912  0.5821607 ] [ 0.4775715   0.4956455 ] [-0.18623623 -0.47625473]]
sub_nn_64.hidden.bias,[-0.590328    0.31088024  0.5872204 ]
sub_nn_64.out.weight,[[0.44409654 0.34743372 0.9848796 ]]
sub_nn_64.out.bias,[-0.31664106]
sub_nn_65.hidden.weight,[[ 0.8354332   0.35282987] [ 0.08198101  1.1203066 ] [-0.36601835  0.5015894 ]]
sub_nn_65.hidden.bias,[-0.58771205  0.5929988  -0.540084  ]
sub_nn_65.out.weight,[[ 0.41529065 -0.33154932 -2.2447224 ]]
sub_nn_65.out.bias,[0.19819826]
sub_nn_66.hidden.weight,[[-0.15051988 -1.5729214 ] [-0.7425404  -0.1552114 ] [ 0.5859693   0.62005603]]
sub_nn_66.hidden.bias,[ 0.2851364   0.58708507 -0.20788378]
sub_nn_66.out.weight,[[ 0.7403371  -0.05120862 -0.04379341]]
sub_nn_66.out.bias,[0.5269929]
sub_nn_67.hidden.weight,[[-0.4546877  -0.4524827 ] [ 0.07546724  0.5172341 ] [-0.33476466  0.3536578 ]]
sub_nn_67.hidden.bias,[-0.55894905 -0.06113683  0.5333856 ]
sub_nn_67.out.weight,[[ 0.2888525   0.9273617  -0.04874907]]
sub_nn_67.out.bias,[0.176983]
sub_nn_68.hidden.weight,[[ 0.94207656  1.1822101 ] [-0.34706038  0.07337454] [ 0.30874833 -0.02511247]]
sub_nn_68.hidden.bias,[ 0.69004494 -0.5809325  -0.32580954]
sub_nn_68.out.weight,[[-1.1979401  -0.38688084 -0.37633282]]
sub_nn_68.out.bias,[-0.2613296]
sub_nn_69.hidden.weight,[[ 0.20387422 -0.01453627] [ 0.11935639 -0.50274193] [ 0.5049397  -0.28131956]]
sub_nn_69.hidden.bias,[-0.19949597  0.04360253  0.62507457]
sub_nn_69.out.weight,[[0.0583075  0.9600496  0.85765225]]
sub_nn_69.out.bias,[-0.5274681]
sub_nn_70.hidden.weight,[[-0.12601826 -0.44740826] [-1.044443   -0.27589205] [-0.06187572  0.03078976]]
sub_nn_70.hidden.bias,[0.30837217 0.43641078 0.2268168 ]
sub_nn_70.out.weight,[[-0.77508414  0.308994    0.10867208]]
sub_nn_70.out.bias,[0.52254295]
sub_nn_71.hidden.weight,[[-0.1860193  -0.1961221 ] [-0.95535445 -0.22433244] [ 0.17358406  1.2148482 ]]
sub_nn_71.hidden.bias,[-0.26740378 -0.33776787 -0.37688765]
sub_nn_71.out.weight,[[1.4570684 0.8582834 0.1065278]]
sub_nn_71.out.bias,[-0.37541807]
sub_nn_72.hidden.weight,[[ 0.5347175  -0.28670818] [-0.08374604  0.14040229] [-1.5868988   0.676087  ]]
sub_nn_72.hidden.bias,[-0.05512067 -0.60347533 -0.15773845]
sub_nn_72.out.weight,[[-0.3632545   0.2598648   0.44446886]]
sub_nn_72.out.bias,[-0.14500374]
sub_nn_73.hidden.weight,[[-0.33648905  0.6363487 ] [-1.0845087  -0.29563883] [ 0.15002178 -0.01323446]]
sub_nn_73.hidden.bias,[-0.05238426  0.23923467  0.5619641 ]
sub_nn_73.out.weight,[[-0.35871643  0.76567215 -0.7743935 ]]
sub_nn_73.out.bias,[0.07456887]
sub_nn_74.hidden.weight,[[ 0.15475246 -0.92766273] [ 0.23968713 -0.5334267 ] [ 0.02365822 -0.21431074]]
sub_nn_74.hidden.bias,[0.23149592 0.08983308 0.06982762]
sub_nn_74.out.weight,[[-0.24479346  2.0019288   0.4839406 ]]
sub_nn_74.out.bias,[-0.153357]
sub_nn_75.hidden.weight,[[-0.699297    0.352619  ] [ 0.08534287  0.23447572] [ 0.03938193 -0.13374218]]
sub_nn_75.hidden.bias,[ 0.2188148  -0.46610045  0.6768289 ]
sub_nn_75.out.weight,[[-0.7835036  -0.00083592 -0.5406293 ]]
sub_nn_75.out.bias,[-0.40101284]
sub_nn_76.hidden.weight,[[-0.02925948  0.21587932] [-0.2931799   0.8507111 ] [ 0.08147652  0.82933974]]
sub_nn_76.hidden.bias,[ 0.37014174  0.27001047 -0.27922148]
sub_nn_76.out.weight,[[ 0.18204409  0.22138713 -0.93330985]]
sub_nn_76.out.bias,[-0.5016402]
sub_nn_77.hidden.weight,[[-0.279975    0.46574298] [ 0.21186766 -0.4682477 ] [-0.15856127 -0.579364  ]]
sub_nn_77.hidden.bias,[-0.14314401  0.2716788  -0.55640286]
sub_nn_77.out.weight,[[1.2244673  1.0958011  0.24910206]]
sub_nn_77.out.bias,[-0.41866952]
sub_nn_78.hidden.weight,[[-0.6608748   0.25663415] [ 0.05809486 -0.06644662] [ 1.5940393  -0.31721112]]
sub_nn_78.hidden.bias,[-0.48862138  0.07438195  0.37678057]
sub_nn_78.out.weight,[[-0.44989422  1.497461   -1.2038728 ]]
sub_nn_78.out.bias,[0.19827837]
sub_nn_79.hidden.weight,[[-1.4219301   0.25829414] [ 0.35745636 -1.1213305 ] [ 0.24507993  1.2673485 ]]
sub_nn_79.hidden.bias,[-0.70175916  0.22309124  0.11020547]
sub_nn_79.out.weight,[[-0.59541667  1.1629765  -0.7837861 ]]
sub_nn_79.out.bias,[-0.10154584]
sub_nn_80.hidden.weight,[[-1.0713452  -0.59840024] [ 0.4079596   0.15232052] [ 0.38693258  0.12060568]]
sub_nn_80.hidden.bias,[-0.4867402   0.4837628   0.07430404]
sub_nn_80.out.weight,[[-0.5969426 -0.5576177  0.3455224]]
sub_nn_80.out.bias,[-0.49992183]
sub_nn_81.hidden.weight,[[ 0.2172888   1.0785575 ] [ 1.0485536   0.5456611 ] [-0.23600465 -0.9952581 ]]
sub_nn_81.hidden.bias,[-0.08842874 -0.61447847 -0.3864532 ]
sub_nn_81.out.weight,[[-0.6737623 -0.4608032  0.910115 ]]
sub_nn_81.out.bias,[0.29348898]
sub_nn_82.hidden.weight,[[-0.93879074  0.71181864] [-0.37881297 -1.3213563 ] [-0.86913115 -0.8173534 ]]
sub_nn_82.hidden.bias,[ 0.6142435   0.6129222  -0.50029606]
sub_nn_82.out.weight,[[ 0.17720804 -1.6522856   0.19028537]]
sub_nn_82.out.bias,[-0.4106971]
sub_nn_83.hidden.weight,[[-1.4815811   0.81605405] [-0.11659054 -0.9735971 ] [ 0.20798089  0.29712033]]
sub_nn_83.hidden.bias,[ 0.32100487  0.64369965 -0.11889335]
sub_nn_83.out.weight,[[-0.5692769  -0.41893983  0.1351786 ]]
sub_nn_83.out.bias,[-0.2269105]
sub_nn_84.hidden.weight,[[-0.3188247   0.557654  ] [ 1.472851   -0.37688938] [-0.14195172 -0.6627059 ]]
sub_nn_84.hidden.bias,[-0.2717697  -0.30614495 -0.5951778 ]
sub_nn_84.out.weight,[[-0.07240265 -0.23907849  1.1748916 ]]
sub_nn_84.out.bias,[0.1330756]
sub_nn_85.hidden.weight,[[ 0.5766741   0.9332332 ] [-0.7378993  -0.09287484] [-0.42112088 -0.46217376]]
sub_nn_85.hidden.bias,[ 0.6642577  -0.46714926 -0.41550165]
sub_nn_85.out.weight,[[-0.00613927 -1.2559761  -0.3588012 ]]
sub_nn_85.out.bias,[0.21851832]
sub_nn_86.hidden.weight,[[ 0.72682774 -0.2229395 ] [-1.091351    0.23230383] [-0.4768655   1.0089872 ]]
sub_nn_86.hidden.bias,[-0.31345534 -0.44457507 -0.5738396 ]
sub_nn_86.out.weight,[[-1.0629957   0.63430953 -0.2515507 ]]
sub_nn_86.out.bias,[0.14726263]
sub_nn_87.hidden.weight,[[-1.156655    0.19465789] [ 0.44196227 -0.7172774 ] [ 0.88285273  1.6351167 ]]
sub_nn_87.hidden.bias,[0.02674085 0.49888876 0.2198034 ]
sub_nn_87.out.weight,[[-0.78185934  0.84800225  0.3582808 ]]
sub_nn_87.out.bias,[-0.37405002]
sub_nn_88.hidden.weight,[[ 1.2816787   0.10191141] [ 0.5708293   0.24943118] [-0.08552969 -0.02121327]]
sub_nn_88.hidden.bias,[-0.26172966 -0.45444265  0.54236156]
sub_nn_88.out.weight,[[0.8339362  0.14058141 0.06575568]]
sub_nn_88.out.bias,[0.23884165]
sub_nn_89.hidden.weight,[[ 0.23245922  0.06764274] [-0.11446624 -0.3007126 ] [ 0.6415645  -0.47210485]]
sub_nn_89.hidden.bias,[-0.06698561  0.63295335 -0.30673623]
sub_nn_89.out.weight,[[ 0.61560845  0.20835783 -0.6539195 ]]
sub_nn_89.out.bias,[0.47002745]
sub_nn_90.hidden.weight,[[-0.01669849  0.9484393 ] [-0.16003785 -0.48470372] [ 1.3760978   0.70113677]]
sub_nn_90.hidden.bias,[-0.06679688  0.54678077  0.66242844]
sub_nn_90.out.weight,[[-0.09791362 -0.4511398  -0.53662413]]
sub_nn_90.out.bias,[0.5025836]
sub_nn_91.hidden.weight,[[ 0.34840316 -0.28992596] [ 1.105696    0.57919335] [-0.06339338  0.5697639 ]]
sub_nn_91.hidden.bias,[ 0.33775052 -0.4136129   0.32969552]
sub_nn_91.out.weight,[[0.91722476 0.44798762 1.4345373 ]]
sub_nn_91.out.bias,[0.04420984]
sub_nn_92.hidden.weight,[[ 0.00548775 -0.8729814 ] [-0.2667506   0.45812592] [-0.55872726 -0.18089747]]
sub_nn_92.hidden.bias,[ 0.49587286 -0.3429124  -0.14002061]
sub_nn_92.out.weight,[[ 0.33567756  0.17510416 -0.07771912]]
sub_nn_92.out.bias,[0.03770751]
sub_nn_93.hidden.weight,[[-0.42084596  0.64254427] [ 0.09181239  0.6975124 ] [ 1.8753515   0.17077854]]
sub_nn_93.hidden.bias,[ 0.2693187  -0.5543637   0.41325694]
sub_nn_93.out.weight,[[ 0.8691246 -0.0287541  0.3866281]]
sub_nn_93.out.bias,[0.54642105]
sub_nn_94.hidden.weight,[[ 0.51571685 -1.2563314 ] [ 0.4504615   0.51209575] [-1.5059671   0.9190039 ]]
sub_nn_94.hidden.bias,[-0.5685741   0.6891654  -0.59074247]
sub_nn_94.out.weight,[[-0.47525582  0.78226423 -0.5456022 ]]
sub_nn_94.out.bias,[0.5117699]
sub_nn_95.hidden.weight,[[-0.03148041  0.19372417] [ 0.17031473 -0.14065583] [ 1.0249898  -0.66039133]]
sub_nn_95.hidden.bias,[ 0.12082501 -0.7070765   0.50138   ]
sub_nn_95.out.weight,[[ 0.64235914 -0.33884525  0.6146644 ]]
sub_nn_95.out.bias,[0.5316014]
sub_nn_96.hidden.weight,[[-1.288902   -0.25877866] [ 0.00439434 -0.49314815] [-0.31582448 -0.179462  ]]
sub_nn_96.hidden.bias,[-0.04801798 -0.2618993  -0.54119384]
sub_nn_96.out.weight,[[ 0.20186645 -0.43689737  0.44126987]]
sub_nn_96.out.bias,[-0.4636611]
sub_nn_97.hidden.weight,[[-1.1689708  -0.13268678] [-0.4683929   0.5380764 ] [ 0.8022001   1.9555932 ]]
sub_nn_97.hidden.bias,[ 0.07184452  0.4510997  -0.55375624]
sub_nn_97.out.weight,[[-0.28503463 -0.29980034  0.25282583]]
sub_nn_97.out.bias,[-0.08278057]
sub_nn_98.hidden.weight,[[ 0.05098962  0.4744739 ] [ 1.1263504  -0.3122524 ] [-0.13932164 -0.04685838]]
sub_nn_98.hidden.bias,[ 0.657185   -0.4577955   0.04851172]
sub_nn_98.out.weight,[[ 0.05929193 -0.17828304  1.3360137 ]]
sub_nn_98.out.bias,[-0.23498449]
sub_nn_99.hidden.weight,[[0.5484186  0.24499264] [0.05418926 0.19372016] [0.6063186  0.10415535]]
sub_nn_99.hidden.bias,[-0.27485377  0.05346656 -0.4618922 ]
sub_nn_99.out.weight,[[-0.11036415 -0.1255508  -0.21212465]]
sub_nn_99.out.bias,[-0.02260709]
sub_nn_100.hidden.weight,[[-0.3850896  -0.42875096] [ 0.7775378  -0.86389685] [ 0.17780767 -0.54728   ]]
sub_nn_100.hidden.bias,[-0.13985848  0.29050493 -0.14100534]
sub_nn_100.out.weight,[[-0.66974837 -0.01133392  1.0268917 ]]
sub_nn_100.out.bias,[-0.45409244]
sub_nn_101.hidden.weight,[[ 0.61001414  0.18782601] [ 0.99261564 -0.6872888 ] [-0.03336015 -0.13901776]]
sub_nn_101.hidden.bias,[ 0.53036493 -0.5108642   0.09895855]
sub_nn_101.out.weight,[[ 0.73248965  1.093431   -0.3224872 ]]
sub_nn_101.out.bias,[-0.57269484]
sub_nn_102.hidden.weight,[[ 0.1115341   0.42948502] [ 0.0404118   0.5979334 ] [ 1.0551519  -0.6447659 ]]
sub_nn_102.hidden.bias,[-0.00945884 -0.33175883  0.1175255 ]
sub_nn_102.out.weight,[[-0.04153354 -0.85267997  0.6399405 ]]
sub_nn_102.out.bias,[0.3199036]
sub_nn_103.hidden.weight,[[-1.0826467  -0.5433536 ] [ 0.20349821 -0.03325629] [-1.5465814   0.35635927]]
sub_nn_103.hidden.bias,[-0.49465966  0.22905459  0.07565855]
sub_nn_103.out.weight,[[-0.48913154  1.5660365   0.66845655]]
sub_nn_103.out.bias,[0.4660343]
sub_nn_104.hidden.weight,[[ 0.73548937 -0.45562166] [-0.7301555   0.61240363] [ 0.4811607  -0.8662418 ]]
sub_nn_104.hidden.bias,[-0.4088078   0.5034453   0.12121587]
sub_nn_104.out.weight,[[ 0.51713353 -0.61414135 -0.4138922 ]]
sub_nn_104.out.bias,[0.29436535]
sub_nn_105.hidden.weight,[[-0.5018389  -0.8092138 ] [-0.11011568 -0.6760672 ] [-0.35754487 -0.04965977]]
sub_nn_105.hidden.bias,[-0.69993496 -0.43959525  0.3049232 ]
sub_nn_105.out.weight,[[-1.4045943   1.0744443  -0.31299573]]
sub_nn_105.out.bias,[0.12663873]
sub_nn_106.hidden.weight,[[-0.42847028 -0.438165  ] [ 0.29629454  0.88035357] [-1.2905163   0.3220499 ]]
sub_nn_106.hidden.bias,[-0.14913857 -0.5231684   0.09174532]
sub_nn_106.out.weight,[[2.1994727  0.24170437 0.24577323]]
sub_nn_106.out.bias,[0.02419001]
sub_nn_107.hidden.weight,[[-0.2910672  -1.2620687 ] [ 0.04597522 -1.0730951 ] [-1.3437253   0.17094041]]
sub_nn_107.hidden.bias,[0.4809665  0.12406619 0.03984082]
sub_nn_107.out.weight,[[-0.1272753  -0.7645789  -0.28699175]]
sub_nn_107.out.bias,[-0.25606552]
sub_nn_108.hidden.weight,[[ 0.68535054 -0.3767366 ] [ 0.5767733  -0.18734255] [ 0.03907663  0.2621431 ]]
sub_nn_108.hidden.bias,[0.07148194 0.27086335 0.04686457]
sub_nn_108.out.weight,[[ 0.52241236  0.11595226 -0.5996899 ]]
sub_nn_108.out.bias,[-0.17265913]
sub_nn_109.hidden.weight,[[-0.49749     1.2059008 ] [ 1.2772776  -0.24080728] [-0.27908325  1.3178011 ]]
sub_nn_109.hidden.bias,[-0.19420305  0.21433063  0.5575408 ]
sub_nn_109.out.weight,[[0.3895365  0.38253027 0.2842776 ]]
sub_nn_109.out.bias,[-0.15746412]
sub_nn_110.hidden.weight,[[-0.91307485 -0.12008011] [ 0.73111165  0.37713334] [ 0.08566814  0.9084037 ]]
sub_nn_110.hidden.bias,[0.6877664 0.5400639 0.317748 ]
sub_nn_110.out.weight,[[-0.97607183  0.61056954 -0.591403  ]]
sub_nn_110.out.bias,[0.45327222]
sub_nn_111.hidden.weight,[[ 0.97521454 -0.85544556] [-0.4237168  -0.5117262 ] [-0.8172857   0.56794196]]
sub_nn_111.hidden.bias,[ 0.14610995 -0.17378062  0.60893077]
sub_nn_111.out.weight,[[-0.7127678 -1.205168   0.8626995]]
sub_nn_111.out.bias,[-0.07934785]
sub_nn_112.hidden.weight,[[-0.86382717  0.58882886] [ 0.960954   -0.5369465 ] [-0.5595014  -1.0404615 ]]
sub_nn_112.hidden.bias,[-0.597711   -0.30236956 -0.5441382 ]
sub_nn_112.out.weight,[[-0.31368506 -0.41490838  0.5832728 ]]
sub_nn_112.out.bias,[0.55259097]
sub_nn_113.hidden.weight,[[ 0.0241293   0.3375389 ] [ 0.43552855  0.44914776] [ 0.21722206 -1.37096   ]]
sub_nn_113.hidden.bias,[0.6968481  0.5866994  0.20965527]
sub_nn_113.out.weight,[[ 0.45740512  0.19133407 -0.18407674]]
sub_nn_113.out.bias,[-0.48718238]
sub_nn_114.hidden.weight,[[-0.15776809 -0.9180278 ] [ 0.09845195  1.2731614 ] [-0.75863254  0.7909586 ]]
sub_nn_114.hidden.bias,[ 0.4339469  -0.11017893  0.43065494]
sub_nn_114.out.weight,[[ 0.07048232  0.27711278 -0.24027392]]
sub_nn_114.out.bias,[0.35962135]
sub_nn_115.hidden.weight,[[ 0.22512649  0.292367  ] [ 0.93856275 -0.85716   ] [-0.7948698  -1.0968654 ]]
sub_nn_115.hidden.bias,[-0.16132188  0.13938923 -0.5587295 ]
sub_nn_115.out.weight,[[-0.6438203  -0.46943748  0.20228587]]
sub_nn_115.out.bias,[-0.45588005]
sub_nn_116.hidden.weight,[[-0.90757906  0.76125264] [-0.02974266 -0.10633612] [ 0.08442518 -0.66893554]]
sub_nn_116.hidden.bias,[-0.19515629  0.12877621  0.2892251 ]
sub_nn_116.out.weight,[[ 0.19588357 -0.6196487  -0.18482463]]
sub_nn_116.out.bias,[0.05912638]
sub_nn_117.hidden.weight,[[ 0.62533164 -0.47152406] [-1.1117557   0.06496266] [-0.54739195  1.2193127 ]]
sub_nn_117.hidden.bias,[-0.6283532   0.38243228  0.39945   ]
sub_nn_117.out.weight,[[1.3271608  0.24977416 0.3056643 ]]
sub_nn_117.out.bias,[0.3219955]
sub_nn_118.hidden.weight,[[ 0.48553172  0.1832725 ] [-0.01643723 -0.5645889 ] [-1.112687   -0.69776374]]
sub_nn_118.hidden.bias,[-0.50322425 -0.00188565 -0.41760218]
sub_nn_118.out.weight,[[ 1.2760268  -0.08557451 -0.09749919]]
sub_nn_118.out.bias,[-0.27321053]
sub_nn_119.hidden.weight,[[-1.1282783   0.11829856] [-0.27583927  0.74640465] [ 0.05463995  0.20662352]]
sub_nn_119.hidden.bias,[-0.41609228  0.12607723 -0.2854248 ]
sub_nn_119.out.weight,[[0.9966317 0.0067447 0.426161 ]]
sub_nn_119.out.bias,[-0.14052904]
sub_nn_120.hidden.weight,[[-0.15472782 -0.26278087] [-0.9488744   0.7523144 ] [ 0.1351211  -0.26960054]]
sub_nn_120.hidden.bias,[0.17098822 0.6672811  0.5027115 ]
sub_nn_120.out.weight,[[ 2.010326   -0.88863707 -1.5517309 ]]
sub_nn_120.out.bias,[0.3823269]
sub_nn_121.hidden.weight,[[-0.03011202 -0.12414899] [-0.05829085  0.4447805 ] [-0.62520814  0.7315246 ]]
sub_nn_121.hidden.bias,[-0.70279735  0.25845402  0.49005845]
sub_nn_121.out.weight,[[-0.5965252   0.7927728  -0.51433975]]
sub_nn_121.out.bias,[-0.12809336]
sub_nn_122.hidden.weight,[[ 0.50110364  0.95953435] [-0.6967172   0.39645088] [-1.198829    0.3986489 ]]
sub_nn_122.hidden.bias,[-0.09487641 -0.49508122 -0.21317324]
sub_nn_122.out.weight,[[0.90747446 1.0866547  0.6149529 ]]
sub_nn_122.out.bias,[0.3304215]
sub_nn_123.hidden.weight,[[ 0.6168755  -0.1669919 ] [-0.4742787  -0.45701823] [ 0.46944162 -0.38566104]]
sub_nn_123.hidden.bias,[ 0.6999355   0.56546384 -0.40402177]
sub_nn_123.out.weight,[[-0.8844949 -0.5011387  0.7958925]]
sub_nn_123.out.bias,[0.5012655]
sub_nn_124.hidden.weight,[[-0.42004734  0.4313595 ] [-0.198646   -0.45648116] [ 0.05724843 -0.3940287 ]]
sub_nn_124.hidden.bias,[0.49233732 0.18575892 0.20247006]
sub_nn_124.out.weight,[[0.21495253 0.70441145 0.7964968 ]]
sub_nn_124.out.bias,[0.3506688]
sub_nn_125.hidden.weight,[[ 0.11006764 -0.64613307] [ 0.79586065  0.95805   ] [ 1.2280768  -0.7511051 ]]
sub_nn_125.hidden.bias,[-0.70556104  0.02753586 -0.5487959 ]
sub_nn_125.out.weight,[[-1.385342   -0.2925173  -0.24274634]]
sub_nn_125.out.bias,[0.02312022]
sub_nn_126.hidden.weight,[[ 0.91714627 -0.47191542] [ 0.42433038  0.46824375] [-0.1721614   0.58760166]]
sub_nn_126.hidden.bias,[-0.58123827 -0.1412803   0.19983616]
sub_nn_126.out.weight,[[ 0.9965086  1.0625713 -0.7961799]]
sub_nn_126.out.bias,[0.16493511]
sub_nn_127.hidden.weight,[[ 0.40140808  1.0412253 ] [-0.60225856  0.17224292] [ 0.83795345 -0.2791709 ]]
sub_nn_127.hidden.bias,[-0.54508173 -0.10347259 -0.6098813 ]
sub_nn_127.out.weight,[[-0.91219777  0.02618488  0.8443999 ]]
sub_nn_127.out.bias,[-0.2657663]
sub_nn_128.hidden.weight,[[ 0.09451514 -0.5413631 ] [-0.51337    -0.31292087] [-0.57285005 -0.04522939]]
sub_nn_128.hidden.bias,[ 0.33869925 -0.6974314  -0.1572349 ]
sub_nn_128.out.weight,[[ 0.31477684 -0.588182   -1.5707685 ]]
sub_nn_128.out.bias,[-0.21678412]
sub_nn_129.hidden.weight,[[-0.3856833   1.0089412 ] [-0.4158163   0.9690146 ] [ 0.6153163   0.45789924]]
sub_nn_129.hidden.bias,[ 0.30101058 -0.21245642  0.09838796]
sub_nn_129.out.weight,[[0.5971708  0.28217924 0.20337011]]
sub_nn_129.out.bias,[0.06689215]
sub_nn_130.hidden.weight,[[ 0.5308133  -0.87495536] [-0.46598545  0.9342203 ] [ 0.09879922  1.3374118 ]]
sub_nn_130.hidden.bias,[ 0.46486422 -0.16540648 -0.37279892]
sub_nn_130.out.weight,[[-0.17775437 -0.75818557  0.6180557 ]]
sub_nn_130.out.bias,[0.3978852]
sub_nn_131.hidden.weight,[[-0.8521783  -0.08847734] [ 0.40287766 -0.73414564] [ 0.7687574  -0.27700827]]
sub_nn_131.hidden.bias,[-0.6136378   0.06377626  0.5820505 ]
sub_nn_131.out.weight,[[-1.0211186   0.25178555  0.7121326 ]]
sub_nn_131.out.bias,[0.08407718]
sub_nn_132.hidden.weight,[[ 0.24731189 -0.384629  ] [-0.6856581  -0.01534837] [-0.35938662 -1.4462878 ]]
sub_nn_132.hidden.bias,[0.63243324 0.18743873 0.33376175]
sub_nn_132.out.weight,[[-0.57910925 -0.33935332  0.53912365]]
sub_nn_132.out.bias,[-0.15252966]
sub_nn_133.hidden.weight,[[ 0.4821818  -0.3925879 ] [-0.9774607  -0.27990928] [-1.1021233  -0.7373063 ]]
sub_nn_133.hidden.bias,[ 0.23539546 -0.45192835 -0.47859246]
sub_nn_133.out.weight,[[ 0.27852088 -0.7564148   0.36631158]]
sub_nn_133.out.bias,[0.4303789]
sub_nn_134.hidden.weight,[[-0.3724368   1.1895857 ] [-0.14103088 -0.2929596 ] [ 0.6176797   0.17204727]]
sub_nn_134.hidden.bias,[-0.5601551  -0.48201942  0.6171797 ]
sub_nn_134.out.weight,[[ 0.24445012 -0.3248972  -0.18929484]]
sub_nn_134.out.bias,[0.00838524]
sub_nn_135.hidden.weight,[[-0.27803028 -0.3399941 ] [-0.8580967   0.007075  ] [ 0.69819504  0.38790277]]
sub_nn_135.hidden.bias,[ 0.03673036  0.3786587  -0.68476415]
sub_nn_135.out.weight,[[-0.6941714   0.09854155 -0.94776106]]
sub_nn_135.out.bias,[-0.10922202]
sub_nn_136.hidden.weight,[[ 0.30324307 -0.05811198] [ 0.7443058  -0.05346171] [-0.93467695  0.30473042]]
sub_nn_136.hidden.bias,[-0.07435182  0.15211505  0.25565898]
sub_nn_136.out.weight,[[ 0.49017718 -0.94249713 -0.25658473]]
sub_nn_136.out.bias,[-0.33760443]
sub_nn_137.hidden.weight,[[ 0.1028521   0.7196384 ] [-0.24528588  0.7647511 ] [-0.64687806 -0.84458363]]
sub_nn_137.hidden.bias,[ 0.2912277   0.20218195 -0.03456473]
sub_nn_137.out.weight,[[0.62748057 1.8676023  0.4459709 ]]
sub_nn_137.out.bias,[-0.51793903]
sub_nn_138.hidden.weight,[[-1.3332508  -0.30020422] [-0.71183366  0.39090806] [-0.55116606 -0.00820618]]
sub_nn_138.hidden.bias,[ 0.0138744  -0.00791443 -0.50784093]
sub_nn_138.out.weight,[[-0.03126781  0.2798722  -0.46008658]]
sub_nn_138.out.bias,[-0.44902208]
sub_nn_139.hidden.weight,[[ 1.2372645   0.04717086] [ 0.04832609 -0.63192713] [ 1.1529906   0.01196453]]
sub_nn_139.hidden.bias,[-0.20600617 -0.04523858  0.6055339 ]
sub_nn_139.out.weight,[[-0.9264976  1.1413279  0.6683864]]
sub_nn_139.out.bias,[0.3166693]
sub_nn_140.hidden.weight,[[ 0.4684191  -0.8692823 ] [-0.05501034  0.01502703] [ 0.06225481 -0.6993457 ]]
sub_nn_140.hidden.bias,[-0.5863317  -0.12555037  0.44773194]
sub_nn_140.out.weight,[[-0.6033421  0.2744534 -0.5033781]]
sub_nn_140.out.bias,[0.27016675]
sub_nn_141.hidden.weight,[[-0.23550108 -0.6153567 ] [-0.4154361   0.8370058 ] [ 0.30951747 -0.4390628 ]]
sub_nn_141.hidden.bias,[-0.55085576 -0.2807804   0.40328068]
sub_nn_141.out.weight,[[-0.31065464 -0.22496037 -0.6332945 ]]
sub_nn_141.out.bias,[0.43940985]
sub_nn_142.hidden.weight,[[ 0.30845577  0.23214117] [ 0.63042104 -1.2679474 ] [ 0.7292104   1.5196323 ]]
sub_nn_142.hidden.bias,[-0.18779457  0.40243343 -0.69104666]
sub_nn_142.out.weight,[[-0.5332169   0.28662091  0.56939214]]
sub_nn_142.out.bias,[-0.36686835]
sub_nn_143.hidden.weight,[[-0.74443054 -0.46619067] [ 0.5933642  -0.9472519 ] [-0.22628775 -0.14623182]]
sub_nn_143.hidden.bias,[ 3.1678801e-04  5.2592653e-01 -3.2098305e-01]
sub_nn_143.out.weight,[[ 0.5656773  -0.35766694 -1.0510131 ]]
sub_nn_143.out.bias,[0.41254872]
sub_nn_144.hidden.weight,[[ 0.60000277 -0.35569867] [ 0.67464685 -0.8870775 ] [-1.4009963   0.91000533]]
sub_nn_144.hidden.bias,[-0.16049954  0.01667527  0.4153422 ]
sub_nn_144.out.weight,[[-0.5494904   0.64022297  0.30278626]]
sub_nn_144.out.bias,[0.20434952]
sub_nn_145.hidden.weight,[[-0.3654752  -0.06802855] [ 1.6022809   0.42331696] [-0.8202487   0.85844034]]
sub_nn_145.hidden.bias,[-0.49023393  0.17496306  0.32270977]
sub_nn_145.out.weight,[[ 0.09070922 -0.32268912  1.4949933 ]]
sub_nn_145.out.bias,[0.56878924]
sub_nn_146.hidden.weight,[[ 0.05738391  0.5238002 ] [-0.20309995 -0.15077887] [-0.19040257 -0.09751342]]
sub_nn_146.hidden.bias,[-0.3673269 -0.0310545 -0.3460156]
sub_nn_146.out.weight,[[ 1.1414076   0.69054216 -0.61541224]]
sub_nn_146.out.bias,[0.33245277]
sub_nn_147.hidden.weight,[[ 0.8410641  -0.62755555] [-0.35000026 -0.6410921 ] [-0.45691237  0.87820864]]
sub_nn_147.hidden.bias,[0.05468088 0.6173753  0.39651242]
sub_nn_147.out.weight,[[ 1.4205095   0.26982048 -1.0716349 ]]
sub_nn_147.out.bias,[0.35760707]
sub_nn_148.hidden.weight,[[-0.7863387  -0.14920504] [-0.2507858   0.0014551 ] [ 0.39492568  0.5217059 ]]
sub_nn_148.hidden.bias,[-0.37877887 -0.42122808 -0.30094722]
sub_nn_148.out.weight,[[ 0.5725443   0.21074411 -0.2281029 ]]
sub_nn_148.out.bias,[0.11774158]
sub_nn_149.hidden.weight,[[-0.19365825  0.31513184] [ 0.7132891  -1.2796981 ] [ 0.3449092  -0.7398182 ]]
sub_nn_149.hidden.bias,[0.00821606 0.35317194 0.43175805]
sub_nn_149.out.weight,[[ 0.413704    0.18285109 -0.3239561 ]]
sub_nn_149.out.bias,[0.3334359]
sub_nn_150.hidden.weight,[[ 0.42720652 -0.7969619 ] [ 0.40887225 -0.10609696] [-0.9892099   1.06052   ]]
sub_nn_150.hidden.bias,[0.54618794 0.33393985 0.20198454]
sub_nn_150.out.weight,[[ 0.6157153  -0.41012406  0.04702345]]
sub_nn_150.out.bias,[-0.39426434]
sub_nn_151.hidden.weight,[[ 0.2584707  -0.10985202] [ 0.5237191   0.14506269] [-1.5682442   0.4058907 ]]
sub_nn_151.hidden.bias,[ 0.42963707  0.5023454  -0.6164041 ]
sub_nn_151.out.weight,[[-0.19111882 -0.80071694  0.14654137]]
sub_nn_151.out.bias,[0.20406306]
sub_nn_152.hidden.weight,[[ 0.0243371   1.096243  ] [ 0.2795533  -0.07194472] [-0.25888133 -1.1467898 ]]
sub_nn_152.hidden.bias,[ 0.6991064   0.00072808 -0.6431625 ]
sub_nn_152.out.weight,[[-1.7467606  -0.44315326  0.17436892]]
sub_nn_152.out.bias,[-0.36729258]
sub_nn_153.hidden.weight,[[-0.33570358 -0.31622714] [-0.04729682  0.19852433] [-0.50154805  0.16833977]]
sub_nn_153.hidden.bias,[ 0.5290632  -0.33209005  0.18030344]
sub_nn_153.out.weight,[[ 0.75749403 -0.7859528   0.20071214]]
sub_nn_153.out.bias,[-0.5169442]
sub_nn_154.hidden.weight,[[-0.30576777  0.8817607 ] [ 0.34370777  0.7847631 ] [ 0.15663546 -0.24934079]]
sub_nn_154.hidden.bias,[-0.29802626 -0.5567304   0.21193397]
sub_nn_154.out.weight,[[ 0.5891975   0.13484877 -0.28898132]]
sub_nn_154.out.bias,[0.14543885]
sub_nn_155.hidden.weight,[[ 0.08770272  0.9871529 ] [-1.1984619   2.2932515 ] [ 0.974562   -0.5590513 ]]
sub_nn_155.hidden.bias,[-0.0999006   0.02492011  0.05227555]
sub_nn_155.out.weight,[[-0.4973596   0.04091229 -0.86006784]]
sub_nn_155.out.bias,[-0.09471649]
sub_nn_156.hidden.weight,[[ 0.25339833  0.88432384] [ 1.0311221  -0.38499582] [ 0.20034198  0.17022112]]
sub_nn_156.hidden.bias,[-0.06492621 -0.20783304 -0.1387443 ]
sub_nn_156.out.weight,[[ 1.1282312  -0.27963993 -0.9229623 ]]
sub_nn_156.out.bias,[-0.39498976]
sub_nn_157.hidden.weight,[[ 0.6021577  -0.52823246] [ 0.1261034  -0.71177804] [-0.76534134 -0.43586537]]
sub_nn_157.hidden.bias,[0.52154124 0.43388215 0.04094767]
sub_nn_157.out.weight,[[-0.43713906  1.1706625   0.14055122]]
sub_nn_157.out.bias,[-0.16970107]
sub_nn_158.hidden.weight,[[0.8222374 0.5957977] [0.0054243 0.6361664] [0.8023648 2.4010468]]
sub_nn_158.hidden.bias,[-0.45439622 -0.31688976  0.2961914 ]
sub_nn_158.out.weight,[[-1.1338947  -0.6120748   0.21938938]]
sub_nn_158.out.bias,[0.38068694]
sub_nn_159.hidden.weight,[[ 0.43378842  0.7108393 ] [ 0.64035237 -0.03609398] [-1.255672   -0.4395941 ]]
sub_nn_159.hidden.bias,[-0.09956223  0.06907359  0.08553207]
sub_nn_159.out.weight,[[ 0.13054769 -0.6046552   0.27640316]]
sub_nn_159.out.bias,[0.37091196]
sub_nn_160.hidden.weight,[[-1.8856633  -0.58455557] [-0.69762385 -0.9367849 ] [-0.44469628 -0.23742056]]
sub_nn_160.hidden.bias,[0.03314488 0.694706   0.6605308 ]
sub_nn_160.out.weight,[[-0.16483477  1.1275669   0.57794976]]
sub_nn_160.out.bias,[-0.3129366]
sub_nn_161.hidden.weight,[[ 0.5958874   0.44229692] [-0.36003324 -0.43614182] [ 0.43434796  0.5148808 ]]
sub_nn_161.hidden.bias,[ 0.6483727  -0.35673016 -0.0732826 ]
sub_nn_161.out.weight,[[-0.00253745 -0.29982072 -0.10740662]]
sub_nn_161.out.bias,[-0.45164624]
sub_nn_162.hidden.weight,[[ 0.5874216   0.19009703] [-0.8972694  -0.60814583] [ 0.79955024  0.12943348]]
sub_nn_162.hidden.bias,[0.28497547 0.09231424 0.02554649]
sub_nn_162.out.weight,[[-1.2251172   0.16656119 -0.67489505]]
sub_nn_162.out.bias,[0.29444146]
sub_nn_163.hidden.weight,[[ 0.18708892 -0.40275437] [ 0.03043214  0.19879173] [ 0.20776692  0.04697406]]
sub_nn_163.hidden.bias,[ 0.65894425 -0.48034367 -0.46949077]
sub_nn_163.out.weight,[[-0.21031182 -0.8764802   0.3146504 ]]
sub_nn_163.out.bias,[-0.55011284]
sub_nn_164.hidden.weight,[[-0.08365523 -0.20184866] [-0.3667449   0.10502657] [-0.2697478  -0.17911755]]
sub_nn_164.hidden.bias,[0.25363696 0.61643714 0.3732532 ]
sub_nn_164.out.weight,[[0.16547881 0.48392832 0.38172442]]
sub_nn_164.out.bias,[0.37621987]
sub_nn_165.hidden.weight,[[ 0.18515173  0.10468172] [ 0.17481546 -0.39724445] [ 0.02376735  1.4750729 ]]
sub_nn_165.hidden.bias,[-0.6362396  -0.39246988  0.0214678 ]
sub_nn_165.out.weight,[[-0.5053226   0.44033843  0.56763434]]
sub_nn_165.out.bias,[0.33203417]
sub_nn_166.hidden.weight,[[-0.33647156  0.5411708 ] [ 0.49477705  0.4162152 ] [ 0.04515744  1.3290646 ]]
sub_nn_166.hidden.bias,[ 0.67241514 -0.25597197 -0.41987592]
sub_nn_166.out.weight,[[ 0.18867908 -0.06207094  0.54309994]]
sub_nn_166.out.bias,[-0.312597]
sub_nn_167.hidden.weight,[[ 0.5215282   0.197663  ] [ 0.42469588 -1.0292414 ] [-0.1654835   0.2152908 ]]
sub_nn_167.hidden.bias,[0.3883919  0.52218616 0.2595219 ]
sub_nn_167.out.weight,[[-0.06285818 -0.3082169  -0.32728845]]
sub_nn_167.out.bias,[0.22755468]
sub_nn_168.hidden.weight,[[-1.182285    0.08697261] [ 0.3044523  -1.6304098 ] [-0.01147936 -0.2507946 ]]
sub_nn_168.hidden.bias,[-0.17333226  0.2794737   0.34751636]
sub_nn_168.out.weight,[[-2.197877   -1.0451468  -0.11649408]]
sub_nn_168.out.bias,[-0.20946562]
sub_nn_169.hidden.weight,[[ 0.40960068  0.99474037] [-0.49728352 -0.2855276 ] [ 0.701267   -0.86300826]]
sub_nn_169.hidden.bias,[ 0.514314   -0.640719    0.48097855]
sub_nn_169.out.weight,[[ 0.16188125 -0.72773933 -0.78623295]]
sub_nn_169.out.bias,[0.2751664]
sub_nn_170.hidden.weight,[[ 0.02948167  0.28313577] [-0.4284881  -0.61404485] [ 0.84568715 -0.26248834]]
sub_nn_170.hidden.bias,[ 0.02458394  0.17632693 -0.41588378]
sub_nn_170.out.weight,[[0.32388324 0.84929574 0.8337382 ]]
sub_nn_170.out.bias,[0.06223154]
sub_nn_171.hidden.weight,[[ 5.1474953e-01 -3.9499980e-01] [ 6.4333856e-01 -9.1084592e-02] [ 2.1251907e-04  5.0491637e-01]]
sub_nn_171.hidden.bias,[0.0461813 0.6265852 0.575517 ]
sub_nn_171.out.weight,[[-0.2773589  -0.25949296  0.21541691]]
sub_nn_171.out.bias,[-0.43260902]
sub_nn_172.hidden.weight,[[-0.34063196  0.7830052 ] [ 0.43526593  0.48416865] [-0.44557157 -0.15596563]]
sub_nn_172.hidden.bias,[-0.31294307 -0.5813203   0.33774713]
sub_nn_172.out.weight,[[ 0.7947114  -0.12613416  1.0155009 ]]
sub_nn_172.out.bias,[-0.47746098]
sub_nn_173.hidden.weight,[[-0.20736025 -0.05695415] [-0.8682481   0.59666306] [ 0.30783546  0.52261686]]
sub_nn_173.hidden.bias,[ 0.13875395  0.4144395  -0.21531676]
sub_nn_173.out.weight,[[-0.15974066  0.79622114 -0.30164117]]
sub_nn_173.out.bias,[-0.12776452]
sub_nn_174.hidden.weight,[[-1.116941   -0.44947708] [-0.5954856   0.9778883 ] [ 0.4162301   0.6425627 ]]
sub_nn_174.hidden.bias,[0.442311   0.20202708 0.5836255 ]
sub_nn_174.out.weight,[[-0.28617316  0.40560725 -0.65767664]]
sub_nn_174.out.bias,[0.3324073]
sub_nn_175.hidden.weight,[[ 0.37497184  0.654404  ] [-1.1776386   0.11740145] [-0.27149004 -0.01559937]]
sub_nn_175.hidden.bias,[-0.26394734 -0.06653298 -0.6575802 ]
sub_nn_175.out.weight,[[ 0.14038493 -0.7542328  -0.7022455 ]]
sub_nn_175.out.bias,[-0.05486178]
sub_nn_176.hidden.weight,[[0.53406024 0.33363375] [0.25162652 0.5279262 ] [0.6104347  0.0031177 ]]
sub_nn_176.hidden.bias,[-0.67270863 -0.02638257  0.6488517 ]
sub_nn_176.out.weight,[[0.71865344 0.09322672 0.31281108]]
sub_nn_176.out.bias,[-0.09407139]
sub_nn_177.hidden.weight,[[-0.5940844   0.87828064] [-0.9819552  -0.00289018] [-0.2105251  -1.3473418 ]]
sub_nn_177.hidden.bias,[0.19448851 0.22974065 0.13331588]
sub_nn_177.out.weight,[[ 0.73970276 -1.675157    0.03675796]]
sub_nn_177.out.bias,[0.3301502]
sub_nn_178.hidden.weight,[[ 0.16220497  0.5834946 ] [ 0.8982595  -0.28686467] [-0.02118613 -0.25044566]]
sub_nn_178.hidden.bias,[0.49147838 0.5407489  0.61077833]
sub_nn_178.out.weight,[[-0.23519073  0.01845752  0.85469234]]
sub_nn_178.out.bias,[0.08658808]
sub_nn_179.hidden.weight,[[ 0.15883683  0.21161577] [ 0.5875452  -2.2169077 ] [ 0.77927077 -1.4727129 ]]
sub_nn_179.hidden.bias,[ 0.18257761  0.3050272  -0.16592169]
sub_nn_179.out.weight,[[ 0.7427459   0.51711184 -1.563551  ]]
sub_nn_179.out.bias,[0.13525742]
sub_nn_180.hidden.weight,[[ 0.05181976 -0.66102993] [-0.80571365 -0.22208612] [-0.04053646 -0.57683605]]
sub_nn_180.hidden.bias,[0.16666204 0.06966286 0.48214963]
sub_nn_180.out.weight,[[ 0.14959736 -1.2287422   1.1336918 ]]
sub_nn_180.out.bias,[0.43685794]
sub_nn_181.hidden.weight,[[ 0.01461189  0.72756946] [ 1.0538425  -0.7084716 ] [ 0.48828417 -1.4443305 ]]
sub_nn_181.hidden.bias,[ 0.444156   -0.5361664  -0.61885685]
sub_nn_181.out.weight,[[-0.7179535  -0.4384456  -0.10944988]]
sub_nn_181.out.bias,[-0.32907152]
sub_nn_182.hidden.weight,[[ 0.31381646 -0.35696533] [ 0.17156412  1.0326543 ] [ 0.33494675  0.03937898]]
sub_nn_182.hidden.bias,[0.55884784 0.0335871  0.04474622]
sub_nn_182.out.weight,[[0.28717363 0.0891906  0.45289972]]
sub_nn_182.out.bias,[-0.532122]
sub_nn_183.hidden.weight,[[ 0.17757908 -0.48440295] [ 0.27963626  1.1244597 ] [-0.22867282 -0.5331635 ]]
sub_nn_183.hidden.bias,[ 0.4300397  -0.41709775 -0.05070704]
sub_nn_183.out.weight,[[ 0.29930153 -0.42750427 -1.0294278 ]]
sub_nn_183.out.bias,[-0.2330328]
sub_nn_184.hidden.weight,[[ 0.22511534  0.01820502] [-0.36688653 -0.71737725] [ 0.691956    0.8271951 ]]
sub_nn_184.hidden.bias,[ 0.3442207  -0.05883968  0.2525311 ]
sub_nn_184.out.weight,[[0.49018034 0.07988535 1.2251437 ]]
sub_nn_184.out.bias,[-0.04352635]
sub_nn_185.hidden.weight,[[-0.01704785  0.1574327 ] [ 0.25090018  0.24270518] [-0.3253236  -0.2842418 ]]
sub_nn_185.hidden.bias,[ 0.6172381   0.24981093 -0.24374813]
sub_nn_185.out.weight,[[-0.07651411  1.1829462   0.49723667]]
sub_nn_185.out.bias,[0.23944551]
sub_nn_186.hidden.weight,[[ 1.088245    0.9003255 ] [-0.8354885  -0.5391185 ] [ 1.2994365   0.09312847]]
sub_nn_186.hidden.bias,[0.41452998 0.23430538 0.64961976]
sub_nn_186.out.weight,[[-0.9110681  -0.25825447  1.1772504 ]]
sub_nn_186.out.bias,[-0.40291646]
sub_nn_187.hidden.weight,[[-0.48938337 -0.47779524] [-0.46058828  0.4633287 ] [-0.56856954  0.06098536]]
sub_nn_187.hidden.bias,[-0.5191113  -0.57371974  0.46738502]
sub_nn_187.out.weight,[[-0.38228193  0.19062205  0.9061266 ]]
sub_nn_187.out.bias,[-0.02562451]
sub_nn_188.hidden.weight,[[ 0.19256271  0.59397924] [-0.24094893  1.059321  ] [-0.10703209  0.4340752 ]]
sub_nn_188.hidden.bias,[0.22338295 0.1075691  0.21467246]
sub_nn_188.out.weight,[[-0.05341789  0.5400337  -1.0377376 ]]
sub_nn_188.out.bias,[-0.37970272]
sub_nn_189.hidden.weight,[[ 0.43948808  0.08284621] [ 1.0242289   0.46859047] [-0.675198    0.05264915]]
sub_nn_189.hidden.bias,[-0.36895737  0.31095415 -0.06259513]
sub_nn_189.out.weight,[[ 0.5355102   0.7404288  -0.16487323]]
sub_nn_189.out.bias,[0.1766985]
sub_nn_190.hidden.weight,[[-0.7515767  -0.82689935] [ 0.3154183   0.54798   ] [ 0.74602497  0.06882756]]
sub_nn_190.hidden.bias,[-0.19252264 -0.36929807  0.66326374]
sub_nn_190.out.weight,[[ 0.18552312 -0.5403376  -0.5617489 ]]
sub_nn_190.out.bias,[0.47084165]
sub_nn_191.hidden.weight,[[ 0.8981437  -0.94297266] [-0.38972414  0.1779193 ] [ 0.899605   -0.46160045]]
sub_nn_191.hidden.bias,[-0.00559916 -0.0687927  -0.08192688]
sub_nn_191.out.weight,[[-1.2795858  -0.6869013   0.29169828]]
sub_nn_191.out.bias,[-0.06893748]
sub_nn_192.hidden.weight,[[-0.62261456  0.5628372 ] [-0.60368353  0.22753364] [-0.9536832   0.14926492]]
sub_nn_192.hidden.bias,[-0.1510731   0.13914661 -0.14935607]
sub_nn_192.out.weight,[[-0.79883796 -0.13949707 -0.21678846]]
sub_nn_192.out.bias,[-0.31315228]
sub_nn_193.hidden.weight,[[ 0.25058085  0.76491696] [-0.00549034  0.1526173 ] [ 0.52683777  0.4587547 ]]
sub_nn_193.hidden.bias,[ 0.10626155 -0.4582122   0.25683242]
sub_nn_193.out.weight,[[-0.02974816  0.37737745  0.3350222 ]]
sub_nn_193.out.bias,[0.04426199]
sub_nn_194.hidden.weight,[[-0.12782457  0.28321883] [ 0.44986606  1.0430474 ] [ 0.30655548  0.16533418]]
sub_nn_194.hidden.bias,[0.16545504 0.46877223 0.6957385 ]
sub_nn_194.out.weight,[[ 0.20738502  0.11545973 -0.16472901]]
sub_nn_194.out.bias,[-0.55543905]
sub_nn_195.hidden.weight,[[ 0.06075138 -0.69266015] [-0.06261519 -0.54556483] [ 0.49737042  0.0627678 ]]
sub_nn_195.hidden.bias,[-0.63616645  0.0153439   0.49175185]
sub_nn_195.out.weight,[[0.47025132 1.189176   0.3940324 ]]
sub_nn_195.out.bias,[0.21765488]
sub_nn_196.hidden.weight,[[-0.6508397  -0.5034001 ] [-0.42831358  0.52035433] [ 0.088025   -0.06502136]]
sub_nn_196.hidden.bias,[-0.48577875 -0.47910482 -0.04638191]
sub_nn_196.out.weight,[[ 0.28657004 -0.07559932 -0.01708587]]
sub_nn_196.out.bias,[-0.37444314]
sub_nn_197.hidden.weight,[[-0.27274707 -0.64646983] [ 1.0234717  -0.5059023 ] [-0.29549554  0.7796982 ]]
sub_nn_197.hidden.bias,[-0.3628181   0.5616974  -0.42474145]
sub_nn_197.out.weight,[[ 1.090181   1.0446676 -0.3228305]]
sub_nn_197.out.bias,[0.5626265]
sub_nn_198.hidden.weight,[[-0.28129387  0.28344512] [-0.18917827 -0.25555235] [ 0.18938856 -0.27011177]]
sub_nn_198.hidden.bias,[ 0.19413722 -0.03511775 -0.68780214]
sub_nn_198.out.weight,[[-0.29492208 -0.40077105 -0.9775257 ]]
sub_nn_198.out.bias,[0.289272]
sub_nn_199.hidden.weight,[[-0.5657948  -0.64348006] [-0.0973087   0.4683514 ] [ 0.5557503  -0.15017675]]
sub_nn_199.hidden.bias,[ 0.53254706 -0.3522995   0.24634899]
sub_nn_199.out.weight,[[ 0.85800445  0.01270862 -0.3616943 ]]
sub_nn_199.out.bias,[0.29864562]
sub_nn_200.hidden.weight,[[-1.5964353  -0.4672636 ] [ 0.15810196 -1.0251534 ] [-0.5197716   0.7950537 ]]
sub_nn_200.hidden.bias,[-0.00962055  0.01783426  0.36849985]
sub_nn_200.out.weight,[[-0.81235224 -0.6591468   0.5877751 ]]
sub_nn_200.out.bias,[0.3310746]
sub_nn_201.hidden.weight,[[-0.5002458   0.7472839 ] [ 0.5564339  -0.02073048] [ 0.6264516  -0.39074317]]
sub_nn_201.hidden.bias,[ 0.6109211   0.7058334  -0.54810715]
sub_nn_201.out.weight,[[-0.40336946  0.01684961 -0.51364   ]]
sub_nn_201.out.bias,[-0.18490979]
sub_nn_202.hidden.weight,[[-0.14835344 -0.07441921] [ 0.2702757  -0.7440659 ] [-0.42297077  0.32616392]]
sub_nn_202.hidden.bias,[-0.08703393 -0.41493598 -0.43386024]
sub_nn_202.out.weight,[[-0.14213601 -1.0180476  -1.1553624 ]]
sub_nn_202.out.bias,[0.11374873]
sub_nn_203.hidden.weight,[[-0.09141261 -1.7049849 ] [-0.7491582  -0.17328133] [ 0.5703973   0.13602515]]
sub_nn_203.hidden.bias,[-0.5183526   0.39711756  0.49517173]
sub_nn_203.out.weight,[[-0.3214884 -0.2887367 -0.3572883]]
sub_nn_203.out.bias,[-0.427492]
sub_nn_204.hidden.weight,[[ 0.6297087  -0.25034636] [ 0.39050102 -0.31855476] [ 0.7448712   0.39523023]]
sub_nn_204.hidden.bias,[-0.06808278  0.33702117  0.667949  ]
sub_nn_204.out.weight,[[1.0536317  0.44900575 0.7610062 ]]
sub_nn_204.out.bias,[0.09994483]
sub_nn_205.hidden.weight,[[-0.62657076  0.980738  ] [-0.17979848  0.08357494] [-0.31631067  1.2326694 ]]
sub_nn_205.hidden.bias,[-0.41426918 -0.36626437 -0.06149301]
sub_nn_205.out.weight,[[-0.24338368  0.44610983 -0.08088658]]
sub_nn_205.out.bias,[0.06683034]
sub_nn_206.hidden.weight,[[ 0.44578108 -0.13714345] [-0.38534668  0.15320008] [ 1.3212763   0.3271762 ]]
sub_nn_206.hidden.bias,[ 0.6929961  -0.34767285 -0.13330668]
sub_nn_206.out.weight,[[0.13274297 0.18006091 0.10508796]]
sub_nn_206.out.bias,[-0.53166896]
sub_nn_207.hidden.weight,[[ 0.1189491   0.27177703] [ 0.33400893 -0.32642114] [ 1.0206653   0.10977035]]
sub_nn_207.hidden.bias,[-0.39452207  0.24010867 -0.13527048]
sub_nn_207.out.weight,[[ 0.7979034  -1.0607015  -0.47096795]]
sub_nn_207.out.bias,[-0.5721864]
sub_nn_208.hidden.weight,[[ 1.4590368  -0.44918036] [-0.26541466 -0.36252987] [ 0.09209966 -0.223273  ]]
sub_nn_208.hidden.bias,[-0.342437   -0.09025335 -0.50253534]
sub_nn_208.out.weight,[[-1.1963898   0.6689808  -0.89398795]]
sub_nn_208.out.bias,[-0.30884162]
sub_nn_209.hidden.weight,[[-0.06596302 -1.272539  ] [ 0.28345054 -0.7664457 ] [-0.7175328  -0.31580493]]
sub_nn_209.hidden.bias,[0.64573497 0.22066295 0.68015444]
sub_nn_209.out.weight,[[ 0.07798304 -0.54765654 -0.8037192 ]]
sub_nn_209.out.bias,[0.12242848]
sub_nn_210.hidden.weight,[[-0.40622354 -0.5722556 ] [-0.43700755 -1.2644045 ] [ 1.2666843  -0.85147214]]
sub_nn_210.hidden.bias,[0.53642863 0.17576104 0.28993636]
sub_nn_210.out.weight,[[0.5582904  0.01367431 0.3542186 ]]
sub_nn_210.out.bias,[-0.32667893]
sub_nn_211.hidden.weight,[[ 0.41893476 -0.299114  ] [ 0.04512426  0.20087184] [-0.17784417 -0.08981182]]
sub_nn_211.hidden.bias,[ 0.5056878  -0.63817763 -0.65494484]
sub_nn_211.out.weight,[[ 0.55945337  0.99809146 -0.10872275]]
sub_nn_211.out.bias,[0.54550433]
sub_nn_212.hidden.weight,[[ 0.49479684  0.11614175] [-0.78916204  0.66649246] [ 0.05597303  0.747827  ]]
sub_nn_212.hidden.bias,[ 0.15135431 -0.14007229 -0.7003256 ]
sub_nn_212.out.weight,[[ 0.36700812 -1.8749347  -0.6258227 ]]
sub_nn_212.out.bias,[-0.07857576]
sub_nn_213.hidden.weight,[[ 0.25383195  0.07204014] [-0.01286786 -0.38619858] [ 1.1903723  -0.49658158]]
sub_nn_213.hidden.bias,[-0.6065923   0.15090495 -0.05856397]
sub_nn_213.out.weight,[[ 0.35649952 -0.6906151   0.7478272 ]]
sub_nn_213.out.bias,[-0.03852332]
sub_nn_214.hidden.weight,[[-0.60142726  0.02308312] [-0.5478041   0.58207995] [ 0.81461877  0.72795963]]
sub_nn_214.hidden.bias,[ 0.41305035 -0.32106456  0.679241  ]
sub_nn_214.out.weight,[[-0.44422078 -0.09543414  0.5350369 ]]
sub_nn_214.out.bias,[0.41210425]
sub_nn_215.hidden.weight,[[-0.10565782  1.0275367 ] [-0.35307458 -0.1959956 ] [-0.03403796 -0.8274732 ]]
sub_nn_215.hidden.bias,[-0.12315327  0.41795263  0.0276043 ]
sub_nn_215.out.weight,[[-0.70857954 -1.5426991   0.13346314]]
sub_nn_215.out.bias,[-0.55392647]
sub_nn_216.hidden.weight,[[ 0.32064554  0.17105858] [ 0.0799529   0.17694063] [-0.3420159   0.5413354 ]]
sub_nn_216.hidden.bias,[-0.29194954  0.06421918  0.01475456]
sub_nn_216.out.weight,[[-0.09815598 -0.34852076  0.29660457]]
sub_nn_216.out.bias,[0.48217773]
sub_nn_217.hidden.weight,[[ 0.4883762  -0.19902875] [-0.26085886  0.40141523] [-0.6636288  -0.2099663 ]]
sub_nn_217.hidden.bias,[ 0.09405577 -0.49908704  0.24658912]
sub_nn_217.out.weight,[[-0.31608385 -1.0312275   0.24760059]]
sub_nn_217.out.bias,[0.5099939]
sub_nn_218.hidden.weight,[[-0.8417702   0.6293485 ] [ 0.95492715 -0.3345879 ] [-0.1357782   0.07616425]]
sub_nn_218.hidden.bias,[ 0.196317   -0.63939035  0.49757496]
sub_nn_218.out.weight,[[-0.76235354  0.22327049 -0.11273461]]
sub_nn_218.out.bias,[0.37952423]
sub_nn_219.hidden.weight,[[ 1.0925677  -0.85939884] [-0.20535901  0.62375546] [-1.0779567  -0.17483953]]
sub_nn_219.hidden.bias,[0.2733531  0.315686   0.19843228]
sub_nn_219.out.weight,[[ 0.6186772  -0.32719347 -0.12700984]]
sub_nn_219.out.bias,[-0.2474918]
sub_nn_220.hidden.weight,[[ 1.10054     0.6698271 ] [ 0.2851691  -0.45847252] [-1.0310771   0.5042977 ]]
sub_nn_220.hidden.bias,[ 0.11301899 -0.11507788 -0.24482948]
sub_nn_220.out.weight,[[0.27174225 0.67439014 0.19805959]]
sub_nn_220.out.bias,[-0.54317933]
sub_nn_221.hidden.weight,[[ 0.71608704  0.42773333] [ 0.55630064 -0.40933853] [ 0.287538    0.28254664]]
sub_nn_221.hidden.bias,[ 0.55763894 -0.32439777 -0.6225915 ]
sub_nn_221.out.weight,[[-0.3999834  0.4365953 -0.2779837]]
sub_nn_221.out.bias,[-0.10368267]
sub_nn_222.hidden.weight,[[ 0.06665388 -0.6925335 ] [-0.41556728  0.77498835] [ 0.55341107  0.56118006]]
sub_nn_222.hidden.bias,[-0.08973632 -0.50169486 -0.46349892]
sub_nn_222.out.weight,[[-0.40159786 -0.88533044  0.20067841]]
sub_nn_222.out.bias,[0.37046415]
sub_nn_223.hidden.weight,[[-0.02986119 -0.34202504] [-0.04718583 -0.38431665] [-0.7066877   0.09228664]]
sub_nn_223.hidden.bias,[-0.4829829   0.14306736  0.44626904]
sub_nn_223.out.weight,[[ 0.3602764  -0.47816026  0.5136353 ]]
sub_nn_223.out.bias,[-0.24248886]
sub_nn_224.hidden.weight,[[-0.2265808  -0.41121855] [-0.4979396  -0.08896288] [-0.00962976 -0.15125008]]
sub_nn_224.hidden.bias,[ 0.3530209  -0.32536936 -0.06162035]
sub_nn_224.out.weight,[[ 0.03466706  0.8645103  -0.4733525 ]]
sub_nn_224.out.bias,[-0.32149738]
sub_nn_225.hidden.weight,[[ 0.7788058  -1.2106534 ] [-0.2629648  -0.43931547] [-0.2558856  -1.513674  ]]
sub_nn_225.hidden.bias,[-0.2455998   0.21948975 -0.00417584]
sub_nn_225.out.weight,[[ 0.16507486 -0.12301667 -0.6511767 ]]
sub_nn_225.out.bias,[-0.19156101]
sub_nn_226.hidden.weight,[[ 1.0534705  -1.3389206 ] [-0.2562442  -0.58718777] [-0.79938763 -0.12187799]]
sub_nn_226.hidden.bias,[ 0.57285404 -0.5611312  -0.20772907]
sub_nn_226.out.weight,[[ 0.09570505 -0.13853116  0.9551668 ]]
sub_nn_226.out.bias,[0.2571267]
sub_nn_227.hidden.weight,[[ 0.9315006  -0.1874168 ] [ 0.04101373  0.20732354] [-0.21092786 -1.3738738 ]]
sub_nn_227.hidden.bias,[-0.08853523 -0.02795079  0.3915731 ]
sub_nn_227.out.weight,[[ 0.26072496  0.7402041  -0.7198931 ]]
sub_nn_227.out.bias,[0.4991609]
sub_nn_228.hidden.weight,[[-0.47396284 -0.1632249 ] [ 0.49676973  0.7805333 ] [ 0.67646563  0.10774986]]
sub_nn_228.hidden.bias,[ 0.5984927   0.3683477  -0.10957695]
sub_nn_228.out.weight,[[ 0.15260366 -0.47294235  0.75203055]]
sub_nn_228.out.bias,[-0.5333311]
sub_nn_229.hidden.weight,[[-0.7436897  -0.38276616] [-1.2622299  -0.45216808] [-0.4864117   0.2194577 ]]
sub_nn_229.hidden.bias,[ 0.10280541 -0.70210534  0.36432353]
sub_nn_229.out.weight,[[ 0.34471497 -0.339775   -0.16760556]]
sub_nn_229.out.bias,[0.36904818]
sub_nn_230.hidden.weight,[[-0.0825519  -0.09827594] [ 1.0996797   0.55992883] [-0.18957004  0.1535695 ]]
sub_nn_230.hidden.bias,[-0.49074173 -0.667593   -0.5070633 ]
sub_nn_230.out.weight,[[0.27484283 0.8576807  1.00517   ]]
sub_nn_230.out.bias,[-0.5519228]
sub_nn_231.hidden.weight,[[0.56110007 0.05553543] [0.14843175 0.03782245] [0.82763773 0.27786118]]
sub_nn_231.hidden.bias,[0.00890023 0.0216493  0.6183186 ]
sub_nn_231.out.weight,[[-0.25818753 -0.02059777 -1.0716816 ]]
sub_nn_231.out.bias,[0.5386305]
sub_nn_232.hidden.weight,[[-0.04710573  0.30888325] [-0.8692789   0.13192025] [ 0.25826916 -1.1252781 ]]
sub_nn_232.hidden.bias,[-0.05798277 -0.6635453  -0.7034446 ]
sub_nn_232.out.weight,[[ 1.3694292  0.6406535 -0.6444599]]
sub_nn_232.out.bias,[-0.37114227]
sub_nn_233.hidden.weight,[[ 0.21568558 -0.09336109] [-0.5288399   0.29868966] [-0.8076562   1.0761409 ]]
sub_nn_233.hidden.bias,[-0.22708227 -0.4718494   0.13241254]
sub_nn_233.out.weight,[[-0.7728088   0.71514046  0.82151145]]
sub_nn_233.out.bias,[0.4161455]
sub_nn_234.hidden.weight,[[-1.2232461  -0.18083747] [-0.11708966 -0.33428645] [-0.5257074   0.14786401]]
sub_nn_234.hidden.bias,[-0.62036693  0.59057796 -0.35868132]
sub_nn_234.out.weight,[[-0.30450743  0.27136225  0.03160335]]
sub_nn_234.out.bias,[0.3316002]
sub_nn_235.hidden.weight,[[-0.0971128  -0.5622498 ] [-1.386666    0.908963  ] [ 0.09261924  0.76737654]]
sub_nn_235.hidden.bias,[-0.168181    0.5825288   0.14102983]
sub_nn_235.out.weight,[[ 0.67772615 -0.6159163   0.8938162 ]]
sub_nn_235.out.bias,[0.4407096]
sub_nn_236.hidden.weight,[[ 1.2562236  -0.05161886] [-0.60538137 -0.35361382] [ 1.2736886  -0.07725618]]
sub_nn_236.hidden.bias,[-0.40547055 -0.49614275 -0.43258584]
sub_nn_236.out.weight,[[ 0.17984499 -1.2780589   1.1541482 ]]
sub_nn_236.out.bias,[-0.25273776]
sub_nn_237.hidden.weight,[[-0.3167837   1.722924  ] [ 0.0777606  -0.44302496] [-0.71757764 -1.4681772 ]]
sub_nn_237.hidden.bias,[-0.31410792  0.23994201  0.5808697 ]
sub_nn_237.out.weight,[[-0.49996662  0.3918921  -1.0609126 ]]
sub_nn_237.out.bias,[0.24964142]
sub_nn_238.hidden.weight,[[-0.92446613 -0.66703516] [-0.38415375 -0.3559537 ] [-0.34981015 -0.46503556]]
sub_nn_238.hidden.bias,[-0.18788457 -0.0980286   0.4252585 ]
sub_nn_238.out.weight,[[-0.6204067 -0.65761   -0.2656419]]
sub_nn_238.out.bias,[0.43759656]
sub_nn_239.hidden.weight,[[ 1.7173054  -1.0622281 ] [-0.40704548  0.1943109 ] [-0.14392734  1.010487  ]]
sub_nn_239.hidden.bias,[-0.02986867 -0.51063234 -0.45235077]
sub_nn_239.out.weight,[[-0.02041359 -0.5020251   0.16287106]]
sub_nn_239.out.bias,[-0.09138873]
sub_nn_240.hidden.weight,[[-0.34448633  0.69374985] [-0.19952093  0.15053627] [-0.6740892   0.09593119]]
sub_nn_240.hidden.bias,[-0.04296101  0.13669822  0.68529075]
sub_nn_240.out.weight,[[-0.7517529   0.5861473  -0.37808552]]
sub_nn_240.out.bias,[0.22175848]
sub_nn_241.hidden.weight,[[-0.21800077  0.16324297] [ 1.1030902   0.11736274] [-0.3189772  -0.2770917 ]]
sub_nn_241.hidden.bias,[-0.67583424  0.27167064 -0.10383821]
sub_nn_241.out.weight,[[0.8783169  0.51813906 0.52156544]]
sub_nn_241.out.bias,[-0.44608527]
sub_nn_242.hidden.weight,[[ 0.14362827 -0.34786984] [-0.27263796  0.40626836] [-0.6340944  -0.53854483]]
sub_nn_242.hidden.bias,[ 0.6473851   0.27418584 -0.12124199]
sub_nn_242.out.weight,[[ 0.94305146 -0.16831422  0.00211149]]
sub_nn_242.out.bias,[-0.513798]
sub_nn_243.hidden.weight,[[-0.38396898  0.25912073] [-1.2182066  -0.57754374] [ 0.39124632  1.488953  ]]
sub_nn_243.hidden.bias,[ 0.7039874  -0.29313132 -0.14100051]
sub_nn_243.out.weight,[[0.40036547 0.49135253 0.1772415 ]]
sub_nn_243.out.bias,[-0.15719941]
sub_nn_244.hidden.weight,[[ 0.39798447  0.7727939 ] [-0.13748233 -0.17862354] [-0.15003031  0.23180795]]
sub_nn_244.hidden.bias,[ 0.34578687 -0.5818685  -0.07676809]
sub_nn_244.out.weight,[[-1.0294918  1.0209887 -0.9327358]]
sub_nn_244.out.bias,[0.12406558]
sub_nn_245.hidden.weight,[[ 0.17208824 -1.4453186 ] [-0.43177253  0.44494572] [-0.5339573  -1.1971769 ]]
sub_nn_245.hidden.bias,[ 0.08573902 -0.66141653 -0.40483683]
sub_nn_245.out.weight,[[-0.23763742 -0.1139145  -0.89530015]]
sub_nn_245.out.bias,[-0.2781868]
sub_nn_246.hidden.weight,[[ 0.6652657   0.30641434] [-0.37734136  0.05787428] [-0.71311253  0.70879346]]
sub_nn_246.hidden.bias,[-0.55185884  0.55911833 -0.18683966]
sub_nn_246.out.weight,[[ 0.29100418 -0.04781118 -0.71532816]]
sub_nn_246.out.bias,[0.37872624]
sub_nn_247.hidden.weight,[[-0.26050732  0.35288894] [ 0.61953425  0.48804113] [-0.58757555  0.3817397 ]]
sub_nn_247.hidden.bias,[-0.6985508   0.16416258  0.01679   ]
sub_nn_247.out.weight,[[ 1.8064619  -0.68827415  0.294872  ]]
sub_nn_247.out.bias,[0.11015171]
sub_nn_248.hidden.weight,[[-0.15491992  0.3619468 ] [-0.8855957  -1.1392729 ] [-0.2951001   0.5210395 ]]
sub_nn_248.hidden.bias,[ 0.5115035 -0.0470252  0.2980717]
sub_nn_248.out.weight,[[ 0.86792386  0.7079538  -0.85820556]]
sub_nn_248.out.bias,[-0.39154738]
sub_nn_249.hidden.weight,[[ 0.30991545  0.24416481] [ 0.6856505  -0.23050284] [ 1.0246183  -0.31610638]]
sub_nn_249.hidden.bias,[-0.088467    0.58990043 -0.24825938]
sub_nn_249.out.weight,[[0.05141305 0.17179193 0.70568776]]
sub_nn_249.out.bias,[-0.5081758]
sub_nn_250.hidden.weight,[[ 1.0158576  -0.15052298] [ 0.2886378  -0.49482208] [-0.20683283 -0.39919814]]
sub_nn_250.hidden.bias,[0.17415683 0.46353805 0.5495425 ]
sub_nn_250.out.weight,[[0.58950764 0.685948   0.5171647 ]]
sub_nn_250.out.bias,[0.12210077]
sub_nn_251.hidden.weight,[[ 0.5557987   0.05824788] [ 0.858261    0.7319447 ] [ 0.13370265 -0.37130526]]
sub_nn_251.hidden.bias,[ 0.46228176 -0.26480404  0.67624646]
sub_nn_251.out.weight,[[ 0.5176041 -0.7060962  1.2484233]]
sub_nn_251.out.bias,[0.11728138]
sub_nn_252.hidden.weight,[[ 0.49901554  1.1326414 ] [-0.04069411  0.21713594] [ 1.0352483  -0.04334216]]
sub_nn_252.hidden.bias,[-0.49562147 -0.57514423  0.5569084 ]
sub_nn_252.out.weight,[[-0.7223463  -0.46013716 -0.6785131 ]]
sub_nn_252.out.bias,[0.109231]
sub_nn_253.hidden.weight,[[ 0.8807846  -0.22667192] [ 0.3245953   0.8226817 ] [ 0.2222215   0.51873904]]
sub_nn_253.hidden.bias,[0.37572747 0.01418251 0.5062168 ]
sub_nn_253.out.weight,[[0.34539482 0.72049326 0.4127214 ]]
sub_nn_253.out.bias,[0.05918711]
sub_nn_254.hidden.weight,[[ 0.46935692  0.4557417 ] [ 0.26375932  0.16940376] [-0.517533   -0.00333425]]
sub_nn_254.hidden.bias,[ 0.60960513  0.1832133  -0.55463743]
sub_nn_254.out.weight,[[ 0.11757776  0.45950335 -0.42532015]]
sub_nn_254.out.bias,[-0.20384866]
sub_nn_255.hidden.weight,[[ 0.29917985  0.2664752 ] [-0.7049611   0.77153957] [-0.5098696  -0.5812453 ]]
sub_nn_255.hidden.bias,[ 0.2961895   0.52611786 -0.18777281]
sub_nn_255.out.weight,[[-0.7165095   0.2685431  -0.32924446]]
sub_nn_255.out.bias,[0.3737269]
sub_nn_256.hidden.weight,[[ 1.5599221   0.86413926] [-0.4945342   0.6414059 ] [ 0.19549985  0.6566224 ]]
sub_nn_256.hidden.bias,[ 0.04362172 -0.6968071  -0.01115921]
sub_nn_256.out.weight,[[-0.57254934  0.201056   -0.58947706]]
sub_nn_256.out.bias,[0.1718381]
sub_nn_257.hidden.weight,[[-0.24354368  0.31849268] [-0.27976468 -0.15053804] [-0.16918556  0.5353795 ]]
sub_nn_257.hidden.bias,[-0.17436963  0.69558764  0.32511666]
sub_nn_257.out.weight,[[0.96864146 0.49189675 0.50407016]]
sub_nn_257.out.bias,[0.34638757]
sub_nn_258.hidden.weight,[[ 0.3343427 -0.6171235] [-0.5607229 -0.2525801] [-0.5471843 -0.7578992]]
sub_nn_258.hidden.bias,[-0.45818028 -0.00088888 -0.32557893]
sub_nn_258.out.weight,[[-0.692874   -0.75165266 -0.50984687]]
sub_nn_258.out.bias,[-0.21840498]
sub_nn_259.hidden.weight,[[-0.45037574  0.86508286] [-0.74270767 -0.5965433 ] [-0.76063406  0.59941393]]
sub_nn_259.hidden.bias,[-0.33731297  0.17929834  0.07766488]
sub_nn_259.out.weight,[[ 0.5881853   0.93414795 -0.15080756]]
sub_nn_259.out.bias,[-0.23616022]
sub_nn_260.hidden.weight,[[-0.48009792  0.16010132] [-0.31825483 -0.30807966] [-0.17111543  0.8293058 ]]
sub_nn_260.hidden.bias,[-0.5061841  -0.38136077 -0.14808518]
sub_nn_260.out.weight,[[-1.1565298   1.4948901  -0.33919388]]
sub_nn_260.out.bias,[-0.15686917]
sub_nn_261.hidden.weight,[[ 0.6501724   0.04726973] [ 0.10076317 -0.88211054] [-0.04819196 -0.78980976]]
sub_nn_261.hidden.bias,[-0.39662558 -0.21537116 -0.49443883]
sub_nn_261.out.weight,[[ 0.68853164  0.20306285 -0.7097249 ]]
sub_nn_261.out.bias,[0.23016989]
sub_nn_262.hidden.weight,[[-1.056215   -0.39643008] [ 1.1627803  -0.43121916] [-0.46701264 -1.1993449 ]]
sub_nn_262.hidden.bias,[0.4614796  0.53558165 0.31039613]
sub_nn_262.out.weight,[[0.48546362 0.5677214  2.4420035 ]]
sub_nn_262.out.bias,[-0.25243244]
sub_nn_263.hidden.weight,[[-1.1409554   1.0998931 ] [-0.7497579   0.6320124 ] [ 0.19542356 -0.7010179 ]]
sub_nn_263.hidden.bias,[ 0.6459649  -0.09025066 -0.63094413]
sub_nn_263.out.weight,[[-0.40829948  0.58471745 -0.51688   ]]
sub_nn_263.out.bias,[0.54680395]
sub_nn_264.hidden.weight,[[ 0.5571356  -0.12710586] [ 0.8591714   0.8705974 ] [ 0.51801306 -0.3949317 ]]
sub_nn_264.hidden.bias,[-0.48891926 -0.6590379   0.4042881 ]
sub_nn_264.out.weight,[[-0.9288307   0.2524523  -0.11294281]]
sub_nn_264.out.bias,[-0.3907197]
sub_nn_265.hidden.weight,[[-0.17759484  0.87972677] [ 0.10221412 -1.1744999 ] [ 0.06400798 -0.8032368 ]]
sub_nn_265.hidden.bias,[0.39151272 0.21912481 0.31872264]
sub_nn_265.out.weight,[[ 0.96122485 -0.50781906 -0.2947857 ]]
sub_nn_265.out.bias,[-0.3213733]
sub_nn_266.hidden.weight,[[-0.15876846  0.4510144 ] [-1.1523758   0.29675472] [ 0.02535245 -0.17766002]]
sub_nn_266.hidden.bias,[ 0.6976964   0.29394266 -0.2988111 ]
sub_nn_266.out.weight,[[ 0.52124786  1.1062193  -1.313452  ]]
sub_nn_266.out.bias,[0.01725578]
sub_nn_267.hidden.weight,[[-0.8123888   0.89153874] [ 0.36124223 -0.8160486 ] [-0.7293831   0.65232366]]
sub_nn_267.hidden.bias,[ 0.09343513 -0.6463982  -0.5208924 ]
sub_nn_267.out.weight,[[ 0.4453226  -0.23428474  0.11391778]]
sub_nn_267.out.bias,[0.01201928]
sub_nn_268.hidden.weight,[[-0.5376972  -0.44442174] [-0.05630889  1.3884686 ] [ 0.6545138   0.53226054]]
sub_nn_268.hidden.bias,[-0.43857452  0.13901359 -0.43197772]
