w,[0.40045217 0.0464793  0.05956667 0.17985533 0.532268   0.49916777 0.6797045 ]
hidden1.weight,[[ 0.03284314  0.02740935 -0.01706741 ... -0.00738429  0.06928406   0.00559778] [-0.08526488  0.06883299  0.01426826 ... -0.00808682  0.01859738   0.02255581] [ 0.02475565  0.11673403  0.03032544 ... -0.02990226  0.024717   0.06160257] ... [-0.00879436 -0.01907543  0.0665541  ...  0.00377413  0.02935816   0.03395966] [ 0.01316332  0.03447536  0.00060028 ...  0.06260264 -0.07875038  -0.04930727] [-0.03254649  0.05932301  0.01543125 ...  0.02213549  0.01501663  -0.01117139]]
hidden1.bias,[ 0.02271046  0.01452926  0.05356095 -0.02402155 -0.01138592 -0.02935237  0.04487804  0.01714831  0.02464538  0.04007098  0.00155751  0.03659276 -0.04024467 -0.04254305  0.02929198 -0.03592953 -0.0278217   0.01674292 -0.01726279  0.03647098 -0.02073032 -0.02008469 -0.01381045 -0.04243023 -0.03330062 -0.01928292 -0.02753797 -0.01373252 -0.01497309  0.04587433  0.00888711  0.0174958   0.04464776  0.02845152 -0.02994078 -0.02685624 -0.00901594  0.03037254 -0.00164726  0.02881706 -0.01405719 -0.01413235  0.01809848  0.03494348  0.02376833 -0.00025169  0.0119826   0.03508612 -0.00198902 -0.00929792 -0.00264466 -0.05044881  0.0301217   0.03894132 -0.0341098  -0.02040334  0.00254556 -0.05193964 -0.00073998 -0.02213818 -0.03808071  0.0097492  -0.04945362  0.01761638  0.01637969 -0.00408251  0.03541622  0.0146287   0.00381216  0.00210237  0.03212443  0.04071105 -0.01625329 -0.0129682   0.00664156 -0.03950064  0.02856316  0.01549777 -0.04086094 -0.03619042  0.04417126 -0.04324847  0.02483197 -0.05038445  0.01982363  0.04417497  0.00599582  0.01051965 -0.01828925 -0.01042256  0.01595856 -0.00198246  0.01766799  0.02103185 -0.04821922  0.04667723  0.04214787  0.02846434  0.02330779 -0.03910894 -0.02365434  0.01301094 -0.04543237  0.00136901 -0.02387355 -0.04090092  0.04180823  0.03715677  0.04506441  0.01906866 -0.04605137  0.03980207 -0.00030891 -0.02558969  0.01391662  0.04614052  0.04886777 -0.00834147  0.04743906  0.02158359 -0.00667806  0.03592397  0.01668875 -0.01289975  0.01335028 -0.03154206 -0.01104669 -0.05058034  0.05427602  0.00971857 -0.04343294 -0.02626012  0.05237766  0.02548892  0.05254385  0.04616687  0.00657127  0.01021247  0.00631185  0.01765874  0.03592218  0.02861152 -0.00609643  0.02031938  0.05255748 -0.03512621  0.04763151  0.01853857  0.01790834  0.00875525 -0.02990899  0.00718684  0.04080959 -0.03032701 -0.03083018  0.00030611 -0.01669989  0.03016905 -0.0402464  -0.01088315  0.0128763  -0.01212642 -0.04333789 -0.02704905  0.02005475  0.01514269  0.01647541 -0.00408518 -0.03227818 -0.0255873   0.03711809  0.02313752  0.01696688 -0.02869095 -0.01567861  0.01601117 -0.0510501   0.03723978  0.03050969 -0.02480661  0.01330646 -0.03446976  0.04714779 -0.0036654   0.01636122 -0.03335745 -0.02766926 -0.01849152  0.0388381  -0.0419445   0.02149664  0.01694545  0.05057843  0.03638894 -0.00826149  0.04666698  0.00778316  0.00239128 -0.03484296 -0.03737591  0.03564364 -0.02125099 -0.02925658 -0.02487439  0.03819564  0.05059069  0.02401819  0.02241958  0.00095016  0.00699796  0.02208808 -0.00722498  0.04151644 -0.02393151 -0.01997191  0.04233978  0.00702598  0.04972552  0.01191363  0.03592281 -0.01204217  0.03568247 -0.02600612 -0.00894    -0.02325711  0.03022687 -0.01496591 -0.04550284  0.01780448  0.01990981 -0.00054947 -0.0150184  -0.03103932  0.03646799  0.05357416  0.0137242   0.03543533  0.00801378 -0.00257157 -0.03648036 -0.03427194  0.04826905 -0.03724944  0.01787872  0.00598255  0.00786474  0.01761588 -0.02872599  0.0281282   0.02545065 -0.04280299 -0.00819943 -0.04023786  0.02775239 -0.03895353 -0.04041812  0.00458556  0.05602448 -0.01743661  0.00104365 -0.01668234  0.03701197 -0.01987129 -0.02311378  0.02176344  0.01831214  0.03050398  0.02064705 -0.05114963  0.0169465 -0.00083789  0.03492923 -0.0484015   0.03475223  0.01492624 -0.04508241 -0.03500246  0.02369854 -0.05598043  0.00964148 -0.03981919 -0.02902272  0.04842378  0.01259945 -0.02150336  0.01537836  0.04510134 -0.01877233  0.0354812  -0.02350161  0.00237814 -0.0082985  -0.05336033  0.0157455 -0.01765739 -0.01322097 -0.01642629  0.03934809  0.03639624 -0.05054741  0.05094505  0.00969716  0.01997382 -0.03036101 -0.01579198 -0.0026254  0.03974989  0.00335212  0.00285324  0.02851731 -0.01268618  0.05341961  0.00779793 -0.02589864  0.03005119 -0.04179556 -0.04687806  0.03230437  0.04765406 -0.02916385  0.01981182  0.03780717 -0.043155    0.01981971  0.0358232   0.03694071  0.00275959  0.01423095  0.02834396 -0.03314197  0.03514652  0.01431135  0.02468786  0.03782461 -0.04576145  0.02652061 -0.03677629  0.04047728 -0.0537151   0.03442926 -0.01939134  0.01170463 -0.01700786 -0.00511195 -0.04716212 -0.05374418  0.02830213 -0.04490066  0.03298126  0.00051477 -0.02913342  0.01016081 -0.03129224  0.04314373  0.01702918  0.01256658  0.01598747 -0.02161019  0.02231301 -0.04755476 -0.01947574  0.04456484 -0.04743928 -0.04758745 -0.00490316 -0.04752023  0.01875219 -0.04555156 -0.0033602  -0.00817067  0.02369315 -0.01091097 -0.00916885  0.01875393  0.03456311 -0.00049731 -0.01811937 -0.05145355  0.03360629  0.00494218  0.02377609 -0.01362538  0.01646758 -0.00932936  0.03705798 -0.02316221 -0.01326827 -0.03486075  0.04749284  0.00527783  0.01449365  0.01807993  0.02279425  0.03339426  0.0286374   0.04547609 -0.00209735  0.04058132  0.00863313  0.01376443]
hidden2.weight,[[-2.14143116e-02  2.86052804e-02 -3.39930654e-02 ...  5.02596870e-02  -7.49280527e-02 -1.35597005e-01] [-2.86315586e-02 -3.65210064e-02 -7.28540644e-02 ... -7.96276554e-02  -1.45198370e-04  7.07279071e-02] [ 6.56263754e-02  2.94051860e-02  2.32727844e-02 ... -5.57761826e-02  -1.19236708e-01  1.87830124e-02] ... [-9.52086747e-02  4.25848775e-02 -6.74060509e-02 ...  1.11303513e-03  -1.16942130e-01 -2.64828429e-02] [ 7.59861171e-02 -7.25248009e-02 -5.89878745e-02 ... -1.84461653e-01   5.27170934e-02  1.08667174e-02] [ 7.30985850e-02 -2.04985626e-02  1.55415386e-01 ...  1.07937818e-02  -1.15866214e-01 -1.32504916e-02]]
hidden2.bias,[ 0.03605483  0.02601485  0.03971083 -0.01503195 -0.04470814 -0.03442302  0.03232938 -0.0184675  -0.01164074  0.00484534 -0.0064552   0.0144787 -0.01157734 -0.03205039  0.03948876  0.01607959  0.04716551 -0.01879592  0.01599512  0.00233695  0.00259636 -0.03010726 -0.0021422   0.04972981  0.01171178  0.03419765  0.00760568 -0.05922027  0.04636022 -0.00772126 -0.0474465  -0.05590681  0.01652453  0.03246317  0.02307463  0.03402983  0.04825572  0.01485363 -0.0398889  -0.04584642]
out.weight,[[ 0.02437569 -0.04188716  0.29756498  0.20582466  0.01167078  0.05351614   0.371295    0.01319439 -0.00677647  0.3538224   0.15510966  0.5386814   0.3015567   0.04158441  0.01865361  0.12301949 -0.10042548  0.03099695  -0.05781033 -0.09214675 -0.03161582 -0.02101151  0.09714286 -0.00299401  -0.26207602  0.31407684 -0.22764929 -0.15023237 -0.00302165 -0.38704276   0.15699254 -0.2589649   0.04182622  0.13031515  0.10499651  0.06585543   0.16448276 -0.15696019  0.12904511  0.22630548] [ 0.2883762   0.13505194 -0.43477654  0.19355696  0.08588724 -0.3809535   0.00726494 -0.18408582 -0.42788783  0.2943896   0.10725842 -0.10044336  -0.09556738  0.14238259  0.12211095 -0.40352124 -0.04507744 -0.2944005   0.02182065 -0.35014024  0.01548237 -0.38769943 -0.01295471  0.10175364   0.17837018 -0.23473237 -0.24824095  0.08129099  0.09396838 -0.07478899   0.04626807 -0.12762739 -0.06690303  0.12109465 -0.2467322  -0.40912905  -0.33107352  0.3166864   0.25497872 -0.08508322] [-0.17249125  0.36009464  0.08969277  0.0388667  -0.08607533 -0.09761093   0.2135375   0.07097268 -0.20601583 -0.17807443 -0.42433205 -0.03345696  -0.07359652  0.02632802  0.17790988 -0.12217914 -0.29972225  0.03900811   0.0706397  -0.19225654 -0.35731792 -0.18678235  0.09967216  0.12306789  -0.1606765   0.25980452 -0.22015256 -0.11544045  0.02904736 -0.06674645   0.0161829  -0.04156652 -0.21657768 -0.1043601  -0.1272345  -0.06084824  -0.09100921  0.10819015 -0.03409985  0.06072284] [-0.19774431  0.02678616  0.33513877 -0.3237308  -0.18145514  0.42455882   0.4214497  -0.17885993  0.09144609 -0.32712993  0.02220538 -0.2227376   0.06000469  0.12674916 -0.03320404  0.3130196  -0.01796776  0.12730387  -0.23976964 -0.2733488   0.05165517 -0.12195589 -0.06409554 -0.34805325  -0.12931526  0.18962963 -0.03617867 -0.234775   -0.24882314 -0.2995029  -0.00962341 -0.20818642  0.5024546   0.35907978  0.5779607   0.19736576  -0.3904956  -0.2696201  -0.11797372  0.40516642] [ 0.27720302 -0.00277249 -0.08294674  0.11245374 -0.11745274 -0.5754675   0.14333141  0.44788292  0.05419423 -0.29975742  0.16803057 -0.00353422   0.1890972   0.10390317 -0.24500056  0.22361222 -0.03371197 -0.05236946  -0.07040005 -0.15218985  0.10617625 -0.24877007  0.1737034  -0.07127277  -0.12592928 -0.11466649  0.35849118 -0.32216433  0.02737144 -0.11647671   0.18753907  0.11258891  0.06377231  0.19322388 -0.21233296  0.11929839   0.11245429  0.46986243  0.39633626 -0.02929429] [ 0.3780183   0.02244084 -0.18204375 -0.04057486 -0.02882635 -0.10425881  -0.20525444 -0.056167    0.10466301 -0.00488927 -0.23308933 -0.01158107  -0.03378863  0.19427493 -0.34121066 -0.23538604 -0.17835613  0.18309098   0.21834776  0.00337755  0.15243968 -0.04602402  0.32550633 -0.08406849   0.11723717  0.49969697  0.6152618  -0.05945354  0.29495037 -0.3037311  -0.21962418 -0.21704541 -0.07059032  0.17092653 -0.1988433   0.18187298   0.07661437 -0.09166722  0.07540523 -0.23895937] [ 0.2083711  -0.4089572  -0.04634204 -0.07728212 -0.37510234  0.06315826  -0.07007565 -0.08017938 -0.13150805  0.4291239   0.02474971  0.21441948   0.1513363  -0.00359097 -0.05187085  0.01185547  0.17579374 -0.06992932   0.14180617  0.05144486  0.2066036  -0.21436527  0.27220494  0.19499564  -0.06954487 -0.34647846  0.4273276   0.13809249 -0.10784872  0.08648452   0.14121987 -0.19442497  0.17490806 -0.32854867 -0.22145136  0.13581885  -0.28150523 -0.508156    0.11356842  0.22107975]]
out.bias,[0.00881071 0.11288907 0.06141378 0.09464699 0.09977802 0.09075981 0.07940128]
bn0.weight,[1.0011034  0.99843776 0.99901515 1.0002769  0.9984788  0.9965502 0.99639815 0.99824107 0.9992863  1.0007206  0.99686927 0.99768245 0.9985175  0.9972233  1.001271   0.99536014 0.99557287 0.99679613 1.000357   0.99409455 0.99753714 0.99879855 0.9991162  0.99952793 0.9972615  0.9996454  0.99709725 0.9980934  0.99655837 0.997538 0.99783736 1.0014067  1.0012177  1.001279   0.99937665 0.99850774 0.99592555 0.99926096 0.9978914  0.99843365 0.9993307  0.9995955 0.9992632  1.0018467  1.002501   0.997876   1.0010382  1.0009816 1.0001522  0.9959707  0.998435   0.99981016 0.9980233  1.0028837 0.9965706  1.0018026  0.9981019  0.99643433 0.9978991  1.0008085 0.99908614 0.99546736 0.996991   1.000141   0.9999981  0.9998497 0.9968847  0.98602456 0.99537355 0.99941003 0.9994268  0.99771947 0.9996438  0.99402076 0.9976147  0.99945545 0.9983747  1.0005423 0.9966408  0.99613786 0.9992629  0.99886364 0.9997202  0.9957066 0.9975073  1.0000606  0.99813104 1.0001856  0.99709725 0.99948996 0.99976736 0.99863553 1.0006804  0.9985209  0.99679226 0.99472874 0.9982344  0.9995903  0.99571157 0.9996171  0.996993   0.9984028 0.99980605 0.9990397  1.0000886  1.0000935  1.0020207  1.0007336 0.9954691  0.9953355  0.99973345 0.9991919  0.99804443 0.9964521 0.9986663  0.99952716 1.0007393  0.9993965  0.9999015  0.99848205 1.0005153  0.9983751  0.9978496  0.99913186 0.9987183  0.9995478 1.0018699  1.002431   0.9976712  1.0003716  0.9982927  0.9955084 0.9968736  0.998053   0.99870515 0.9994192  0.9968315  0.9977151 0.99714696 0.994234   0.99577695 0.9963532  0.99790716 0.9976709 0.99673045 0.9987217  0.9973264  1.001776   0.9994788  1.0003299 0.99520785 0.9987014  1.0009015  0.9982466  0.99855274 1.000153 0.99816096 0.99739224 1.001132   0.997911   0.9980925  0.9952176 0.9982986  1.0004194  0.99907494 0.9990696  0.9979477  0.99811316 0.99835974 0.9964475  1.0020252  0.9978289  0.9995659  0.99782896 0.9983194  0.9979936  0.9998351  0.99948645 0.99778533 0.99931526 0.99897206 0.9981402  0.99815714 0.99930274 0.9974597  0.99955785 0.99834037 0.9985704  0.99928063 0.999918   0.997009   1.0012894 0.99639404 0.99862087 0.9978757  0.99688405 0.9957652  0.99928385 0.9984733  1.0008289  0.9975174  1.001277   0.9999329  1.0001024 0.9990772  0.99992657 0.9977221  0.9972626  0.9991905  0.9977774 1.001356   1.0008657  0.99706566 0.998973   0.99995613 0.99791217 0.99959064 0.9998644  0.99767613 0.997435   0.9984058  1.0022478 1.0007992  1.0013154  0.996823   0.99993044 1.0016578  1.0002922 0.99836946 0.9988219  0.9981222  0.9987026  1.0002683  0.9962415 0.9999521  0.99973    1.0010301  0.9984412  0.9980705  1.0003827 0.9987632  0.9990797  1.0015818  0.99749494 0.9996045  1.0003928 0.9994663  1.000003   0.9982491  0.9984782  0.9993213  0.9991396 0.9989974  0.99807745 0.99494135 0.9996344  0.9992969  0.9999403 1.0008197  0.99908763 0.9998037  0.9964936  1.003019   0.9981648 0.99862194 0.99887747 1.0001487  0.9972593  0.9946679  0.9998601 1.0012494  1.0038788  1.0001796  0.99878913 0.99921024 1.000573 0.9994413  0.9978397  1.0004876  1.0007719  1.0008305  1.0008694 0.9980802  0.99809635 0.99882114 0.9985726  0.9998328  1.0008808 0.99947244 1.0004178  0.9994275  1.000103   0.9990225  0.99954593 1.0000288  1.000587   1.0001743  1.0003223  1.0009732  0.99644864 0.99956656 0.99846464 1.0025258  0.9999352  0.99630576 0.9996315 1.0005409  0.99647963 0.99734724 0.99885577 0.9986576  0.9999782 0.99959314 1.0005924  1.0002186  0.99792236 0.99903935 0.99853146 1.0012392  0.9998652  0.9988577  1.0014036  0.99944293 1.0011103 0.9989313  1.0004345  0.9985494  0.99959546 0.9985246  1.0008477 0.9986677  0.99957854 0.9995613  0.9989505  0.99963367 0.9989846 0.99825126 1.0002353  0.999576   0.99684    1.0000999  0.99615103 1.0009525  1.000437   0.9998474  0.99930346 0.99892193 0.99843526 0.9977478  0.9997742  1.000401   0.99857926 0.9973986 ]
bn0.bias,[ 1.79111492e-03 -3.60048539e-03  1.35893119e-03  5.54749649e-03 -1.95094536e-03 -3.20296618e-03  2.99217459e-03 -9.59750207e-04 -4.46930557e-04 -2.10110471e-03 -3.10056470e-03  2.03527487e-03 -2.54212669e-03  2.16883188e-03 -2.26722937e-03  3.41080013e-03 -4.32852563e-03  6.95335912e-03 -7.67178368e-04 -6.07532077e-03  3.02237528e-03 -2.70644180e-03 -1.38793883e-04  2.67444481e-03 -2.48823501e-03 -4.48868843e-03  3.50212591e-04  5.22566447e-03  1.50401134e-03  7.99478090e-04 -1.47180830e-03  1.02496904e-03  2.07822863e-03  3.98036232e-03  5.55844163e-04 -1.56134472e-03 -8.96119699e-03 -1.81523559e-03 -4.58426541e-03 -1.00317423e-03  1.36529771e-03  5.41815814e-03 -5.20222296e-04  6.42848725e-04 -2.35474342e-03 -9.90453060e-04 -2.28567980e-03  2.40243645e-03  2.65458180e-03  2.32340675e-03  4.51776944e-03  2.38569872e-03  6.40679337e-03  1.98976090e-03 -3.79969063e-03 -7.26848259e-04 -1.02825020e-03 -6.48698537e-04  1.80146948e-03 -1.36916700e-03 -1.27950136e-03  6.62500097e-04  2.42147711e-03  3.67603777e-03 -1.40306517e-03 -7.72084401e-04 -4.18922072e-03  6.04645489e-03 -2.50473269e-03 -1.35804689e-03 -4.98719106e-04  3.81799252e-03  8.32507969e-04 -4.14571585e-03  4.00766451e-03  2.50283838e-03 -1.84387236e-03  4.95992973e-03  3.82591994e-03  5.51579054e-03  7.43804849e-04 -6.56039512e-04 -6.02541398e-03 -2.29206006e-03  1.14161777e-03  1.91019010e-03  1.19256799e-03 -2.02667294e-03 -2.14225380e-03  3.00636282e-03 -2.51303834e-04  9.59272875e-05  2.31197011e-03  7.54269480e-04  4.48816130e-03 -2.08617351e-03  4.01978992e-04 -2.68339575e-03  1.85393158e-03 -4.10165079e-03 -4.99688042e-03 -3.67102097e-03  1.10941462e-03  5.05447351e-05  8.83374014e-04  8.49140750e-04 -5.04513690e-03 -1.69213698e-03  4.32643620e-03  3.97314085e-03  2.37158220e-03  1.08872412e-03  8.02084978e-05  3.28586204e-03  4.09274222e-03  1.37709931e-03 -3.46177001e-03  1.48916640e-03 -4.35034325e-03 -4.71184310e-03 -2.02141004e-03  1.51122245e-03 -1.89010357e-03 -5.10917883e-03 -1.20845309e-03  3.05229402e-03  4.35015718e-05  7.45790079e-04 -3.01854080e-03 -2.25555920e-03 -3.75098223e-03 -1.27226603e-03 -1.51010288e-03 -3.39503656e-03 -1.43990573e-03 -1.50100095e-03  1.47896295e-04  2.25136802e-03  2.38942867e-03 -4.59210714e-03 -2.25842884e-03 -3.21020780e-04 -1.03876076e-03 -2.48300983e-03 -1.80751469e-03  8.76203529e-04  6.96495268e-03 -4.19296324e-03  5.42510580e-03 -1.17940037e-03 -3.59816710e-04  1.99286360e-03 -2.06948980e-03  2.16205604e-03  2.19850917e-03  1.70649309e-03 -3.26828659e-03 -3.67961847e-03  8.84238572e-04 -2.73287669e-03  2.42291065e-03 -9.10514849e-04 -1.54333597e-03  2.74951314e-03  4.61102510e-03 -4.18024429e-04 -1.17156247e-03 -9.53872863e-04  8.55978506e-05 -9.75379604e-04 -1.15663372e-03  2.09328573e-04  2.66230595e-03  5.59696113e-04 -6.59198675e-04 -2.29554786e-03 -4.98817023e-03 -2.07652614e-04 -2.78191548e-03 -7.92023551e-04 -3.18458444e-03  2.82881618e-03 -2.56798905e-03  5.78534696e-03 -3.75361042e-03  1.44432927e-03  2.87102885e-03  2.96699320e-04 -1.81360665e-04  6.56407610e-06  8.70055810e-04 -1.06929464e-03  2.11705780e-03 -1.30118511e-03 -2.74844584e-03 -4.60830843e-03 -2.44388450e-03  2.04638403e-04 -6.74659968e-04 -1.31996116e-03 -2.53786542e-03  1.68377592e-03 -3.61424056e-03 -7.78841204e-04 -2.61687813e-03  1.27115127e-04  1.34267996e-03 -6.52902003e-04 -5.13359252e-03  2.45858543e-03  1.08678674e-03  1.57603681e-05  5.34273032e-03 -2.28553335e-03  7.74937449e-04 -3.35057126e-03  1.51848688e-03  1.82400167e-03  3.42273875e-03 -7.06852006e-06 -3.35621461e-03  1.64371275e-03 -6.31024595e-03  4.53747157e-03  4.49492392e-04 -6.58991793e-03  1.72184710e-03 -1.04774255e-03 -1.93458996e-04 -1.68584683e-03 -2.07596691e-03  1.47278095e-03  1.20518799e-03  1.76847610e-03  5.93290897e-03 -2.51182611e-03  4.33254335e-03 -2.62794341e-03 -1.89155492e-03 -2.03801016e-03  9.31342598e-04 -1.73622786e-04 -1.04970776e-03 -6.04801644e-05 -5.47431584e-04  3.02365306e-03 -1.95306155e-03 -1.65212114e-04  3.06598470e-03  4.67835274e-03  1.77880260e-03  1.78569963e-03  2.47950037e-03  3.87659034e-04  3.06527899e-03 -2.25147756e-04  2.62746122e-04 -1.11173501e-03  5.79921005e-04 -7.96191918e-04  3.42955301e-03 -2.34814198e-03  4.08357801e-03  2.38479202e-04  1.26730272e-04  8.15511274e-04 -1.54503738e-04  1.02600153e-03 -1.49779161e-03 -3.30466218e-03  8.15986656e-04 -9.90124769e-04  5.20821195e-03 -4.37071454e-03  1.55662827e-03  1.72499800e-03 -3.98589484e-03  9.03935521e-04 -3.25870351e-03  4.88838414e-03  8.25390685e-04  1.33086869e-03  1.50997401e-03 -2.15384644e-03  1.38394581e-03  8.27110559e-03 -1.68537823e-04  1.71292736e-03 -2.13850499e-03 -4.42085409e-04 -1.65298011e-03 -2.77491822e-03 -3.27371852e-03 -4.90515376e-04  1.74296193e-03  1.91141246e-03  4.13038564e-04 -1.67621800e-03 -5.98560262e-04  3.37949931e-03 -2.89735408e-03  4.00472200e-03  6.07044529e-03  2.82114226e-04  3.90035845e-03 -7.31247244e-04  2.59925169e-03  2.37648026e-03  9.04781220e-04  6.34893449e-03 -2.38357880e-03 -6.65478467e-04  5.60477423e-03 -8.00955924e-04  2.21199007e-03  4.22991719e-03 -1.13097415e-03 -2.08650320e-03  3.67400539e-03 -2.28932011e-03 -3.40778404e-03 -2.43443018e-03  2.31424090e-03 -3.42275784e-03 -3.21868574e-03  7.93453888e-04 -7.61344039e-04  2.30745971e-03 -2.04147398e-03  3.41345510e-03 -2.23051780e-03  4.67611244e-03  1.39130407e-03  3.45256785e-03 -1.19557488e-04  1.50980568e-03 -2.10966123e-03  8.85170186e-04 -1.26394629e-03 -7.48655945e-03 -4.41063166e-04 -6.07134495e-03 -1.99741405e-03 -1.89612119e-03  2.46582669e-03 -4.27476177e-03 -9.46072803e-04 -3.35536269e-03  2.95821275e-03 -1.70804327e-03  8.21921043e-04  1.04376035e-04 -1.65816525e-03]
bn0.running_mean,[ 7.23695602e+01 -1.23527466e+02 -1.11081400e+01 -3.44247781e-02  1.99886742e+01 -1.78280678e+01  3.07613564e+01 -3.42889810e+00 -4.36899300e+01  2.20879002e+01 -1.72689171e+01  7.53760242e+00 -1.87219524e+01  8.83663654e+00  3.89177551e+01  1.56947241e+01 -8.15264893e+00  4.87416115e+01  6.47201157e+00 -1.75335884e+01  3.22012672e+01 -3.66323280e+01 -2.45375499e-01 -2.51528025e+00  4.52507172e+01 -1.16529651e-01  1.10538907e-01  6.76984634e+01 -1.01529551e+00 -1.81474342e+01 -2.02040648e+00  4.78518028e+01 -2.67363758e+01  7.94829369e+00  1.43538296e-01  1.77829146e-01 -1.63851585e+01  5.61846077e-01  8.34990082e+01 -1.75366001e+01  4.49588627e-01  4.16798515e+01 -1.16824656e+01  3.07737026e+01  1.52796726e+01  9.17899799e+00  2.77226772e+01 -1.39821405e+01  6.13787353e-01  1.30012741e+01  2.06352196e+01 -2.31238914e+00  1.28044958e+01 -1.67426025e+02 -1.89981689e+01 -2.03044262e+01  1.35273071e+02 -2.01937747e+00  9.21428871e+00 -5.39973617e-01  2.13363762e+01  1.02628799e+02  1.97674313e+01 -5.37231493e+00 -1.09196138e+01  1.20805979e+01 -1.57641479e+02 -1.08490527e-01 -2.14379001e+00  7.00341654e+00  1.05591606e+02  5.58607674e+01  2.67659044e+00 -9.82068107e-02  4.15771389e+00 -5.40622749e+01 -7.22520018e+00 -8.82778740e+00  1.36705217e+01  1.23383837e+01 -5.69314766e+00 -1.33601919e-01  5.05252647e+00 -9.01027832e+01  3.77887666e-01  7.84215698e+01  2.36540852e+01  2.47335892e+01 -6.37914314e+01 -8.47413465e-02  5.33323517e+01  5.40924931e+00 -8.36731110e+01 -6.68408394e+00  7.99984207e+01 -3.10152073e+01 -8.37262421e+01  4.41958008e+01  9.44097900e+00 -5.25569081e-01 -2.21635227e+01  3.97010880e+01 -5.97267990e+01 -3.86564445e+01  7.44002151e+00  5.86346474e+01  2.06478739e+00  2.28418732e+01  2.42959633e+01  8.04497757e+01  2.94362106e+01 -2.64804878e+01 -7.54465389e+00  3.34086037e+00 -8.77701640e-02 -2.63979733e-01  7.09503174e+01 -6.64180450e+01  3.63064766e+00 -5.92850533e+01  6.54928207e+01 -1.00814015e-01 -1.37353725e+01 -6.51278347e-02 -5.56013393e+00 -5.19220009e+01  4.94212799e+01 -3.55820274e+01 -1.77990360e+01 -8.19067669e+00 -7.14644852e+01 -4.41534424e+00  1.28910532e+01 -2.02413998e+01 -1.95759754e+01  1.22836389e-01  3.51027012e-01  1.12295618e+01  7.09308243e+01 -5.92979002e+00 -1.44770554e+02  5.64624252e+01 -6.28617134e+01 -1.11373091e+01 -6.17733002e+01 -1.83705254e+01  2.11867952e+00 -1.34159398e+00  4.08793986e-01  8.85942230e+01 -1.38036432e+01  3.49033356e+01  4.73460019e-01  7.88342438e+01 -8.58458424e+00 -2.54688114e-01 -3.03941383e+01  2.21511398e+02  8.46552849e+00  1.37959061e+02 -1.19545231e+01  4.32331133e+00  6.77260590e+01  2.29521008e+01  3.21882439e+01 -4.65494614e+01  9.86779099e+01 -6.13522224e+01  3.42594971e+02 -2.66694546e-01  3.55422258e+00 -1.51926928e+01  3.37591553e+01 -9.97050858e+01 -1.94579620e+01  3.46777740e+02  1.41520224e+01  2.05798050e+02  7.72085571e+00 -1.24866486e+01  1.63920364e+01 -1.97667141e+01  8.77884140e+01  9.03766937e+01  5.61946249e+00 -1.69497719e+01  4.07024622e+00  4.79475098e+01 -2.97914338e+00 -8.68097115e+00  1.93104534e+01 -3.10523643e+01  6.25663376e+00 -5.60118523e+01 -5.90642393e-01 -5.41960945e+01 -4.24425621e+01  6.74091797e+01  1.33244781e+02  1.66618176e+01 -3.57107620e+01 -2.35328674e+01  2.40845248e-01 -5.21757066e-01  4.47975487e-01  9.27470703e+01  2.14383564e+01  4.48507767e+01  6.19099464e+01  7.78162146e+00  1.87431366e+02  1.40229507e+02 -3.52883697e-01 -7.79672470e+01  5.71865540e+01 -1.22125168e+01 -3.14064741e-01  6.55132723e+00 -1.00333336e+02 -1.91492508e+02  4.82267418e+01  7.36503830e+01  5.80523968e+00  2.64009686e+01 -1.73355438e+02 -7.70363083e+01 -4.09317474e+01 -1.35136414e+02 -4.68102341e+01 -3.56796761e+01  1.36485519e+02  1.16415115e+02 -7.83126545e+00 -1.57278261e+01  9.13992500e+00 -3.09707851e+01  2.89735260e+01  3.19367945e-01  2.78124065e+01 -1.76513107e+02  5.54840863e-01  1.42769821e+02  1.32911277e+00  3.89460106e+01 -1.74156082e+02 -7.27372971e+01 -2.39221344e+01 -7.97632065e+01 -4.06373749e+01  1.72183094e+01  4.75355759e+01  4.81064262e+01 -3.43052864e+00  3.64171910e+00 -3.58659019e+01  1.25819931e+01  1.23394096e+02  5.79243927e+01  1.77377060e-01  2.79939022e+01  9.62167740e+00 -2.01178398e+01 -2.78652782e+01  6.59984207e+01  1.12310417e+02 -1.18077553e+02  8.89064431e-01  1.44155872e+00  2.73278885e+01 -1.38556538e+01  2.73556767e+01 -1.71392426e-01 -1.63466871e-01  5.01361489e-01  3.03109455e+01  1.61372421e+02  4.61948090e+01 -1.98345673e+02  1.31153000e+02 -8.73400269e+01  1.97633629e+01  1.07401718e+02  1.23371944e+01  6.51311398e+00 -6.75611572e+01  5.10126448e+00  1.16386353e+02 -4.60232201e+01  4.27152748e+01  1.91529274e+01  8.25015679e-02  1.75493164e+01 -3.85313492e+01 -5.27323544e-01  3.40778923e+01 -1.85152054e+01  2.74156609e+01  1.55364901e-01 -1.51221704e+01  1.93353500e+01 -3.67036946e-02  4.84585266e+01 -1.59035828e+02  4.13640709e+01  3.96432936e-01 -6.80266905e+00  3.95795135e+01  1.03320396e+02  1.19177864e+02  1.90051289e+01 -7.44536743e+01 -1.15093212e+01  3.26794281e+01  1.67864075e+01 -7.80249071e+00  3.03380699e+01 -3.83562177e-01 -2.29976311e+01 -1.70659199e+01 -5.21453552e+01  5.26726761e+01  3.28479233e+01 -7.50729513e+00  5.45516109e+00  2.08214531e+01  2.79898090e+01 -2.38625278e+01 -5.63207865e-01 -3.11448612e+01 -3.06734104e+01  1.36531754e+01  5.39755325e+01 -2.38664284e+01  9.56218839e-02  4.68118906e-01  1.39163376e+02 -4.20206146e+01  2.41854134e+01 -6.32541351e+01 -1.03591019e+02  7.55295029e+01 -2.57251949e+01 -3.16807556e+01  2.41848312e+02 -1.12493988e+02 -6.55098057e+00  1.76650956e-01 -1.87400684e+01  5.88617945e+00 -7.74474564e+01 -2.38437424e+01  2.75622129e+00 -4.45107002e+01]
bn0.running_var,[1.43707056e+03 4.42970605e+03 5.02317505e+01 8.38119350e-03 1.12927567e+02 9.82150269e+01 2.88287720e+02 5.99102736e+00 6.69886047e+02 1.22131294e+02 1.00524567e+02 3.31214600e+01 1.06683640e+02 2.42775478e+01 4.96679718e+02 7.97836304e+01 1.57137165e+01 7.66302612e+02 1.42487850e+01 8.61135254e+01 3.67414642e+02 3.63483246e+02 2.77228886e-04 1.58530891e+00 5.31057373e+02 3.76975499e-02 8.04696158e-02 1.72000098e+03 3.45775261e+01 6.05228691e+01 6.66970670e-01 5.46662903e+02 1.51112915e+02 1.01371603e+01 1.74073242e-02 6.19690819e-03 6.58461380e+01 2.08077431e-01 1.25677209e+03 6.52303696e+01 4.54140245e-04 2.86583862e+02 2.35913410e+01 1.61301849e+02 6.28479347e+01 1.39811831e+01 3.26779968e+02 6.13334503e+01 9.00455952e-01 5.50443878e+01 1.26106750e+02 8.65299940e-01 6.75856628e+01 9.21146875e+03 1.01496948e+02 9.53999023e+01 5.35949707e+03 1.10023308e+00 2.40993271e+01 2.40847185e-01 9.45491791e+01 2.48599561e+03 9.77930832e+01 1.02811432e+01 2.83273697e+01 2.78359089e+01 6.03773633e+03 1.73081527e-04 2.52131701e+00 1.39397211e+01 3.19906689e+03 9.65686218e+02 1.74513614e+00 2.39881873e-03 6.18876410e+00 1.29142749e+03 1.61825218e+01 9.08039856e+01 7.20597839e+01 4.58664780e+01 7.55808306e+00 2.65277028e-01 7.19654417e+00 2.37287183e+03 1.58115886e-02 1.96021313e+03 1.54112137e+02 1.55215836e+02 1.30259192e+03 7.96517730e-03 9.45236755e+02 4.43190765e+00 2.18891895e+03 1.16980171e+01 1.31308997e+03 1.70784561e+02 1.13636694e+03 3.17748993e+02 1.27044544e+01 2.40882728e-02 8.60891342e+01 2.61405304e+02 6.21778076e+02 2.53902649e+02 6.11612473e+01 1.10199646e+03 1.02285624e+00 1.71187546e+02 2.02631897e+02 2.36475122e+03 2.92112823e+02 1.73762131e+02 2.08624477e+01 2.79411364e+00 5.40273590e-03 7.16178038e-04 1.41516614e+03 1.34670020e+03 3.67343211e+00 1.05610120e+03 1.24300439e+03 3.16736519e-01 5.94056053e+01 1.49109527e-01 9.64225578e+00 6.51964294e+02 4.06790070e+02 2.60437286e+02 9.49761734e+01 1.77290859e+01 1.24550732e+03 4.41712284e+00 4.17229843e+01 9.73666382e+01 8.08679199e+01 6.51041567e-02 1.36007955e-02 3.24754715e+01 1.09234937e+03 7.24998617e+00 4.60285400e+03 7.03093872e+02 1.14910400e+03 5.30448570e+01 9.82267334e+02 1.28419479e+02 1.91966355e+00 2.28176379e+00 2.23940849e-01 2.10742017e+03 5.56988258e+01 3.57614746e+02 1.90747564e-03 1.99429480e+03 2.76000767e+01 2.03728229e-01 2.97432800e+02 1.45762207e+04 2.18130302e+01 6.56570312e+03 4.01548653e+01 8.58458519e+00 1.43618188e+03 1.69028854e+02 3.34474396e+02 7.20147583e+02 3.04773779e+03 1.06591296e+03 3.60213672e+04 5.82417607e-01 6.57719231e+00 9.90994186e+01 3.54209412e+02 3.02780884e+03 6.76724854e+01 2.96683398e+04 4.94717484e+01 1.08234922e+04 1.70257816e+01 3.30875969e+01 1.05241249e+02 1.22795815e+02 2.47124243e+03 2.74997095e+03 1.12014265e+01 6.14122047e+01 4.49640322e+00 7.06654541e+02 3.60089946e+00 4.48788567e+01 1.11667595e+02 3.10292389e+02 8.05272770e+00 9.20023865e+02 4.54773092e+00 8.29562012e+02 6.36487183e+02 1.38444983e+03 5.98780273e+03 9.19064636e+01 4.37475952e+02 1.20908501e+02 3.39106293e-07 7.54688459e-04 3.51592414e-02 2.05869702e+03 1.16292839e+02 5.53014160e+02 1.03511206e+03 2.40069695e+01 9.32211816e+03 5.72829248e+03 8.20474420e-03 1.63121875e+03 9.43660889e+02 5.48300552e+01 4.85849082e-02 1.29549713e+01 2.88216846e+03 9.76555371e+03 5.77365479e+02 1.51029419e+03 1.12231750e+01 1.85086304e+02 8.39996191e+03 1.64983691e+03 5.28213745e+02 5.23472021e+03 5.97415039e+02 2.94568756e+02 5.61466357e+03 3.84354712e+03 1.65753613e+01 6.51413498e+01 2.54963322e+01 3.01300751e+02 2.04660614e+02 1.66969560e-02 2.55977966e+02 9.76410840e+03 4.93607391e-03 6.60791260e+03 9.31767225e-01 2.82076691e+02 6.02165430e+03 9.95586426e+02 1.16020103e+02 1.28348499e+03 3.19862762e+02 6.42641373e+01 3.88975128e+02 3.96150452e+02 2.07455969e+00 2.67315555e+00 2.15315170e+02 2.62618332e+01 2.52566064e+03 5.49999634e+02 1.43989839e-03 1.24774590e+02 1.45861340e+01 9.21968384e+01 1.45776749e+02 1.11354333e+03 3.14285962e+03 2.86686719e+03 1.70463753e+00 8.54107082e-01 1.95436478e+02 5.07543945e+01 2.27394943e+02 1.39630139e-01 4.34682257e-02 2.26783261e-01 1.49136459e+02 4.38272607e+03 3.81937836e+02 6.36695605e+03 3.02694238e+03 1.30990808e+03 7.55730438e+01 3.62861963e+03 2.97106762e+01 8.02813339e+00 1.29875391e+03 6.47196198e+00 3.82012524e+03 4.72560028e+02 5.40740295e+02 1.31895248e+02 1.18324943e-02 9.48783340e+01 4.83909058e+02 4.21757781e-04 3.33096863e+02 2.26283768e+02 2.44174088e+02 1.78165343e-02 9.45568466e+01 1.48842651e+02 1.45147112e-03 8.39388000e+02 8.94897852e+03 7.53851501e+02 4.13349160e-04 1.85849228e+01 5.95781860e+02 4.18979297e+03 4.84935449e+03 1.02316948e+02 1.90946985e+03 4.86770744e+01 4.07057495e+02 9.94357986e+01 2.13122845e+01 3.19030243e+02 1.22756734e-02 2.26190155e+02 1.07359550e+02 9.61766174e+02 8.99693298e+02 3.46960663e+02 1.99416542e+01 1.33250465e+01 1.37220001e+02 2.24628296e+02 1.79766159e+02 4.60015349e-02 2.99379517e+02 3.18574280e+02 4.57237663e+01 9.68052185e+02 1.72394302e+02 6.74204081e-02 1.61427841e-01 6.72592920e+03 6.34771484e+02 1.86922058e+02 1.29756555e+03 3.56689404e+03 1.66343335e+03 1.82544617e+02 2.66223175e+02 1.61704658e+04 3.53505640e+03 1.33437986e+01 1.97825581e-03 1.21952644e+02 6.48290491e+00 1.15954114e+03 1.12976334e+02 3.72356915e+00 4.05641418e+02]
bn0.num_batches_tracked,3000
sub_nn_0.hidden.weight,[[-0.67196196  0.25563687] [ 0.19862454 -1.6966394 ] [ 0.90303046  0.40842965]]
sub_nn_0.hidden.bias,[0.64048743 0.08367986 0.5008945 ]
sub_nn_0.out.weight,[[-0.5905956  -0.28376096  0.9165571 ]]
sub_nn_0.out.bias,[-0.38989818]
sub_nn_1.hidden.weight,[[ 1.4758484   0.09869505] [-0.01923464 -0.5276267 ] [-0.7292758  -0.0959814 ]]
sub_nn_1.hidden.bias,[ 0.58432585  0.27804148 -0.45473996]
sub_nn_1.out.weight,[[-0.9280483   0.41620886 -0.08375765]]
sub_nn_1.out.bias,[-0.26138547]
sub_nn_2.hidden.weight,[[-0.491798   -0.0035802 ] [ 0.5233558  -0.9750531 ] [ 0.14855246  1.1723297 ]]
sub_nn_2.hidden.bias,[-0.44899982  0.69690484 -0.63593286]
sub_nn_2.out.weight,[[ 0.18217008 -0.38047117  0.3785398 ]]
sub_nn_2.out.bias,[-0.16504481]
sub_nn_3.hidden.weight,[[-0.24038248  0.2567253 ] [-0.3374303   0.26832926] [-0.22941059 -0.51039034]]
sub_nn_3.hidden.bias,[ 0.28703147 -0.58983105 -0.3312566 ]
sub_nn_3.out.weight,[[ 0.9319613  -0.8252113  -0.99842525]]
sub_nn_3.out.bias,[-0.04587221]
sub_nn_4.hidden.weight,[[ 0.33885923  0.43277034] [ 0.8116327   0.5172578 ] [-0.99979866 -1.0713991 ]]
sub_nn_4.hidden.bias,[ 0.02447271  0.6323212  -0.41176137]
sub_nn_4.out.weight,[[-0.21272922  0.35837278 -0.6590144 ]]
sub_nn_4.out.bias,[-0.11438656]
sub_nn_5.hidden.weight,[[-0.5002699   0.3701309 ] [ 0.42674813 -0.57410765] [ 0.0275902   0.13479981]]
sub_nn_5.hidden.bias,[0.5787287  0.04689992 0.30757028]
sub_nn_5.out.weight,[[-0.41807878 -0.4626934  -0.24985865]]
sub_nn_5.out.bias,[-0.39868233]
sub_nn_6.hidden.weight,[[ 0.3008488   0.04941457] [-0.47040194 -0.07959097] [ 0.00076726  0.3366623 ]]
sub_nn_6.hidden.bias,[-0.02595132 -0.3352148   0.10322744]
sub_nn_6.out.weight,[[1.0686518 0.7780071 0.6509675]]
sub_nn_6.out.bias,[-0.21874008]
sub_nn_7.hidden.weight,[[-0.9390507  -0.3222644 ] [ 0.03094404 -0.01106768] [-0.00727311  2.264624  ]]
sub_nn_7.hidden.bias,[-0.63615906  0.43985313 -0.61443025]
sub_nn_7.out.weight,[[-0.30350456 -1.350009    0.14891912]]
sub_nn_7.out.bias,[-0.31087148]
sub_nn_8.hidden.weight,[[ 0.18709803 -0.0754675 ] [-0.55710983 -0.05995002] [ 0.5699943  -0.37605268]]
sub_nn_8.hidden.bias,[ 0.36149815  0.68566096 -0.5526638 ]
sub_nn_8.out.weight,[[ 0.2685305  0.1236502 -0.9531951]]
sub_nn_8.out.bias,[-0.2203674]
sub_nn_9.hidden.weight,[[ 0.09116661  0.5364671 ] [ 0.3414534  -0.23244055] [-0.84209496 -0.7331589 ]]
sub_nn_9.hidden.bias,[ 0.11610216 -0.58914864  0.00445274]
sub_nn_9.out.weight,[[ 1.745869    0.14320637 -0.08967828]]
sub_nn_9.out.bias,[0.2597679]
sub_nn_10.hidden.weight,[[-0.54806286 -0.77762693] [ 1.3590622   0.10794332] [-0.42736623 -0.50649774]]
sub_nn_10.hidden.bias,[-0.37364337  0.21077007 -0.06526524]
sub_nn_10.out.weight,[[ 0.4830292  -0.14025752  0.9562158 ]]
sub_nn_10.out.bias,[0.31051052]
sub_nn_11.hidden.weight,[[ 0.07876161 -1.3989825 ] [ 0.22272079  1.3009278 ] [-0.30074927  0.15747954]]
sub_nn_11.hidden.bias,[0.15022394 0.5150772  0.06922997]
sub_nn_11.out.weight,[[ 1.2078826   0.09526415 -0.34992597]]
sub_nn_11.out.bias,[0.4619732]
sub_nn_12.hidden.weight,[[-0.19266081 -0.22284892] [ 0.8339163   0.5711691 ] [ 0.8860177   0.1255257 ]]
sub_nn_12.hidden.bias,[-0.70164293 -0.4291868   0.21968597]
sub_nn_12.out.weight,[[ 0.44238147 -0.29514793  0.05622467]]
sub_nn_12.out.bias,[-0.16026607]
sub_nn_13.hidden.weight,[[ 0.9385658   0.54466814] [-0.03607312  0.68095756] [ 0.3023551   0.05012118]]
sub_nn_13.hidden.bias,[-0.4208142  -0.52146935 -0.21461195]
sub_nn_13.out.weight,[[-0.09107666  0.1878154   0.6053107 ]]
sub_nn_13.out.bias,[-0.2786231]
sub_nn_14.hidden.weight,[[ 0.484151   -1.183321  ] [ 0.27199832 -0.5424186 ] [ 0.39498594 -0.47525376]]
sub_nn_14.hidden.bias,[ 0.23028377 -0.28899643 -0.5645572 ]
sub_nn_14.out.weight,[[-0.17722985 -0.6159762   1.7327015 ]]
sub_nn_14.out.bias,[0.56423616]
sub_nn_15.hidden.weight,[[ 0.22281396  0.02833071] [-0.80844855 -0.2345617 ] [-0.47975102 -0.7302072 ]]
sub_nn_15.hidden.bias,[-0.15080935 -0.06495059 -0.27274448]
sub_nn_15.out.weight,[[0.7726616  0.49258375 0.32757404]]
sub_nn_15.out.bias,[-0.377643]
sub_nn_16.hidden.weight,[[ 0.20554724  1.0474358 ] [ 0.03954766 -1.0636308 ] [-1.6227508  -0.56087977]]
sub_nn_16.hidden.bias,[-0.3643169   0.15437293 -0.17385137]
sub_nn_16.out.weight,[[-0.3932194   0.24555974 -0.8200774 ]]
sub_nn_16.out.bias,[0.01536214]
sub_nn_17.hidden.weight,[[ 0.14121498 -0.09737972] [ 0.79379755 -0.53470427] [-0.00994276 -0.84742093]]
sub_nn_17.hidden.bias,[ 0.25792605 -0.31588596  0.35184717]
sub_nn_17.out.weight,[[0.481936   0.58722854 0.31278116]]
sub_nn_17.out.bias,[-0.17721057]
sub_nn_18.hidden.weight,[[ 0.52271533  0.2803924 ] [ 0.40941837 -0.18334879] [-0.40289816 -0.22619534]]
sub_nn_18.hidden.bias,[-0.5345879  -0.01490683  0.47056988]
sub_nn_18.out.weight,[[-0.3830543   0.6655097  -0.13378526]]
sub_nn_18.out.bias,[0.22330356]
sub_nn_19.hidden.weight,[[-1.2647165   0.33021808] [ 0.55554223  0.4029819 ] [-0.26803094  0.06881972]]
sub_nn_19.hidden.bias,[ 0.22808693 -0.56764215  0.6447679 ]
sub_nn_19.out.weight,[[-0.36135805 -0.32240742  0.11904746]]
sub_nn_19.out.bias,[-0.4864708]
sub_nn_20.hidden.weight,[[ 0.21678007 -0.21242508] [ 0.54805475 -0.60990316] [-0.42798552  0.29743388]]
sub_nn_20.hidden.bias,[-0.21184978 -0.3764415   0.51236475]
sub_nn_20.out.weight,[[-0.7524178   0.9722843  -0.09165635]]
sub_nn_20.out.bias,[-0.4334666]
sub_nn_21.hidden.weight,[[ 0.10475763 -0.90762246] [ 0.6009406   0.04635858] [-1.2333952   0.4502221 ]]
sub_nn_21.hidden.bias,[-0.1634478   0.15370649 -0.6227028 ]
sub_nn_21.out.weight,[[ 0.76395315 -0.7605254  -0.4368731 ]]
sub_nn_21.out.bias,[0.48997176]
sub_nn_22.hidden.weight,[[-0.81375015 -0.36192906] [-0.7335636  -1.2696569 ] [-0.5947217  -0.49407077]]
sub_nn_22.hidden.bias,[ 0.6684144   0.47118384 -0.03427404]
sub_nn_22.out.weight,[[ 0.16474426 -0.8795424   0.1794593 ]]
sub_nn_22.out.bias,[-0.2448003]
sub_nn_23.hidden.weight,[[-0.24814692  0.18098351] [ 0.03740966  0.42154545] [-0.10384262 -0.5419143 ]]
sub_nn_23.hidden.bias,[-0.6614672  -0.1226796  -0.06857872]
sub_nn_23.out.weight,[[ 0.6790322  -0.59108496 -0.26249686]]
sub_nn_23.out.bias,[0.28461772]
sub_nn_24.hidden.weight,[[ 0.45264915  1.0887573 ] [ 0.16305318 -0.05643059] [ 0.10746384  0.27827054]]
sub_nn_24.hidden.bias,[0.6816774  0.32046255 0.24840778]
sub_nn_24.out.weight,[[0.62340456 0.9186469  0.3869489 ]]
sub_nn_24.out.bias,[0.00542206]
sub_nn_25.hidden.weight,[[-0.80920476  0.07001966] [-0.5675619   0.67529136] [-0.6509425  -0.48441467]]
sub_nn_25.hidden.bias,[0.01132793 0.5331666  0.5901859 ]
sub_nn_25.out.weight,[[-0.28635553 -0.42721045  0.3413467 ]]
sub_nn_25.out.bias,[-0.09011573]
sub_nn_26.hidden.weight,[[-0.742139   -0.11835536] [-0.5325202   1.0255082 ] [-1.2049819  -1.1867467 ]]
sub_nn_26.hidden.bias,[ 0.34325987 -0.43547803 -0.5549768 ]
sub_nn_26.out.weight,[[ 0.01542573  0.42132556 -0.81710833]]
sub_nn_26.out.bias,[0.07620376]
sub_nn_27.hidden.weight,[[-0.06300209 -0.438979  ] [ 0.46386087 -1.2450597 ] [ 0.38186133 -0.0819383 ]]
sub_nn_27.hidden.bias,[-0.6776664  -0.34291947  0.59670943]
sub_nn_27.out.weight,[[-0.8201353  1.6002839  0.2812474]]
sub_nn_27.out.bias,[0.284939]
sub_nn_28.hidden.weight,[[ 0.319845    1.6437244 ] [ 0.38516065 -0.08718945] [-0.45719615  0.78232443]]
sub_nn_28.hidden.bias,[-0.6239823 -0.354463   0.5056774]
sub_nn_28.out.weight,[[ 0.7677211  -0.856841   -0.95926493]]
sub_nn_28.out.bias,[0.1750924]
sub_nn_29.hidden.weight,[[-0.73445445  0.12817772] [-1.6310983   0.4948398 ] [ 0.47352564  0.77607447]]
sub_nn_29.hidden.bias,[-0.01309316 -0.01907976 -0.11831147]
sub_nn_29.out.weight,[[ 0.05685639 -0.5495742  -0.3300341 ]]
sub_nn_29.out.bias,[-0.12850434]
sub_nn_30.hidden.weight,[[-0.2894526   0.20516188] [ 0.31665513  1.0042775 ] [ 0.36826578  0.5383707 ]]
sub_nn_30.hidden.bias,[-0.09131472  0.15029812 -0.3031553 ]
sub_nn_30.out.weight,[[-0.95444787 -0.2726954   0.1961691 ]]
sub_nn_30.out.bias,[0.21318638]
sub_nn_31.hidden.weight,[[ 0.7480008  -1.487053  ] [ 0.18774325  0.49366996] [-0.1391765  -0.7469737 ]]
sub_nn_31.hidden.bias,[ 0.23626292 -0.5673313  -0.5879739 ]
sub_nn_31.out.weight,[[ 0.63105    -0.00534352 -0.8349921 ]]
sub_nn_31.out.bias,[0.16411382]
sub_nn_32.hidden.weight,[[ 0.37632877  0.07663468] [-0.8628761  -1.1314399 ] [-1.1229199  -0.01229133]]
sub_nn_32.hidden.bias,[-0.60060203  0.18243334 -0.17162299]
sub_nn_32.out.weight,[[-0.6564601  0.9702705  1.1708964]]
sub_nn_32.out.bias,[-0.52575636]
sub_nn_33.hidden.weight,[[-9.3704002e-04  7.6690316e-01] [-1.2795066e+00  3.8530695e-01] [ 4.2002013e-01 -6.1866331e-01]]
sub_nn_33.hidden.bias,[ 0.1874148  -0.2902732  -0.35471937]
sub_nn_33.out.weight,[[0.6889913  0.2415372  0.14996141]]
sub_nn_33.out.bias,[-0.05914062]
sub_nn_34.hidden.weight,[[-1.0005106   0.11076683] [-0.13974898  0.92502177] [ 0.12774788 -0.81532544]]
sub_nn_34.hidden.bias,[-0.14531668 -0.60955167  0.5377758 ]
sub_nn_34.out.weight,[[ 0.01447907 -0.19482753  0.01220401]]
sub_nn_34.out.bias,[0.01234323]
sub_nn_35.hidden.weight,[[-0.34709197  1.2794735 ] [-1.1614524   0.02828514] [-1.070152   -0.15466599]]
sub_nn_35.hidden.bias,[0.02042263 0.48752475 0.621165  ]
sub_nn_35.out.weight,[[ 0.01181529  0.7075256  -1.7990412 ]]
sub_nn_35.out.bias,[0.17466545]
sub_nn_36.hidden.weight,[[ 0.4591576   0.51803964] [ 0.3061257  -0.89983344] [ 0.08083246 -0.21273232]]
sub_nn_36.hidden.bias,[ 0.2666276  -0.45594907 -0.01641011]
sub_nn_36.out.weight,[[-0.09855256 -0.22429849 -0.6103254 ]]
sub_nn_36.out.bias,[-0.34168184]
sub_nn_37.hidden.weight,[[-0.67982095  0.4560129 ] [-0.6516819   0.2977281 ] [-0.65943146 -0.5078376 ]]
sub_nn_37.hidden.bias,[0.45251015 0.18384933 0.38892835]
sub_nn_37.out.weight,[[0.26982376 1.1999588  1.1449004 ]]
sub_nn_37.out.bias,[0.49742353]
sub_nn_38.hidden.weight,[[ 0.5749117  -1.0034872 ] [ 0.20273966 -0.40292302] [-0.1350861  -0.09092863]]
sub_nn_38.hidden.bias,[ 0.03546227 -0.6761423   0.4656699 ]
sub_nn_38.out.weight,[[ 1.8432788 -1.3766158 -0.9548705]]
sub_nn_38.out.bias,[0.4563818]
sub_nn_39.hidden.weight,[[ 0.11893834 -0.69862074] [-0.5346496  -0.5053    ] [ 0.06936222  1.4658529 ]]
sub_nn_39.hidden.bias,[ 0.59689456 -0.25099957 -0.23856431]
sub_nn_39.out.weight,[[-1.4777914  -0.10485668  0.01168615]]
sub_nn_39.out.bias,[-0.4862051]
sub_nn_40.hidden.weight,[[-0.06312947 -0.25154194] [-0.0480841  -0.5746736 ] [-2.1195853  -0.83822995]]
sub_nn_40.hidden.bias,[ 0.49113074  0.56583494 -0.2396827 ]
sub_nn_40.out.weight,[[ 0.68981963 -1.1720368  -1.0923647 ]]
sub_nn_40.out.bias,[0.44957256]
sub_nn_41.hidden.weight,[[ 0.644837    0.131898  ] [-0.87970704 -0.3484146 ] [-0.8695425   0.05837257]]
sub_nn_41.hidden.bias,[-0.13833398  0.2254199  -0.657276  ]
sub_nn_41.out.weight,[[ 0.5758513 -0.9468695  0.7907038]]
sub_nn_41.out.bias,[0.33988488]
sub_nn_42.hidden.weight,[[ 0.33376902 -0.1587392 ] [-0.17638947 -0.14975396] [ 0.85890144  0.15089697]]
sub_nn_42.hidden.bias,[ 0.17949305 -0.57316864  0.2667005 ]
sub_nn_42.out.weight,[[-0.06065108  0.16277869 -0.10052329]]
sub_nn_42.out.bias,[0.2012927]
sub_nn_43.hidden.weight,[[ 0.28285176 -0.16451631] [-0.19359328 -0.09657652] [ 0.01912111 -0.2147875 ]]
sub_nn_43.hidden.bias,[-0.02584613 -0.36597642 -0.40818933]
sub_nn_43.out.weight,[[ 0.98145837 -0.81470245  0.0920088 ]]
sub_nn_43.out.bias,[0.45284545]
sub_nn_44.hidden.weight,[[ 0.8722618  -0.90050983] [ 0.2914035   0.6914339 ] [ 0.31270292  0.47890928]]
sub_nn_44.hidden.bias,[-0.1960787  -0.25455856 -0.16831023]
sub_nn_44.out.weight,[[ 0.40910482 -0.3863117  -0.24354054]]
sub_nn_44.out.bias,[-0.34980547]
sub_nn_45.hidden.weight,[[ 0.7264815  -0.05900195] [-0.01970868 -0.01572167] [ 0.76712614  0.4835767 ]]
sub_nn_45.hidden.bias,[-0.3807937 -0.3031052 -0.5486562]
sub_nn_45.out.weight,[[-0.11455742  0.47685507  0.21503705]]
sub_nn_45.out.bias,[-0.36695224]
sub_nn_46.hidden.weight,[[-0.40443727  0.14933951] [-0.9163732  -0.73602664] [ 0.36676753 -0.60289425]]
sub_nn_46.hidden.bias,[-0.41985887 -0.23799026 -0.4434708 ]
sub_nn_46.out.weight,[[-0.53109246 -0.89742893  0.8192617 ]]
sub_nn_46.out.bias,[0.05334556]
sub_nn_47.hidden.weight,[[ 0.48228952 -0.0637998 ] [ 0.3316835   0.13737996] [-0.46034792  0.47387376]]
sub_nn_47.hidden.bias,[ 0.50022733  0.23004156 -0.57032204]
sub_nn_47.out.weight,[[ 0.04788597 -0.46215194 -0.455126  ]]
sub_nn_47.out.bias,[-0.40704536]
sub_nn_48.hidden.weight,[[-0.24741927 -0.5168039 ] [-0.14029191  0.86374605] [ 0.3564046   0.7534109 ]]
sub_nn_48.hidden.bias,[-0.40915072  0.6434859   0.10891032]
sub_nn_48.out.weight,[[-1.0695456  -0.6322973   0.03317905]]
sub_nn_48.out.bias,[-0.56475824]
sub_nn_49.hidden.weight,[[ 0.1310666   0.0691912 ] [-0.04621004  0.15840232] [-1.1297526   0.6878768 ]]
sub_nn_49.hidden.bias,[-0.36937726  0.04289574 -0.3343252 ]
sub_nn_49.out.weight,[[0.9467792 0.6370226 0.9403717]]
sub_nn_49.out.bias,[0.54163635]
sub_nn_50.hidden.weight,[[-1.3173838   0.17915522] [ 0.31097478  0.7836208 ] [ 0.17319201  0.51125973]]
sub_nn_50.hidden.bias,[0.5970974  0.3955447  0.40692908]
sub_nn_50.out.weight,[[-0.3529043  -0.00848429  1.0820895 ]]
sub_nn_50.out.bias,[-0.212942]
sub_nn_51.hidden.weight,[[-0.05450429 -0.81354326] [-0.3567169  -1.3110145 ] [ 0.14014064  1.7045046 ]]
sub_nn_51.hidden.bias,[ 0.15019386  0.6741088  -0.19080134]
sub_nn_51.out.weight,[[-1.0517585   0.37889802 -0.0975159 ]]
sub_nn_51.out.bias,[-0.35642946]
sub_nn_52.hidden.weight,[[ 0.33959684 -0.5961778 ] [-0.3755181  -0.4963255 ] [-0.04625125  0.21604405]]
sub_nn_52.hidden.bias,[-0.04336783 -0.23563468 -0.40995276]
sub_nn_52.out.weight,[[ 0.4012206  -0.42570892 -0.0544837 ]]
sub_nn_52.out.bias,[-0.01100731]
sub_nn_53.hidden.weight,[[-0.8648764  1.0357834] [ 0.7303481 -0.6637712] [ 0.7353312  1.4462597]]
sub_nn_53.hidden.bias,[0.5127193  0.1993236  0.17009532]
sub_nn_53.out.weight,[[ 0.46983537 -0.964552   -1.2042682 ]]
sub_nn_53.out.bias,[-0.42999098]
sub_nn_54.hidden.weight,[[ 0.8701799   0.23134872] [-0.885858    0.33958307] [-0.19538122  0.65923136]]
sub_nn_54.hidden.bias,[-0.28269345  0.5228269  -0.11168244]
sub_nn_54.out.weight,[[-0.24502113  0.03102644 -0.91107947]]
sub_nn_54.out.bias,[0.06206727]
sub_nn_55.hidden.weight,[[ 1.1093391   0.2746257 ] [ 0.38600487  1.0675291 ] [-0.57148874  0.20350073]]
sub_nn_55.hidden.bias,[ 0.01392204 -0.13314962 -0.5228202 ]
sub_nn_55.out.weight,[[ 0.06052177 -0.6868119  -0.4568414 ]]
sub_nn_55.out.bias,[0.04326332]
sub_nn_56.hidden.weight,[[ 1.3145143   0.6107262 ] [-0.36378747 -1.132286  ] [-1.0906466  -0.3557357 ]]
sub_nn_56.hidden.bias,[-0.45113063 -0.20912296 -0.09231216]
sub_nn_56.out.weight,[[1.1627709  0.05100458 0.8374198 ]]
sub_nn_56.out.bias,[-0.56059545]
sub_nn_57.hidden.weight,[[ 0.05763302  0.37468323] [-0.06627839  0.21536897] [-0.11868552  0.10125124]]
sub_nn_57.hidden.bias,[ 0.12517983  0.26299047 -0.6926392 ]
sub_nn_57.out.weight,[[-0.3628913  0.6453876  1.0378194]]
sub_nn_57.out.bias,[0.23969692]
sub_nn_58.hidden.weight,[[-0.6285229   0.8916867 ] [ 0.71552014 -0.12068869] [-0.0063706  -0.32317853]]
sub_nn_58.hidden.bias,[ 0.43741527  0.12313696 -0.09702098]
sub_nn_58.out.weight,[[-0.11538015  0.142764    1.5073392 ]]
sub_nn_58.out.bias,[0.2939976]
sub_nn_59.hidden.weight,[[-0.48511845 -0.10874712] [-1.731568    0.34790835] [ 0.07472099 -0.40813643]]
sub_nn_59.hidden.bias,[0.7011438  0.18615767 0.00829198]
sub_nn_59.out.weight,[[ 0.66888964  0.31436804 -0.12783913]]
sub_nn_59.out.bias,[0.04762995]
sub_nn_60.hidden.weight,[[ 0.3395546   0.3260348 ] [-0.7957543   0.38977188] [ 0.04672779 -0.33128732]]
sub_nn_60.hidden.bias,[ 0.16764438 -0.62615067  0.39445922]
sub_nn_60.out.weight,[[0.5879002  0.9357915  0.49351954]]
sub_nn_60.out.bias,[0.5364789]
sub_nn_61.hidden.weight,[[-0.00526484 -0.39934456] [ 0.86299354 -0.16901799] [-0.0691408  -0.27027264]]
sub_nn_61.hidden.bias,[ 0.04888701 -0.15377127  0.38751632]
sub_nn_61.out.weight,[[0.7927107  1.3143531  0.44546306]]
sub_nn_61.out.bias,[0.26621723]
sub_nn_62.hidden.weight,[[ 0.5000604  -0.8954293 ] [-0.93977547 -0.9390982 ] [-1.3102176  -0.2658635 ]]
sub_nn_62.hidden.bias,[0.18638319 0.28829277 0.6656505 ]
sub_nn_62.out.weight,[[ 0.45014298 -0.12740985  0.69150037]]
sub_nn_62.out.bias,[0.40207523]
sub_nn_63.hidden.weight,[[-0.3385315  -0.60991615] [ 0.09384324 -0.3362563 ] [ 0.5481447  -0.73956835]]
sub_nn_63.hidden.bias,[-0.43542987  0.0731891  -0.5669542 ]
sub_nn_63.out.weight,[[ 0.34592122 -0.84737414  0.01264283]]
sub_nn_63.out.bias,[0.5388479]
sub_nn_64.hidden.weight,[[-1.2949885  -0.6110785 ] [ 0.74709016  0.80927885] [-0.10312602 -0.2711161 ]]
sub_nn_64.hidden.bias,[0.44175494 0.1393252  0.5242487 ]
sub_nn_64.out.weight,[[ 1.296346   -0.16168289 -0.11972687]]
sub_nn_64.out.bias,[0.48432052]
sub_nn_65.hidden.weight,[[ 0.28211486 -1.0079155 ] [ 0.15005709  1.035841  ] [ 0.12999418  0.09478254]]
sub_nn_65.hidden.bias,[-0.3986182  -0.35419995  0.28654402]
sub_nn_65.out.weight,[[0.08382958 0.4788588  0.18076101]]
sub_nn_65.out.bias,[0.03707236]
sub_nn_66.hidden.weight,[[ 0.39311638  1.2461609 ] [ 1.0847443  -0.60836965] [ 0.8798769   0.13125303]]
sub_nn_66.hidden.bias,[-0.05616718 -0.08405147  0.19498748]
sub_nn_66.out.weight,[[ 0.06800979 -1.3405814  -0.385928  ]]
sub_nn_66.out.bias,[0.08805811]
sub_nn_67.hidden.weight,[[-0.4033035  -0.08600938] [-0.65716946 -0.21915214] [-0.6457089  -0.3307191 ]]
sub_nn_67.hidden.bias,[-0.06642855  0.53328323 -0.24627945]
sub_nn_67.out.weight,[[-0.4001412  -0.39546126  0.190574  ]]
sub_nn_67.out.bias,[-0.10743481]
sub_nn_68.hidden.weight,[[-0.64688176 -0.3889118 ] [-0.26904303  0.708625  ] [ 0.6140546  -0.47111228]]
sub_nn_68.hidden.bias,[-0.04663801 -0.52618414  0.30550614]
sub_nn_68.out.weight,[[ 0.49003708  0.31150043 -0.05180518]]
sub_nn_68.out.bias,[0.5484661]
sub_nn_69.hidden.weight,[[ 0.24017051  0.7746396 ] [ 0.39930612  0.68691456] [-0.12276258  0.34512466]]
sub_nn_69.hidden.bias,[ 0.48359936  0.6508772  -0.38109696]
sub_nn_69.out.weight,[[-0.28455445  0.36294827  0.10448704]]
sub_nn_69.out.bias,[0.06622696]
sub_nn_70.hidden.weight,[[0.16453804 0.00629348] [0.80225056 0.9264018 ] [0.4451517  0.21649215]]
sub_nn_70.hidden.bias,[ 0.48501366  0.36341065 -0.45357046]
sub_nn_70.out.weight,[[-0.04781038  1.1949306   0.46680948]]
sub_nn_70.out.bias,[-0.27118856]
sub_nn_71.hidden.weight,[[ 0.514923   -0.8205296 ] [ 0.76114035  0.07008061] [-0.07359769  0.13863756]]
sub_nn_71.hidden.bias,[-0.09774826 -0.4014558   0.17950317]
sub_nn_71.out.weight,[[-0.2811915   1.026409   -0.38544747]]
sub_nn_71.out.bias,[-0.5184814]
sub_nn_72.hidden.weight,[[-0.19985847  0.00926283] [-1.2196481   0.49663022] [ 0.32741454 -0.27757975]]
sub_nn_72.hidden.bias,[-0.4406714   0.11745004 -0.5030018 ]
sub_nn_72.out.weight,[[1.42041    0.68548614 0.08511075]]
sub_nn_72.out.bias,[0.30627823]
sub_nn_73.hidden.weight,[[-0.25267568  0.7842032 ] [-0.29340002  0.60858953] [-0.11621421  0.07078084]]
sub_nn_73.hidden.bias,[-0.44652376 -0.6122742   0.25332332]
sub_nn_73.out.weight,[[ 0.17053482 -0.02833764 -0.22972704]]
sub_nn_73.out.bias,[-0.1039077]
sub_nn_74.hidden.weight,[[-0.3579771  -0.01657644] [ 0.31946224  0.07984597] [-0.01385436 -0.9975921 ]]
sub_nn_74.hidden.bias,[0.64179945 0.03365201 0.6222359 ]
sub_nn_74.out.weight,[[ 0.58986545  0.16021128 -0.836525  ]]
sub_nn_74.out.bias,[-0.40362316]
sub_nn_75.hidden.weight,[[-0.07706919  0.26235428] [ 0.39460427 -1.1922641 ] [ 0.15061064 -0.28959462]]
sub_nn_75.hidden.bias,[ 0.42929885  0.43513072 -0.6768144 ]
sub_nn_75.out.weight,[[-0.82209724 -1.8347789  -0.05034595]]
sub_nn_75.out.bias,[0.43870974]
sub_nn_76.hidden.weight,[[-0.7222864   0.33095166] [ 0.87654716  1.2719414 ] [ 0.00616402  0.11689906]]
sub_nn_76.hidden.bias,[-0.11842891  0.07248712  0.05397099]
sub_nn_76.out.weight,[[-0.23159476 -0.08436892  0.5421091 ]]
sub_nn_76.out.bias,[-0.08288795]
sub_nn_77.hidden.weight,[[ 0.081247    0.7387622 ] [ 0.34047428 -0.8794737 ] [-0.0266745  -0.5756372 ]]
sub_nn_77.hidden.bias,[-0.26397476 -0.0691766  -0.35129803]
sub_nn_77.out.weight,[[ 1.0986732 -0.7143672  0.7789478]]
sub_nn_77.out.bias,[0.5533186]
sub_nn_78.hidden.weight,[[ 0.78119147  0.7895413 ] [ 1.1551208  -0.43205267] [ 0.27356327 -0.5149633 ]]
sub_nn_78.hidden.bias,[-0.67939943  0.38516226 -0.23670861]
sub_nn_78.out.weight,[[-0.33154675  0.3829051  -0.12924719]]
sub_nn_78.out.bias,[0.03546447]
sub_nn_79.hidden.weight,[[-0.16694538  0.20485163] [-0.20529595  0.16206229] [ 0.26166105  0.22760728]]
sub_nn_79.hidden.bias,[0.09107858 0.02374904 0.17171073]
sub_nn_79.out.weight,[[0.47879165 0.48396593 0.45467114]]
sub_nn_79.out.bias,[0.26318848]
sub_nn_80.hidden.weight,[[ 0.14100096  0.4510564 ] [ 0.15930034 -1.2495303 ] [-0.64534867  0.75695795]]
sub_nn_80.hidden.bias,[-0.04788537  0.10325117 -0.2615904 ]
sub_nn_80.out.weight,[[-0.39140773  0.04608416 -0.33496842]]
sub_nn_80.out.bias,[-0.36215153]
sub_nn_81.hidden.weight,[[-0.12009519 -0.13324761] [-0.06655273  0.6699119 ] [-0.59835696 -1.7928957 ]]
sub_nn_81.hidden.bias,[ 0.04590575  0.0468815  -0.54856956]
sub_nn_81.out.weight,[[-1.025515  -0.9072687 -0.1002156]]
sub_nn_81.out.bias,[0.01506549]
sub_nn_82.hidden.weight,[[-0.12470844 -0.47700763] [-0.5189682   0.88537014] [ 0.07544391  0.7477186 ]]
sub_nn_82.hidden.bias,[-0.04515421 -0.51870984 -0.30221006]
sub_nn_82.out.weight,[[1.6571362  0.49470368 0.5906762 ]]
sub_nn_82.out.bias,[-0.5453061]
sub_nn_83.hidden.weight,[[ 0.30824888  0.41922036] [-0.59264946 -0.34476015] [ 0.5068546   1.0896147 ]]
sub_nn_83.hidden.bias,[-0.41874605 -0.4166699   0.5641895 ]
sub_nn_83.out.weight,[[-0.16300704  0.6272569  -1.5762496 ]]
sub_nn_83.out.bias,[0.46633434]
sub_nn_84.hidden.weight,[[-0.0952449   0.69499975] [-0.28138143 -0.31450018] [-0.02424805  0.4131918 ]]
sub_nn_84.hidden.bias,[0.49553075 0.10089791 0.44865716]
sub_nn_84.out.weight,[[ 0.1224007  -0.4558583  -0.03716704]]
sub_nn_84.out.bias,[0.3516438]
sub_nn_85.hidden.weight,[[-1.1737769   0.46901485] [ 0.59832764 -0.3409292 ] [ 0.6226587  -0.268818  ]]
sub_nn_85.hidden.bias,[ 0.6134373  -0.46520653  0.1811785 ]
sub_nn_85.out.weight,[[-0.8384887  0.515409   0.8609398]]
sub_nn_85.out.bias,[0.11758167]
sub_nn_86.hidden.weight,[[ 0.12387533  0.68080634] [-0.26762834 -1.1000907 ] [ 0.6482738  -0.3000713 ]]
sub_nn_86.hidden.bias,[0.45341963 0.5681339  0.6854635 ]
sub_nn_86.out.weight,[[ 0.34609178 -0.8117813   0.29880303]]
sub_nn_86.out.bias,[0.13546121]
sub_nn_87.hidden.weight,[[ 0.68757266 -0.5685003 ] [-0.13482474  0.25999883] [ 0.27454448  0.82681036]]
sub_nn_87.hidden.bias,[0.5585229 0.213306  0.0905503]
sub_nn_87.out.weight,[[0.00470274 0.17978443 0.84355927]]
sub_nn_87.out.bias,[-0.23018873]
sub_nn_88.hidden.weight,[[ 1.0589917  -1.2399989 ] [-0.16448393  0.301371  ] [ 0.36497867 -0.36791074]]
sub_nn_88.hidden.bias,[ 0.46144637 -0.687903    0.3973274 ]
sub_nn_88.out.weight,[[-0.5157819   2.0665379  -0.39120477]]
sub_nn_88.out.bias,[-0.21600068]
sub_nn_89.hidden.weight,[[-0.24592844 -0.23629023] [-0.20150855  0.3142025 ] [-0.6095557  -0.62081146]]
sub_nn_89.hidden.bias,[ 0.4439458  -0.21180905 -0.1348527 ]
sub_nn_89.out.weight,[[ 0.02272591  0.6543924  -0.56343687]]
sub_nn_89.out.bias,[-0.09563491]
sub_nn_90.hidden.weight,[[-0.4849644   0.02912106] [ 0.323491    0.4860998 ] [ 0.70565665 -0.8542548 ]]
sub_nn_90.hidden.bias,[ 0.2869513   0.01648235 -0.1296495 ]
sub_nn_90.out.weight,[[-0.22470358 -0.44277063  1.0361733 ]]
sub_nn_90.out.bias,[0.44954157]
sub_nn_91.hidden.weight,[[-0.5024287  -0.7190616 ] [-0.19312483  0.01889822] [ 0.03269258  1.2425852 ]]
sub_nn_91.hidden.bias,[ 0.5218641  0.7030778 -0.0398722]
sub_nn_91.out.weight,[[-0.7982043  -0.6778965   0.74702936]]
sub_nn_91.out.bias,[0.4780798]
sub_nn_92.hidden.weight,[[-0.13998675  0.3734406 ] [ 0.44362023 -0.13529654] [ 0.27205348  0.13922194]]
sub_nn_92.hidden.bias,[-0.16289929 -0.32983726 -0.46349758]
sub_nn_92.out.weight,[[-0.740797   -1.944492   -0.11886165]]
sub_nn_92.out.bias,[-0.05723518]
sub_nn_93.hidden.weight,[[ 0.06665578 -0.03021161] [-0.55112344 -0.20210052] [-0.6632415   1.0551221 ]]
sub_nn_93.hidden.bias,[ 0.57971305 -0.01733702  0.28704575]
sub_nn_93.out.weight,[[-1.0122985   0.15889747 -0.7646009 ]]
sub_nn_93.out.bias,[0.29806137]
sub_nn_94.hidden.weight,[[ 0.88009495 -0.26470035] [ 0.07980366  0.4346344 ] [ 0.9138134  -0.5535375 ]]
sub_nn_94.hidden.bias,[ 0.33974406  0.23508501 -0.37713665]
sub_nn_94.out.weight,[[-0.17184909 -0.84831977  0.96043015]]
sub_nn_94.out.bias,[-0.34239393]
sub_nn_95.hidden.weight,[[ 0.2795997   0.03696405] [-0.5310788  -0.82810545] [-0.59715337 -0.11082841]]
sub_nn_95.hidden.bias,[ 0.35229653  0.6323328  -0.41051248]
sub_nn_95.out.weight,[[-0.84663326  0.579535   -0.53968763]]
sub_nn_95.out.bias,[0.0241788]
sub_nn_96.hidden.weight,[[ 0.41164765  1.9261236 ] [-0.42151165  0.0036257 ] [ 0.3933168  -0.43824694]]
sub_nn_96.hidden.bias,[ 0.33257896 -0.61300164 -0.6335685 ]
sub_nn_96.out.weight,[[-0.91778487 -0.4125066  -0.58447444]]
sub_nn_96.out.bias,[0.28554845]
sub_nn_97.hidden.weight,[[-0.4059621  -0.44655544] [ 0.28097844  0.4796232 ] [ 0.23180078 -0.1824936 ]]
sub_nn_97.hidden.bias,[-0.6034438   0.20080042 -0.62176156]
sub_nn_97.out.weight,[[ 0.8994655   1.3151544  -0.20719086]]
sub_nn_97.out.bias,[0.118949]
sub_nn_98.hidden.weight,[[-0.61581045  0.04474235] [-0.04969129 -0.5866671 ] [ 0.13986276  1.2025044 ]]
sub_nn_98.hidden.bias,[ 0.25936267 -0.29867634  0.5433685 ]
sub_nn_98.out.weight,[[-0.16275804  0.03406242  0.4456103 ]]
sub_nn_98.out.bias,[-0.343026]
sub_nn_99.hidden.weight,[[-0.21955249 -0.4226389 ] [-0.49930254 -0.3760725 ] [-0.29300335  0.36087888]]
sub_nn_99.hidden.bias,[ 0.4805865  -0.63102734 -0.2902444 ]
sub_nn_99.out.weight,[[-1.0895326  -1.4742957  -0.91774845]]
sub_nn_99.out.bias,[-0.5033107]
sub_nn_100.hidden.weight,[[-0.01833944  0.5247883 ] [-0.10080957  0.87233335] [ 0.25398088  0.30064958]]
sub_nn_100.hidden.bias,[ 0.41548854 -0.2411243   0.1798749 ]
sub_nn_100.out.weight,[[ 0.17571293  0.6796099  -0.6472874 ]]
sub_nn_100.out.bias,[-0.32111362]
sub_nn_101.hidden.weight,[[ 0.11812747 -0.04597942] [-0.81748533  0.21205774] [ 0.50236905  0.69024867]]
sub_nn_101.hidden.bias,[-0.05249988 -0.31632036  0.50818676]
sub_nn_101.out.weight,[[0.37870717 1.2177868  0.494898  ]]
sub_nn_101.out.bias,[0.36615402]
sub_nn_102.hidden.weight,[[ 0.5332581  -0.4386512 ] [-0.19534789  0.6459106 ] [ 0.19167632 -0.6013594 ]]
sub_nn_102.hidden.bias,[ 0.16929464  0.37873048 -0.55537003]
sub_nn_102.out.weight,[[-1.1571518 -0.9179223  0.8492009]]
sub_nn_102.out.bias,[-0.2427524]
sub_nn_103.hidden.weight,[[-0.16400887  0.14731418] [ 0.34510142 -0.19668372] [ 0.00516189  0.38859975]]
sub_nn_103.hidden.bias,[-0.7041395   0.37667608  0.17202508]
sub_nn_103.out.weight,[[ 1.28854   -0.8258397 -0.7715502]]
sub_nn_103.out.bias,[-0.15478891]
sub_nn_104.hidden.weight,[[-0.66269463 -0.6418655 ] [ 0.0305356   0.28313348] [ 0.2551317  -0.6698753 ]]
sub_nn_104.hidden.bias,[ 0.5990849   0.5783822  -0.23455651]
sub_nn_104.out.weight,[[ 0.4968372  -1.7567729   0.72458726]]
sub_nn_104.out.bias,[0.32641166]
sub_nn_105.hidden.weight,[[ 0.48588634 -0.3846139 ] [-0.14079536  0.1980716 ] [-1.2222936   0.01122923]]
sub_nn_105.hidden.bias,[ 0.5106225  -0.6706515  -0.00739073]
sub_nn_105.out.weight,[[ 1.2273687   0.23432982 -0.35967255]]
sub_nn_105.out.bias,[0.04132068]
sub_nn_106.hidden.weight,[[-0.7731007   0.22931749] [ 0.18297525 -0.2172902 ] [-0.16197391 -0.54996574]]
sub_nn_106.hidden.bias,[-0.7060664   0.56088626 -0.16315156]
sub_nn_106.out.weight,[[-0.11431932  0.0990452  -0.299334  ]]
sub_nn_106.out.bias,[0.26573122]
sub_nn_107.hidden.weight,[[-1.0780382  -0.63799644] [ 0.3578515  -0.3476818 ] [ 0.16151847 -0.03173347]]
sub_nn_107.hidden.bias,[-0.22263953  0.18159197  0.53123957]
sub_nn_107.out.weight,[[-1.3317349   0.83292687 -0.39074025]]
sub_nn_107.out.bias,[0.1470201]
sub_nn_108.hidden.weight,[[ 0.57569534 -1.0608985 ] [-1.249637   -0.89969623] [-0.4610656  -0.33091956]]
sub_nn_108.hidden.bias,[-0.07547035 -0.5481762   0.54789597]
sub_nn_108.out.weight,[[ 0.44320905 -0.35837173 -0.56361556]]
sub_nn_108.out.bias,[0.31818247]
sub_nn_109.hidden.weight,[[ 0.15568604  0.29840037] [ 0.35760483  0.05520879] [ 0.31887028 -0.9553082 ]]
sub_nn_109.hidden.bias,[-0.6631357   0.45147675 -0.45011127]
sub_nn_109.out.weight,[[0.760185   0.34521386 1.9810369 ]]
sub_nn_109.out.bias,[0.51102924]
sub_nn_110.hidden.weight,[[-0.6387929  -0.09219097] [ 0.6345483  -0.71175903] [-0.8073873   0.9192778 ]]
sub_nn_110.hidden.bias,[ 0.18862805 -0.5454589  -0.6099008 ]
sub_nn_110.out.weight,[[ 0.82935834  0.48307398 -0.15096384]]
sub_nn_110.out.bias,[0.57441103]
sub_nn_111.hidden.weight,[[ 0.7390981   1.170079  ] [-0.5513361  -0.20689262] [ 0.40359953  1.532742  ]]
sub_nn_111.hidden.bias,[-0.05597518  0.4306614  -0.01480308]
sub_nn_111.out.weight,[[-0.03634625  0.5926957  -0.48551378]]
sub_nn_111.out.bias,[0.5510572]
sub_nn_112.hidden.weight,[[ 0.08934475 -0.45917803] [ 0.7037621   0.21276681] [ 0.77101445  0.34605303]]
sub_nn_112.hidden.bias,[0.32963786 0.41231495 0.6688457 ]
sub_nn_112.out.weight,[[-0.23046398  0.03900766 -0.11182947]]
sub_nn_112.out.bias,[0.51548386]
sub_nn_113.hidden.weight,[[ 0.01920743 -0.04300062] [-0.740692   -0.78272784] [ 0.0845596  -0.06518054]]
sub_nn_113.hidden.bias,[ 0.24777962 -0.6164759   0.3639337 ]
sub_nn_113.out.weight,[[0.9458004  0.24964777 0.12546204]]
sub_nn_113.out.bias,[0.2547003]
sub_nn_114.hidden.weight,[[-1.5881526   0.40646046] [-1.0126109   0.34122437] [-0.63745564 -1.0772293 ]]
sub_nn_114.hidden.bias,[-0.31144488 -0.4296605  -0.3002431 ]
sub_nn_114.out.weight,[[ 0.57753277 -0.26824418  1.3958619 ]]
sub_nn_114.out.bias,[-0.09822661]
sub_nn_115.hidden.weight,[[-0.44671565  0.32454482] [-1.2384104  -0.17106912] [-0.8591372   0.26059976]]
sub_nn_115.hidden.bias,[-0.27061045 -0.12747204 -0.48482955]
sub_nn_115.out.weight,[[ 0.11033874  0.7517958  -0.53965855]]
sub_nn_115.out.bias,[-0.26088917]
sub_nn_116.hidden.weight,[[ 0.4125022   1.4763559 ] [ 1.0561588  -0.63007337] [-0.5185335   0.05194224]]
sub_nn_116.hidden.bias,[ 0.5304262   0.04253212 -0.21964645]
sub_nn_116.out.weight,[[ 0.9537665   0.24085394 -0.03088734]]
sub_nn_116.out.bias,[-0.2810534]
sub_nn_117.hidden.weight,[[ 1.109614    0.9153439 ] [ 0.2723265   0.11703158] [-0.08023981 -0.2883449 ]]
sub_nn_117.hidden.bias,[-0.12472516 -0.5564007  -0.07168359]
sub_nn_117.out.weight,[[-0.47265735 -0.39846694  1.0231404 ]]
sub_nn_117.out.bias,[0.37513614]
sub_nn_118.hidden.weight,[[ 1.0293819   0.19040443] [-0.68011165 -0.39057475] [ 0.0695753   0.17790595]]
sub_nn_118.hidden.bias,[ 0.37025446  0.40103388 -0.6972613 ]
sub_nn_118.out.weight,[[ 0.05348983 -0.499417   -0.31840533]]
sub_nn_118.out.bias,[0.14584792]
sub_nn_119.hidden.weight,[[ 0.10519522 -0.01231426] [ 0.83657306  0.31777433] [-0.09169525  0.3428736 ]]
sub_nn_119.hidden.bias,[-0.22978753  0.42203957  0.67026436]
sub_nn_119.out.weight,[[-0.61968786 -0.59206665  0.0871639 ]]
sub_nn_119.out.bias,[-0.359756]
sub_nn_120.hidden.weight,[[ 0.15744708 -0.15493862] [-0.28591144 -0.10327404] [ 0.26899117  0.46850574]]
sub_nn_120.hidden.bias,[ 0.10678682  0.5188246  -0.06400751]
sub_nn_120.out.weight,[[1.102508  0.4877131 1.6162494]]
sub_nn_120.out.bias,[-0.48985445]
sub_nn_121.hidden.weight,[[-0.5463185   1.1609637 ] [-0.91107243 -0.844397  ] [-0.08769552  0.47503263]]
sub_nn_121.hidden.bias,[ 0.6650174 -0.5694018  0.1462588]
sub_nn_121.out.weight,[[-0.68611974  1.2764163   0.26072043]]
sub_nn_121.out.bias,[-0.04962355]
sub_nn_122.hidden.weight,[[-0.4626323  -0.15791392] [-0.31948632  2.034338  ] [ 0.37255418 -1.4050387 ]]
sub_nn_122.hidden.bias,[0.41270846 0.45370445 0.5802566 ]
sub_nn_122.out.weight,[[ 0.056412   -0.08905493 -0.4113033 ]]
sub_nn_122.out.bias,[0.01107389]
sub_nn_123.hidden.weight,[[-1.1770147   0.20566072] [-1.0136907   1.8116093 ] [-0.42240393 -0.13190071]]
sub_nn_123.hidden.bias,[-0.17602468 -0.54679585 -0.66909057]
sub_nn_123.out.weight,[[-0.54175687  0.5842438  -0.14617598]]
sub_nn_123.out.bias,[-0.1075601]
sub_nn_124.hidden.weight,[[-1.5361903  -0.16948414] [ 0.492929   -0.6737113 ] [-0.49632686 -0.23803847]]
sub_nn_124.hidden.bias,[-0.6599095  -0.63371086 -0.58113897]
sub_nn_124.out.weight,[[ 0.62822217 -0.12542745  2.5913234 ]]
sub_nn_124.out.bias,[0.36829287]
sub_nn_125.hidden.weight,[[ 0.9344135   0.01098807] [ 0.04127125 -0.37504113] [-0.2700621   0.06754837]]
sub_nn_125.hidden.bias,[ 0.61603075 -0.21881346  0.29693824]
sub_nn_125.out.weight,[[-0.5394108  -0.10764948  0.01377167]]
sub_nn_125.out.bias,[-0.21399552]
sub_nn_126.hidden.weight,[[-0.6692316  -0.20011984] [ 0.28815064  1.3490063 ] [-0.4182309  -0.13859184]]
sub_nn_126.hidden.bias,[-0.26355907  0.6989507   0.09401184]
sub_nn_126.out.weight,[[0.04171892 1.3384527  0.04468297]]
sub_nn_126.out.bias,[0.4288262]
sub_nn_127.hidden.weight,[[ 0.35924032  1.7640069 ] [ 0.5285578  -0.7640113 ] [-0.16332528 -0.7439511 ]]
sub_nn_127.hidden.bias,[-0.00131063  0.44328988  0.52401316]
sub_nn_127.out.weight,[[-0.54839873 -0.16276994  0.36021858]]
sub_nn_127.out.bias,[0.22348589]
sub_nn_128.hidden.weight,[[ 0.11374637 -1.3364806 ] [ 0.39188415 -0.15309814] [ 0.11457133 -0.2535169 ]]
sub_nn_128.hidden.bias,[-0.06982054 -0.47215465 -0.6457053 ]
sub_nn_128.out.weight,[[-0.69850826 -0.39182144  0.4925605 ]]
sub_nn_128.out.bias,[-0.51100445]
sub_nn_129.hidden.weight,[[ 0.4955649  -0.20818895] [-0.8953184   0.36227104] [-0.5418614   0.74335694]]
sub_nn_129.hidden.bias,[-0.07128985  0.44003716  0.38500077]
sub_nn_129.out.weight,[[-0.15005885 -0.35738555  0.4226844 ]]
sub_nn_129.out.bias,[0.13789612]
sub_nn_130.hidden.weight,[[-0.02742667 -0.31969538] [ 0.9945753   0.28200355] [-0.5664415  -0.70447755]]
sub_nn_130.hidden.bias,[0.36057976 0.36320835 0.6530892 ]
sub_nn_130.out.weight,[[-1.1169461  -0.63052166  0.34751233]]
sub_nn_130.out.bias,[0.5289998]
sub_nn_131.hidden.weight,[[ 0.7164107   0.7951607 ] [-0.24020669  0.5834346 ] [-0.11498797 -0.1765503 ]]
sub_nn_131.hidden.bias,[ 0.00464368 -0.05470162  0.55432117]
sub_nn_131.out.weight,[[-0.05329998 -1.2055726   1.6443421 ]]
sub_nn_131.out.bias,[0.07526118]
sub_nn_132.hidden.weight,[[ 0.37865695 -0.26794836] [ 0.5600275  -0.33059454] [-0.01718799  0.17339435]]
sub_nn_132.hidden.bias,[ 0.09862731  0.18115744 -0.67720246]
sub_nn_132.out.weight,[[-0.896732    0.811223    0.21628202]]
sub_nn_132.out.bias,[-0.12698755]
sub_nn_133.hidden.weight,[[ 0.18824877  0.5322282 ] [-0.14919929 -0.57713664] [ 0.50501424  1.0325003 ]]
sub_nn_133.hidden.bias,[-0.05070979  0.21624658 -0.2935537 ]
sub_nn_133.out.weight,[[ 0.28394824 -0.855455   -0.45289955]]
sub_nn_133.out.bias,[0.537851]
sub_nn_134.hidden.weight,[[ 0.04044772 -0.20031147] [ 0.42403904  1.2631271 ] [-0.02388287 -0.0340064 ]]
sub_nn_134.hidden.bias,[ 0.17991878 -0.43761277 -0.54555184]
sub_nn_134.out.weight,[[-0.05372607 -0.36821142 -0.8475388 ]]
sub_nn_134.out.bias,[0.14834547]
sub_nn_135.hidden.weight,[[ 0.06518532 -0.44186196] [-0.2835527  -0.9905749 ] [-0.70905924 -0.23572475]]
sub_nn_135.hidden.bias,[-0.52151895  0.5822377  -0.62007725]
sub_nn_135.out.weight,[[ 0.06930787  0.79325205 -0.35834053]]
sub_nn_135.out.bias,[-0.21505192]
sub_nn_136.hidden.weight,[[-1.0845269   0.37583935] [-0.28874987  0.60382116] [-0.26248226  1.1241606 ]]
sub_nn_136.hidden.bias,[-0.44191292  0.2576891   0.6265484 ]
sub_nn_136.out.weight,[[ 0.00570733  0.02610489 -0.14385672]]
sub_nn_136.out.bias,[0.3668108]
sub_nn_137.hidden.weight,[[ 0.403245    0.17121089] [ 0.6929013  -0.19835372] [-0.6741482  -0.7585171 ]]
sub_nn_137.hidden.bias,[-0.20072456  0.51638955  0.66098195]
sub_nn_137.out.weight,[[-1.1256846   0.81925803  0.10123179]]
sub_nn_137.out.bias,[-0.23926288]
sub_nn_138.hidden.weight,[[ 0.35936165 -0.84296054] [ 0.8009992   0.2542931 ] [-0.59200364  0.01681309]]
sub_nn_138.hidden.bias,[-0.13112801 -0.11377759 -0.52491236]
sub_nn_138.out.weight,[[-0.05120684  0.8547335   0.7858668 ]]
sub_nn_138.out.bias,[-0.5681956]
sub_nn_139.hidden.weight,[[ 0.00703278  0.6482756 ] [ 0.25600138 -0.87738407] [ 0.0205141   0.14644727]]
sub_nn_139.hidden.bias,[ 0.3212784   0.17024612 -0.4603952 ]
sub_nn_139.out.weight,[[-0.36123338 -0.26520693  0.78229666]]
sub_nn_139.out.bias,[0.06240869]
sub_nn_140.hidden.weight,[[-0.2621839  -0.05695007] [ 1.1962178  -0.31097415] [ 0.21872577  0.0439258 ]]
sub_nn_140.hidden.bias,[-0.383165   -0.45882016  0.60358554]
sub_nn_140.out.weight,[[ 0.01072906 -1.041597   -0.5593903 ]]
sub_nn_140.out.bias,[-0.3942174]
sub_nn_141.hidden.weight,[[-0.18225828 -0.1888428 ] [ 0.2743237  -0.13023955] [ 0.34524938  0.0892913 ]]
sub_nn_141.hidden.bias,[-0.12547886 -0.1498879  -0.21236664]
sub_nn_141.out.weight,[[0.39447722 1.2947996  0.52087826]]
sub_nn_141.out.bias,[0.44505787]
sub_nn_142.hidden.weight,[[ 0.34239745  0.32662472] [-0.4181496  -0.5178018 ] [ 0.57461405  0.23168103]]
sub_nn_142.hidden.bias,[ 0.2983908  -0.6619713   0.25607085]
sub_nn_142.out.weight,[[-0.9820248  -0.14079224 -0.5369045 ]]
sub_nn_142.out.bias,[-0.12280688]
sub_nn_143.hidden.weight,[[ 0.15563278 -0.25951755] [-0.22249472  0.35570842] [ 0.24782673 -0.5793145 ]]
sub_nn_143.hidden.bias,[ 0.4097472   0.15156631 -0.03093567]
sub_nn_143.out.weight,[[-0.2721746  1.0817943 -0.3852768]]
sub_nn_143.out.bias,[0.553545]
sub_nn_144.hidden.weight,[[-0.7390632  -0.98858225] [ 0.62452346 -0.80123687] [ 0.33908388  1.589624  ]]
sub_nn_144.hidden.bias,[0.24444924 0.63437444 0.34707147]
sub_nn_144.out.weight,[[-0.3166672  -0.20829158 -1.3631881 ]]
sub_nn_144.out.bias,[0.35896188]
sub_nn_145.hidden.weight,[[-1.505136   -0.23958963] [-0.23168826  0.3852022 ] [ 0.28907725 -0.40510264]]
sub_nn_145.hidden.bias,[ 0.09338939 -0.17518127 -0.6574877 ]
sub_nn_145.out.weight,[[-0.87618273 -0.40167794 -0.74932367]]
sub_nn_145.out.bias,[0.47859216]
sub_nn_146.hidden.weight,[[-0.30392203  0.76289594] [ 0.08088463  0.12314238] [ 0.2719945  -0.19324651]]
sub_nn_146.hidden.bias,[ 0.0644768  -0.00340769 -0.31969985]
sub_nn_146.out.weight,[[ 0.33704793 -0.18003659  0.15206616]]
sub_nn_146.out.bias,[-0.20178938]
sub_nn_147.hidden.weight,[[ 0.02934077 -0.4847842 ] [-0.1546196  -0.3764105 ] [-0.36247516 -0.7161649 ]]
sub_nn_147.hidden.bias,[-0.49043056  0.6973328  -0.59483594]
sub_nn_147.out.weight,[[-1.0990176   0.14992267  0.18557559]]
sub_nn_147.out.bias,[-0.15122473]
sub_nn_148.hidden.weight,[[-0.96917653  0.58764523] [-0.6209628   0.64321274] [-1.0113612   0.39403188]]
sub_nn_148.hidden.bias,[ 0.19187579 -0.12337851 -0.40441728]
sub_nn_148.out.weight,[[ 1.060499    0.79055965 -1.620731  ]]
sub_nn_148.out.bias,[0.35062474]
sub_nn_149.hidden.weight,[[ 0.01698507  0.56303203] [-1.1400554   0.47703445] [ 0.87201744  0.6914008 ]]
sub_nn_149.hidden.bias,[0.19016516 0.65269536 0.24832153]
sub_nn_149.out.weight,[[0.61095583 0.11924376 1.0183004 ]]
sub_nn_149.out.bias,[0.3125357]
sub_nn_150.hidden.weight,[[ 0.00673856 -0.14087819] [ 0.5883448   0.6121856 ] [-0.15323217 -0.4365573 ]]
sub_nn_150.hidden.bias,[-0.47048175  0.5863864  -0.23877573]
sub_nn_150.out.weight,[[-0.54417455 -0.24695686 -1.4143059 ]]
sub_nn_150.out.bias,[0.37755936]
sub_nn_151.hidden.weight,[[ 0.11155068  0.32385516] [-0.6085472   0.5238387 ] [ 0.41838685  0.11720081]]
sub_nn_151.hidden.bias,[0.26298648 0.5310164  0.28207326]
sub_nn_151.out.weight,[[ 0.6894362 -0.7441634  0.6997272]]
sub_nn_151.out.bias,[-0.54261005]
sub_nn_152.hidden.weight,[[-0.66571784 -0.5644384 ] [-0.13699333 -0.30246994] [-0.9056434   0.43087846]]
sub_nn_152.hidden.bias,[0.49053925 0.56666607 0.53399986]
sub_nn_152.out.weight,[[-0.09377196 -0.05806384 -0.14895122]]
sub_nn_152.out.bias,[0.47998035]
sub_nn_153.hidden.weight,[[-0.8014663  -0.7593791 ] [-1.2277464  -0.62526417] [ 0.44534388 -0.07629599]]
sub_nn_153.hidden.bias,[ 0.16946608  0.581531   -0.6684947 ]
sub_nn_153.out.weight,[[0.11930025 0.6795871  1.9738703 ]]
sub_nn_153.out.bias,[-0.3165975]
sub_nn_154.hidden.weight,[[ 0.02698503  0.5740547 ] [ 0.18144482  0.2697471 ] [-0.18385951 -1.0385498 ]]
sub_nn_154.hidden.bias,[ 0.6573053  -0.5852477  -0.01495034]
sub_nn_154.out.weight,[[ 0.36465138 -0.62342614  0.20849918]]
sub_nn_154.out.bias,[0.1989423]
sub_nn_155.hidden.weight,[[-1.4387301  -0.06189301] [-0.55927074  1.044498  ] [-0.69975114 -0.00866376]]
sub_nn_155.hidden.bias,[-0.03802162  0.13245678  0.3347684 ]
sub_nn_155.out.weight,[[ 0.3799879  -0.75030977 -0.38974252]]
sub_nn_155.out.bias,[-0.19135433]
sub_nn_156.hidden.weight,[[ 0.30145916 -0.0644616 ] [-1.0755227  -0.62612695] [-0.4848115   0.87268394]]
sub_nn_156.hidden.bias,[-0.5751314   0.11257357 -0.58238196]
sub_nn_156.out.weight,[[-1.1283094   0.02206668 -0.18900412]]
sub_nn_156.out.bias,[0.02459109]
sub_nn_157.hidden.weight,[[ 0.898933   -0.5418862 ] [ 1.9695405   0.9036082 ] [ 1.2825884  -0.71509534]]
sub_nn_157.hidden.bias,[-0.5552241   0.09479618  0.02066714]
sub_nn_157.out.weight,[[0.05747866 0.9606253  0.33578074]]
sub_nn_157.out.bias,[0.531517]
sub_nn_158.hidden.weight,[[ 0.08463538  0.56008416] [ 0.27479205 -0.32370704] [-0.39225715  0.01963775]]
sub_nn_158.hidden.bias,[ 0.61246413 -0.34036502  0.11209776]
sub_nn_158.out.weight,[[ 0.31255755  0.14552778 -0.47583446]]
sub_nn_158.out.bias,[-0.4264429]
sub_nn_159.hidden.weight,[[ 0.21154156  0.8076188 ] [ 0.78187233 -0.6223277 ] [ 0.29259825  0.71351606]]
sub_nn_159.hidden.bias,[ 0.0645721 -0.4076151 -0.2556788]
sub_nn_159.out.weight,[[-0.7598779  1.2806177  1.0875307]]
sub_nn_159.out.bias,[0.09588772]
sub_nn_160.hidden.weight,[[ 0.71334106  1.3705684 ] [-0.2761404   0.08851984] [-0.0110817  -0.7710236 ]]
sub_nn_160.hidden.bias,[0.20584124 0.27017397 0.14337032]
sub_nn_160.out.weight,[[-0.12647079 -0.103033    1.6725348 ]]
sub_nn_160.out.bias,[-0.30099532]
sub_nn_161.hidden.weight,[[ 0.03995739 -0.44090298] [ 0.01073582 -0.7399785 ] [ 0.20125017  0.2475155 ]]
sub_nn_161.hidden.bias,[-0.24013512  0.21935809 -0.11864024]
sub_nn_161.out.weight,[[0.3607656  1.1199766  0.10611504]]
sub_nn_161.out.bias,[0.00433606]
sub_nn_162.hidden.weight,[[ 0.60914856  0.6613221 ] [-0.31578803 -1.2406864 ] [ 0.42756638  1.5941335 ]]
sub_nn_162.hidden.bias,[ 0.19558668 -0.2882035  -0.20710623]
sub_nn_162.out.weight,[[0.8787104  0.4290636  0.01331336]]
sub_nn_162.out.bias,[-0.12249187]
sub_nn_163.hidden.weight,[[-1.2185208   0.8782798 ] [-0.14222248 -0.25414896] [ 0.86248    -0.40397903]]
sub_nn_163.hidden.bias,[-0.19370481  0.1571038   0.22182558]
sub_nn_163.out.weight,[[ 0.3264066  -0.2431972   0.21576013]]
sub_nn_163.out.bias,[0.45729446]
sub_nn_164.hidden.weight,[[ 1.1533976  -0.28186443] [-0.42138284 -0.1867033 ] [-1.2442886   0.4920663 ]]
sub_nn_164.hidden.bias,[0.23012137 0.1509636  0.20447731]
sub_nn_164.out.weight,[[ 0.22687365 -0.2460782   0.5500292 ]]
sub_nn_164.out.bias,[0.42486882]
sub_nn_165.hidden.weight,[[ 0.62358487  0.1078004 ] [-0.37332335  0.20073082] [ 0.6083038   0.1698287 ]]
sub_nn_165.hidden.bias,[0.54029423 0.22191437 0.67527086]
sub_nn_165.out.weight,[[-1.5523596   0.04966462  0.96188045]]
sub_nn_165.out.bias,[0.34508014]
sub_nn_166.hidden.weight,[[ 1.279777    0.6778361 ] [ 0.19043615  0.27404168] [-0.05074154  0.7451438 ]]
sub_nn_166.hidden.bias,[-0.03451267 -0.58326405 -0.63788116]
sub_nn_166.out.weight,[[ 0.637575   -0.13345586  0.34550214]]
sub_nn_166.out.bias,[0.07767344]
sub_nn_167.hidden.weight,[[ 0.34601676  1.0587893 ] [ 0.01667631  0.07036016] [ 1.2540232  -0.57910824]]
sub_nn_167.hidden.bias,[ 0.58410734 -0.70118237 -0.38875824]
sub_nn_167.out.weight,[[-0.4773779   0.3588959  -0.20027077]]
sub_nn_167.out.bias,[-0.13924116]
sub_nn_168.hidden.weight,[[ 0.78123736  0.30431736] [-0.4337945  -0.6686817 ] [ 1.4790895  -0.09462064]]
sub_nn_168.hidden.bias,[-0.20099813  0.07040609 -0.08711563]
sub_nn_168.out.weight,[[-0.61884147  1.4001994   1.9406486 ]]
sub_nn_168.out.bias,[-0.4944036]
sub_nn_169.hidden.weight,[[-0.963329    1.2299393 ] [-0.10616142  0.1785486 ] [-0.25207436  0.04101337]]
sub_nn_169.hidden.bias,[-0.52715045 -0.01459767  0.40383115]
sub_nn_169.out.weight,[[ 1.5483477   1.1489154  -0.74040973]]
sub_nn_169.out.bias,[-0.35944694]
sub_nn_170.hidden.weight,[[-0.06410109 -0.25372785] [ 0.07343099 -0.5967918 ] [-0.01567429 -0.45764428]]
sub_nn_170.hidden.bias,[ 0.21428135 -0.16690916  0.04398707]
sub_nn_170.out.weight,[[ 0.71318996  0.44253552 -0.47904387]]
sub_nn_170.out.bias,[-0.35138494]
sub_nn_171.hidden.weight,[[-0.27027962  0.5269259 ] [ 1.0631773   0.15164603] [ 0.05017436 -0.8339914 ]]
sub_nn_171.hidden.bias,[ 0.17318308  0.46075064 -0.6637901 ]
sub_nn_171.out.weight,[[ 0.9063383  -0.05722675 -1.3720778 ]]
sub_nn_171.out.bias,[-0.39638704]
sub_nn_172.hidden.weight,[[ 0.39316344  0.01243553] [-0.43479696  0.773191  ] [-0.56300163  0.39131895]]
sub_nn_172.hidden.bias,[ 0.01566601 -0.45105928  0.37268   ]
sub_nn_172.out.weight,[[ 0.603209   -0.00917336  0.73726374]]
sub_nn_172.out.bias,[-0.52391136]
sub_nn_173.hidden.weight,[[ 1.262072    0.88977   ] [ 1.3203381   0.23165028] [-0.04470048  0.97396255]]
sub_nn_173.hidden.bias,[-0.43460125  0.21626127  0.4368839 ]
sub_nn_173.out.weight,[[ 0.61431825 -1.1143827  -0.33036417]]
sub_nn_173.out.bias,[0.39472586]
sub_nn_174.hidden.weight,[[-0.3932922   0.36671293] [ 0.12947652  0.85948354] [-0.11595132  0.28753808]]
sub_nn_174.hidden.bias,[-0.09232915  0.15624529  0.22096673]
sub_nn_174.out.weight,[[ 0.08519568 -0.7462825   0.19317871]]
sub_nn_174.out.bias,[-0.38509142]
sub_nn_175.hidden.weight,[[1.196215   0.4376203 ] [0.23172008 0.946223  ] [0.20596552 1.330817  ]]
sub_nn_175.hidden.bias,[-0.29722026  0.63418096 -0.40862828]
sub_nn_175.out.weight,[[ 1.6861819   0.4181069  -0.04633475]]
sub_nn_175.out.bias,[0.31889123]
sub_nn_176.hidden.weight,[[ 0.05546347  0.1762278 ] [-0.74354374 -0.08954822] [-0.08091     0.19553618]]
sub_nn_176.hidden.bias,[-0.63889134 -0.02783251 -0.4250034 ]
sub_nn_176.out.weight,[[ 1.5452036  -0.2494375  -0.67989457]]
sub_nn_176.out.bias,[0.3131903]
sub_nn_177.hidden.weight,[[ 1.1046598  -0.07734104] [ 0.00584602  0.55133927] [-0.14619142  0.16291192]]
sub_nn_177.hidden.bias,[-0.20076793 -0.09807002  0.1693555 ]
sub_nn_177.out.weight,[[ 1.1542263 -0.5719817  0.3870906]]
sub_nn_177.out.bias,[-0.03511602]
sub_nn_178.hidden.weight,[[-0.02567896 -0.02981787] [ 0.3180755  -1.497355  ] [-1.1206145   0.33897653]]
sub_nn_178.hidden.bias,[-0.37226775 -0.02514839 -0.39692536]
sub_nn_178.out.weight,[[-1.1810782   0.15828401  0.20568816]]
sub_nn_178.out.bias,[0.23777586]
sub_nn_179.hidden.weight,[[ 0.13896817  0.7230188 ] [-1.3026835   0.15775195] [-0.33468762  1.0884674 ]]
sub_nn_179.hidden.bias,[ 0.14839351  0.22144598 -0.08307607]
sub_nn_179.out.weight,[[-0.49014795 -0.03960036  0.5283085 ]]
sub_nn_179.out.bias,[0.10233128]
sub_nn_180.hidden.weight,[[ 1.4350611   1.020789  ] [ 0.02249471  0.6782455 ] [-0.25150898 -0.61734235]]
sub_nn_180.hidden.bias,[ 0.49915594 -0.29710186  0.41046327]
sub_nn_180.out.weight,[[ 0.10390826 -1.2274615  -0.19831176]]
sub_nn_180.out.bias,[-0.20552799]
sub_nn_181.hidden.weight,[[-0.7277031   0.6612186 ] [ 0.30742964 -0.09425105] [-0.98091084 -0.7532372 ]]
sub_nn_181.hidden.bias,[-0.47872898 -0.30348513 -0.69142276]
sub_nn_181.out.weight,[[-0.7213398 -0.4654936  0.5412456]]
sub_nn_181.out.bias,[-0.45908457]
sub_nn_182.hidden.weight,[[-0.70479363  0.37016296] [ 1.789431    0.08287124] [-0.2383541   0.20531256]]
sub_nn_182.hidden.bias,[0.43237486 0.3695373  0.5242757 ]
sub_nn_182.out.weight,[[-0.8887319   0.3551004   0.38981554]]
sub_nn_182.out.bias,[0.50302184]
sub_nn_183.hidden.weight,[[ 0.01533444 -0.5039941 ] [ 0.3587183  -0.86795384] [ 0.5279347  -0.22943577]]
sub_nn_183.hidden.bias,[0.26533216 0.61106193 0.13339725]
sub_nn_183.out.weight,[[-0.6843847  0.775477   0.7606511]]
sub_nn_183.out.bias,[0.0548681]
sub_nn_184.hidden.weight,[[-0.6590921   0.33301648] [-0.7119088   0.68368405] [ 0.16132343 -0.5554919 ]]
sub_nn_184.hidden.bias,[-0.14971176  0.30415592  0.48477295]
sub_nn_184.out.weight,[[-0.5644368   0.60214293  0.26819354]]
sub_nn_184.out.bias,[-0.04024065]
sub_nn_185.hidden.weight,[[-0.963574   -0.6203722 ] [ 0.20917109  1.3103676 ] [ 1.3702385  -0.65664375]]
sub_nn_185.hidden.bias,[-0.28782478 -0.43742564  0.03383614]
sub_nn_185.out.weight,[[ 0.9264809  -1.281816    0.12698565]]
sub_nn_185.out.bias,[0.26374358]
sub_nn_186.hidden.weight,[[ 0.20887186  0.9173162 ] [-0.44239593  0.87339276] [ 0.43686    -0.7876907 ]]
sub_nn_186.hidden.bias,[ 0.44901294  0.68183076 -0.27765507]
sub_nn_186.out.weight,[[ 0.10557903 -0.39605063  0.00973507]]
sub_nn_186.out.bias,[0.19840199]
sub_nn_187.hidden.weight,[[ 0.17757158 -0.5081183 ] [ 0.49358043  0.3959993 ] [-0.00243069 -0.17296213]]
sub_nn_187.hidden.bias,[ 0.17148937  0.54525167 -0.01703364]
sub_nn_187.out.weight,[[-0.34633234  0.81342214  0.10558978]]
sub_nn_187.out.bias,[-0.55321854]
sub_nn_188.hidden.weight,[[-0.60510075 -0.04257317] [ 0.13432552  0.48933506] [-0.52117366  0.0908495 ]]
sub_nn_188.hidden.bias,[-0.61578053 -0.64761794  0.02057685]
sub_nn_188.out.weight,[[ 0.2618017  -0.17932552  0.16279802]]
sub_nn_188.out.bias,[0.5682703]
sub_nn_189.hidden.weight,[[-0.08935074 -0.29438257] [ 0.11363224 -0.5931845 ] [-0.02412579  0.01415896]]
sub_nn_189.hidden.bias,[ 0.4889002  -0.5871606   0.52714497]
sub_nn_189.out.weight,[[ 0.07813592 -0.7561513   0.03401212]]
sub_nn_189.out.bias,[0.5392828]
sub_nn_190.hidden.weight,[[0.77918565 0.14533949] [0.52403563 0.4737052 ] [0.19768648 1.5312465 ]]
sub_nn_190.hidden.bias,[-0.104426   -0.3831023   0.10730857]
sub_nn_190.out.weight,[[ 0.23300612  0.04928723 -0.05543046]]
sub_nn_190.out.bias,[0.27631253]
sub_nn_191.hidden.weight,[[ 0.15836136 -0.20414463] [-0.68166834  0.5214652 ] [ 0.93359816  0.01896544]]
sub_nn_191.hidden.bias,[-0.54561424 -0.39126715 -0.03088143]
sub_nn_191.out.weight,[[-0.689757   0.4722351 -0.2337257]]
sub_nn_191.out.bias,[0.16853172]
sub_nn_192.hidden.weight,[[-0.48727596 -0.44884488] [-0.2044105   0.27450132] [ 0.05831525  0.44620684]]
sub_nn_192.hidden.bias,[-0.09407765  0.08164027 -0.04157747]
sub_nn_192.out.weight,[[0.09064876 0.19867676 0.8833974 ]]
sub_nn_192.out.bias,[0.13544548]
sub_nn_193.hidden.weight,[[ 0.8164632   0.08139448] [-0.66681445 -0.10877892] [ 0.02736969 -0.8301323 ]]
sub_nn_193.hidden.bias,[ 0.65511113 -0.5149497  -0.51528454]
sub_nn_193.out.weight,[[-0.6863961   0.93694896 -0.23120801]]
sub_nn_193.out.bias,[-0.47188866]
sub_nn_194.hidden.weight,[[ 1.2034076   0.379712  ] [-0.75881296 -0.9099726 ] [ 0.2916977   1.1898404 ]]
sub_nn_194.hidden.bias,[ 0.35238367 -0.4268577  -0.5270556 ]
sub_nn_194.out.weight,[[-0.14285591  0.3233163   0.50278884]]
sub_nn_194.out.bias,[-0.06807655]
sub_nn_195.hidden.weight,[[ 0.77823627  0.6876707 ] [-1.3944378   0.21714684] [-0.00246724 -0.18983279]]
sub_nn_195.hidden.bias,[0.2585876  0.22301055 0.3205157 ]
sub_nn_195.out.weight,[[-0.68735737  0.12348472  0.573103  ]]
sub_nn_195.out.bias,[0.5653837]
sub_nn_196.hidden.weight,[[ 0.9744964  -0.650638  ] [ 0.13555029  0.87658775] [-0.20111129  0.83522636]]
sub_nn_196.hidden.bias,[ 0.6725907   0.6793366  -0.15163846]
sub_nn_196.out.weight,[[-0.43660644  0.16316149 -0.13701257]]
sub_nn_196.out.bias,[-0.5515976]
sub_nn_197.hidden.weight,[[ 0.55245525  0.73127854] [-0.27385458 -0.59889525] [-0.12924825  0.72011423]]
sub_nn_197.hidden.bias,[-0.6536506   0.30000383  0.5956689 ]
sub_nn_197.out.weight,[[ 1.0793859  -0.03302759  1.205849  ]]
sub_nn_197.out.bias,[0.332314]
sub_nn_198.hidden.weight,[[ 0.9110117  -0.5435758 ] [ 0.5631839   0.04031057] [ 0.54956365  0.25676638]]
sub_nn_198.hidden.bias,[-0.33709764 -0.3368275   0.6369315 ]
sub_nn_198.out.weight,[[0.30955967 1.3575817  0.3416013 ]]
sub_nn_198.out.bias,[-0.39087537]
sub_nn_199.hidden.weight,[[-0.01282391 -0.65749824] [-0.0982859  -0.29419672] [ 0.6484861  -0.8510751 ]]
sub_nn_199.hidden.bias,[0.5022734 0.6785682 0.4152952]
sub_nn_199.out.weight,[[ 0.1814413  -0.51979995  0.23584369]]
sub_nn_199.out.bias,[0.5210035]
sub_nn_200.hidden.weight,[[-0.5828087   0.09450092] [ 0.2932076  -0.19622742] [ 0.48876792  0.00148015]]
sub_nn_200.hidden.bias,[ 0.41458452 -0.07405667 -0.6592034 ]
sub_nn_200.out.weight,[[-0.09275993  0.68512595 -1.0939133 ]]
sub_nn_200.out.bias,[0.26277792]
sub_nn_201.hidden.weight,[[-0.2575768   0.63008845] [ 0.20817435  1.9756087 ] [ 0.0193863   0.383561  ]]
sub_nn_201.hidden.bias,[0.30414894 0.31123573 0.54656   ]
sub_nn_201.out.weight,[[-0.5137834 -0.7626381 -0.4764876]]
sub_nn_201.out.bias,[0.48168206]
sub_nn_202.hidden.weight,[[-0.24498418 -0.3974518 ] [-0.03344827 -0.27019066] [-0.37956652 -0.09781017]]
sub_nn_202.hidden.bias,[-0.57156074  0.04188532 -0.54729813]
sub_nn_202.out.weight,[[-0.22874635  0.26117694 -0.38868797]]
sub_nn_202.out.bias,[0.24081422]
sub_nn_203.hidden.weight,[[-0.18372028 -0.523404  ] [-0.33072984 -0.28900325] [-0.1727549  -0.61605567]]
sub_nn_203.hidden.bias,[0.02559231 0.6118826  0.44115213]
sub_nn_203.out.weight,[[0.10168581 0.18630944 0.89045733]]
sub_nn_203.out.bias,[-0.5235583]
sub_nn_204.hidden.weight,[[-0.5991977  -0.60925525] [-0.16050865  1.1726992 ] [-0.32644907 -1.0421301 ]]
sub_nn_204.hidden.bias,[-0.5547019   0.5563973  -0.29837927]
sub_nn_204.out.weight,[[ 1.1744405  -0.11376103  0.5221707 ]]
sub_nn_204.out.bias,[0.5075377]
sub_nn_205.hidden.weight,[[ 0.41882852  2.2159016 ] [-0.64066404 -1.4385333 ] [ 0.6797611   0.37090513]]
sub_nn_205.hidden.bias,[0.32859093 0.11880819 0.54753846]
sub_nn_205.out.weight,[[ 0.53228444 -0.94701433  0.4835267 ]]
sub_nn_205.out.bias,[-0.47343832]
sub_nn_206.hidden.weight,[[ 0.07637608 -0.55554557] [-0.0642785   0.38527507] [ 0.26084036  0.22114888]]
sub_nn_206.hidden.bias,[0.60256666 0.17102082 0.31108743]
sub_nn_206.out.weight,[[-0.65242535 -0.8826795   0.6871062 ]]
sub_nn_206.out.bias,[-0.09165004]
sub_nn_207.hidden.weight,[[-0.60881793 -0.91183734] [ 0.6058817   0.37037557] [-0.70518106  0.21053857]]
sub_nn_207.hidden.bias,[-0.04394895  0.23018855  0.12123539]
sub_nn_207.out.weight,[[ 0.18702711  0.47424272 -0.6842459 ]]
sub_nn_207.out.bias,[-0.5061501]
sub_nn_208.hidden.weight,[[-0.3389874  -0.94463485] [-0.66690385  0.11237242] [ 0.36788943  0.2420475 ]]
sub_nn_208.hidden.bias,[-0.08508092 -0.29750496  0.34511894]
sub_nn_208.out.weight,[[0.5238938  0.31642264 1.0693641 ]]
sub_nn_208.out.bias,[-0.49548554]
sub_nn_209.hidden.weight,[[-0.35178608  0.21455519] [ 0.17776285  0.50957507] [ 0.28564036 -0.98991597]]
sub_nn_209.hidden.bias,[-0.11404488 -0.30409357  0.36963233]
sub_nn_209.out.weight,[[-0.36915615 -0.1301252   0.28862026]]
sub_nn_209.out.bias,[-0.5268161]
sub_nn_210.hidden.weight,[[ 1.3264112   0.89935446] [-0.68173736 -0.5995208 ] [-0.04204954  0.32835504]]
sub_nn_210.hidden.bias,[ 0.56680745  0.10920553 -0.3826713 ]
sub_nn_210.out.weight,[[0.8905121  0.32928148 0.89653426]]
sub_nn_210.out.bias,[0.00978458]
sub_nn_211.hidden.weight,[[-0.09765806 -0.57735413] [ 0.665054   -0.4289059 ] [ 0.5323317   0.08636414]]
sub_nn_211.hidden.bias,[-0.32936892 -0.08127426 -0.36298183]
sub_nn_211.out.weight,[[ 1.1017113   1.6848879  -0.36539748]]
sub_nn_211.out.bias,[-0.36782736]
sub_nn_212.hidden.weight,[[-0.55500734 -0.49683285] [-0.23658691  0.37440822] [-1.2933758   0.07023394]]
sub_nn_212.hidden.bias,[-0.47648132 -0.51357114  0.33239326]
sub_nn_212.out.weight,[[-0.4426528  0.7642115 -1.0291538]]
sub_nn_212.out.bias,[-0.35820836]
sub_nn_213.hidden.weight,[[-0.6377781   1.1111004 ] [ 0.9435164   0.8511728 ] [ 0.03135601  0.37805188]]
sub_nn_213.hidden.bias,[-0.4678951  -0.5951632  -0.63389623]
sub_nn_213.out.weight,[[ 0.26863444 -0.5546043  -0.02324292]]
sub_nn_213.out.bias,[-0.2001245]
sub_nn_214.hidden.weight,[[-0.09155316  0.44770628] [ 0.6485972  -0.66287386] [ 0.4218816  -0.00400144]]
sub_nn_214.hidden.bias,[-0.09136691 -0.6762314  -0.28895882]
sub_nn_214.out.weight,[[-0.6069359  0.3133702  0.4644743]]
sub_nn_214.out.bias,[-0.00095797]
sub_nn_215.hidden.weight,[[ 0.1809424 -1.164748 ] [-0.6951743 -0.9284318] [-0.5130578 -1.0888692]]
sub_nn_215.hidden.bias,[-0.70670176 -0.26576596  0.02163074]
sub_nn_215.out.weight,[[-0.53249186  0.15999703 -0.1453848 ]]
sub_nn_215.out.bias,[-0.27144796]
sub_nn_216.hidden.weight,[[-0.05700842  0.24565896] [-1.4011601  -0.56483775] [-0.29475048  0.19198956]]
sub_nn_216.hidden.bias,[0.6762592  0.09222588 0.30729514]
sub_nn_216.out.weight,[[ 0.9584831  -1.1479359   0.25396475]]
sub_nn_216.out.bias,[-0.34867942]
sub_nn_217.hidden.weight,[[ 0.12761723 -0.19295399] [-1.098586    0.19106513] [ 0.27076298 -0.54186726]]
sub_nn_217.hidden.bias,[-0.11657876  0.21239564  0.09837702]
sub_nn_217.out.weight,[[0.13028468 0.8776244  0.11258502]]
sub_nn_217.out.bias,[-0.06592011]
sub_nn_218.hidden.weight,[[ 0.467054   -0.30154544] [ 0.82556206 -0.323204  ] [ 0.16690846 -0.48484972]]
sub_nn_218.hidden.bias,[-0.40063918  0.30105495 -0.6247745 ]
sub_nn_218.out.weight,[[ 0.08999964 -0.9038367   0.03786541]]
sub_nn_218.out.bias,[0.52150095]
sub_nn_219.hidden.weight,[[ 0.11072937  0.43879238] [ 1.5671993  -0.00577374] [ 0.2577279  -0.1463864 ]]
sub_nn_219.hidden.bias,[0.22736895 0.05434165 0.32593584]
sub_nn_219.out.weight,[[-1.189695   -0.91587096  0.37331426]]
sub_nn_219.out.bias,[-0.20113549]
sub_nn_220.hidden.weight,[[-0.09512292  0.5569892 ] [-0.86382884 -0.8128582 ] [ 0.6834153   0.8297568 ]]
sub_nn_220.hidden.bias,[-0.31590497 -0.6118464   0.46791798]
sub_nn_220.out.weight,[[ 0.37309882 -0.43821606  0.52349913]]
sub_nn_220.out.bias,[0.33760148]
sub_nn_221.hidden.weight,[[-0.03495472  0.11809576] [ 1.473511    0.08066033] [ 1.9979153  -0.75411135]]
sub_nn_221.hidden.bias,[-0.40387622  0.68876415 -0.05976428]
sub_nn_221.out.weight,[[-0.05894947  0.1494329   0.17960991]]
sub_nn_221.out.bias,[-0.19417122]
sub_nn_222.hidden.weight,[[-0.37073582 -0.05044442] [ 0.14517285  0.17886372] [-0.19974448  0.84765446]]
sub_nn_222.hidden.bias,[-0.6269966  -0.31810728 -0.36694378]
sub_nn_222.out.weight,[[-1.1533861   0.33400062 -0.9185999 ]]
sub_nn_222.out.bias,[-0.4176745]
sub_nn_223.hidden.weight,[[-0.6792453  -0.51752996] [-0.9699693  -0.07641297] [ 0.6802239   0.05392801]]
sub_nn_223.hidden.bias,[0.1580531  0.03658376 0.12373781]
sub_nn_223.out.weight,[[-0.5031457  -0.56674725  0.2978756 ]]
sub_nn_223.out.bias,[0.3895263]
sub_nn_224.hidden.weight,[[ 0.8816844  -0.1317962 ] [-0.00614814 -0.08468574] [-0.49364987 -0.03392641]]
sub_nn_224.hidden.bias,[-0.39771616 -0.5053873   0.23265933]
sub_nn_224.out.weight,[[-1.5487522  -0.92626107  0.71199137]]
sub_nn_224.out.bias,[0.16143626]
sub_nn_225.hidden.weight,[[-0.1467118  -0.52867913] [-1.0161936   0.38148883] [ 0.580174   -0.07713465]]
sub_nn_225.hidden.bias,[-0.45314816 -0.33349854  0.46319613]
sub_nn_225.out.weight,[[ 0.63322496  0.8438667  -1.0414087 ]]
sub_nn_225.out.bias,[0.40768325]
sub_nn_226.hidden.weight,[[ 0.3945961  -0.87717724] [-0.72469395 -0.7400247 ] [ 0.6794573  -0.5167227 ]]
sub_nn_226.hidden.bias,[0.44089934 0.22129686 0.00755933]
sub_nn_226.out.weight,[[-0.7435531   1.6130364  -0.07141633]]
sub_nn_226.out.bias,[-0.2072387]
sub_nn_227.hidden.weight,[[ 0.53971374  0.35170528] [ 0.6400577   0.69450647] [ 0.3732633  -0.69508547]]
sub_nn_227.hidden.bias,[-0.11883634 -0.2575388  -0.27718255]
sub_nn_227.out.weight,[[ 0.05727265 -1.1216801  -0.6276024 ]]
sub_nn_227.out.bias,[0.11762178]
sub_nn_228.hidden.weight,[[ 0.08152583 -0.9202128 ] [ 0.14560066  0.23422462] [-0.6706956  -0.25090975]]
sub_nn_228.hidden.bias,[-0.682114    0.31975144  0.6540953 ]
sub_nn_228.out.weight,[[-0.50930196 -1.8808336  -0.25267985]]
sub_nn_228.out.bias,[-0.5513461]
sub_nn_229.hidden.weight,[[-0.01544515 -0.39348814] [ 0.26408347  1.3602408 ] [ 0.08763465  0.72319776]]
sub_nn_229.hidden.bias,[-0.41659707 -0.10149585  0.08264053]
sub_nn_229.out.weight,[[ 0.03968503 -0.5330082  -0.85193413]]
sub_nn_229.out.bias,[-0.08057216]
sub_nn_230.hidden.weight,[[ 0.1655583   0.2569477 ] [-0.8264549   0.511661  ] [ 0.67250735 -0.19743568]]
sub_nn_230.hidden.bias,[ 0.1482259  -0.12322178 -0.19857752]
sub_nn_230.out.weight,[[-1.0687399  1.5512338  1.6818191]]
sub_nn_230.out.bias,[-0.14080572]
sub_nn_231.hidden.weight,[[-0.34366363  0.23514763] [ 0.6143037  -0.39154184] [ 1.4959168   0.23970637]]
sub_nn_231.hidden.bias,[ 0.6696802  -0.22609939  0.08767742]
sub_nn_231.out.weight,[[ 1.3374975  -0.90044403  0.89699435]]
sub_nn_231.out.bias,[-0.17698935]
sub_nn_232.hidden.weight,[[ 0.5397412   1.2225541 ] [-0.03814643  0.11955311] [-0.36856648  0.11896317]]
sub_nn_232.hidden.bias,[ 0.3092168   0.20420256 -0.5045039 ]
sub_nn_232.out.weight,[[-0.09617309 -0.37516096 -0.3533584 ]]
sub_nn_232.out.bias,[0.12229133]
sub_nn_233.hidden.weight,[[ 0.5693488   0.44072562] [-0.18353046 -0.85630226] [ 0.7353947   1.4924558 ]]
sub_nn_233.hidden.bias,[0.13631648 0.36714953 0.684784  ]
sub_nn_233.out.weight,[[ 0.11290333 -0.00671885 -0.22635394]]
sub_nn_233.out.bias,[0.4711162]
sub_nn_234.hidden.weight,[[ 0.86027855  1.0446686 ] [-0.28126544 -0.06319182] [-0.45620403  0.40327275]]
sub_nn_234.hidden.bias,[ 0.6626558  -0.05857366 -0.1440653 ]
sub_nn_234.out.weight,[[ 0.0741505   0.33846653 -0.33133826]]
sub_nn_234.out.bias,[-0.5589224]
sub_nn_235.hidden.weight,[[-0.8100058  -0.12690833] [ 0.7809754  -1.1594975 ] [ 0.3321978   0.19147329]]
sub_nn_235.hidden.bias,[-0.2885798  -0.02707399 -0.23630993]
sub_nn_235.out.weight,[[ 1.4559311   0.01927761 -0.82487595]]
sub_nn_235.out.bias,[0.28193766]
sub_nn_236.hidden.weight,[[ 0.17375508  0.7661791 ] [-0.00497466 -0.5451615 ] [-0.5769694  -0.5689606 ]]
sub_nn_236.hidden.bias,[ 0.1735825  -0.09292406  0.46852916]
sub_nn_236.out.weight,[[ 1.2049108 -1.2561734  0.735045 ]]
sub_nn_236.out.bias,[0.16983163]
sub_nn_237.hidden.weight,[[-0.1388861   0.12325064] [-0.0119193  -0.80894345] [-0.09164418  0.46379474]]
sub_nn_237.hidden.bias,[0.28042287 0.4236396  0.04720514]
sub_nn_237.out.weight,[[-0.13801022  1.1215907  -0.40486512]]
sub_nn_237.out.bias,[0.3354938]
sub_nn_238.hidden.weight,[[-0.01074727 -0.5165487 ] [ 0.48675847 -0.2999871 ] [-0.06816367  0.17211321]]
sub_nn_238.hidden.bias,[-0.42321664 -0.17745376  0.14331034]
sub_nn_238.out.weight,[[ 0.27780306  0.49148566 -0.0284167 ]]
sub_nn_238.out.bias,[0.0972923]
sub_nn_239.hidden.weight,[[-0.17607078 -1.1197674 ] [ 0.9575938   0.54494375] [-0.48981708 -0.7762133 ]]
sub_nn_239.hidden.bias,[-0.02437615  0.27730298  0.24799503]
sub_nn_239.out.weight,[[-0.03406521 -1.541814    1.7256153 ]]
sub_nn_239.out.bias,[0.36988407]
sub_nn_240.hidden.weight,[[-0.2024898  -0.21958114] [-0.07592526 -0.0081473 ] [-0.17395978 -1.1575629 ]]
sub_nn_240.hidden.bias,[-0.24890831  0.50901204  0.6634307 ]
sub_nn_240.out.weight,[[-0.34907144 -0.92498636 -0.25500908]]
sub_nn_240.out.bias,[0.56541294]
sub_nn_241.hidden.weight,[[-0.20387013  0.5928631 ] [-1.0963472  -0.95265543] [ 1.1212916  -0.07343861]]
sub_nn_241.hidden.bias,[-0.0016597   0.1907177   0.21661393]
sub_nn_241.out.weight,[[-0.36930555  0.18165481  1.0825039 ]]
sub_nn_241.out.bias,[-0.27122182]
sub_nn_242.hidden.weight,[[ 0.35786238 -0.25081748] [-0.33534163  0.5844281 ] [-0.6271206  -0.80397695]]
sub_nn_242.hidden.bias,[-0.5734856   0.54093206  0.06350249]
sub_nn_242.out.weight,[[0.04091747 0.11079635 0.45877436]]
sub_nn_242.out.bias,[-0.3339595]
sub_nn_243.hidden.weight,[[-0.1229649  -0.26771304] [ 0.67810965 -0.3681481 ] [ 0.8263828   0.06528162]]
sub_nn_243.hidden.bias,[0.22371592 0.2968569  0.38573164]
sub_nn_243.out.weight,[[ 0.52119046 -0.1124337   0.33095628]]
sub_nn_243.out.bias,[-0.17631707]
sub_nn_244.hidden.weight,[[ 0.38854083 -0.20022695] [-0.43860546  0.8345169 ] [ 0.43251327 -0.68698484]]
sub_nn_244.hidden.bias,[-0.61138606 -0.4648905  -0.3943959 ]
sub_nn_244.out.weight,[[-0.13777661 -1.7829093  -1.998916  ]]
sub_nn_244.out.bias,[-0.5099633]
sub_nn_245.hidden.weight,[[-0.2711848  -0.6999847 ] [ 0.7620548   0.962154  ] [ 0.65910846 -0.17013995]]
sub_nn_245.hidden.bias,[0.6999497  0.48588544 0.47910368]
sub_nn_245.out.weight,[[ 0.4394554  -0.07916968 -0.47120947]]
sub_nn_245.out.bias,[0.31134266]
sub_nn_246.hidden.weight,[[-0.11886729  0.6330454 ] [ 0.22006345 -0.52565444] [ 0.26506835 -0.6766267 ]]
sub_nn_246.hidden.bias,[ 0.03403034 -0.46972418 -0.20050001]
sub_nn_246.out.weight,[[ 0.6309633  -0.3779542  -0.16303927]]
sub_nn_246.out.bias,[-0.30647057]
sub_nn_247.hidden.weight,[[-0.15747833 -0.04879471] [-0.22042315 -1.1144327 ] [ 0.5841916  -1.7682258 ]]
sub_nn_247.hidden.bias,[ 0.4513382  -0.5992465   0.25406384]
sub_nn_247.out.weight,[[-0.17533271  0.16754851 -0.7224806 ]]
sub_nn_247.out.bias,[-0.19686562]
sub_nn_248.hidden.weight,[[ 0.16905482  0.13884719] [ 0.5879038   0.38967568] [-0.8989561   0.64127076]]
sub_nn_248.hidden.bias,[ 0.5660842  -0.5538376  -0.64973587]
sub_nn_248.out.weight,[[ 0.97435296 -0.6372904   0.36435154]]
sub_nn_248.out.bias,[0.00196493]
sub_nn_249.hidden.weight,[[-0.03017518  0.58080983] [-0.78935456  1.0849471 ] [ 1.2061512  -1.8684525 ]]
sub_nn_249.hidden.bias,[-0.30829203  0.12198309 -0.56409526]
sub_nn_249.out.weight,[[ 0.07693703 -1.2101823   0.0752117 ]]
sub_nn_249.out.bias,[0.05480117]
sub_nn_250.hidden.weight,[[ 0.36562875  0.35014877] [-0.39316952 -0.65284145] [ 1.0687095  -0.38643986]]
sub_nn_250.hidden.bias,[ 0.6210336  -0.48496878 -0.3819363 ]
sub_nn_250.out.weight,[[ 0.66099113 -0.21976054 -0.00922723]]
sub_nn_250.out.bias,[0.4559164]
sub_nn_251.hidden.weight,[[-0.65901375  0.31536734] [-0.7924653  -1.0958586 ] [ 0.64673513 -0.40988496]]
sub_nn_251.hidden.bias,[-0.2477983   0.520758    0.38305533]
sub_nn_251.out.weight,[[ 0.11542829 -0.12572156  0.59390414]]
sub_nn_251.out.bias,[-0.36711937]
sub_nn_252.hidden.weight,[[ 0.2828585   0.6554085 ] [-0.25445035  0.14522907] [-0.46640506 -0.6748068 ]]
sub_nn_252.hidden.bias,[0.20763814 0.6708749  0.457079  ]
sub_nn_252.out.weight,[[-0.09314506  0.7560361  -0.9255775 ]]
sub_nn_252.out.bias,[0.179209]
sub_nn_253.hidden.weight,[[-0.17791726 -1.0764123 ] [ 0.32379702 -0.11451939] [-0.31520507  0.947747  ]]
sub_nn_253.hidden.bias,[ 0.6513229  -0.52551866  0.6129914 ]
sub_nn_253.out.weight,[[1.0565306  0.08549165 2.2919948 ]]
sub_nn_253.out.bias,[-0.04519057]
sub_nn_254.hidden.weight,[[ 0.14538203 -1.231236  ] [ 0.01808433  0.19913837] [ 0.18101367  0.9522096 ]]
sub_nn_254.hidden.bias,[-0.47409472 -0.7035707  -0.12640816]
sub_nn_254.out.weight,[[-0.8549205   0.06086582 -0.8978012 ]]
sub_nn_254.out.bias,[-0.0892967]
sub_nn_255.hidden.weight,[[ 0.9356068  -0.39250022] [ 0.22804311 -0.17453514] [-0.9911033  -0.49947733]]
sub_nn_255.hidden.bias,[ 0.1534761  -0.10793901  0.25566742]
sub_nn_255.out.weight,[[-0.10205532  0.85234594  0.13489729]]
sub_nn_255.out.bias,[0.2526343]
sub_nn_256.hidden.weight,[[-0.09800266 -0.44182158] [ 0.98239225  0.9589746 ] [ 1.6153495  -0.22454579]]
sub_nn_256.hidden.bias,[-0.64201325 -0.17708284  0.40537688]
sub_nn_256.out.weight,[[-0.6194992  -0.15794949  0.6941059 ]]
sub_nn_256.out.bias,[-0.39170665]
sub_nn_257.hidden.weight,[[ 0.08636288 -0.0980184 ] [ 0.6189707   0.04350153] [ 0.23482125  0.66687274]]
sub_nn_257.hidden.bias,[-0.24594694  0.3703919   0.16580307]
sub_nn_257.out.weight,[[ 0.10069271  0.8094095  -0.2513126 ]]
sub_nn_257.out.bias,[0.12028491]
sub_nn_258.hidden.weight,[[-0.7994898  -0.37544918] [-1.0976105  -0.8790342 ] [-0.21541177 -0.5787739 ]]
sub_nn_258.hidden.bias,[0.35763764 0.5083428  0.47622177]
sub_nn_258.out.weight,[[-0.6261229  -0.2814786  -0.72640395]]
sub_nn_258.out.bias,[0.17939655]
sub_nn_259.hidden.weight,[[ 0.41345802 -0.30032697] [-0.91498744  0.717593  ] [ 0.72283155  0.34840795]]
sub_nn_259.hidden.bias,[-0.46136782 -0.03684464  0.1194852 ]
sub_nn_259.out.weight,[[-0.1813248  -0.811912    0.39497226]]
sub_nn_259.out.bias,[-0.10800046]
sub_nn_260.hidden.weight,[[-0.08333179 -0.08819715] [-0.2736859   0.00716024] [ 0.11604289  1.068847  ]]
sub_nn_260.hidden.bias,[0.42769933 0.29389593 0.2038377 ]
sub_nn_260.out.weight,[[-0.15004912 -1.4118949   0.5503991 ]]
sub_nn_260.out.bias,[-0.20708612]
sub_nn_261.hidden.weight,[[ 0.50161135 -0.08258261] [-0.9409191  -0.81520844] [-0.33507648 -0.1600304 ]]
sub_nn_261.hidden.bias,[ 0.6144617   0.12591134 -0.34802946]
sub_nn_261.out.weight,[[-0.3756731  0.2025593  1.948457 ]]
sub_nn_261.out.bias,[-0.03715813]
sub_nn_262.hidden.weight,[[-0.26277876 -0.98957294] [-0.43368044  0.13408329] [ 0.11973833  0.3795649 ]]
sub_nn_262.hidden.bias,[0.649773   0.43645838 0.31722015]
sub_nn_262.out.weight,[[ 0.69638276  0.860346   -1.9625548 ]]
sub_nn_262.out.bias,[-0.21932751]
sub_nn_263.hidden.weight,[[-0.38436103  0.46963972] [ 0.8047178  -1.368063  ] [-0.01135904 -0.42523685]]
sub_nn_263.hidden.bias,[ 0.4330741  -0.47635725  0.18901649]
sub_nn_263.out.weight,[[1.0904723 0.8159889 0.3933989]]
sub_nn_263.out.bias,[-0.08069924]
sub_nn_264.hidden.weight,[[-1.3119562   0.16416553] [ 0.36154652 -0.5615144 ] [ 1.0765468  -1.1014389 ]]
sub_nn_264.hidden.bias,[-0.0327947   0.34443605 -0.6025022 ]
sub_nn_264.out.weight,[[0.44075662 0.66612005 0.7981526 ]]
