w,[ 0.3967775   0.06502585 -0.03314447  0.15416338  0.4782956   0.47861156  0.6500816 ]
w_ng,[0.16000864 0.07535652 0.3292602  0.43851885 0.29435965]
hidden1.weight,[[ 0.08832751  0.01634314  0.0898655  ...  0.00370833  0.02196712   0.00890153] [-0.03883418 -0.01221137  0.00126935 ...  0.03887473 -0.07474055   0.02051841] [ 0.03708968  0.03713229 -0.02088381 ...  0.0308814   0.04479257   0.1002024 ] ... [-0.03924052 -0.08002912 -0.05432825 ...  0.04817784  0.02134654   0.00098496] [ 0.00662669 -0.0393245   0.06099502 ...  0.03096658 -0.08331031  -0.0281036 ] [-0.01937942 -0.11842086  0.0775675  ... -0.05785457  0.04724438   0.01315983]]
hidden1.bias,[ 2.38533821e-02  1.01016983e-02  4.93441820e-02 -9.92666092e-03 -1.32347289e-02 -3.40685919e-02  3.62518914e-02  9.52750817e-03  2.48231757e-02  3.44574638e-02  1.78722444e-03  3.42603512e-02 -3.75264958e-02 -3.86807546e-02  2.66506299e-02 -3.35495546e-02 -2.82465853e-02  1.65349711e-02 -1.23020643e-02  3.44069749e-02 -1.83637887e-02 -1.68162268e-02 -3.90058174e-03 -3.62408422e-02 -3.90732773e-02 -2.14379393e-02 -3.96125242e-02 -1.26460465e-02 -9.20797046e-03  4.55560796e-02  7.66952336e-03  1.79853439e-02  4.62826341e-02  2.54335534e-02 -3.54896225e-02 -2.82090064e-02 -1.12342406e-02  3.14490423e-02 -1.10976701e-03  3.20272818e-02 -8.20533931e-03 -7.24180136e-03  1.88256297e-02  4.34878431e-02  2.02929117e-02  4.09590872e-03  1.20287295e-02  3.36950347e-02  1.97944348e-03 -8.27767607e-03 -4.58777556e-03 -5.35087697e-02  2.82044448e-02  4.10021693e-02 -3.33494842e-02 -2.25950107e-02 -6.24600565e-03 -4.78247441e-02  1.03634200e-03 -2.28117872e-02 -3.70729379e-02  1.87892616e-02 -4.72036302e-02  9.37546417e-03  1.30767850e-02 -6.38279272e-03  3.32506746e-02  1.41646788e-02  1.79153922e-05  8.97771213e-04  3.05780265e-02  3.94920483e-02 -7.92035647e-03 -1.21203326e-02  9.42868832e-03 -4.29467708e-02  3.37427892e-02  1.73689052e-02 -3.54598463e-02 -3.78800407e-02  4.39915247e-02 -4.27677333e-02  2.53606178e-02 -4.57790457e-02  1.47554735e-02  4.40897197e-02  5.71133243e-03  1.29492609e-02 -1.30276326e-02 -9.07706469e-03  1.62625723e-02 -2.50604935e-03  1.93107650e-02  2.14537270e-02 -4.81283478e-02  4.55829874e-02  4.13196087e-02  2.55270172e-02  2.23076940e-02 -4.15590554e-02 -2.33921260e-02  1.31725296e-02 -4.35201675e-02 -2.59536831e-03 -2.39638686e-02 -4.01673019e-02  4.06026021e-02  3.91825512e-02  4.57838029e-02  1.77606177e-02 -4.82408069e-02  4.27400768e-02 -5.08567225e-03 -2.89675463e-02  1.16928816e-02  5.13001159e-02  4.99009192e-02 -4.81249858e-03  5.23149967e-02  2.34127101e-02 -8.46564863e-03  4.08902057e-02  1.47418249e-02 -1.69220213e-02  1.13540571e-02 -2.81945523e-02 -1.51566900e-02 -5.08972667e-02  5.14718778e-02  4.79938928e-03 -5.01917675e-02 -2.61700973e-02  4.86354530e-02  2.16982942e-02  5.09962589e-02  4.00686599e-02  5.33428276e-03  1.52468402e-02  9.18213464e-03  1.69467907e-02  2.95382999e-02  2.18314137e-02 -1.07258437e-02  1.70055497e-02  5.41612543e-02 -3.37097906e-02  4.76352386e-02  2.22199503e-02  1.83236208e-02  1.08756348e-02 -3.37060280e-02  7.86148384e-03  4.08932790e-02 -2.73135882e-02 -3.02303936e-02  1.01819448e-02 -1.88638717e-02  2.30748784e-02 -4.62054163e-02 -1.86036248e-02  7.50855915e-03 -1.51049774e-02 -4.04513516e-02 -3.33812945e-02  1.38224792e-02  2.03268155e-02  1.55847473e-02 -5.59238251e-03 -3.07111870e-02 -2.62759887e-02  2.67348047e-02  3.42203975e-02  1.74078234e-02 -2.81671360e-02 -2.19281297e-02  2.10481826e-02 -5.12662120e-02  3.72918658e-02  3.83737199e-02 -2.54569054e-02  1.19818645e-02 -3.67323793e-02  4.58463579e-02  3.03337933e-04  1.47887813e-02 -2.87014786e-02 -2.31092926e-02 -1.80689078e-02  3.53841074e-02 -4.39996496e-02  2.51105092e-02  2.02070102e-02  4.91510965e-02  3.97924967e-02 -6.64542615e-03  3.91754061e-02  9.65778437e-03  2.36794283e-03 -4.08376567e-02 -3.75939123e-02  3.39639187e-02 -2.10459866e-02 -2.27986164e-02 -2.76523139e-02  4.35118563e-02  4.64322641e-02  2.31475607e-02  1.32353269e-02  8.37270450e-03  1.00423424e-02  2.27399338e-02 -3.35670030e-03  3.83979976e-02 -3.15880552e-02 -1.87556949e-02  3.76649126e-02  7.69716315e-03  4.88768443e-02  1.59516465e-02  3.50683145e-02 -8.60661641e-03  3.65833342e-02 -2.06215661e-02 -1.13268048e-02 -2.14834567e-02  3.91717963e-02 -1.71923991e-02 -4.25767377e-02  1.84201337e-02  1.51146417e-02 -8.05095653e-04 -1.49030741e-02 -3.00296880e-02  4.50953841e-02  5.13333194e-02  1.55894039e-02  3.64674255e-02  8.69606808e-03 -4.83372808e-03 -3.63111980e-02 -3.80758867e-02  4.36770618e-02 -4.37583849e-02  2.08750106e-02  4.32747789e-03 -8.91894379e-05  2.56209895e-02 -2.60803178e-02  2.44926214e-02  2.01019198e-02 -4.55456823e-02 -2.64990213e-03 -4.15968783e-02  2.14454196e-02 -3.97679545e-02 -4.40134779e-02  9.02279571e-04  4.82792817e-02 -1.98242124e-02  2.02885596e-03 -1.51836202e-02  3.59544568e-02 -2.88504623e-02 -2.33451724e-02  2.27952972e-02  1.35552995e-02  3.46328281e-02  2.30455697e-02 -5.14882803e-02  1.66274104e-02  3.81961931e-04  3.56923006e-02 -4.96069826e-02  3.11294198e-02  1.34655563e-02 -4.61106859e-02 -3.36249135e-02  2.89976113e-02 -4.82600890e-02  1.25881908e-02 -3.95284817e-02 -2.95877773e-02  5.19824512e-02  1.28219863e-02 -1.89312939e-02  1.80481952e-02  4.03005928e-02 -2.03346424e-02  3.82473990e-02 -2.34827586e-02 -7.21593900e-03 -1.00964746e-02 -4.87850308e-02  1.82088558e-02 -1.43165058e-02 -5.39989909e-03 -1.73870474e-02  4.15731743e-02  3.91013660e-02 -5.49968481e-02  4.94977869e-02  1.44938827e-02  2.10112352e-02 -3.02499216e-02 -1.70529131e-02 -4.86002828e-04  4.65766378e-02  9.74932779e-03  2.65875203e-03  3.08209881e-02 -1.11924307e-02  5.06368726e-02  1.26000401e-02 -2.85789687e-02  2.83406395e-02 -4.33926471e-02 -4.64494303e-02  3.65599506e-02  4.67695557e-02 -2.18300149e-02  1.96519196e-02  3.44860591e-02 -3.83439548e-02  1.79436319e-02  3.65300514e-02  3.61886807e-02 -5.54360263e-03  1.33827543e-02  2.81246100e-02 -3.07919085e-02  3.53248417e-02  1.19427945e-02  1.57730486e-02  4.43021730e-02 -4.30457629e-02  2.75284275e-02 -3.59804705e-02  4.24780361e-02 -5.32451607e-02  2.91062966e-02 -2.60070581e-02  9.63625591e-03 -1.30597688e-02 -4.91750520e-03 -4.69324403e-02 -4.94094826e-02  2.92231571e-02 -4.11096998e-02  3.64538580e-02  7.56879628e-04 -3.54405716e-02  9.93702840e-03 -3.73920426e-02  4.92122918e-02  1.95285864e-02  1.12018194e-02  1.83014963e-02 -2.76601333e-02  2.41252594e-02 -4.66592386e-02 -1.83381848e-02  4.31552194e-02 -4.66159359e-02 -4.40193191e-02 -5.13708219e-03 -4.29885350e-02  1.89531520e-02 -4.14106511e-02 -3.84605513e-03 -3.83834448e-03  2.70354543e-02 -9.00742412e-03 -1.52389635e-03  2.01382916e-02  3.86747792e-02  3.31130647e-03 -1.44597730e-02 -4.57346849e-02  3.43048461e-02  4.92333574e-03  2.61849631e-02 -1.80973876e-02  1.71839576e-02 -1.11436443e-02  3.69006470e-02 -2.95440517e-02 -1.10233929e-02 -3.98727134e-02  4.82079685e-02  1.07074727e-03  1.77353360e-02  1.76767390e-02  2.76888460e-02  3.60016786e-02  3.23995389e-02  4.47400846e-02  1.70412380e-03  3.43571976e-02  1.27318809e-02  9.77623928e-03]
hidden2.weight,[[ 0.04983374 -0.05302358 -0.03435892 ...  0.05213541  0.04789814  -0.0195401 ] [ 0.0203575   0.00327146 -0.0704545  ... -0.04448736  0.07246981   0.00762229] [-0.08661413 -0.13346924  0.04414405 ... -0.03634298 -0.01993508  -0.08047146] ... [-0.01376517 -0.04975931  0.12421748 ... -0.02250666 -0.05718927   0.0180908 ] [-0.09942215  0.00296249 -0.02187694 ... -0.03391949  0.05225083   0.13029866] [ 0.08450455  0.0223337   0.02057453 ... -0.10843378 -0.02066681  -0.12246174]]
hidden2.bias,[ 0.04524546  0.03707977  0.03040656 -0.01735699 -0.03309987 -0.01022854  0.03017552 -0.01342892 -0.01545752 -0.01744405 -0.01006707  0.0040626 -0.01597313 -0.03198538  0.04519259  0.01304528  0.04796774 -0.0562104  0.01412396  0.00536089  0.01686549 -0.01939304  0.01723305  0.04925818  0.00970698  0.04026578  0.00836445 -0.05358249  0.04116278  0.00527558 -0.0567841  -0.04577236  0.010139    0.00723881  0.03639466  0.03423909  0.03954208  0.01085868 -0.03360795 -0.04769212]
out.weight,[[ 0.05190842  0.37047467  0.01224837 -0.38226932 -0.06974033 -0.08040398  -0.06690538  0.15151487  0.0398001   0.02188922  0.12015308 -0.33804357  -0.15239869  0.01255309  0.11702907  0.00870044 -0.02040045  0.09237063  -0.00114364 -0.2168233  -0.07348245  0.26616538 -0.23552483 -0.1288112  -0.38635418  0.15470979 -0.2583715  -0.22733201  0.12707949 -0.18402581   0.19142406  0.21536565 -0.15544029  0.13438651  0.22188689  0.1107148   0.08192624  0.25355753  0.02580424  0.06567544] [-0.38083494  0.0071369  -0.18395269 -0.09718185 -0.07953583  0.26602077  -0.13221133  0.05081766  0.1425342   0.1217107  -0.40409133 -0.14598703  -0.39140585  0.00434959  0.22250158  0.0020016  -0.38793197 -0.01243731   0.10127627  0.2024677  -0.15344036 -0.0513333  -0.23323224 -0.23416257  -0.07489761  0.04619899 -0.12762587 -0.44407335  0.1245575   0.22375949   0.35343602  0.23632063  0.31647074  0.2543137  -0.08495586 -0.21617277  -0.17813167 -0.18291998  0.07059402  0.2795587 ] [-0.09881827  0.21349627  0.06995029 -0.00324124 -0.4495853  -0.3521598  -0.414444    0.04636976  0.02565379  0.18025446 -0.12580296 -0.29164782  -0.14006062  0.07772999  0.11642411 -0.27869013 -0.18750271  0.09939542   0.12181336 -0.18016835  0.10170736  0.06607644 -0.04939768 -0.17566091  -0.0656933   0.01268515 -0.04129334 -0.20036022  0.10610958 -0.3634468  -0.27066702  0.16022275  0.1088066  -0.03255481  0.05732395  0.23505595   0.02626913 -0.17203207  0.03538928  0.27905643] [ 0.4241407   0.42334494 -0.17956309  0.16544396 -0.22685528  0.00944781  -0.32720312  0.13701302  0.1261036  -0.03163589  0.3118018   0.5242898   0.1326026   0.34763455 -0.13334064  0.09082528 -0.12181815 -0.06568524  -0.347997   -0.14138433 -0.17135285 -0.04176911 -0.25764176 -0.04965806  -0.2991778  -0.01060784 -0.20765382 -0.12259309 -0.06429321 -0.0961064   0.10304834 -0.28221783 -0.26958638 -0.11622025  0.40379947 -0.11712533  -0.10629217  0.13019337  0.17355058 -0.10746664] [-0.6009223   0.12818217  0.43422255  0.0308977  -0.14416178  0.0588502   0.05078907 -0.06515446  0.07938692 -0.20329858  0.18545642  0.08840404   0.22507854 -0.19312389 -0.02439726  0.1730078  -0.2436165   0.11446588  -0.0570867   0.13507122 -0.05795358 -0.13656795  0.05406703  0.01309454  -0.11027564  0.16357866  0.11527845 -0.20810749  0.28075612 -0.12560019   0.26202068  0.05229954  0.48731497  0.46364674 -0.07971463 -0.12559207  -0.1937557   0.06656329  0.41414264 -0.18112879] [-0.1139894  -0.21082579 -0.06131998  0.10552576  0.6366171  -0.27924743   0.01118075  0.46564764  0.18389824 -0.32308877 -0.25463986  0.28925586   0.12214869  0.19525367 -0.34007505 -0.08025872 -0.04321825  0.2981618  -0.07849402  0.26499188 -0.02608544 -0.0217278   0.15352054 -0.14607896  -0.29976937 -0.23566082 -0.2159954  -0.4134586   0.0593118   0.47689512  -0.19758329  0.0526496  -0.08472072  0.10606594 -0.2624496  -0.07113717   0.04081546  0.1979472  -0.09334204 -0.0358633 ] [ 0.04313795 -0.07976692 -0.09098843 -0.14204347 -0.16498388 -0.15078585   0.0959557  -0.16283505 -0.02388449 -0.01327302 -0.02071979 -0.3675909  -0.1425004   0.15211794  0.14290805 -0.1722895  -0.20851889  0.2185817   0.21159479  0.03549394 -0.2302215   0.06620586 -0.04088942 -0.07790458   0.0953023   0.11794227 -0.18768361  0.21973833 -0.24715048 -0.11894651   0.10260752 -0.2569957  -0.49069837  0.17357033  0.17472173  0.10418656  -0.07226917 -0.37162274 -0.066178    0.17687795]]
out.bias,[0.00364254 0.11263652 0.05850533 0.09498853 0.03509204 0.05850951 0.02507858]
bn0.weight,[0.99969244 0.99748904 0.9988575  1.0023922  0.9989311  0.9977717 0.99051684 1.0006526  0.9974568  1.0023667  0.99565244 1.0016426 1.0018361  1.0031548  1.0013058  0.9984728  1.0045282  0.9925617 1.0002106  0.9986504  0.9970608  1.000637   0.9987632  0.9975251 1.0016373  0.9960301  0.99714935 1.0023658  0.9997574  0.9974118 0.999115   0.985333   0.9961564  1.0019901  0.9971349  0.9978033 1.0015687  1.0012021  0.99417967 0.99641806 0.9996463  0.997448 0.9961254  1.006386   0.99654084 1.0059547  1.0073828  0.99955404 0.9966037  0.99354696 1.0022134  0.99599636 0.99630225 0.9985959 0.9984481  0.99928224 0.9996576  0.9998031  0.9976666  0.9970822 0.99801296 0.9936447  0.99788356 0.99767435 1.0028644  0.9938909 0.9990701  0.9986764  0.9984244  0.9934517  1.0025706  1.0006015 0.9995634  1.0004088  1.0002695  1.0065584  0.9965954  0.992609 0.99961793 0.9994475  0.9998822  0.9987745  0.9941946  1.0015024 0.9969051  0.9960534  0.99243706 0.99362826 0.9963793  0.9984582 0.9951842  0.9944777  1.0023575  0.99279183 0.9975755  0.99754375 0.9961261  1.0036641  1.0021099  0.9987804  0.994282   0.9922121 0.99727595 0.99817026 0.9993825  0.9993206  0.9999512  1.00071 0.9981644  1.0010035  0.9981854  0.99457145 0.9953565  1.0042734 0.99894756 0.99793273 0.99835396 0.9971291  0.9999921  0.9971366 0.9951325  0.9992017  0.9972153  0.9996551  0.9988405  0.9982271 0.99820733 1.0003569  0.99910474 1.0004021  1.0014349  0.99893224 1.0005566  1.0009184  1.0026397  1.0003967  0.99881995 1.0020342 0.99918175 0.99716854 1.0010223  1.0008311  1.000212   0.998604 0.99792963 1.0022979  1.0011516  0.9995728  0.9992035  1.0000314 0.99966013 0.9988697  1.0009539  0.999074   0.9994583  0.9992549 0.998809   0.99994916 0.99998516 0.9965724  0.9985552  1.0003155 1.0023495  0.9962173  1.0010935  1.0001178  1.0014747  0.993616 0.9963215  1.0020071  1.003483   0.99173594 0.99980986 0.9971979 0.9931545  0.99358606 0.9971176  0.99866676 0.99828404 0.99453485 0.99555373 0.99880457 0.9931171  0.99771965 1.001277   0.99674255 0.9961785  0.99611723 0.99912775 0.99728906 1.0016415  0.99795574 0.99749905 0.99751616 1.0000798  1.0013108  1.0019907  0.9996145 1.00016    0.9997445  0.9993155  0.99803233 0.99939674 0.9984821 0.99868375 1.001035   1.0012317  0.9969006  0.9972003  1.003502 0.9987978  0.9957123  0.99820685 0.99463016 1.0004939  0.99277157 0.99826056 0.9979366  0.9983116  0.99585354 1.0021935  0.992397 1.0008309  0.99991745 1.0026206  0.99912125 0.9977749  1.0010281 1.0036911  0.9992642  1.0013834  1.00087    1.0019103  0.9968751 0.9960226  1.0044893  0.99958915 1.0000877  0.9961166  1.0003893 0.99894136 1.0014913  0.9987634  1.0036416  0.9932008  1.0007238 0.9944339  1.0001715  1.0046954  1.0004144  0.99594706 1.0011449 1.0007886  0.9972479  0.9987705  1.0024294  0.99714935 0.9994453 0.99958265 0.9998234  0.9985012  0.99880975 0.9999744  1.0013565 1.0008627  0.9977366  0.99940085 1.0003587  0.99785006 1.0021466 1.0001329  0.9973785  1.0004098  0.9992939  1.0068648  0.9943074 0.99956334 0.99673957 1.0013697  0.9913762  0.9950381  0.9953628 0.99007726 1.0007393  1.0020477  1.0038065  0.9953833  1.0012976 0.9971232  0.9887792  0.99748343 1.0050861  1.0004708  0.9971112 0.99087095 0.99324465 1.0038707  0.99977773 0.99137473 0.9996391 0.99865437 0.99237716 1.0030657  1.0068269  0.99843717 0.98984563 0.9992041  0.99905545 1.0036054  1.0032027  0.9941097  1.0011454 0.99519694 1.0005041  1.00029    0.9922174  0.99967223 0.9984887 1.0034218  0.99959195 0.99204916 0.99323636 1.0005753  0.98797387 1.0021551  0.99974895 1.0011212  0.99997365 1.0011858  0.9958849 1.0009348  0.99142337 0.998744   0.99873555 0.99838376 1.0034496 0.9936897  0.99424285 0.9998825  0.99543875 1.0008473  0.9969358 0.9961349  0.9999186  1.0002604  0.9981814  0.9998461  1.0036085 0.99176186 1.0001839  0.9993466  1.0016594  0.9965758 ]
bn0.bias,[-2.9674424e-03 -7.5562199e-04 -1.3270960e-03 -4.9177385e-03 -9.6119457e-04  9.8968961e-04 -7.1159247e-03 -3.0196234e-04  4.1921489e-04  2.9158324e-03  1.9880685e-03  2.5466693e-04  8.9942751e-04  1.8997100e-04  8.8134944e-04 -2.3815527e-03 -4.3372875e-03 -5.3000618e-03  3.8898882e-04  5.3250277e-04 -1.0869913e-03 -2.9504562e-03  1.6699347e-03  2.9347416e-03  2.1140942e-04 -2.2882340e-03  1.0534581e-03  8.0682110e-04 -2.1700226e-03  5.2339500e-03 -4.1481922e-03 -9.4009219e-03  1.5227876e-03 -9.3591720e-04 -2.0020839e-03 -1.5194651e-03 -3.2991862e-03 -1.1394111e-03 -5.1761032e-03  2.0272441e-03 -7.1788654e-03 -2.0472715e-03  3.7777934e-03  2.8300497e-03 -1.4988669e-03  5.1407833e-03  3.8719459e-03  2.0542659e-03 -1.6626524e-03 -3.7125829e-03  1.2167185e-03  3.5565647e-03 -1.9519959e-03  2.0712633e-03 -2.8287503e-04  2.2685621e-03 -4.8714513e-03  1.2635925e-03 -3.6657557e-03  2.8167095e-03 -1.5536688e-03 -3.3006829e-03 -5.3680171e-03  3.4075940e-03 -1.1451195e-03 -1.5156610e-03 -2.0121599e-03 -4.5015346e-03  1.8800889e-03 -4.3757106e-03  2.3388108e-03 -6.8861432e-04 -1.2749954e-03 -1.9210090e-03 -4.7436092e-04 -6.8219253e-03  2.7051226e-03  5.1135728e-03 -2.6809177e-03  9.8248851e-04  1.6976530e-03 -2.0733086e-04 -3.4997409e-04 -2.1183102e-03 -3.0347297e-03 -4.3186271e-03 -5.1500024e-03 -3.5992430e-03  3.3716504e-03  1.2845624e-03 -2.5403644e-03 -3.7209310e-03 -2.5175405e-03  3.6695183e-03 -1.9905251e-03  2.3339079e-03  6.0654050e-03  2.5012339e-03  1.3108016e-03 -1.8086273e-03  4.0108953e-03 -4.8174686e-03 -5.1182928e-04  4.9313821e-04 -1.4381277e-03 -6.7658647e-04  6.7827380e-03  1.2274635e-03  3.8588897e-04 -6.0198532e-04  1.9754469e-03  5.3551951e-03  4.6092221e-03  2.3886380e-03 -3.8750719e-03 -3.8525304e-03 -2.3884326e-03  3.7092185e-03 -2.4314462e-04  9.0281856e-07 -3.6407318e-03 -2.6653016e-03  2.1234935e-03  3.8654050e-03  1.4321894e-03  5.1802828e-04  7.3468883e-04 -6.8836776e-04 -9.5466786e-04 -3.4062137e-04  2.8945853e-03 -3.5833877e-03 -1.6491493e-03 -1.4394243e-03  4.6704669e-04  2.6652354e-03  3.2970652e-03  2.2860798e-03 -2.0043608e-03 -8.4440433e-04 -2.1212371e-03  7.5419963e-04 -2.8692355e-04 -2.9049653e-03  2.4698942e-03 -6.4650490e-03  4.2820033e-03 -2.6531075e-03  1.2652383e-03 -2.2988676e-04  3.8630250e-03 -3.1499625e-03  8.6638196e-05 -1.8685169e-03 -2.9183684e-03  2.3143771e-03 -8.8217581e-04  3.8332311e-03 -2.3932634e-03  4.1094306e-03  6.0220825e-04 -1.2111901e-03 -7.0006523e-04  5.3421110e-03 -6.9886853e-04  1.1887206e-03 -1.6340574e-03 -4.6146512e-03  6.1785849e-03  1.1708788e-03 -6.5948330e-03 -6.9420785e-03  6.1274582e-04 -2.3404441e-03 -4.5466037e-03  5.7191118e-03  2.7199367e-03  1.6171488e-03  1.2933996e-03 -6.2532141e-03  3.3218318e-03 -1.9396888e-03  7.8297649e-03  4.6557793e-03 -3.3122109e-04 -3.2095918e-03  4.5118504e-03  2.7828799e-03 -3.2103038e-04 -4.2171855e-03  1.2880877e-04 -9.8584441e-04 -1.0619356e-03 -3.7968205e-03 -1.7646750e-03  3.3510001e-03  2.4826275e-03  1.3231987e-03 -3.2207598e-03 -3.1532304e-04 -2.1374633e-03 -4.3207738e-03 -4.0922174e-03 -5.3481590e-03  1.8165603e-03  2.8101253e-04 -3.9084549e-03  1.2937771e-03  3.7968718e-03 -1.3174464e-03  1.7351125e-03  2.6290645e-03  3.2500079e-04 -3.3181801e-03  1.1956190e-03 -6.3699628e-03 -4.4775559e-03  2.0743867e-03  1.4897616e-04 -2.7826543e-03 -3.5854576e-03  6.1530950e-03 -3.6881242e-03  1.0675213e-04 -1.6106491e-04 -1.6045076e-03  6.3692132e-04  3.0759300e-05  2.3103678e-03 -2.6543357e-03 -7.8199559e-04  4.1113820e-04 -2.6744961e-05 -1.9814698e-03  1.9806772e-03  5.3076227e-03  2.6511748e-03 -2.4437727e-03  3.2693159e-03  2.3879148e-03  1.6738103e-03  2.2686305e-03  4.0064234e-04 -2.8636497e-03 -5.7766456e-03  9.1830187e-04 -5.6738253e-03 -1.1505306e-03  3.4665663e-03  2.3566710e-03  2.2649986e-03  6.5194484e-04  1.4107467e-03  1.6958573e-03 -1.1619221e-03 -3.2342726e-03  7.6049485e-04 -1.4390487e-03 -2.8683692e-03 -2.0112866e-03  1.5766144e-04  6.9809443e-04  3.5462852e-03  1.4414917e-03 -1.1517099e-03  9.1397512e-04  7.7533259e-05  1.4973690e-03 -7.8167295e-04 -3.2561126e-03  5.5276474e-04  1.3244285e-03 -8.6134666e-04  6.6138152e-03  5.6884526e-03 -4.4994843e-03  1.4073973e-03  1.4092799e-03  1.9994818e-03  5.3478265e-03 -3.8524319e-03 -1.6961363e-03 -6.4741690e-03 -1.2155896e-03 -2.2644077e-03  3.6632374e-03 -3.4457624e-03 -2.1992191e-03 -3.0018564e-03 -8.0184694e-03 -9.7494241e-04  4.3486194e-03 -1.2603994e-03 -1.0390549e-03 -4.2589661e-03  5.4941871e-03  5.5685099e-03  2.1495884e-03  6.5071937e-03  1.6556806e-03  1.9694146e-04 -4.6125315e-03 -2.4686386e-03  4.2293062e-03  1.8819812e-03  5.5902866e-03 -1.7232712e-03  2.5625760e-03  3.4882864e-03  2.7705499e-03  1.0138956e-03 -2.6651446e-03 -6.4469823e-03  5.6316156e-04 -3.0072618e-03 -5.9144883e-03  1.2997597e-03  1.7416398e-03 -3.9534038e-03  6.6246674e-04 -6.0066115e-03 -4.0697954e-03 -4.2844244e-04 -1.2017089e-02  1.4852775e-03 -4.8564980e-05  1.0302908e-03 -2.9967682e-04 -1.7617827e-03  1.2175527e-03  1.4495599e-03 -4.6625952e-03  4.2724385e-04  4.4096624e-03  3.4207958e-03  2.5910286e-03  5.5093784e-03 -3.4652317e-03  8.8084041e-04  2.6727109e-03  3.9953775e-05  3.8011535e-03  4.6760710e-03 -1.7889583e-03  2.2236544e-03  4.3217291e-04 -2.2939180e-03 -2.0658171e-03 -5.3468496e-03  3.1825199e-04 -9.3566114e-04  1.7547595e-03  2.3978818e-03]
bn0.running_mean,[ 7.23419418e+01 -1.23527390e+02 -1.10151567e+01 -3.44326943e-02  2.00011883e+01 -1.78108921e+01  3.07705326e+01 -6.93721914e+00 -4.36969109e+01  2.30862179e+01 -1.72689171e+01  7.03866243e+00 -1.88421440e+01  8.67865944e+00  3.89384193e+01  1.56944962e+01 -8.02883148e+00  4.87528648e+01  6.51881647e+00 -1.75299740e+01  3.22723618e+01 -3.68818588e+01 -2.45347500e-01 -1.76944888e+00  4.51647682e+01 -1.16484404e-01  1.10538244e-01  6.77217941e+01 -1.33332384e+00 -1.81374321e+01 -7.25917673e+00  4.78590889e+01 -2.67350998e+01  7.03982067e+00  4.66944315e-02  1.81372419e-01 -1.65110874e+01  5.61686277e-01  8.32962952e+01 -1.78671780e+01  4.49675083e-01  4.16814499e+01 -1.16855097e+01  3.07833633e+01  1.56986456e+01  9.80260658e+00  2.77617035e+01 -1.39738541e+01 -2.03549251e-01  1.30605659e+01  2.07545338e+01 -2.35068202e+00  1.27858772e+01 -1.67415054e+02 -1.89004078e+01 -2.06062603e+01  1.35273224e+02 -2.82132602e+00  9.24049664e+00 -5.38498282e-01  2.14830399e+01  1.02633293e+02  1.97338200e+01 -5.57495785e+00 -1.09396029e+01  1.20619936e+01 -1.57651245e+02 -1.08462654e-01 -1.96416187e+00  7.06401396e+00  1.05575577e+02  5.58308067e+01  2.37505937e+00 -9.84914824e-02  4.15747929e+00 -5.39697876e+01 -7.35167265e+00 -5.25204754e+00  1.34628792e+01  1.23748789e+01 -5.57250595e+00 -9.26426798e-02  7.81777954e+00 -8.99125137e+01  4.99696702e-01  7.84093628e+01  2.36520081e+01  2.51446152e+01 -6.37999420e+01 -8.48364308e-02  5.33575859e+01  1.03298259e+00 -8.36938629e+01 -6.55550623e+00  8.01439056e+01 -3.10136433e+01 -8.36067123e+01  4.40951042e+01  9.16935730e+00 -5.25242686e-01 -2.21559181e+01  3.96965103e+01 -5.97211876e+01 -3.87043839e+01  6.67565012e+00  5.86271706e+01  1.21520889e+00  2.28331223e+01  2.42869587e+01  8.02164459e+01  2.94292850e+01 -2.62061710e+01 -7.57857084e+00  4.15438986e+00 -8.78111497e-02 -2.64777422e-01  7.11784515e+01 -6.64166260e+01  4.65735054e+00 -5.92847519e+01  6.54842148e+01 -9.79259387e-02 -1.37328720e+01 -6.51288852e-02 -5.56296444e+00 -5.19185715e+01  4.92451630e+01 -3.55949478e+01 -1.72267284e+01 -8.22201729e+00 -7.14645615e+01 -3.06322718e+00  1.29033108e+01 -2.02815113e+01 -1.96338043e+01  1.04626596e-01  3.50607395e-01  1.07259922e+01  7.09324265e+01 -5.82851219e+00 -1.44767807e+02  5.64860611e+01 -6.28620911e+01 -1.10909529e+01 -6.22482796e+01 -1.83784199e+01  1.97735083e+00 -2.50206852e+00  4.08950180e-01  8.85663071e+01 -1.38722830e+01  3.49126854e+01  4.73434687e-01  7.88527908e+01 -8.51787567e+00 -2.54689306e-01 -3.03995743e+01  2.21520554e+02  8.61717510e+00  1.37989670e+02 -1.19472723e+01  5.88537741e+00  6.77331161e+01  2.29461784e+01  3.21858978e+01 -4.65490036e+01  9.86860733e+01 -6.13824806e+01  3.42599274e+02 -2.65721560e-01  3.05711222e+00 -8.48935413e+00  3.37601471e+01 -9.97091827e+01 -1.84736290e+01  3.46778015e+02  1.19954308e+02  2.05804016e+02  7.76401901e+00 -1.24958277e+01  1.87564468e+01 -1.97518311e+01  8.77718506e+01  9.04505310e+01  5.64617014e+00 -1.46004257e+01  4.05900002e+00  4.79783440e+01 -3.02485847e+00 -8.47704029e+00  1.92322197e+01 -3.10637665e+01  5.53104353e+00 -5.60009079e+01  1.10924168e+01 -5.42020111e+01 -4.24615173e+01  6.74335556e+01  1.33245941e+02  1.66508179e+01 -3.57217102e+01 -2.23738575e+01  2.40828261e-01 -5.21757603e-01  4.48304892e-01  9.27709503e+01  2.18371582e+01  4.48451729e+01  6.18637161e+01  7.38793039e+00  1.87431229e+02  1.40141678e+02 -3.53592873e-01 -7.79769287e+01  5.71868591e+01 -1.19971962e+01 -3.15834075e-01  6.48426247e+00 -1.00333115e+02 -1.91483200e+02  4.82290306e+01  7.36474838e+01  5.74425030e+00  2.64010277e+01 -1.73353622e+02 -7.70371475e+01 -4.09831734e+01 -1.35140991e+02 -4.68383102e+01 -3.49547653e+01  1.36470490e+02  1.16473251e+02 -2.46828604e+00 -1.56848402e+01  9.12048054e+00 -3.11106663e+01  2.82520561e+01  3.19180965e-01  2.78270950e+01 -1.76505463e+02  5.55795014e-01  1.42769669e+02  9.89609659e-01  3.88590736e+01 -1.74192993e+02 -7.27354660e+01 -2.39677658e+01 -7.97303238e+01 -4.05958786e+01 -9.89840317e+00  4.77570076e+01  4.80979958e+01 -3.32534194e+00  4.16277266e+00 -3.58659363e+01  1.24317722e+01  1.23490463e+02  5.79371300e+01  1.77377060e-01  2.81163864e+01  9.14488411e+00 -2.01187191e+01 -2.77551003e+01  6.59925537e+01  1.12345207e+02 -1.18096474e+02  2.13794902e-01  1.44278109e+00  2.73344440e+01 -1.38179264e+01  2.72225723e+01 -4.30087298e-01 -1.63462788e-01  5.01355529e-01  3.02073727e+01  1.61377609e+02  4.62255592e+01 -1.98269821e+02  1.31075516e+02 -8.73483429e+01  1.94928818e+01  1.07385803e+02  1.02185459e+01  6.29764652e+00 -6.75605774e+01  5.01698971e+00  1.16382530e+02 -4.62920380e+01  4.27102737e+01  1.91665325e+01  8.24685544e-02  1.75468845e+01 -3.84191895e+01 -5.27330399e-01  3.40695610e+01 -1.78612156e+01  2.73600616e+01  1.55380547e-01 -1.51264143e+01  1.93515434e+01 -3.66344564e-02  4.84747353e+01 -1.59031296e+02  4.12450485e+01  3.96248758e-01 -6.80335140e+00  3.95914536e+01  1.03346954e+02  1.19178864e+02  1.90743885e+01 -7.44687119e+01 -1.12871199e+01  3.26727295e+01  1.67971439e+01 -7.78477859e+00  3.02516804e+01 -2.96680403e+00 -2.29659595e+01 -1.71012592e+01 -5.21449318e+01  5.26611366e+01  3.28399658e+01 -7.42896652e+00 -9.90683174e+00  2.06986847e+01  2.80446529e+01 -2.38728561e+01 -5.63353419e-01 -3.11532421e+01 -3.06722660e+01  1.35620632e+01  5.39736252e+01 -2.38665619e+01  9.56205428e-02  4.68302429e-01  1.39164673e+02 -4.20059280e+01  2.41766186e+01 -6.32476082e+01 -1.03589180e+02  7.55343094e+01 -2.57201042e+01 -3.17150707e+01  2.41848785e+02 -1.12490860e+02 -6.54196072e+00  1.76570460e-01 -2.08046951e+01  5.97023869e+00 -7.74465408e+01 -2.38733673e+01  1.10417690e+01 -4.44289932e+01]
bn0.running_var,[1.43588269e+03 4.42966943e+03 4.95405350e+01 8.36858340e-03 1.13059708e+02 9.80457840e+01 2.88476410e+02 1.81944847e+01 6.70087219e+02 1.35061584e+02 1.00524681e+02 2.94916916e+01 1.08102615e+02 2.35418434e+01 4.97140472e+02 7.97717590e+01 1.52159081e+01 7.66636658e+02 1.44431944e+01 8.60737686e+01 3.68867340e+02 3.69693207e+02 2.69213109e-04 8.64727139e-01 5.28846802e+02 3.75841260e-02 8.04671198e-02 1.72101453e+03 3.59343567e+01 6.04563332e+01 9.39421940e+00 5.46817932e+02 1.51094009e+02 1.01028986e+01 9.12984554e-03 9.83819086e-03 6.67182846e+01 2.06989571e-01 1.25099390e+03 6.73559113e+01 4.42957535e-04 2.86613983e+02 2.36029148e+01 1.61360825e+02 6.54942322e+01 1.59526882e+01 3.27602448e+02 6.12490654e+01 4.01224941e-01 5.55854874e+01 1.27710182e+02 9.03188944e-01 6.74082031e+01 9.21003320e+03 1.00442749e+02 9.85491409e+01 5.35952002e+03 2.19227791e+00 2.42386742e+01 2.34948233e-01 9.60095673e+01 2.48617090e+03 9.74806061e+01 1.09110889e+01 2.84279499e+01 2.77484322e+01 6.03842188e+03 1.69528110e-04 2.20794129e+00 1.41537037e+01 3.19802246e+03 9.64592529e+02 1.32043231e+00 2.19397643e-03 6.22976971e+00 1.28782654e+03 1.66954803e+01 5.94852142e+01 7.00507050e+01 4.61622620e+01 7.15571880e+00 2.05787569e-01 1.77774601e+01 2.36198877e+03 4.17674445e-02 1.95965894e+03 1.54083237e+02 1.60917358e+02 1.30291785e+03 7.84999225e-03 9.46073059e+02 1.10915053e+00 2.18977979e+03 1.12194290e+01 1.31751099e+03 1.70762222e+02 1.13285901e+03 3.16206940e+02 1.19151802e+01 2.34489180e-02 8.60440826e+01 2.61339020e+02 6.21611694e+02 2.54598923e+02 5.52951660e+01 1.10173181e+03 2.92782277e-01 1.71063736e+02 2.02490738e+02 2.35237354e+03 2.91989441e+02 1.69909027e+02 2.10378513e+01 4.45934820e+00 5.36739128e-03 1.04042236e-03 1.42495959e+03 1.34663928e+03 6.16802263e+00 1.05610022e+03 1.24264917e+03 3.18093538e-01 5.93735313e+01 1.49102077e-01 9.65074158e+00 6.51874268e+02 4.03400604e+02 2.60646423e+02 8.86890335e+01 1.78599758e+01 1.24551196e+03 2.12890482e+00 4.17837639e+01 9.77703781e+01 8.13856735e+01 5.77186905e-02 1.34729352e-02 2.99161644e+01 1.09240381e+03 6.99159718e+00 4.60271484e+03 7.03632324e+02 1.14911218e+03 5.26677208e+01 9.99188416e+02 1.28516800e+02 1.70774257e+00 5.67743683e+00 2.25232750e-01 2.10595044e+03 5.68806458e+01 3.57821014e+02 1.92378520e-03 1.99507507e+03 2.72537842e+01 2.03740448e-01 2.97577362e+02 1.45775566e+04 2.26833763e+01 6.56834814e+03 4.01043015e+01 1.84807529e+01 1.43652307e+03 1.68938980e+02 3.34426605e+02 7.20126587e+02 3.04830322e+03 1.06703479e+03 3.60220586e+04 5.82340002e-01 5.24045944e+00 2.06541653e+01 3.54227509e+02 3.02707300e+03 6.00188942e+01 2.96685273e+04 3.59977588e+03 1.08240713e+04 1.72094746e+01 3.31312180e+01 1.29804626e+02 1.22606056e+02 2.47030957e+03 2.75598438e+03 1.13002396e+01 4.36208572e+01 4.46390629e+00 7.07599426e+02 3.70087838e+00 4.32950516e+01 1.10860008e+02 3.10507599e+02 6.02336884e+00 9.19378784e+02 2.73117695e+01 8.29711853e+02 6.36992188e+02 1.38555383e+03 5.98792139e+03 9.17877502e+01 4.37775604e+02 1.07438568e+02 1.25497678e-07 7.53976696e-04 3.49917375e-02 2.05991016e+03 1.20834534e+02 5.52867188e+02 1.03350854e+03 2.20543690e+01 9.32208594e+03 5.72154199e+03 7.32673891e-03 1.63164746e+03 9.43642151e+02 5.31521645e+01 4.80477102e-02 1.27011709e+01 2.88216626e+03 9.76455078e+03 5.77421265e+02 1.51016150e+03 1.10110664e+01 1.85086823e+02 8.39980566e+03 1.64989624e+03 5.29440613e+02 5.23504102e+03 5.98677429e+02 2.81422241e+02 5.61348193e+03 3.84748730e+03 1.72952116e+00 6.47802353e+01 2.53945732e+01 3.04223572e+02 1.93260666e+02 1.68610476e-02 2.56234528e+02 9.76323047e+03 4.17724019e-03 6.60789551e+03 5.85020483e-01 2.80799286e+02 6.02408594e+03 9.95539978e+02 1.16455170e+02 1.28246985e+03 3.19221802e+02 1.78942490e+01 3.92815155e+02 3.96022675e+02 1.96185827e+00 3.12344623e+00 2.15293900e+02 2.56467552e+01 2.52950171e+03 5.50230957e+02 1.43982144e-03 1.25893318e+02 1.31154814e+01 9.22024155e+01 1.44499176e+02 1.11335706e+03 3.14467969e+03 2.86783203e+03 5.41504860e-01 8.55334044e-01 1.95525101e+02 5.04796982e+01 2.25451050e+02 2.63369866e-02 4.34656627e-02 2.26803035e-01 1.48088394e+02 4.38301807e+03 3.82432281e+02 6.36193262e+03 3.02347461e+03 1.31013818e+03 7.36878815e+01 3.62761670e+03 1.90090313e+01 7.39743090e+00 1.29873511e+03 6.24988890e+00 3.81989526e+03 4.78620056e+02 5.40616882e+02 1.32061646e+02 1.18954666e-02 9.48589706e+01 4.81146149e+02 4.21188190e-04 3.33118927e+02 2.13823914e+02 2.43101807e+02 1.78526491e-02 9.46063461e+01 1.49087280e+02 1.49217399e-03 8.40105164e+02 8.94846191e+03 7.49966919e+02 4.86838806e-04 1.85883827e+01 5.96150269e+02 4.19174658e+03 4.84944189e+03 1.03098267e+02 1.91025598e+03 4.68735046e+01 4.06897766e+02 9.95681458e+01 2.12140942e+01 3.17203003e+02 3.02119112e+00 2.25635117e+02 1.07764221e+02 9.61757202e+02 8.99407288e+02 3.46783936e+02 1.95386238e+01 2.87730789e+01 1.35533630e+02 2.25583893e+02 1.79928589e+02 4.60742749e-02 2.99548920e+02 3.18551880e+02 4.50361137e+01 9.67990112e+02 1.72389236e+02 6.74165785e-02 1.62523925e-01 6.72603564e+03 6.34348633e+02 1.86810532e+02 1.29728528e+03 3.56674390e+03 1.66362866e+03 1.82467026e+02 2.66835144e+02 1.61705371e+04 3.53487378e+03 1.33102760e+01 1.93727040e-03 1.46218582e+02 6.66708708e+00 1.15951404e+03 1.13253349e+02 2.88182774e+01 4.04210907e+02]
bn0.num_batches_tracked,3000
sub_nn_0.hidden.weight,[[-0.67196196  0.25562438] [ 0.19832769 -1.6967283 ] [ 0.9028049   0.40863016]]
sub_nn_0.hidden.bias,[0.6404851  0.08367597 0.5008945 ]
sub_nn_0.out.weight,[[-0.5905879  -0.28424984  0.9164172 ]]
sub_nn_0.out.bias,[-0.38989818]
sub_nn_1.hidden.weight,[[ 1.4758422   0.09882674] [-0.01923464 -0.5276267 ] [-0.7292758  -0.0959814 ]]
sub_nn_1.hidden.bias,[ 0.58432585  0.27804145 -0.45473996]
sub_nn_1.out.weight,[[-0.9280483   0.41620886 -0.08375765]]
sub_nn_1.out.bias,[-0.26138547]
sub_nn_2.hidden.weight,[[-0.491798   -0.0035802 ] [ 0.52262306 -0.9751924 ] [ 0.14928222  1.1725018 ]]
sub_nn_2.hidden.bias,[-0.44899982  0.69689    -0.63592756]
sub_nn_2.out.weight,[[ 0.18217008 -0.37976474  0.37924877]]
sub_nn_2.out.bias,[-0.16504481]
sub_nn_3.hidden.weight,[[-0.19550999  0.25598484] [-0.3374303   0.26785186] [-0.22941059 -0.51039034]]
sub_nn_3.hidden.bias,[ 0.28716567 -0.5898189  -0.3312566 ]
sub_nn_3.out.weight,[[ 0.9321676  -0.8250052  -0.99842525]]
sub_nn_3.out.bias,[-0.04587221]
sub_nn_4.hidden.weight,[[ 0.33891752  0.4326208 ] [ 0.811538    0.51751095] [-0.99979866 -1.0713991 ]]
sub_nn_4.hidden.bias,[ 0.02447271  0.6323212  -0.41176137]
sub_nn_4.out.weight,[[-0.21250367  0.35849354 -0.6590144 ]]
sub_nn_4.out.bias,[-0.11438656]
sub_nn_5.hidden.weight,[[-0.5002699   0.37009868] [ 0.42638206 -0.57447493] [ 0.02738931  0.13457574]]
sub_nn_5.hidden.bias,[0.5787177  0.0468994  0.30757028]
sub_nn_5.out.weight,[[-0.41804126 -0.4628013  -0.24970739]]
sub_nn_5.out.bias,[-0.39868233]
sub_nn_6.hidden.weight,[[ 0.30091774  0.04934805] [-0.47040194 -0.07959097] [ 0.00080088  0.3366082 ]]
sub_nn_6.hidden.bias,[-0.02596155 -0.3352148   0.10322744]
sub_nn_6.out.weight,[[1.0686859 0.7780071 0.6509366]]
sub_nn_6.out.bias,[-0.21874008]
sub_nn_7.hidden.weight,[[-0.9390507  -0.3222644 ] [ 0.05737769 -0.00546463] [-0.01902757  2.264141  ]]
sub_nn_7.hidden.bias,[-0.63615906  0.43985313 -0.6144691 ]
sub_nn_7.out.weight,[[-0.30350456 -1.3507857   0.14061005]]
sub_nn_7.out.bias,[-0.31087148]
sub_nn_8.hidden.weight,[[ 0.18707743 -0.07545338] [-0.55710983 -0.05993907] [ 0.57006115 -0.3759955 ]]
sub_nn_8.hidden.bias,[ 0.36149722  0.6856616  -0.5526502 ]
sub_nn_8.out.weight,[[ 0.26851073  0.12365631 -0.95319676]]
sub_nn_8.out.bias,[-0.2203674]
sub_nn_9.hidden.weight,[[ 0.09715658  0.53507805] [ 0.34193003 -0.23253505] [-0.84209496 -0.7331589 ]]
sub_nn_9.hidden.bias,[ 0.11610216 -0.5891482   0.00445501]
sub_nn_9.out.weight,[[ 1.7457983   0.14451912 -0.08967828]]
sub_nn_9.out.bias,[0.2597679]
sub_nn_10.hidden.weight,[[-0.54806286 -0.77762693] [ 1.359063    0.10795544] [-0.42736623 -0.50649774]]
sub_nn_10.hidden.bias,[-0.37364337  0.21077007 -0.06526524]
sub_nn_10.out.weight,[[ 0.4830292  -0.14025752  0.9562158 ]]
sub_nn_10.out.bias,[0.31051052]
sub_nn_11.hidden.weight,[[ 0.07489819 -1.3995847 ] [ 0.22113694  1.3009    ] [-0.30074927  0.1575297 ]]
sub_nn_11.hidden.bias,[0.15042366 0.5150772  0.06923095]
sub_nn_11.out.weight,[[ 1.2081583   0.0904638  -0.34993494]]
sub_nn_11.out.bias,[0.4619732]
sub_nn_12.hidden.weight,[[-0.19266081 -0.22284892] [ 0.83437115  0.5706075 ] [ 0.8859426   0.12563063]]
sub_nn_12.hidden.bias,[-0.70164293 -0.4291872   0.21968597]
sub_nn_12.out.weight,[[ 0.44238147 -0.29536125  0.05511141]]
sub_nn_12.out.bias,[-0.16026607]
sub_nn_13.hidden.weight,[[ 0.93868387  0.54464245] [-0.03974393  0.6809372 ] [ 0.30160552  0.05039355]]
sub_nn_13.hidden.bias,[-0.4208142  -0.52147746 -0.21461074]
sub_nn_13.out.weight,[[-0.0920516   0.18847854  0.60498   ]]
sub_nn_13.out.bias,[-0.2786231]
sub_nn_14.hidden.weight,[[ 0.48417917 -1.1832967 ] [ 0.27194616 -0.54252464] [ 0.39511135 -0.47505718]]
sub_nn_14.hidden.bias,[ 0.23028395 -0.288995   -0.5645614 ]
sub_nn_14.out.weight,[[-0.17733072 -0.6159867   1.7327183 ]]
sub_nn_14.out.bias,[0.56423616]
sub_nn_15.hidden.weight,[[ 0.22279654  0.028692  ] [-0.80844855 -0.2345617 ] [-0.47975102 -0.7302072 ]]
sub_nn_15.hidden.bias,[-0.15075131 -0.06495059 -0.27274448]
sub_nn_15.out.weight,[[0.7726616  0.49258375 0.32757404]]
sub_nn_15.out.bias,[-0.377643]
sub_nn_16.hidden.weight,[[ 0.20261428  1.0475099 ] [ 0.03883294 -1.064086  ] [-1.6227508  -0.56087977]]
sub_nn_16.hidden.bias,[-0.36431932  0.15436082 -0.17385137]
sub_nn_16.out.weight,[[-0.3920193   0.24747078 -0.8200774 ]]
sub_nn_16.out.bias,[0.01536214]
sub_nn_17.hidden.weight,[[ 0.14129542 -0.09728917] [ 0.7939293  -0.5345115 ] [-0.01005895 -0.84742093]]
sub_nn_17.hidden.bias,[ 0.25792605 -0.3158789   0.35184535]
sub_nn_17.out.weight,[[0.48193792 0.5872276  0.3127805 ]]
sub_nn_17.out.bias,[-0.17721057]
sub_nn_18.hidden.weight,[[ 0.52256465  0.28012714] [ 0.4096796  -0.18346196] [-0.40289816 -0.22620551]]
sub_nn_18.hidden.bias,[-0.5346025  -0.01496495  0.4705778 ]
sub_nn_18.out.weight,[[-0.38270605  0.6657056  -0.13382438]]
sub_nn_18.out.bias,[0.22330356]
sub_nn_19.hidden.weight,[[-1.2647165   0.33022198] [ 0.55542177  0.40321437] [-0.26803094  0.06881787]]
sub_nn_19.hidden.bias,[ 0.22807811 -0.56764036  0.64476925]
sub_nn_19.out.weight,[[-0.3613575  -0.32240275  0.11906873]]
sub_nn_19.out.bias,[-0.4864708]
sub_nn_20.hidden.weight,[[ 0.2164215  -0.2127351 ] [ 0.5485311  -0.6094906 ] [-0.42798552  0.29743946]]
sub_nn_20.hidden.bias,[-0.21186273 -0.3764261   0.5123647 ]
sub_nn_20.out.weight,[[-0.7524185   0.97228265 -0.09166833]]
sub_nn_20.out.bias,[-0.4334666]
sub_nn_21.hidden.weight,[[ 0.10169471 -0.90758514] [ 0.60150105  0.04596942] [-1.2333952   0.4501716 ]]
sub_nn_21.hidden.bias,[-0.1635184   0.15370649 -0.6227054 ]
sub_nn_21.out.weight,[[ 0.76356876 -0.7609352  -0.4368343 ]]
sub_nn_21.out.bias,[0.48997176]
sub_nn_22.hidden.weight,[[-0.81375015 -0.36007538] [-0.7335636  -1.2696569 ] [-0.5947217  -0.49407077]]
sub_nn_22.hidden.bias,[ 0.67059976  0.46950215 -0.03427404]
sub_nn_22.out.weight,[[ 0.16947049 -0.87865895  0.1794593 ]]
sub_nn_22.out.bias,[-0.24479923]
sub_nn_23.hidden.weight,[[-0.24814692  0.18071786] [ 0.02324891  0.4224118 ] [-0.10384262 -0.5419143 ]]
sub_nn_23.hidden.bias,[-0.6615103  -0.12275191 -0.06857872]
sub_nn_23.out.weight,[[ 0.6789516  -0.59115195 -0.26249686]]
sub_nn_23.out.bias,[0.28461772]
sub_nn_24.hidden.weight,[[ 0.45216832  1.0890174 ] [ 0.16235216 -0.05599755] [ 0.10716911  0.27846333]]
sub_nn_24.hidden.bias,[0.6816774  0.3204612  0.24840778]
sub_nn_24.out.weight,[[0.6235917  0.9185193  0.38697797]]
sub_nn_24.out.bias,[0.00542206]
sub_nn_25.hidden.weight,[[-0.80920476  0.07012945] [-0.5675619   0.6753979 ] [-0.6509425  -0.48423535]]
sub_nn_25.hidden.bias,[0.01084934 0.5324262  0.5907658 ]
sub_nn_25.out.weight,[[-0.28636205 -0.42658207  0.3421435 ]]
sub_nn_25.out.bias,[-0.09011573]
sub_nn_26.hidden.weight,[[-0.742139   -0.11835635] [-0.5325202   1.0254883 ] [-1.2049819  -1.1867467 ]]
sub_nn_26.hidden.bias,[ 0.3432576  -0.43546718 -0.5549768 ]
sub_nn_26.out.weight,[[ 0.015378    0.42132714 -0.81710833]]
sub_nn_26.out.bias,[0.07620376]
sub_nn_27.hidden.weight,[[-0.06300209 -0.438979  ] [ 0.46400163 -1.2449216 ] [ 0.38189393 -0.08191793]]
sub_nn_27.hidden.bias,[-0.6776664 -0.3429327  0.5967088]
sub_nn_27.out.weight,[[-0.8201353  1.6002959  0.2812867]]
sub_nn_27.out.bias,[0.284939]
sub_nn_28.hidden.weight,[[ 0.3181732   1.643675  ] [ 0.38710603 -0.08687301] [-0.45719615  0.78195167]]
sub_nn_28.hidden.bias,[-0.6239789  -0.35442683  0.5056483 ]
sub_nn_28.out.weight,[[ 0.7670777  -0.85773283 -0.95891887]]
sub_nn_28.out.bias,[0.1750924]
sub_nn_29.hidden.weight,[[-0.73445445  0.12816876] [-1.6310983   0.4949886 ] [ 0.4735787   0.77595663]]
sub_nn_29.hidden.bias,[-0.01309495 -0.01906296 -0.11830899]
sub_nn_29.out.weight,[[ 0.05682014 -0.5496945  -0.32981998]]
sub_nn_29.out.bias,[-0.12850434]
sub_nn_30.hidden.weight,[[-0.2894526   0.20504291] [ 0.3479961   1.0058498 ] [ 0.34107256  0.5369947 ]]
sub_nn_30.hidden.bias,[-0.09136005  0.15029812 -0.30313024]
sub_nn_30.out.weight,[[-0.9544427  -0.31680143  0.1453882 ]]
sub_nn_30.out.bias,[0.21318638]
sub_nn_31.hidden.weight,[[ 0.74809736 -1.4870025 ] [ 0.18774451  0.49367097] [-0.1391765  -0.7469737 ]]
sub_nn_31.hidden.bias,[ 0.2362707 -0.5673313 -0.5879739]
sub_nn_31.out.weight,[[ 0.631049   -0.00530837 -0.8349921 ]]
sub_nn_31.out.bias,[0.16411382]
sub_nn_32.hidden.weight,[[ 0.37630436  0.07686462] [-0.8628761  -1.1314399 ] [-1.1229199  -0.01229133]]
sub_nn_32.hidden.bias,[-0.6005887   0.18243422 -0.17162299]
sub_nn_32.out.weight,[[-0.65646017  0.9702705   1.1708964 ]]
sub_nn_32.out.bias,[-0.52575636]
sub_nn_33.hidden.weight,[[-0.04817211  0.76319855] [-1.2795066   0.38532546] [ 0.4234415  -0.61903   ]]
sub_nn_33.hidden.bias,[ 0.18700907 -0.2902715  -0.35473377]
sub_nn_33.out.weight,[[0.68654954 0.2415562  0.16067678]]
sub_nn_33.out.bias,[-0.05914062]
sub_nn_34.hidden.weight,[[-1.0005106   0.11078184] [-0.14875376  0.92407113] [ 0.12217761 -0.816145  ]]
sub_nn_34.hidden.bias,[-0.14534944 -0.60884374  0.5377832 ]
sub_nn_34.out.weight,[[ 0.01488862 -0.1949125   0.00411644]]
sub_nn_34.out.bias,[0.01234323]
sub_nn_35.hidden.weight,[[-0.3468992   1.2798442 ] [-1.1614524   0.03772698] [-1.070152   -0.15681496]]
sub_nn_35.hidden.bias,[0.02049445 0.48956418 0.6177136 ]
sub_nn_35.out.weight,[[ 0.03361835  0.70938087 -1.7980603 ]]
sub_nn_35.out.bias,[0.17466557]
sub_nn_36.hidden.weight,[[ 0.45942932  0.5181299 ] [ 0.30661792 -0.8995831 ] [ 0.08133803 -0.21223068]]
sub_nn_36.hidden.bias,[ 0.2666276  -0.4559489  -0.01645778]
sub_nn_36.out.weight,[[-0.10028986 -0.2238203  -0.61024743]]
sub_nn_36.out.bias,[-0.34168184]
sub_nn_37.hidden.weight,[[-0.67982095  0.45582533] [-0.6516819   0.29685614] [-0.65943146 -0.5078376 ]]
sub_nn_37.hidden.bias,[0.4524498  0.183603   0.38999918]
sub_nn_37.out.weight,[[0.26941097 1.1998001  1.1452953 ]]
sub_nn_37.out.bias,[0.49742353]
sub_nn_38.hidden.weight,[[ 0.5742892  -1.0038106 ] [ 0.20321234 -0.40265328] [-0.1350861  -0.09088321]]
sub_nn_38.hidden.bias,[ 0.03553291 -0.6761471   0.46567118]
sub_nn_38.out.weight,[[ 1.8432803  -1.3766143  -0.95487016]]
sub_nn_38.out.bias,[0.4563818]
sub_nn_39.hidden.weight,[[ 0.12094532 -0.6982805 ] [-0.5346496  -0.5053    ] [ 0.06935439  1.4658573 ]]
sub_nn_39.hidden.bias,[ 0.5968888  -0.25099957 -0.23856431]
sub_nn_39.out.weight,[[-1.4777865  -0.10485668  0.01147097]]
sub_nn_39.out.bias,[-0.4862051]
sub_nn_40.hidden.weight,[[-0.06312947 -0.24910444] [-0.0480841  -0.5746736 ] [-2.1195853  -0.83822995]]
sub_nn_40.hidden.bias,[ 0.49820834  0.56073254 -0.2396827 ]
sub_nn_40.out.weight,[[ 0.6939887 -1.1696007 -1.0923647]]
sub_nn_40.out.bias,[0.44957417]
sub_nn_41.hidden.weight,[[ 0.6448707   0.131526  ] [-0.87970704 -0.3484146 ] [-0.8695425   0.05837257]]
sub_nn_41.hidden.bias,[-0.13832162  0.22544533 -0.657276  ]
sub_nn_41.out.weight,[[ 0.57585174 -0.94686925  0.7907038 ]]
sub_nn_41.out.bias,[0.33988488]
sub_nn_42.hidden.weight,[[ 0.33376545 -0.15869218] [-0.17638947 -0.14975396] [ 0.8588946   0.15097235]]
sub_nn_42.hidden.bias,[ 0.17949475 -0.57316864  0.2667005 ]
sub_nn_42.out.weight,[[-0.06049996  0.16277869 -0.10061348]]
sub_nn_42.out.bias,[0.2012927]
sub_nn_43.hidden.weight,[[ 0.28300938 -0.16419865] [-0.19359328 -0.09657652] [ 0.01816235 -0.2148374 ]]
sub_nn_43.hidden.bias,[-0.02586356 -0.36597642 -0.40820223]
sub_nn_43.out.weight,[[ 0.9814616  -0.81470245  0.09202777]]
sub_nn_43.out.bias,[0.45284545]
sub_nn_44.hidden.weight,[[ 0.873515   -0.90020794] [ 0.29022357  0.69115937] [ 0.3119645   0.47872418]]
sub_nn_44.hidden.bias,[-0.19607446 -0.2545588  -0.16831027]
sub_nn_44.out.weight,[[ 0.41118413 -0.384921   -0.242236  ]]
sub_nn_44.out.bias,[-0.34980547]
sub_nn_45.hidden.weight,[[ 0.72581017 -0.05839314] [-0.01970868 -0.01572167] [ 0.7684137   0.4826211 ]]
sub_nn_45.hidden.bias,[-0.38077497 -0.3031052  -0.54866767]
sub_nn_45.out.weight,[[-0.10987603  0.47685507  0.2174687 ]]
sub_nn_45.out.bias,[-0.36695224]
sub_nn_46.hidden.weight,[[-0.40443727  0.14929976] [-0.9163732  -0.73602664] [ 0.36723104 -0.6026922 ]]
sub_nn_46.hidden.bias,[-0.41985223 -0.23799026 -0.44346878]
sub_nn_46.out.weight,[[-0.53109837 -0.89742893  0.8192578 ]]
sub_nn_46.out.bias,[0.05334556]
sub_nn_47.hidden.weight,[[ 0.48229036 -0.06385776] [ 0.33159792  0.13779512] [-0.46034792  0.4737902 ]]
sub_nn_47.hidden.bias,[ 0.50022715  0.23004156 -0.57033557]
sub_nn_47.out.weight,[[ 0.04803352 -0.46221384 -0.45505214]]
sub_nn_47.out.bias,[-0.40704536]
sub_nn_48.hidden.weight,[[-0.24741927 -0.5168039 ] [-0.10979528  0.8680542 ] [ 0.35589096  0.75295025]]
sub_nn_48.hidden.bias,[-0.40915072  0.6444352   0.10891032]
sub_nn_48.out.weight,[[-1.0695456  -0.6331764   0.01277661]]
sub_nn_48.out.bias,[-0.56475824]
sub_nn_49.hidden.weight,[[ 0.13169625  0.06846341] [-0.04633119  0.15836304] [-1.1297526   0.6877995 ]]
sub_nn_49.hidden.bias,[-0.3693565   0.04286909 -0.33435512]
sub_nn_49.out.weight,[[0.9468367 0.6369998 0.9403122]]
sub_nn_49.out.bias,[0.54163635]
sub_nn_50.hidden.weight,[[-1.3173838   0.1791531 ] [ 0.31096557  0.7836235 ] [ 0.17427516  0.5109365 ]]
sub_nn_50.hidden.bias,[0.5970955  0.3955447  0.40692908]
sub_nn_50.out.weight,[[-0.3529013  -0.00844041  1.0820937 ]]
sub_nn_50.out.bias,[-0.212942]
sub_nn_51.hidden.weight,[[-0.05450429 -0.81354326] [-0.3567169  -1.3110145 ] [ 0.1436669   1.7042006 ]]
sub_nn_51.hidden.bias,[ 0.1503791   0.6740148  -0.19082527]
sub_nn_51.out.weight,[[-1.0517699   0.37877095 -0.09769263]]
sub_nn_51.out.bias,[-0.35642946]
sub_nn_52.hidden.weight,[[ 0.3391481  -0.59643596] [-0.3755181  -0.4963255 ] [-0.04627297  0.21603724]]
sub_nn_52.hidden.bias,[-0.04336679 -0.23563468 -0.40995148]
sub_nn_52.out.weight,[[ 0.4012202  -0.42570892 -0.05449402]]
sub_nn_52.out.bias,[-0.01100731]
sub_nn_53.hidden.weight,[[-0.8648764   1.0357795 ] [ 0.73028874 -0.6637012 ] [ 0.7352722   1.4463651 ]]
sub_nn_53.hidden.bias,[0.512719   0.19932258 0.17009532]
sub_nn_53.out.weight,[[ 0.4698282  -0.96447605 -1.2043486 ]]
sub_nn_53.out.bias,[-0.42999098]
sub_nn_54.hidden.weight,[[ 0.86988544  0.2311473 ] [-0.885858    0.33957344] [-0.19572513  0.65959316]]
sub_nn_54.hidden.bias,[-0.2826974   0.5228263  -0.11162461]
sub_nn_54.out.weight,[[-0.24384393  0.03080912 -0.911423  ]]
sub_nn_54.out.bias,[0.06206727]
sub_nn_55.hidden.weight,[[ 1.10928     0.2746438 ] [ 0.38744956  1.0671988 ] [-0.57148874  0.2037343 ]]
sub_nn_55.hidden.bias,[ 0.01392204 -0.13315767 -0.52280825]
sub_nn_55.out.weight,[[ 0.05836653 -0.6868921  -0.45690554]]
sub_nn_55.out.bias,[0.04326332]
sub_nn_56.hidden.weight,[[ 1.3145171   0.6106837 ] [-0.36378747 -1.132286  ] [-1.0906466  -0.3557357 ]]
sub_nn_56.hidden.bias,[-0.45113018 -0.20912296 -0.09231216]
sub_nn_56.out.weight,[[1.1627709  0.05100458 0.8374198 ]]
sub_nn_56.out.bias,[-0.56059545]
sub_nn_57.hidden.weight,[[ 0.08297486  0.36972916] [-0.06434465  0.21602954] [-0.11868552  0.10125124]]
sub_nn_57.hidden.bias,[ 0.12517983  0.26301524 -0.6926392 ]
sub_nn_57.out.weight,[[-0.3628041  0.6454116  1.0378194]]
sub_nn_57.out.bias,[0.23969692]
sub_nn_58.hidden.weight,[[-0.6285229   0.8916426 ] [ 0.71562237 -0.12038537] [-0.00123847 -0.3231573 ]]
sub_nn_58.hidden.bias,[ 0.43741053  0.12312931 -0.09703951]
sub_nn_58.out.weight,[[-0.1148647   0.14315915  1.5073406 ]]
sub_nn_58.out.bias,[0.2939976]
sub_nn_59.hidden.weight,[[-0.48511845 -0.10749958] [-1.731568    0.3501031 ] [ 0.07708474 -0.405867  ]]
sub_nn_59.hidden.bias,[0.7012186  0.18637319 0.00867188]
sub_nn_59.out.weight,[[ 0.66879153  0.31692117 -0.12206691]]
sub_nn_59.out.bias,[0.04762995]
sub_nn_60.hidden.weight,[[ 0.3397992   0.32625303] [-0.7957543   0.38963735] [ 0.04955283 -0.33046407]]
sub_nn_60.hidden.bias,[ 0.16764438 -0.6261583   0.39450908]
sub_nn_60.out.weight,[[0.5881472  0.9357694  0.49329448]]
sub_nn_60.out.bias,[0.5364789]
sub_nn_61.hidden.weight,[[-0.00526484 -0.39934456] [ 0.8630233  -0.1688519 ] [-0.0691408  -0.27027333]]
sub_nn_61.hidden.bias,[ 0.04888662 -0.1537689   0.38751513]
sub_nn_61.out.weight,[[0.7927107 1.3143531 0.4454626]]
sub_nn_61.out.bias,[0.26621723]
sub_nn_62.hidden.weight,[[ 0.49923754 -0.8958796 ] [-0.93977547 -0.9390982 ] [-1.3102176  -0.26598617]]
sub_nn_62.hidden.bias,[0.18640196 0.28829318 0.6656235 ]
sub_nn_62.out.weight,[[ 0.45016047 -0.12741159  0.6914946 ]]
sub_nn_62.out.bias,[0.40207523]
sub_nn_63.hidden.weight,[[-0.3385315  -0.60991615] [ 0.09598526 -0.33563307] [ 0.54809564 -0.7395798 ]]
sub_nn_63.hidden.bias,[-0.43542987  0.07336462 -0.56695396]
sub_nn_63.out.weight,[[ 0.34592122 -0.847391    0.01191138]]
sub_nn_63.out.bias,[0.5388479]
sub_nn_64.hidden.weight,[[-1.2949885  -0.6110785 ] [ 0.74739695  0.80904317] [-0.10312602 -0.27111545]]
sub_nn_64.hidden.bias,[0.44166467 0.1393252  0.5242495 ]
sub_nn_64.out.weight,[[ 1.2963464  -0.16190432 -0.11975151]]
sub_nn_64.out.bias,[0.48432052]
sub_nn_65.hidden.weight,[[ 0.28201866 -1.007912  ] [ 0.14951967  1.0360129 ] [ 0.1297898   0.09481321]]
sub_nn_65.hidden.bias,[-0.3986173  -0.35418686  0.28654402]
sub_nn_65.out.weight,[[0.08431466 0.47882286 0.18063487]]
sub_nn_65.out.bias,[0.03707236]
sub_nn_66.hidden.weight,[[ 0.39311406  1.2461559 ] [ 1.0847907  -0.60829884] [ 0.8798904   0.1312623 ]]
sub_nn_66.hidden.bias,[-0.05616719 -0.08404911  0.19498748]
sub_nn_66.out.weight,[[ 0.06797255 -1.340575   -0.38595685]]
sub_nn_66.out.bias,[0.08805811]
sub_nn_67.hidden.weight,[[-0.15071003 -0.07275336] [-0.65716946 -0.22477035] [-0.6457089  -0.3307191 ]]
sub_nn_67.hidden.bias,[-0.07135407  0.53132594 -0.24627945]
sub_nn_67.out.weight,[[-0.40093556 -0.39597335  0.190574  ]]
sub_nn_67.out.bias,[-0.10743105]
sub_nn_68.hidden.weight,[[-0.64688176 -0.3889118 ] [-0.26904303  0.7088552 ] [ 0.6141341  -0.47064152]]
sub_nn_68.hidden.bias,[-0.04663801 -0.52621543  0.30549714]
sub_nn_68.out.weight,[[ 0.49003708  0.3120494  -0.04836638]]
sub_nn_68.out.bias,[0.5484661]
sub_nn_69.hidden.weight,[[ 0.2404134   0.7740546 ] [ 0.39897513  0.6876406 ] [-0.12276258  0.34511295]]
sub_nn_69.hidden.bias,[ 0.48359936  0.6508772  -0.38109937]
sub_nn_69.out.weight,[[-0.2831581   0.36403933  0.10452445]]
sub_nn_69.out.bias,[0.06622696]
sub_nn_70.hidden.weight,[[0.164539   0.00628938] [0.802105   0.9265471 ] [0.44511926 0.21653065]]
sub_nn_70.hidden.bias,[ 0.48501366  0.36341065 -0.453569  ]
sub_nn_70.out.weight,[[-0.04782209  1.1949317   0.46680918]]
sub_nn_70.out.bias,[-0.27118856]
sub_nn_71.hidden.weight,[[ 0.5149454  -0.82058346] [ 0.7610081   0.07042658] [-0.07359769  0.13862327]]
sub_nn_71.hidden.bias,[-0.09775043 -0.40144867  0.1795055 ]
sub_nn_71.out.weight,[[-0.2815509   1.026362   -0.38544604]]
sub_nn_71.out.bias,[-0.5184814]
sub_nn_72.hidden.weight,[[-0.19985847  0.00926283] [-1.2196481   0.498189  ] [ 0.32480952 -0.27771646]]
sub_nn_72.hidden.bias,[-0.4406714   0.11766277 -0.50303286]
sub_nn_72.out.weight,[[1.42041    0.68665165 0.07477424]]
sub_nn_72.out.bias,[0.30627823]
sub_nn_73.hidden.weight,[[-0.25267568  0.78337395] [-0.29340002  0.60864395] [-0.11621421  0.071912  ]]
sub_nn_73.hidden.bias,[-0.44689906 -0.6122718   0.25478232]
sub_nn_73.out.weight,[[ 0.16773719 -0.02989857 -0.23168775]]
sub_nn_73.out.bias,[-0.10390732]
sub_nn_74.hidden.weight,[[-0.3579771  -0.01683462] [ 0.3196351   0.07934336] [-0.00898353 -0.9975921 ]]
sub_nn_74.hidden.bias,[0.64182323 0.03365201 0.6223317 ]
sub_nn_74.out.weight,[[ 0.5898939   0.16030766 -0.83651924]]
sub_nn_74.out.bias,[-0.40362316]
sub_nn_75.hidden.weight,[[-0.07711048  0.26240063] [ 0.39404118 -1.192455  ] [ 0.15060002 -0.28959617]]
sub_nn_75.hidden.bias,[ 0.42930743  0.4351145  -0.6768144 ]
sub_nn_75.out.weight,[[-0.8221067  -1.8347771  -0.05033591]]
sub_nn_75.out.bias,[0.43870974]
sub_nn_76.hidden.weight,[[-0.7222864   0.3309975 ] [ 0.8763386   1.2721944 ] [ 0.00745408  0.1151291 ]]
sub_nn_76.hidden.bias,[-0.11842328  0.07248712  0.05397099]
sub_nn_76.out.weight,[[-0.23167697 -0.08643771  0.5417174 ]]
sub_nn_76.out.bias,[-0.08288795]
sub_nn_77.hidden.weight,[[ 0.1033852   0.7408892 ] [ 0.32642838 -0.88059795] [-0.0266745  -0.5756372 ]]
sub_nn_77.hidden.bias,[-0.26398233 -0.06913008 -0.35129803]
sub_nn_77.out.weight,[[ 1.1020379  -0.70920384  0.7789478 ]]
sub_nn_77.out.bias,[0.5533186]
sub_nn_78.hidden.weight,[[ 0.78151244  0.7896453 ] [ 1.1548072  -0.4321647 ] [ 0.27364612 -0.51495546]]
sub_nn_78.hidden.bias,[-0.67939955  0.38515407 -0.23671106]
sub_nn_78.out.weight,[[-0.33255318  0.3819967  -0.12935928]]
sub_nn_78.out.bias,[0.03546447]
sub_nn_79.hidden.weight,[[-0.16694538  0.20478931] [-0.20529595  0.16199973] [ 0.26247     0.22679798]]
sub_nn_79.hidden.bias,[0.09104098 0.02371059 0.17171073]
sub_nn_79.out.weight,[[0.47875902 0.48394296 0.4547261 ]]
sub_nn_79.out.bias,[0.26318848]
sub_nn_80.hidden.weight,[[ 0.1389901   0.45173797] [ 0.15945476 -1.2496073 ] [-0.64534867  0.75668824]]
sub_nn_80.hidden.bias,[-0.04783526  0.10324666 -0.26162887]
sub_nn_80.out.weight,[[-0.3914646   0.04962144 -0.33437878]]
sub_nn_80.out.bias,[-0.36215153]
sub_nn_81.hidden.weight,[[-0.12009519 -0.13324761] [-0.09040759  0.6671543 ] [-0.59835696 -1.7928957 ]]
sub_nn_81.hidden.bias,[ 0.04584484  0.04574223 -0.54856956]
sub_nn_81.out.weight,[[-1.0255194 -0.9072635 -0.1002156]]
sub_nn_81.out.bias,[0.01506549]
sub_nn_82.hidden.weight,[[-0.12470844 -0.47700763] [-0.5189682   0.8864292 ] [ 0.1232928   0.7509537 ]]
sub_nn_82.hidden.bias,[-0.04515421 -0.5184084  -0.30205882]
sub_nn_82.out.weight,[[1.6571362  0.49629733 0.589361  ]]
sub_nn_82.out.bias,[-0.5453061]
sub_nn_83.hidden.weight,[[ 0.3081178   0.41927034] [-0.59264946 -0.34476015] [ 0.50563693  1.0902181 ]]
sub_nn_83.hidden.bias,[-0.41874605 -0.4166699   0.5641895 ]
sub_nn_83.out.weight,[[-0.16290247  0.6272569  -1.5762506 ]]
sub_nn_83.out.bias,[0.46633434]
sub_nn_84.hidden.weight,[[-0.03940387  0.6999486 ] [-0.28138143 -0.31450018] [-0.02185174  0.41261536]]
sub_nn_84.hidden.bias,[0.49663693 0.10076797 0.44842276]
sub_nn_84.out.weight,[[ 0.1256543  -0.4558264  -0.02417113]]
sub_nn_84.out.bias,[0.3516438]
sub_nn_85.hidden.weight,[[-1.1737769   0.4690363 ] [ 0.59827137 -0.34102827] [ 0.62256444 -0.26897722]]
sub_nn_85.hidden.bias,[ 0.6134408  -0.46520424  0.18118177]
sub_nn_85.out.weight,[[-0.83850706  0.51540965  0.86092484]]
sub_nn_85.out.bias,[0.11758167]
sub_nn_86.hidden.weight,[[ 0.12385999  0.68080807] [-0.26762834 -1.1000907 ] [ 0.648259   -0.30009475]]
sub_nn_86.hidden.bias,[0.45341963 0.56813794 0.68546283]
sub_nn_86.out.weight,[[ 0.3461158  -0.81178445  0.298779  ]]
sub_nn_86.out.bias,[0.13546121]
sub_nn_87.hidden.weight,[[ 0.68758035 -0.5685023 ] [-0.13482474  0.25997445] [ 0.27737787  0.82583195]]
sub_nn_87.hidden.bias,[0.5585229  0.21330394 0.0905503 ]
sub_nn_87.out.weight,[[0.0076199  0.17974508 0.8435567 ]]
sub_nn_87.out.bias,[-0.23018873]
sub_nn_88.hidden.weight,[[ 1.0591     -1.239904  ] [-0.16448393  0.3013892 ] [ 0.36508802 -0.36781308]]
sub_nn_88.hidden.bias,[ 0.46144685 -0.6879047   0.3973268 ]
sub_nn_88.out.weight,[[-0.5157692  2.0665376 -0.3912075]]
sub_nn_88.out.bias,[-0.21600068]
sub_nn_89.hidden.weight,[[-0.24592844 -0.23629767] [-0.20150855  0.31276593] [-0.6095557  -0.62081146]]
sub_nn_89.hidden.bias,[ 0.44394484 -0.21392283 -0.1348527 ]
sub_nn_89.out.weight,[[ 0.02272417  0.65439296 -0.56343687]]
sub_nn_89.out.bias,[-0.09563491]
sub_nn_90.hidden.weight,[[-0.4849644   0.02912689] [ 0.32341     0.48606434] [ 0.7058416  -0.8541439 ]]
sub_nn_90.hidden.bias,[ 0.28695062  0.01648235 -0.12964788]
sub_nn_90.out.weight,[[-0.22470255 -0.44267783  1.0361778 ]]
sub_nn_90.out.bias,[0.44954157]
sub_nn_91.hidden.weight,[[-0.5024287  -0.7190616 ] [-0.19312483  0.01801179] [-0.05289747  1.244173  ]]
sub_nn_91.hidden.bias,[ 0.5218487   0.7029071  -0.03963669]
sub_nn_91.out.weight,[[-0.7981998  -0.67769706  0.7472362 ]]
sub_nn_91.out.bias,[0.4780798]
sub_nn_92.hidden.weight,[[-0.14008401  0.37345684] [ 0.44370258 -0.13474812] [ 0.27205735  0.13926134]]
sub_nn_92.hidden.bias,[-0.16289356 -0.32985005 -0.46349764]
sub_nn_92.out.weight,[[-0.7408164  -1.9444823  -0.11892294]]
sub_nn_92.out.bias,[-0.05723518]
sub_nn_93.hidden.weight,[[ 0.06529534 -0.02946837] [-0.55112344 -0.20210052] [-0.6632415   1.0552555 ]]
sub_nn_93.hidden.bias,[ 0.57971305 -0.01733702  0.28713262]
sub_nn_93.out.weight,[[-1.0121369   0.15889747 -0.764734  ]]
sub_nn_93.out.bias,[0.29806137]
sub_nn_94.hidden.weight,[[ 0.88003224 -0.2647488 ] [ 0.0794602   0.43436393] [ 0.91419697 -0.5532378 ]]
sub_nn_94.hidden.bias,[ 0.33974347  0.23508501 -0.37713453]
sub_nn_94.out.weight,[[-0.17156327 -0.84816116  0.9606203 ]]
sub_nn_94.out.bias,[-0.34239393]
sub_nn_95.hidden.weight,[[ 0.27958173  0.03709588] [-0.5310788  -0.82810545] [-0.59715337 -0.11082841]]
sub_nn_95.hidden.bias,[ 0.35229653  0.63233453 -0.41051248]
sub_nn_95.out.weight,[[-0.84663194  0.579537   -0.53968763]]
sub_nn_95.out.bias,[0.0241788]
sub_nn_96.hidden.weight,[[ 0.41094998  1.9263722 ] [-0.42151165  0.0036257 ] [ 0.3928612  -0.43804663]]
sub_nn_96.hidden.bias,[ 0.33257896 -0.61300164 -0.633564  ]
sub_nn_96.out.weight,[[-0.9180754 -0.4125066 -0.5840418]]
sub_nn_96.out.bias,[0.28554845]
sub_nn_97.hidden.weight,[[-0.4059621  -0.44655544] [ 0.28041637  0.47989056] [ 0.23188838 -0.18253   ]]
sub_nn_97.hidden.bias,[-0.6034438   0.20080042 -0.62176126]
sub_nn_97.out.weight,[[ 0.8994655   1.3151604  -0.20732518]]
sub_nn_97.out.bias,[0.118949]
sub_nn_98.hidden.weight,[[-0.61581045  0.04471621] [-0.04969129 -0.5866671 ] [ 0.1351365   1.203065  ]]
sub_nn_98.hidden.bias,[ 0.25935256 -0.29867634  0.5433685 ]
sub_nn_98.out.weight,[[-0.16273086  0.03406242  0.44561788]]
sub_nn_98.out.bias,[-0.343026]
sub_nn_99.hidden.weight,[[-0.21955249 -0.4240727 ] [-0.49930254 -0.3760725 ] [-0.29300335  0.3575665 ]]
sub_nn_99.hidden.bias,[ 0.48037687 -0.63102734 -0.29260552]
sub_nn_99.out.weight,[[-1.0899953 -1.4742957 -0.9172043]]
sub_nn_99.out.bias,[-0.5033107]
sub_nn_100.hidden.weight,[[-0.01871844  0.52478176] [-0.09829798  0.87275887] [ 0.2539593   0.30026475]]
sub_nn_100.hidden.bias,[ 0.41550547 -0.24107222  0.1798749 ]
sub_nn_100.out.weight,[[ 0.17570993  0.6797758  -0.6470959 ]]
sub_nn_100.out.bias,[-0.32111362]
sub_nn_101.hidden.weight,[[ 0.11807902 -0.04591702] [-0.81748533  0.21201183] [ 0.50229955  0.69032604]]
sub_nn_101.hidden.bias,[-0.05250034 -0.31632984  0.50818676]
sub_nn_101.out.weight,[[0.3786857  1.2177824  0.49493307]]
sub_nn_101.out.bias,[0.36615402]
sub_nn_102.hidden.weight,[[ 0.5332728  -0.4384005 ] [-0.19534789  0.64589447] [ 0.1916566  -0.60157275]]
sub_nn_102.hidden.bias,[ 0.16929778  0.37872723 -0.55537313]
sub_nn_102.out.weight,[[-1.1570319  -0.91790956  0.849376  ]]
sub_nn_102.out.bias,[-0.2427524]
sub_nn_103.hidden.weight,[[-0.16400887  0.14716071] [ 0.34531945 -0.19708817] [ 0.00535499  0.38819265]]
sub_nn_103.hidden.bias,[-0.70414287  0.3766736   0.17202508]
sub_nn_103.out.weight,[[ 1.2885398 -0.8260456 -0.7713367]]
sub_nn_103.out.bias,[-0.15478891]
sub_nn_104.hidden.weight,[[-0.66269463 -0.6418655 ] [ 0.03428376  0.28356102] [ 0.2538914  -0.6700024 ]]
sub_nn_104.hidden.bias,[ 0.59908354  0.5783822  -0.23453996]
sub_nn_104.out.weight,[[ 0.49683508 -1.7569158   0.7242425 ]]
sub_nn_104.out.bias,[0.32641166]
sub_nn_105.hidden.weight,[[ 0.48582795 -0.38466963] [-0.14079536  0.19805527] [-1.2222936   0.0112553 ]]
sub_nn_105.hidden.bias,[ 0.5106273  -0.6706516  -0.00739078]
sub_nn_105.out.weight,[[ 1.2273687   0.23432629 -0.3596726 ]]
sub_nn_105.out.bias,[0.04132068]
sub_nn_106.hidden.weight,[[-0.7731007   0.23265858] [ 0.10328308 -0.21898371] [-0.16197391 -0.54996574]]
sub_nn_106.hidden.bias,[-0.7055685   0.5593924  -0.16315156]
sub_nn_106.out.weight,[[-0.11804735  0.09357467 -0.299334  ]]
sub_nn_106.out.bias,[0.26573446]
sub_nn_107.hidden.weight,[[-1.0780382  -0.63799644] [ 0.35777006 -0.34776115] [ 0.16155861 -0.03174039]]
sub_nn_107.hidden.bias,[-0.22263953  0.18157704  0.53123957]
sub_nn_107.out.weight,[[-1.3317349  0.8329345 -0.3907696]]
sub_nn_107.out.bias,[0.1470201]
sub_nn_108.hidden.weight,[[ 0.5754946  -1.0609094 ] [-1.249637   -0.89969623] [-0.4610656  -0.33091962]]
sub_nn_108.hidden.bias,[-0.07547367 -0.5481762   0.54789597]
sub_nn_108.out.weight,[[ 0.44320852 -0.35837173 -0.56361556]]
sub_nn_108.out.bias,[0.31818247]
sub_nn_109.hidden.weight,[[ 0.1553726   0.29824886] [ 0.3574628   0.05513263] [ 0.3178923  -0.9558205 ]]
sub_nn_109.hidden.bias,[-0.6631378   0.45147675 -0.45012268]
sub_nn_109.out.weight,[[0.760073   0.34505567 1.981094  ]]
sub_nn_109.out.bias,[0.51102924]
sub_nn_110.hidden.weight,[[-0.6387929  -0.09222332] [ 0.63439405 -0.711914  ] [-0.8073873   0.91926956]]
sub_nn_110.hidden.bias,[ 0.1886206 -0.545462  -0.6099024]
sub_nn_110.out.weight,[[ 0.82935846  0.48308897 -0.15089807]]
sub_nn_110.out.bias,[0.57441103]
sub_nn_111.hidden.weight,[[ 0.7389114  1.1701223] [-0.5513361 -0.2069339] [ 0.4012341  1.5334781]]
sub_nn_111.hidden.bias,[-0.05597506  0.43065873 -0.01480286]
sub_nn_111.out.weight,[[-0.03435435  0.5926967  -0.48567426]]
sub_nn_111.out.bias,[0.5510572]
sub_nn_112.hidden.weight,[[ 0.09029797 -0.45896983] [ 0.70375556  0.21281683] [ 0.7711278   0.34587616]]
sub_nn_112.hidden.bias,[0.32970008 0.41231495 0.6688457 ]
sub_nn_112.out.weight,[[-0.23048835  0.03886091 -0.11181909]]
sub_nn_112.out.bias,[0.51548386]
sub_nn_113.hidden.weight,[[ 0.02709836 -0.03593172] [-0.740692   -0.78272784] [ 0.08560781 -0.06424948]]
sub_nn_113.hidden.bias,[ 0.24797083 -0.6164759   0.36394852]
sub_nn_113.out.weight,[[0.9457825  0.24964777 0.12576987]]
sub_nn_113.out.bias,[0.2547003]
sub_nn_114.hidden.weight,[[-1.5881526   0.40583858] [-1.0126109   0.34144694] [-0.63745564 -1.0772293 ]]
sub_nn_114.hidden.bias,[-0.31275895 -0.42912027 -0.3002431 ]
sub_nn_114.out.weight,[[ 0.5777718  -0.26765996  1.3958619 ]]
sub_nn_114.out.bias,[-0.09822661]
sub_nn_115.hidden.weight,[[-0.44671565  0.32089272] [-1.2384104  -0.17106912] [-0.8591372   0.27501088]]
sub_nn_115.hidden.bias,[-0.2727239  -0.12747204 -0.47812286]
sub_nn_115.out.weight,[[ 0.10472362  0.7517958  -0.5407165 ]]
sub_nn_115.out.bias,[-0.26088917]
sub_nn_116.hidden.weight,[[ 0.41345704  1.4759078 ] [ 1.0563439  -0.63015884] [-0.5185335   0.05194224]]
sub_nn_116.hidden.bias,[ 0.5304262   0.04253524 -0.21964645]
sub_nn_116.out.weight,[[ 0.9534374   0.24221128 -0.03088735]]
sub_nn_116.out.bias,[-0.2810534]
sub_nn_117.hidden.weight,[[ 1.1096038   0.9153773 ] [ 0.27230206  0.11708346] [-0.08023981 -0.2883449 ]]
sub_nn_117.hidden.bias,[-0.12472609 -0.5563998  -0.07168359]
sub_nn_117.out.weight,[[-0.4726576  -0.39846537  1.0231404 ]]
sub_nn_117.out.bias,[0.37513614]
sub_nn_118.hidden.weight,[[ 1.0297348   0.19077565] [-0.68011165 -0.39064866] [ 0.067261    0.17592555]]
sub_nn_118.hidden.bias,[ 0.37025446  0.40096015 -0.6972631 ]
sub_nn_118.out.weight,[[ 0.06218192 -0.49941897 -0.3168005 ]]
sub_nn_118.out.bias,[0.14584792]
sub_nn_119.hidden.weight,[[ 0.10520688 -0.0123695 ] [ 0.83655775  0.3177142 ] [-0.09168481  0.3428728 ]]
sub_nn_119.hidden.bias,[-0.22980225  0.42203957  0.6702631 ]
sub_nn_119.out.weight,[[-0.6196898  -0.59206885  0.08718026]]
sub_nn_119.out.bias,[-0.359756]
sub_nn_120.hidden.weight,[[ 0.15741892 -0.1549397 ] [-0.28591144 -0.10325651] [ 0.26895598  0.46854797]]
sub_nn_120.hidden.bias,[ 0.10676417  0.51883185 -0.06399491]
sub_nn_120.out.weight,[[1.1024575  0.48771808 1.6162845 ]]
sub_nn_120.out.bias,[-0.48985445]
sub_nn_121.hidden.weight,[[-0.5463185   1.1609107 ] [-0.91107243 -0.844397  ] [-0.08179063  0.47598788]]
sub_nn_121.hidden.bias,[ 0.6651498  -0.5694018   0.14636041]
sub_nn_121.out.weight,[[-0.6861639   1.2764163   0.26058778]]
sub_nn_121.out.bias,[-0.04962355]
sub_nn_122.hidden.weight,[[-0.4626323 -0.157914 ] [-0.3193128  2.034356 ] [ 0.3725951 -1.4049367]]
sub_nn_122.hidden.bias,[0.41270798 0.45370883 0.5802386 ]
sub_nn_122.out.weight,[[ 0.0564085  -0.08963931 -0.41117015]]
sub_nn_122.out.bias,[0.01107389]
sub_nn_123.hidden.weight,[[-1.1770147   0.2056562 ] [-1.0136907   1.8116336 ] [-0.42240393 -0.13190071]]
sub_nn_123.hidden.bias,[-0.1759619  -0.54679084 -0.66909057]
sub_nn_123.out.weight,[[-0.5417736   0.5842265  -0.14617598]]
sub_nn_123.out.bias,[-0.1075601]
sub_nn_124.hidden.weight,[[-1.5361903  -0.16948414] [ 0.49314532 -0.6735228 ] [-0.49632686 -0.23803847]]
sub_nn_124.hidden.bias,[-0.6599095  -0.6337115  -0.58113897]
sub_nn_124.out.weight,[[ 0.62822217 -0.12542745  2.5913234 ]]
sub_nn_124.out.bias,[0.36829287]
sub_nn_125.hidden.weight,[[ 0.93440294  0.01095822] [ 0.04116451 -0.37506056] [-0.2700621   0.0675483 ]]
sub_nn_125.hidden.bias,[ 0.61603075 -0.21881343  0.29693824]
sub_nn_125.out.weight,[[-0.5393941  -0.10763961  0.01377915]]
sub_nn_125.out.bias,[-0.21399552]
sub_nn_126.hidden.weight,[[-0.6692316  -0.20011984] [ 0.28683752  1.3492866 ] [-0.4182309  -0.13859184]]
sub_nn_126.hidden.bias,[-0.26355907  0.6989507   0.09401183]
sub_nn_126.out.weight,[[0.04171892 1.3384527  0.04468279]]
sub_nn_126.out.bias,[0.4288262]
sub_nn_127.hidden.weight,[[ 0.35933706  1.7639954 ] [ 0.5285762  -0.7639778 ] [-0.16332528 -0.7439511 ]]
sub_nn_127.hidden.bias,[-0.00130877  0.44329178  0.5240153 ]
sub_nn_127.out.weight,[[-0.54838395 -0.16289812  0.36022192]]
sub_nn_127.out.bias,[0.22348589]
sub_nn_128.hidden.weight,[[ 0.10675414 -1.3372085 ] [ 0.39155132 -0.15317345] [ 0.11499413 -0.2534118 ]]
sub_nn_128.hidden.bias,[-0.06991734 -0.47217745 -0.6456769 ]
sub_nn_128.out.weight,[[-0.6986323  -0.3915499   0.49258393]]
sub_nn_128.out.bias,[-0.51100445]
sub_nn_129.hidden.weight,[[ 0.495827   -0.20794767] [-0.8953184   0.36242905] [-0.5418614   0.7431567 ]]
sub_nn_129.hidden.bias,[-0.07131337  0.44009247  0.38493538]
sub_nn_129.out.weight,[[-0.1505391  -0.3576003   0.42235515]]
sub_nn_129.out.bias,[0.13789612]
sub_nn_130.hidden.weight,[[-0.02742667 -0.31969553] [ 0.9945772   0.28192794] [-0.5664415  -0.70447755]]
sub_nn_130.hidden.bias,[0.36057985 0.36320835 0.6530892 ]
sub_nn_130.out.weight,[[-1.1169461  -0.63052166  0.34751242]]
sub_nn_130.out.bias,[0.5289998]
sub_nn_131.hidden.weight,[[ 0.71523273  0.795325  ] [-0.24020669  0.5847542 ] [-0.11498797 -0.17858084]]
sub_nn_131.hidden.bias,[ 0.00464368 -0.05424292  0.5536419 ]
sub_nn_131.out.weight,[[-0.03718992 -1.2063135   1.6443208 ]]
sub_nn_131.out.bias,[0.07526118]
sub_nn_132.hidden.weight,[[ 0.37853315 -0.26854408] [ 0.56013656 -0.3300533 ] [-0.01718799  0.17337292]]
sub_nn_132.hidden.bias,[ 0.09858154  0.18118584 -0.6772041 ]
sub_nn_132.out.weight,[[-0.8968497   0.8110927   0.21628125]]
sub_nn_132.out.bias,[-0.12698755]
sub_nn_133.hidden.weight,[[ 0.18779105  0.5324715 ] [-0.14919929 -0.57713664] [ 0.5057193   1.0321169 ]]
sub_nn_133.hidden.bias,[-0.05070916  0.2162484  -0.29355496]
sub_nn_133.out.weight,[[ 0.28411636 -0.8554553  -0.4527945 ]]
sub_nn_133.out.bias,[0.537851]
sub_nn_134.hidden.weight,[[ 0.04077062 -0.20031682] [ 0.42541486  1.262664  ] [-0.02388287 -0.0340064 ]]
sub_nn_134.hidden.bias,[ 0.17992456 -0.4376111  -0.54555184]
sub_nn_134.out.weight,[[-0.05402497 -0.36817142 -0.8475388 ]]
sub_nn_134.out.bias,[0.14834547]
sub_nn_135.hidden.weight,[[ 0.06574073 -0.44081783] [-0.2835527  -0.9905749 ] [-0.70905924 -0.23572475]]
sub_nn_135.hidden.bias,[-0.5216322   0.5827805  -0.62007725]
sub_nn_135.out.weight,[[ 0.06469926  0.7936479  -0.35834053]]
sub_nn_135.out.bias,[-0.21505192]
sub_nn_136.hidden.weight,[[-1.0845269   0.37589076] [-0.28874987  0.6039781 ] [-0.2518396   1.1261042 ]]
sub_nn_136.hidden.bias,[-0.4419056  0.2576246  0.6272564]
sub_nn_136.out.weight,[[ 0.00784734  0.02870744 -0.1431969 ]]
sub_nn_136.out.bias,[0.3668108]
sub_nn_137.hidden.weight,[[ 0.4053319   0.17188795] [ 0.6913917  -0.19898385] [-0.6741482  -0.7585171 ]]
sub_nn_137.hidden.bias,[-0.20057784  0.5163624   0.66098505]
sub_nn_137.out.weight,[[-1.1264641   0.8181164   0.10131717]]
sub_nn_137.out.bias,[-0.23926288]
sub_nn_138.hidden.weight,[[ 0.3593604  -0.8429561 ] [ 0.80099225  0.25428435] [-0.59200364  0.01681309]]
sub_nn_138.hidden.bias,[-0.13112754 -0.11378068 -0.52491236]
sub_nn_138.out.weight,[[-0.05115475  0.8547382   0.7858668 ]]
sub_nn_138.out.bias,[-0.5681956]
sub_nn_139.hidden.weight,[[ 0.00663526  0.6484458 ] [ 0.25570428 -0.8774219 ] [ 0.02138948  0.14592536]]
sub_nn_139.hidden.bias,[ 0.3212784   0.1702275  -0.46040314]
sub_nn_139.out.weight,[[-0.36156166 -0.26494008  0.78224295]]
sub_nn_139.out.bias,[0.06240869]
sub_nn_140.hidden.weight,[[-0.2621839  -0.05695007] [ 1.1962006  -0.3111018 ] [ 0.21871305  0.04385013]]
sub_nn_140.hidden.bias,[-0.383165   -0.4588198   0.60358554]
sub_nn_140.out.weight,[[ 0.01072906 -1.041602   -0.5593837 ]]
sub_nn_140.out.bias,[-0.3942174]
sub_nn_141.hidden.weight,[[-0.18225828 -0.1888428 ] [ 0.27445605 -0.12989563] [ 0.3453031   0.08919633]]
sub_nn_141.hidden.bias,[-0.12547886 -0.1498438  -0.21237393]
sub_nn_141.out.weight,[[0.39447722 1.2948006  0.52089   ]]
sub_nn_141.out.bias,[0.44505787]
sub_nn_142.hidden.weight,[[ 0.34240356  0.32665375] [-0.4181496  -0.5178018 ] [ 0.57461095  0.23170005]]
sub_nn_142.hidden.bias,[ 0.2983908  -0.6619713   0.25607085]
sub_nn_142.out.weight,[[-0.9820312  -0.14079224 -0.5368976 ]]
sub_nn_142.out.bias,[-0.12280688]
sub_nn_143.hidden.weight,[[ 0.15557133 -0.2594489 ] [-0.22249472  0.35588887] [ 0.24669945 -0.5797028 ]]
sub_nn_143.hidden.bias,[ 0.409753    0.15161268 -0.03097565]
sub_nn_143.out.weight,[[-0.2721126  1.0818328 -0.3851302]]
sub_nn_143.out.bias,[0.553545]
sub_nn_144.hidden.weight,[[-0.7390632  -0.98858225] [ 0.6249448  -0.80133736] [ 0.34202525  1.5888054 ]]
sub_nn_144.hidden.bias,[0.24444914 0.6343747  0.34707147]
sub_nn_144.out.weight,[[-0.3166672  -0.21015948 -1.362978  ]]
sub_nn_144.out.bias,[0.35896188]
sub_nn_145.hidden.weight,[[-1.505136   -0.23958963] [-0.23168826  0.3852293 ] [ 0.28919083 -0.4049877 ]]
sub_nn_145.hidden.bias,[ 0.09338968 -0.17517339 -0.65750086]
sub_nn_145.out.weight,[[-0.87618273 -0.4017023  -0.74931306]]
sub_nn_145.out.bias,[0.47859216]
sub_nn_146.hidden.weight,[[-0.30377424  0.762854  ] [ 0.08337299  0.12472723] [ 0.2699179  -0.1945189 ]]
sub_nn_146.hidden.bias,[ 0.06448372 -0.00341256 -0.31970856]
sub_nn_146.out.weight,[[ 0.3367898  -0.18225086  0.14997195]]
sub_nn_146.out.bias,[-0.20178938]
sub_nn_147.hidden.weight,[[ 0.04297148 -0.48240098] [-0.1546196  -0.37649804] [-0.36247516 -0.7161649 ]]
sub_nn_147.hidden.bias,[-0.49069774  0.6973367  -0.59483594]
sub_nn_147.out.weight,[[-1.0990151   0.15022454  0.18557559]]
sub_nn_147.out.bias,[-0.15122473]
sub_nn_148.hidden.weight,[[-0.96917653  0.58784956] [-0.6209628   0.64338654] [-1.0113612   0.39327297]]
sub_nn_148.hidden.bias,[ 0.19164889 -0.12345213 -0.4047468 ]
sub_nn_148.out.weight,[[ 1.0605252  0.7906998 -1.6205546]]
sub_nn_148.out.bias,[0.35062474]
sub_nn_149.hidden.weight,[[ 0.0168842   0.5631419 ] [-1.1400554   0.4770378 ] [ 0.87181306  0.6915751 ]]
sub_nn_149.hidden.bias,[0.19016516 0.65269536 0.24832153]
sub_nn_149.out.weight,[[0.6110494  0.11923996 1.0182446 ]]
sub_nn_149.out.bias,[0.3125357]
sub_nn_150.hidden.weight,[[ 0.01005844 -0.14048365] [ 0.58806807  0.6124262 ] [-0.15323217 -0.4365573 ]]
sub_nn_150.hidden.bias,[-0.47052634  0.5863864  -0.23877573]
sub_nn_150.out.weight,[[-0.544213   -0.24694192 -1.4143059 ]]
sub_nn_150.out.bias,[0.37755936]
sub_nn_151.hidden.weight,[[ 0.11163505  0.32376504] [-0.6085472   0.5238502 ] [ 0.4184585   0.11709853]]
sub_nn_151.hidden.bias,[0.26298648 0.5310169  0.28207326]
sub_nn_151.out.weight,[[ 0.68941367 -0.7441739   0.6997319 ]]
sub_nn_151.out.bias,[-0.54261005]
sub_nn_152.hidden.weight,[[-0.66571784 -0.5644384 ] [-0.13699333 -0.30248585] [-0.9056434   0.43117017]]
sub_nn_152.hidden.bias,[0.49043244 0.56660813 0.5339879 ]
sub_nn_152.out.weight,[[-0.09325575 -0.05731845 -0.14956841]]
sub_nn_152.out.bias,[0.47998035]
sub_nn_153.hidden.weight,[[-0.8014663  -0.7593791 ] [-1.2277464  -0.62526417] [ 0.44543016 -0.07577005]]
sub_nn_153.hidden.bias,[ 0.16946608  0.581531   -0.6684872 ]
sub_nn_153.out.weight,[[0.11930023 0.6795871  1.9738703 ]]
sub_nn_153.out.bias,[-0.3165975]
sub_nn_154.hidden.weight,[[ 0.02730933  0.57495004] [ 0.18089315  0.26828653] [-0.18385951 -1.0385498 ]]
sub_nn_154.hidden.bias,[ 0.6573053  -0.58523476 -0.01495034]
sub_nn_154.out.weight,[[ 0.3660557  -0.6225846   0.20849918]]
sub_nn_154.out.bias,[0.1989423]
sub_nn_155.hidden.weight,[[-1.4387301  -0.06189301] [-0.55927074  1.0445247 ] [-0.69975114 -0.00865166]]
sub_nn_155.hidden.bias,[-0.03802162  0.13238035  0.33471483]
sub_nn_155.out.weight,[[ 0.3799879 -0.7503323 -0.389696 ]]
sub_nn_155.out.bias,[-0.19135433]
sub_nn_156.hidden.weight,[[ 0.3015251  -0.06503402] [-1.0755227  -0.62612695] [-0.4848115   0.8726411 ]]
sub_nn_156.hidden.bias,[-0.5750914   0.11257356 -0.58238846]
sub_nn_156.out.weight,[[-1.1283379   0.02206623 -0.18882485]]
sub_nn_156.out.bias,[0.02459109]
sub_nn_157.hidden.weight,[[ 0.898933   -0.5418887 ] [ 1.9695529   0.90355444] [ 1.282592   -0.71510994]]
sub_nn_157.hidden.bias,[-0.5552241   0.09479618  0.02066696]
sub_nn_157.out.weight,[[0.05753063 0.9606066  0.33584738]]
sub_nn_157.out.bias,[0.531517]
sub_nn_158.hidden.weight,[[ 0.08657324  0.55910796] [ 0.2756954  -0.3240991 ] [-0.39225715  0.01988686]]
sub_nn_158.hidden.bias,[ 0.61246413 -0.34036306  0.11209899]
sub_nn_158.out.weight,[[ 0.31133562  0.14807674 -0.47583833]]
sub_nn_158.out.bias,[-0.4264429]
sub_nn_159.hidden.weight,[[ 0.21149203  0.807527  ] [ 0.7819448  -0.6221713 ] [ 0.29266116  0.71365464]]
sub_nn_159.hidden.bias,[ 0.0645721  -0.40761632 -0.25567886]
sub_nn_159.out.weight,[[-0.7597681  1.280595   1.0876303]]
sub_nn_159.out.bias,[0.09588772]
sub_nn_160.hidden.weight,[[ 0.71324587  1.370586  ] [-0.2761404   0.08853458] [-0.0110817  -0.7710236 ]]
sub_nn_160.hidden.bias,[0.20584124 0.27017102 0.14342299]
sub_nn_160.out.weight,[[-0.1264078  -0.10305155  1.6725351 ]]
sub_nn_160.out.bias,[-0.30099532]
sub_nn_161.hidden.weight,[[ 0.04598798 -0.44039962] [ 0.02420479 -0.7395067 ] [ 0.20198913  0.2475385 ]]
sub_nn_161.hidden.bias,[-0.24005854  0.2190321  -0.11863924]
sub_nn_161.out.weight,[[0.36083955 1.1198735  0.10757583]]
sub_nn_161.out.bias,[0.00433606]
sub_nn_162.hidden.weight,[[ 0.60927945  0.6611938 ] [-0.31578803 -1.2406864 ] [ 0.42756906  1.5941324 ]]
sub_nn_162.hidden.bias,[ 0.19558668 -0.2882035  -0.20710623]
sub_nn_162.out.weight,[[0.87871283 0.4290636  0.01319133]]
sub_nn_162.out.bias,[-0.12249187]
sub_nn_163.hidden.weight,[[-1.2185208   0.87829167] [-0.14222248 -0.25414896] [ 0.8624637  -0.40392593]]
sub_nn_163.hidden.bias,[-0.19370183  0.15710327  0.22182347]
sub_nn_163.out.weight,[[ 0.3264394  -0.24319687  0.21570708]]
sub_nn_163.out.bias,[0.45729446]
sub_nn_164.hidden.weight,[[ 1.1533793  -0.28198338] [-0.42138284 -0.1867033 ] [-1.2442886   0.49207962]]
sub_nn_164.hidden.bias,[0.23011965 0.15096359 0.20448399]
sub_nn_164.out.weight,[[ 0.2268612  -0.24607818  0.5500486 ]]
sub_nn_164.out.bias,[0.42486882]
sub_nn_165.hidden.weight,[[ 0.62358314  0.10782345] [-0.37332335  0.20073123] [ 0.6083042   0.16981377]]
sub_nn_165.hidden.bias,[0.54029423 0.22191432 0.67527086]
sub_nn_165.out.weight,[[-1.5523641   0.04966349  0.96188915]]
sub_nn_165.out.bias,[0.34508014]
sub_nn_166.hidden.weight,[[ 1.2798301   0.6777325 ] [ 0.19042386  0.27405804] [-0.0507702   0.74509543]]
sub_nn_166.hidden.bias,[-0.03451224 -0.58326405 -0.6378828 ]
sub_nn_166.out.weight,[[ 0.63760614 -0.13348018  0.34543335]]
sub_nn_166.out.bias,[0.07767344]
sub_nn_167.hidden.weight,[[ 0.34604236  1.058797  ] [ 0.01663311  0.07047717] [ 1.2540159  -0.57910997]]
sub_nn_167.hidden.bias,[ 0.58410734 -0.701174   -0.3887591 ]
sub_nn_167.out.weight,[[-0.47730786  0.35888797 -0.20044173]]
sub_nn_167.out.bias,[-0.13924116]
sub_nn_168.hidden.weight,[[ 0.78123564  0.304284  ] [-0.4337945  -0.6686817 ] [ 1.4790951  -0.09442649]]
sub_nn_168.hidden.bias,[-0.20099807  0.07040633 -0.08711656]
sub_nn_168.out.weight,[[-0.6188301  1.4001994  1.94065  ]]
sub_nn_168.out.bias,[-0.4944036]
sub_nn_169.hidden.weight,[[-0.963329    1.2301471 ] [-0.08695985  0.17761606] [-0.25207436  0.04088755]]
sub_nn_169.hidden.bias,[-0.52694124 -0.01485744  0.40380207]
sub_nn_169.out.weight,[[ 1.5484623   1.1487738  -0.74039483]]
sub_nn_169.out.bias,[-0.35944694]
sub_nn_170.hidden.weight,[[-0.06410109 -0.25372785] [ 0.06561971 -0.59771526] [-0.01567429 -0.45764428]]
sub_nn_170.hidden.bias,[ 0.21428607 -0.16701902  0.04397881]
sub_nn_170.out.weight,[[ 0.7131876   0.44253838 -0.4790443 ]]
sub_nn_170.out.bias,[-0.35138494]
sub_nn_171.hidden.weight,[[-0.27056408  0.52674663] [ 1.0628705   0.15173148] [ 0.00466022 -0.83554846]]
sub_nn_171.hidden.bias,[ 0.17317022  0.46075064 -0.6643463 ]
sub_nn_171.out.weight,[[ 0.90631926 -0.05251726 -1.372318  ]]
sub_nn_171.out.bias,[-0.39638704]
sub_nn_172.hidden.weight,[[ 0.39316994  0.01248157] [-0.434797    0.7731909 ] [-0.56300163  0.3913134 ]]
sub_nn_172.hidden.bias,[ 0.01566601 -0.45105928  0.3726789 ]
sub_nn_172.out.weight,[[ 0.6032144  -0.0092029   0.73725903]]
sub_nn_172.out.bias,[-0.52391136]
sub_nn_173.hidden.weight,[[ 1.2620785   0.8897769 ] [ 1.3203275   0.23164177] [-0.04365827  0.9739489 ]]
sub_nn_173.hidden.bias,[-0.4346012   0.21626127  0.4368826 ]
sub_nn_173.out.weight,[[ 0.61432254 -1.1143695  -0.33036748]]
sub_nn_173.out.bias,[0.39472586]
sub_nn_174.hidden.weight,[[-0.3932922   0.36670637] [ 0.12134104  0.8606741 ] [-0.11598916  0.28752398]]
sub_nn_174.hidden.bias,[-0.09233271  0.15624529  0.22095616]
sub_nn_174.out.weight,[[ 0.08520298 -0.74629945  0.19317383]]
sub_nn_174.out.bias,[-0.38509142]
sub_nn_175.hidden.weight,[[1.1962299  0.43752155] [0.23173138 0.9462162 ] [0.2059652  1.3308172 ]]
sub_nn_175.hidden.bias,[-0.29721966  0.63418096 -0.40862828]
sub_nn_175.out.weight,[[ 1.6861839   0.41806427 -0.04640925]]
sub_nn_175.out.bias,[0.31889123]
sub_nn_176.hidden.weight,[[ 0.47420365  0.24062194] [-0.74354374 -0.08954822] [-0.08091     0.18107428]]
sub_nn_176.hidden.bias,[-0.62781996 -0.02783251 -0.42837355]
sub_nn_176.out.weight,[[ 1.5460759 -0.2494375 -0.6779076]]
sub_nn_176.out.bias,[0.3131911]
sub_nn_177.hidden.weight,[[ 1.1046734  -0.07722747] [ 0.00582784  0.5513094 ] [-0.14619142  0.16290967]]
sub_nn_177.hidden.bias,[-0.20076494 -0.09807017  0.16935486]
sub_nn_177.out.weight,[[ 1.1542335  -0.57195306  0.38709   ]]
sub_nn_177.out.bias,[-0.03511602]
sub_nn_178.hidden.weight,[[-0.02567896 -0.02981787] [ 0.31929302 -1.4972957 ] [-1.1206145   0.33888578]]
sub_nn_178.hidden.bias,[-0.37226775 -0.0251532  -0.39692202]
sub_nn_178.out.weight,[[-1.1810782   0.15853414  0.2054991 ]]
sub_nn_178.out.bias,[0.23777586]
sub_nn_179.hidden.weight,[[ 0.1389677   0.723259  ] [-1.3026835   0.15775698] [-0.33487892  1.0883336 ]]
sub_nn_179.hidden.bias,[ 0.14839351  0.22144595 -0.08309713]
sub_nn_179.out.weight,[[-0.49048316 -0.03964682  0.52801406]]
sub_nn_179.out.bias,[0.10233128]
sub_nn_180.hidden.weight,[[ 1.4354604   1.0208286 ] [ 0.01794815  0.6774145 ] [-0.25150898 -0.61734235]]
sub_nn_180.hidden.bias,[ 0.49915594 -0.2971155   0.4104649 ]
sub_nn_180.out.weight,[[ 0.10992398 -1.2268832  -0.19831623]]
sub_nn_180.out.bias,[-0.20552799]
sub_nn_181.hidden.weight,[[-0.7277031   0.66130555] [ 0.30726567 -0.09423438] [-0.98091084 -0.7532372 ]]
sub_nn_181.hidden.bias,[-0.47872287 -0.30349037 -0.69142276]
sub_nn_181.out.weight,[[-0.7214014  -0.46538547  0.5412456 ]]
sub_nn_181.out.bias,[-0.45908457]
sub_nn_182.hidden.weight,[[-0.70479363  0.3702444 ] [ 1.7894344   0.08276264] [-0.2383541   0.20527829]]
sub_nn_182.hidden.bias,[0.4323749  0.3695373  0.52427703]
sub_nn_182.out.weight,[[-0.8887515   0.35503235  0.3897939 ]]
sub_nn_182.out.bias,[0.50302184]
sub_nn_183.hidden.weight,[[ 0.01436983 -0.5039793 ] [ 0.35867834 -0.8680132 ] [ 0.5279571  -0.22949655]]
sub_nn_183.hidden.bias,[0.26533443 0.611059   0.13339703]
sub_nn_183.out.weight,[[-0.68437254  0.7754909   0.76067424]]
sub_nn_183.out.bias,[0.0548681]
sub_nn_184.hidden.weight,[[-0.6590921   0.33282655] [-0.7119088   0.6838363 ] [ 0.16221961 -0.5550784 ]]
sub_nn_184.hidden.bias,[-0.14978445  0.3041699   0.48474273]
sub_nn_184.out.weight,[[-0.564396    0.6023141   0.26788467]]
sub_nn_184.out.bias,[-0.04024065]
sub_nn_185.hidden.weight,[[-0.963574   -0.6203722 ] [ 0.20296423  1.3107619 ] [ 1.3708084  -0.65667504]]
sub_nn_185.hidden.bias,[-0.28782478 -0.43733937  0.0338434 ]
sub_nn_185.out.weight,[[ 0.9264809  -1.2811826   0.13358572]]
sub_nn_185.out.bias,[0.26374358]
sub_nn_186.hidden.weight,[[ 0.20884998  0.9173326 ] [-0.44239593  0.87330425] [ 0.4368336  -0.7877061 ]]
sub_nn_186.hidden.bias,[ 0.44901294  0.681792   -0.2776557 ]
sub_nn_186.out.weight,[[ 0.10602973 -0.39594242  0.0092778 ]]
sub_nn_186.out.bias,[0.19840199]
sub_nn_187.hidden.weight,[[ 0.17749542 -0.50802714] [ 0.4937587   0.395868  ] [-0.00243069 -0.17296213]]
sub_nn_187.hidden.bias,[ 0.17148848  0.54525167 -0.01703364]
sub_nn_187.out.weight,[[-0.34625617  0.8135073   0.10558978]]
sub_nn_187.out.bias,[-0.55321854]
sub_nn_188.hidden.weight,[[-0.60510075 -0.04257317] [ 0.13632278  0.48868838] [-0.52117366  0.09111661]]
sub_nn_188.hidden.bias,[-0.61578053 -0.64761865  0.020611  ]
sub_nn_188.out.weight,[[ 0.2618017  -0.17918561  0.16295098]]
sub_nn_188.out.bias,[0.5682703]
sub_nn_189.hidden.weight,[[-0.08935074 -0.29438287] [ 0.11164811 -0.59355533] [-0.02412579  0.01415649]]
sub_nn_189.hidden.bias,[ 0.48889923 -0.58718365  0.5271444 ]
sub_nn_189.out.weight,[[ 0.07811916 -0.75615215  0.03397641]]
sub_nn_189.out.bias,[0.5392828]
sub_nn_190.hidden.weight,[[0.77918255 0.145138  ] [0.5240343  0.47369087] [0.1976873  1.5312556 ]]
sub_nn_190.hidden.bias,[-0.10442647 -0.3831023   0.10730857]
sub_nn_190.out.weight,[[ 0.23277354  0.04880058 -0.0568254 ]]
sub_nn_190.out.bias,[0.27631253]
sub_nn_191.hidden.weight,[[ 0.15841377 -0.20401503] [-0.68166834  0.5214582 ] [ 0.9336221   0.01901115]]
sub_nn_191.hidden.bias,[-0.5456148  -0.39126804 -0.03088075]
sub_nn_191.out.weight,[[-0.68972427  0.4722366  -0.23380782]]
sub_nn_191.out.bias,[0.16853172]
sub_nn_192.hidden.weight,[[-0.48727596 -0.44884488] [-0.2044105   0.27431488] [ 0.04996088  0.44405136]]
sub_nn_192.hidden.bias,[-0.09407765  0.0816021  -0.04165311]
sub_nn_192.out.weight,[[0.09064876 0.19841577 0.88341767]]
sub_nn_192.out.bias,[0.13544548]
sub_nn_193.hidden.weight,[[ 0.8164535   0.08147258] [-0.66681445 -0.10877892] [ 0.02645326 -0.8301532 ]]
sub_nn_193.hidden.bias,[ 0.65511113 -0.5149497  -0.5152919 ]
sub_nn_193.out.weight,[[-0.6864006   0.93694896 -0.23131493]]
sub_nn_193.out.bias,[-0.47188866]
sub_nn_194.hidden.weight,[[ 1.1954052   0.37989932] [-0.75881296 -0.9099726 ] [ 0.32473344  1.1894058 ]]
sub_nn_194.hidden.bias,[ 0.35238367 -0.4268577  -0.5270464 ]
sub_nn_194.out.weight,[[-0.06472361  0.3233163   0.5215027 ]]
sub_nn_194.out.bias,[-0.06807655]
sub_nn_195.hidden.weight,[[ 0.7783174   0.6875773 ] [-1.3944378   0.21714674] [-0.00271396 -0.18983513]]
sub_nn_195.hidden.bias,[0.2585876  0.22301017 0.3205139 ]
sub_nn_195.out.weight,[[-0.68735707  0.12348643  0.57310444]]
sub_nn_195.out.bias,[0.5653837]
sub_nn_196.hidden.weight,[[ 0.9745955  -0.65055233] [ 0.13551557  0.8765313 ] [-0.20118445  0.8352488 ]]
sub_nn_196.hidden.bias,[ 0.67258614  0.6793366  -0.15163548]
sub_nn_196.out.weight,[[-0.43668237  0.16288362 -0.13718177]]
sub_nn_196.out.bias,[-0.5515976]
sub_nn_197.hidden.weight,[[ 0.5526403   0.7311622 ] [-0.27385458 -0.59889525] [-0.12942359  0.7200256 ]]
sub_nn_197.hidden.bias,[-0.65365     0.30000383  0.59565073]
sub_nn_197.out.weight,[[ 1.0794414  -0.03302782  1.2057989 ]]
sub_nn_197.out.bias,[0.332314]
sub_nn_198.hidden.weight,[[ 0.91101193 -0.5435927 ] [ 0.56318533  0.04033565] [ 0.549564    0.25674084]]
sub_nn_198.hidden.bias,[-0.3370969  -0.33681887  0.6369315 ]
sub_nn_198.out.weight,[[0.30958283 1.3575797  0.34158337]]
sub_nn_198.out.bias,[-0.39087537]
sub_nn_199.hidden.weight,[[-0.01254462 -0.65749824] [-0.0982859  -0.2942166 ] [ 0.6479787  -0.85143447]]
sub_nn_199.hidden.bias,[0.5022747  0.67855084 0.41529232]
sub_nn_199.out.weight,[[ 0.18144988 -0.51978946  0.23587593]]
sub_nn_199.out.bias,[0.5210035]
sub_nn_200.hidden.weight,[[-0.5828087   0.09450235] [ 0.29318523 -0.19602147] [ 0.48880878  0.00115035]]
sub_nn_200.hidden.bias,[ 0.4145868  -0.07402831 -0.6592453 ]
sub_nn_200.out.weight,[[-0.09277853  0.68503886 -1.0939736 ]]
sub_nn_200.out.bias,[0.26277792]
sub_nn_201.hidden.weight,[[-0.2575768   0.63003546] [ 0.19810623  1.9765902 ] [ 0.01309388  0.3841722 ]]
sub_nn_201.hidden.bias,[0.30413616 0.31123573 0.54656   ]
sub_nn_201.out.weight,[[-0.5137077  -0.76251954 -0.4767721 ]]
sub_nn_201.out.bias,[0.48168206]
sub_nn_202.hidden.weight,[[-0.24498418 -0.3974518 ] [-0.03344827 -0.27019066] [-0.37956652 -0.09781017]]
sub_nn_202.hidden.bias,[-0.57156074  0.02567696 -0.54729813]
sub_nn_202.out.weight,[[-0.22874635  0.25909027 -0.38868797]]
sub_nn_202.out.bias,[0.24081038]
sub_nn_203.hidden.weight,[[-0.18372028 -0.523404  ] [-0.33072984 -0.28742325] [-0.1727549  -0.61605567]]
sub_nn_203.hidden.bias,[0.02566437 0.61214    0.4417854 ]
sub_nn_203.out.weight,[[0.10170182 0.18469667 0.8908148 ]]
sub_nn_203.out.bias,[-0.5235579]
sub_nn_204.hidden.weight,[[-0.5991977  -0.60925525] [-0.16101046  1.1725372 ] [-0.32644907 -1.0421301 ]]
sub_nn_204.hidden.bias,[-0.5547019   0.5566009  -0.29837927]
sub_nn_204.out.weight,[[ 1.1744405  -0.11376073  0.5221707 ]]
sub_nn_204.out.bias,[0.5075377]
sub_nn_205.hidden.weight,[[ 0.4189566   2.215825  ] [-0.64066404 -1.4385333 ] [ 0.67992693  0.37083778]]
sub_nn_205.hidden.bias,[0.32859093 0.11880897 0.54753846]
sub_nn_205.out.weight,[[ 0.5321199  -0.94701433  0.48365334]]
sub_nn_205.out.bias,[-0.47343832]
sub_nn_206.hidden.weight,[[ 0.07495733 -0.5549703 ] [-0.0652577   0.3849688 ] [ 0.2629065   0.22078314]]
sub_nn_206.hidden.bias,[0.6026027  0.17096296 0.31108743]
sub_nn_206.out.weight,[[-0.6518035  -0.88261116  0.6877928 ]]
sub_nn_206.out.bias,[-0.09165004]
sub_nn_207.hidden.weight,[[-0.60881793 -0.91183734] [ 0.6057803   0.37065044] [-0.70518106  0.2105121 ]]
sub_nn_207.hidden.bias,[-0.04394895  0.23018855  0.12122361]
sub_nn_207.out.weight,[[ 0.18702711  0.47425914 -0.6842351 ]]
sub_nn_207.out.bias,[-0.5061501]
sub_nn_208.hidden.weight,[[-0.3389874  -0.94463485] [-0.66690385  0.11239546] [ 0.36760423  0.24247639]]
sub_nn_208.hidden.bias,[-0.08508092 -0.29750454  0.34511894]
sub_nn_208.out.weight,[[0.5238938 0.3164228 1.0693641]]
sub_nn_208.out.bias,[-0.49548554]
sub_nn_209.hidden.weight,[[-0.35178608  0.214199  ] [ 0.17973836  0.50980735] [ 0.2816168  -0.9906523 ]]
sub_nn_209.hidden.bias,[-0.11417937 -0.30409482  0.36953962]
sub_nn_209.out.weight,[[-0.36897978 -0.13386747  0.2871058 ]]
sub_nn_209.out.bias,[-0.5268161]
sub_nn_210.hidden.weight,[[ 1.3264072   0.8993721 ] [-0.68173736 -0.5995208 ] [-0.04188474  0.3283468 ]]
sub_nn_210.hidden.bias,[ 0.56680745  0.10920559 -0.38267165]
sub_nn_210.out.weight,[[0.8905142  0.32928148 0.89653224]]
sub_nn_210.out.bias,[0.00978458]
sub_nn_211.hidden.weight,[[-0.09765806 -0.57735413] [ 0.6647692  -0.42926064] [ 0.532375    0.08641415]]
sub_nn_211.hidden.bias,[-0.32936892 -0.08129206 -0.362981  ]
sub_nn_211.out.weight,[[ 1.1017113  1.6848783 -0.3654788]]
sub_nn_211.out.bias,[-0.36782736]
sub_nn_212.hidden.weight,[[-0.55500734 -0.49683285] [-0.23658691  0.3710057 ] [-1.2933758   0.07482252]]
sub_nn_212.hidden.bias,[-0.47648132 -0.5147069   0.33347696]
sub_nn_212.out.weight,[[-0.4426528   0.76330996 -1.0298458 ]]
sub_nn_212.out.bias,[-0.35820836]
sub_nn_213.hidden.weight,[[-0.6377781   1.1111058 ] [ 0.9436629   0.85100394] [ 0.03136154  0.37805134]]
sub_nn_213.hidden.bias,[-0.46789312 -0.59516346 -0.63389623]
sub_nn_213.out.weight,[[ 0.26866105 -0.55459577 -0.02310596]]
sub_nn_213.out.bias,[-0.2001245]
sub_nn_214.hidden.weight,[[-0.09158368  0.44770026] [ 0.64864886 -0.6627462 ] [ 0.42198375 -0.00375485]]
sub_nn_214.hidden.bias,[-0.09137005 -0.6762319  -0.28895956]
sub_nn_214.out.weight,[[-0.60693574  0.31320563  0.4645662 ]]
sub_nn_214.out.bias,[-0.00095797]
sub_nn_215.hidden.weight,[[ 0.17816032 -1.1651021 ] [-0.6951743  -0.9284318 ] [-0.5130578  -1.0888692 ]]
sub_nn_215.hidden.bias,[-0.70674926 -0.26576596  0.02162779]
sub_nn_215.out.weight,[[-0.53249186  0.15999703 -0.1453848 ]]
sub_nn_215.out.bias,[-0.27144796]
sub_nn_216.hidden.weight,[[-0.06213205  0.24821502] [-1.4011601  -0.56483775] [-0.29475048  0.19247125]]
sub_nn_216.hidden.bias,[0.6745873  0.09380782 0.3069098 ]
sub_nn_216.out.weight,[[ 0.95835567 -1.148053    0.25387895]]
sub_nn_216.out.bias,[-0.34867942]
sub_nn_217.hidden.weight,[[ 0.12605911 -0.19368416] [-1.098586    0.1914039 ] [ 0.26941448 -0.54247373]]
sub_nn_217.hidden.bias,[-0.11658802  0.21245703  0.0983707 ]
sub_nn_217.out.weight,[[0.12985997 0.87770075 0.11238947]]
sub_nn_217.out.bias,[-0.06592011]
sub_nn_218.hidden.weight,[[ 0.46705505 -0.30154216] [ 0.8255528  -0.3232157 ] [ 0.16690758 -0.48484808]]
sub_nn_218.hidden.bias,[-0.40063903  0.30105147 -0.6247745 ]
sub_nn_218.out.weight,[[ 0.08999342 -0.9038388   0.03784345]]
sub_nn_218.out.bias,[0.52150095]
sub_nn_219.hidden.weight,[[ 0.11070508  0.4388328 ] [ 1.5671859  -0.00574902] [ 0.2577335  -0.1464039 ]]
sub_nn_219.hidden.bias,[0.22736895 0.05433701 0.32593596]
sub_nn_219.out.weight,[[-1.1897094 -0.9158504  0.3733238]]
sub_nn_219.out.bias,[-0.20113549]
sub_nn_220.hidden.weight,[[-0.09500309  0.55699676] [-0.86382884 -0.8128582 ] [ 0.68343836  0.8297526 ]]
sub_nn_220.hidden.bias,[-0.3158998  -0.6118464   0.46791798]
sub_nn_220.out.weight,[[ 0.37307292 -0.43821606  0.5235072 ]]
sub_nn_220.out.bias,[0.33760148]
sub_nn_221.hidden.weight,[[-0.03495472  0.11809595] [ 1.4735117   0.08071079] [ 1.997916   -0.75409544]]
sub_nn_221.hidden.bias,[-0.40387622  0.68876415 -0.05976291]
sub_nn_221.out.weight,[[-0.05894934  0.14957143  0.17949484]]
sub_nn_221.out.bias,[-0.19417122]
sub_nn_222.hidden.weight,[[-0.37073582 -0.05044442] [ 0.1439356   0.17905608] [-0.19974448  0.84789157]]
sub_nn_222.hidden.bias,[-0.6269966  -0.3181116  -0.36682004]
sub_nn_222.out.weight,[[-1.1533861   0.33356592 -0.9187613 ]]
sub_nn_222.out.bias,[-0.4176745]
sub_nn_223.hidden.weight,[[-0.6792453  -0.51752996] [-0.9699693  -0.07641297] [ 0.6802257   0.05397696]]
sub_nn_223.hidden.bias,[0.1580539  0.03658058 0.12373781]
sub_nn_223.out.weight,[[-0.5031458  -0.56674725  0.2978752 ]]
sub_nn_223.out.bias,[0.3895263]
sub_nn_224.hidden.weight,[[ 0.88167596 -0.13184126] [-0.00614814 -0.08468574] [-0.49364987 -0.03392412]]
sub_nn_224.hidden.bias,[-0.3977149  -0.5053873   0.23265988]
sub_nn_224.out.weight,[[-1.5487522  -0.92626107  0.7119913 ]]
sub_nn_224.out.bias,[0.16143626]
sub_nn_225.hidden.weight,[[-0.1467118  -0.52867913] [-1.0161936   0.3814766 ] [ 0.58017915 -0.07726221]]
sub_nn_225.hidden.bias,[-0.45314816 -0.33350503  0.46319303]
sub_nn_225.out.weight,[[ 0.63322496  0.8438531  -1.0414182 ]]
sub_nn_225.out.bias,[0.40768325]
sub_nn_226.hidden.weight,[[ 0.39495662 -0.8769759 ] [-0.72469395 -0.7400247 ] [ 0.67949575 -0.516702  ]]
sub_nn_226.hidden.bias,[0.44090658 0.22129942 0.00755991]
sub_nn_226.out.weight,[[-0.74353015  1.6130364  -0.07161922]]
sub_nn_226.out.bias,[-0.2072387]
sub_nn_227.hidden.weight,[[ 0.53971386  0.35170475] [ 0.64006656  0.6945336 ] [ 0.37327638 -0.69504386]]
sub_nn_227.hidden.bias,[-0.11883635 -0.25753865 -0.27718097]
sub_nn_227.out.weight,[[ 0.05724777 -1.1216973  -0.6275635 ]]
sub_nn_227.out.bias,[0.11762178]
sub_nn_228.hidden.weight,[[ 0.0824718  -0.920478  ] [ 0.14548245  0.23303832] [-0.6706956  -0.2509123 ]]
sub_nn_228.hidden.bias,[-0.68208265  0.31975144  0.6540927 ]
sub_nn_228.out.weight,[[-0.509895   -1.8807505  -0.25267175]]
sub_nn_228.out.bias,[-0.5513461]
sub_nn_229.hidden.weight,[[-0.01544515 -0.39348814] [ 0.26146403  1.3605521 ] [ 0.0834472   0.7238728 ]]
sub_nn_229.hidden.bias,[-0.41659707 -0.10148869  0.08264053]
sub_nn_229.out.weight,[[ 0.03968503 -0.53283507 -0.85204   ]]
sub_nn_229.out.bias,[-0.08057216]
sub_nn_230.hidden.weight,[[ 0.16559054  0.25699314] [-0.8264549   0.5116672 ] [ 0.67246723 -0.19751139]]
sub_nn_230.hidden.bias,[ 0.1482259  -0.12321761 -0.19858311]
sub_nn_230.out.weight,[[-1.0687411  1.551232   1.681822 ]]
sub_nn_230.out.bias,[-0.14080572]
sub_nn_231.hidden.weight,[[-0.34366363  0.23513266] [ 0.614212   -0.3914179 ] [ 1.4959971   0.23957187]]
sub_nn_231.hidden.bias,[ 0.6696758  -0.22610246  0.08767742]
sub_nn_231.out.weight,[[ 1.337494   -0.90033054  0.8971146 ]]
sub_nn_231.out.bias,[-0.17698935]
sub_nn_232.hidden.weight,[[ 0.54002523  1.2226627 ] [-0.04006356  0.11781166] [-0.36856648  0.11844476]]
sub_nn_232.hidden.bias,[ 0.3092168   0.20364584 -0.5045779 ]
sub_nn_232.out.weight,[[-0.03124749 -0.3745289  -0.35329676]]
sub_nn_232.out.bias,[0.12229133]
sub_nn_233.hidden.weight,[[ 0.56936854  0.44072366] [-0.18353046 -0.85630226] [ 0.73523074  1.4923902 ]]
sub_nn_233.hidden.bias,[0.13631648 0.36714953 0.684784  ]
sub_nn_233.out.weight,[[ 0.11316419 -0.00671929 -0.22621895]]
sub_nn_233.out.bias,[0.4711162]
sub_nn_234.hidden.weight,[[ 0.8601477   1.0447451 ] [-0.28126544 -0.06319182] [-0.45620403  0.4033096 ]]
sub_nn_234.hidden.bias,[ 0.6626558  -0.05857366 -0.14406362]
sub_nn_234.out.weight,[[ 0.07401275  0.33846653 -0.33138257]]
sub_nn_234.out.bias,[-0.5589224]
sub_nn_235.hidden.weight,[[-0.8100058  -0.12690833] [ 0.78097135 -1.1594923 ] [ 0.33260256  0.19089894]]
sub_nn_235.hidden.bias,[-0.2885798  -0.02707403 -0.23631196]
sub_nn_235.out.weight,[[ 1.4559311   0.01809102 -0.8248875 ]]
sub_nn_235.out.bias,[0.28193766]
sub_nn_236.hidden.weight,[[ 1.6864322e-01  7.6730621e-01] [ 3.6774130e-04 -5.4513872e-01] [-5.7696939e-01 -5.6896061e-01]]
sub_nn_236.hidden.bias,[ 0.1735825  -0.09284643  0.46852747]
sub_nn_236.out.weight,[[ 1.204895  -1.2561891  0.7350446]]
sub_nn_236.out.bias,[0.16983163]
sub_nn_237.hidden.weight,[[-0.1388861   0.12322514] [-0.0119193  -0.80894345] [-0.0894751   0.4644783 ]]
sub_nn_237.hidden.bias,[0.28062636 0.42313555 0.04791025]
sub_nn_237.out.weight,[[-0.13841861  1.1213307  -0.40524086]]
sub_nn_237.out.bias,[0.3354938]
sub_nn_238.hidden.weight,[[-0.01074727 -0.5165487 ] [ 0.48700184 -0.29958454] [-0.06816367  0.17211185]]
sub_nn_238.hidden.bias,[-0.42321664 -0.17746012  0.14330995]
sub_nn_238.out.weight,[[ 0.27780306  0.4914857  -0.02840661]]
sub_nn_238.out.bias,[0.0972923]
sub_nn_239.hidden.weight,[[-0.17607078 -1.1197674 ] [ 0.9575504   0.5450081 ] [-0.48981708 -0.7762133 ]]
sub_nn_239.hidden.bias,[-0.02437615  0.27730298  0.24799429]
sub_nn_239.out.weight,[[-0.03406521 -1.541814    1.7256153 ]]
sub_nn_239.out.bias,[0.36988407]
sub_nn_240.hidden.weight,[[-0.2024898  -0.21958114] [-0.07592526 -0.02123233] [-0.17395978 -1.1575629 ]]
sub_nn_240.hidden.bias,[-0.24890831  0.50768447  0.6640832 ]
sub_nn_240.out.weight,[[-0.34907144 -0.9245227  -0.25681436]]
sub_nn_240.out.bias,[0.5654131]
sub_nn_241.hidden.weight,[[-0.20387793  0.59286547] [-1.0963472  -0.95265543] [ 1.1212914  -0.07345174]]
sub_nn_241.hidden.bias,[-0.00166031  0.1907177   0.21661463]
sub_nn_241.out.weight,[[-0.3693044   0.18165481  1.0825027 ]]
sub_nn_241.out.bias,[-0.27122182]
sub_nn_242.hidden.weight,[[ 0.35684383 -0.251107  ] [-0.33534163  0.58484393] [-0.6271206  -0.80397695]]
sub_nn_242.hidden.bias,[-0.5734775   0.54094535  0.06351513]
sub_nn_242.out.weight,[[0.03260544 0.11325998 0.4587811 ]]
sub_nn_242.out.bias,[-0.3339595]
sub_nn_243.hidden.weight,[[-0.1229649  -0.26771304] [ 0.6781259  -0.36822557] [ 0.82632256  0.06555416]]
sub_nn_243.hidden.bias,[0.22371499 0.2968564  0.38573164]
sub_nn_243.out.weight,[[ 0.52119017 -0.11288999  0.3308145 ]]
sub_nn_243.out.bias,[-0.17631707]
sub_nn_244.hidden.weight,[[ 0.38854742 -0.20022018] [-0.43860546  0.8345285 ] [ 0.4326035  -0.68690455]]
sub_nn_244.hidden.bias,[-0.6113862  -0.46488774 -0.39439985]
sub_nn_244.out.weight,[[-0.13778938 -1.7829148  -1.9989105 ]]
sub_nn_244.out.bias,[-0.5099633]
sub_nn_245.hidden.weight,[[-0.2711848  -0.6999847 ] [ 0.7620548   0.96214944] [ 0.6591079  -0.17019096]]
sub_nn_245.hidden.bias,[0.69994986 0.48588544 0.47910407]
sub_nn_245.out.weight,[[ 0.4394562  -0.07915612 -0.47121233]]
sub_nn_245.out.bias,[0.31134266]
sub_nn_246.hidden.weight,[[-0.11886729  0.63286746] [ 0.2203242  -0.5256879 ] [ 0.2651714  -0.6766578 ]]
sub_nn_246.hidden.bias,[ 0.03399583 -0.4697426  -0.20050786]
sub_nn_246.out.weight,[[ 0.6307828  -0.37820324 -0.16329774]]
sub_nn_246.out.bias,[-0.30647057]
sub_nn_247.hidden.weight,[[-0.15747833 -0.04878187] [-0.22042315 -1.1144327 ] [ 0.58396053 -1.7682862 ]]
sub_nn_247.hidden.bias,[ 0.45133924 -0.5992465   0.2540606 ]
sub_nn_247.out.weight,[[-0.17533353  0.16754851 -0.7224802 ]]
sub_nn_247.out.bias,[-0.19686562]
sub_nn_248.hidden.weight,[[ 0.16916281  0.13884802] [ 0.5878037   0.3896549 ] [-0.8989561   0.6413054 ]]
sub_nn_248.hidden.bias,[ 0.5660842 -0.5538347 -0.6497294]
sub_nn_248.out.weight,[[ 0.9743751  -0.63722414  0.36440086]]
sub_nn_248.out.bias,[0.00196493]
sub_nn_249.hidden.weight,[[-0.02811383  0.58084524] [-0.78935456  1.086047  ] [ 1.2050452  -1.8685157 ]]
sub_nn_249.hidden.bias,[-0.30829048  0.1221718  -0.5640939 ]
sub_nn_249.out.weight,[[ 0.07621408 -1.2111856  -0.04288181]]
sub_nn_249.out.bias,[0.05480117]
sub_nn_250.hidden.weight,[[ 0.36600816  0.34977102] [-0.39316952 -0.65284145] [ 1.0687053  -0.3864358 ]]
sub_nn_250.hidden.bias,[ 0.6210336  -0.48496878 -0.38193625]
sub_nn_250.out.weight,[[ 0.66099995 -0.21976054 -0.00839513]]
sub_nn_250.out.bias,[0.4559164]
sub_nn_251.hidden.weight,[[-0.65901375  0.31536326] [-0.7924653  -1.0958586 ] [ 0.6466325  -0.41007668]]
sub_nn_251.hidden.bias,[-0.24779806  0.520758    0.38305762]
sub_nn_251.out.weight,[[ 0.11540719 -0.12572032  0.5939037 ]]
sub_nn_251.out.bias,[-0.36711937]
sub_nn_252.hidden.weight,[[ 0.28260896  0.655135  ] [-0.25445035  0.14601   ] [-0.46640506 -0.6748068 ]]
sub_nn_252.hidden.bias,[0.20763814 0.6711162  0.45697555]
sub_nn_252.out.weight,[[-0.09052815  0.7563705  -0.9255509 ]]
sub_nn_252.out.bias,[0.179209]
sub_nn_253.hidden.weight,[[-0.17791726 -1.0764123 ] [ 0.32739392 -0.11399816] [-0.31520507  0.9465634 ]]
sub_nn_253.hidden.bias,[ 0.6514878 -0.5255112  0.6128947]
sub_nn_253.out.weight,[[1.0565314  0.09716353 2.2915347 ]]
sub_nn_253.out.bias,[-0.04519057]
sub_nn_254.hidden.weight,[[ 0.14526784 -1.2311969 ] [ 0.01811886  0.19913165] [ 0.18110038  0.95237964]]
sub_nn_254.hidden.bias,[-0.4740747  -0.7035704  -0.12639856]
sub_nn_254.out.weight,[[-0.8547337   0.06083455 -0.89798445]]
sub_nn_254.out.bias,[-0.0892967]
sub_nn_255.hidden.weight,[[ 0.9356702  -0.3924514 ] [ 0.22731884 -0.17508331] [-0.9911033  -0.49947733]]
sub_nn_255.hidden.bias,[ 0.15348192 -0.10805169  0.25566748]
sub_nn_255.out.weight,[[-0.10261824  0.85229635  0.1348986 ]]
sub_nn_255.out.bias,[0.2526343]
sub_nn_256.hidden.weight,[[-0.09800266 -0.44182158] [ 0.982382    0.9589279 ] [ 1.6154073  -0.22427501]]
sub_nn_256.hidden.bias,[-0.64201325 -0.17708285  0.40537426]
sub_nn_256.out.weight,[[-0.6194992  -0.15740503  0.69420403]]
sub_nn_256.out.bias,[-0.39170665]
sub_nn_257.hidden.weight,[[ 0.08636921 -0.09800215] [ 0.619022    0.04359519] [ 0.23480591  0.66682374]]
sub_nn_257.hidden.bias,[-0.24594612  0.3703919   0.16580307]
sub_nn_257.out.weight,[[ 0.10067623  0.809456   -0.25122103]]
sub_nn_257.out.bias,[0.12028491]
sub_nn_258.hidden.weight,[[-0.7994898  -0.37544918] [-1.0976105  -0.8790342 ] [-0.21541177 -0.5787739 ]]
sub_nn_258.hidden.bias,[0.35762995 0.50834    0.47621268]
sub_nn_258.out.weight,[[-0.62611943 -0.28147268 -0.7263981 ]]
sub_nn_258.out.bias,[0.1793962]
sub_nn_259.hidden.weight,[[ 0.41325524 -0.3001296 ] [-0.91498744  0.7175606 ] [ 0.72328323  0.34792665]]
sub_nn_259.hidden.bias,[-0.46136433 -0.0368698   0.1194852 ]
sub_nn_259.out.weight,[[-0.18040557 -0.81188744  0.39548674]]
sub_nn_259.out.bias,[-0.10800046]
sub_nn_260.hidden.weight,[[-0.08333179 -0.08815188] [-0.2736859   0.006819  ] [ 0.10785457  1.0696733 ]]
